svm_type c_svc
kernel_type rbf
gamma 0.03125
nr_class 3
total_sv 713
rho -0.996466575525927 -0.10158838048631758 0.5972945948485352
label 0 3 1
probA -3.8523514122418794 -4.141099272619256 -4.568901124137963
probB -0.03768655799093765 0.3516220896169165 0.2589369085667203
nr_sv 285 240 188
SV
0.4419507962389354 0.6307975918730591 10:1.0 11:1.0 12:1.0 13:1.0 14:1.0 15:1.0 16:1.0 17:1.0 
0.6636437792451304 0.7066515409593475 10:1.0 11:1.0 14:1.0 15:1.0 16:1.0 18:1.0 19:1.0 
0.597664807842046 0.798122584813871 10:1.0 11:1.0 14:1.0 15:1.0 20:1.0 21:1.0 22:1.0 23:1.0 
4.032440162149923 4.0330223679049855 24:1.0 25:1.0 26:1.0 27:1.0 28:1.0 29:1.0 
8.0 2.5999535728072076 35:1.0 36:1.0 37:1.0 38:1.0 
1.4367836005870382 2.693042667885329 39:1.0 40:1.0 41:1.0 42:1.0 43:1.0 
3.488478473734337 1.4162029960957474 50:1.0 51:1.0 52:1.0 53:1.0 54:1.0 55:1.0 
1.0170687012182575 1.4890031669181687 59:1.0 60:1.0 61:1.0 62:1.0 63:1.0 64:1.0 65:1.0 66:1.0 67:1.0 
0.98138298304303 0.0 42:1.0 75:1.0 90:1.0 96:1.0 97:1.0 98:1.0 99:1.0 
0.014178974311617371 2.872295468077442 75:1.0 86:1.0 117:1.0 118:1.0 119:1.0 120:1.0 
2.241240845515467 2.431408799247947 40:1.0 122:1.0 124:1.0 125:1.0 126:1.0 127:1.0 128:1.0 
2.4993802153704525 0.0 31:1.0 42:1.0 90:1.0 142:1.0 143:1.0 144:1.0 
1.9907343811360378 1.6411880274352404 31:1.0 88:1.0 138:1.0 153:1.0 154:1.0 155:1.0 156:1.0 157:1.0 158:1.0 159:1.0 160:1.0 161:1.0 162:1.0 163:1.0 
6.066633786206128 0.0 10:1.0 28:1.0 169:1.0 170:1.0 171:1.0 172:1.0 
6.628210319999677 1.7473612490036718 31:1.0 72:1.0 112:1.0 173:1.0 174:1.0 175:1.0 176:1.0 
1.9248922265143553 1.9260941723632043 31:1.0 81:1.0 86:1.0 112:1.0 117:1.0 177:1.0 178:1.0 179:1.0 180:1.0 181:1.0 182:1.0 183:1.0 184:1.0 
2.2580850749093893 0.4091861281288346 72:1.0 186:1.0 190:1.0 191:1.0 192:1.0 193:1.0 194:1.0 195:1.0 196:1.0 197:1.0 198:1.0 
3.790240238569516 1.8448525593090317 30:1.0 138:1.0 229:1.0 230:1.0 231:1.0 232:1.0 
0.0 1.2614308574988802 75:1.0 120:1.0 159:1.0 197:1.0 
3.9617739311112077 0.9513470676416105 31:1.0 96:1.0 270:1.0 299:1.0 300:1.0 301:1.0 
4.365157938700519 1.0981734622325574 302:1.0 303:1.0 304:1.0 305:1.0 306:1.0 
3.3907272727925766 3.573446891224925 40:1.0 56:1.0 86:1.0 103:1.0 233:1.0 307:1.0 308:1.0 309:1.0 
0.6498938787012261 0.7048322197637887 36:1.0 40:1.0 282:1.0 296:1.0 315:1.0 316:1.0 317:1.0 318:1.0 319:1.0 320:1.0 321:1.0 
3.1803692086211095 3.4686233487005658 53:1.0 86:1.0 323:1.0 324:1.0 325:1.0 
0.0 0.04419586857140605 43:1.0 89:1.0 112:1.0 233:1.0 326:1.0 327:1.0 328:1.0 329:1.0 
1.4730528067429756 3.7208815718405646 78:1.0 249:1.0 284:1.0 329:1.0 330:1.0 331:1.0 332:1.0 333:1.0 334:1.0 335:1.0 336:1.0 337:1.0 
0.0 1.3124672105962807 43:1.0 302:1.0 338:1.0 339:1.0 340:1.0 341:1.0 342:1.0 343:1.0 
1.2000949942931287 1.356851398315423 79:1.0 329:1.0 351:1.0 352:1.0 353:1.0 354:1.0 355:1.0 356:1.0 357:1.0 
3.7628965996101926 3.481369738354954 89:1.0 372:1.0 373:1.0 
0.8697976450148909 2.397035802783542 39:1.0 43:1.0 86:1.0 88:1.0 375:1.0 376:1.0 377:1.0 
2.067779695790223 4.217166650178404 40:1.0 249:1.0 389:1.0 390:1.0 391:1.0 392:1.0 
3.2931601293514254 0.0 69:1.0 96:1.0 403:1.0 404:1.0 405:1.0 406:1.0 407:1.0 
0.9010963109415012 1.6914065923303623 86:1.0 87:1.0 145:1.0 198:1.0 253:1.0 403:1.0 408:1.0 409:1.0 410:1.0 
0.6787809676821656 1.142651693048295 96:1.0 153:1.0 257:1.0 411:1.0 412:1.0 413:1.0 414:1.0 415:1.0 416:1.0 417:1.0 
0.3600985654924429 0.0 11:1.0 40:1.0 75:1.0 81:1.0 90:1.0 418:1.0 419:1.0 420:1.0 421:1.0 422:1.0 423:1.0 
0.0 0.6750620923263085 43:1.0 81:1.0 86:1.0 225:1.0 261:1.0 424:1.0 425:1.0 426:1.0 427:1.0 
1.9896846779592396 4.553389641656953 43:1.0 86:1.0 306:1.0 438:1.0 439:1.0 440:1.0 
5.1020048412566785 5.396249046988507 441:1.0 442:1.0 
8.0 6.961846891889144 96:1.0 316:1.0 444:1.0 
5.0735244439627625 3.356068921781351 43:1.0 57:1.0 204:1.0 446:1.0 
2.691442632073691 3.409157060140803 4:1.0 77:1.0 78:1.0 112:1.0 144:1.0 306:1.0 452:1.0 453:1.0 454:1.0 455:1.0 456:1.0 457:1.0 458:1.0 
0.8991512849930339 0.32882784638545526 43:1.0 97:1.0 178:1.0 206:1.0 210:1.0 316:1.0 319:1.0 423:1.0 435:1.0 465:1.0 466:1.0 467:1.0 468:1.0 469:1.0 470:1.0 
0.0 0.3570355974812269 315:1.0 316:1.0 319:1.0 471:1.0 
1.4047104722303951 1.7558143728504318 86:1.0 117:1.0 222:1.0 389:1.0 422:1.0 472:1.0 473:1.0 474:1.0 475:1.0 
0.9439818512326814 0.37539913323548296 31:1.0 125:1.0 476:1.0 477:1.0 478:1.0 479:1.0 480:1.0 481:1.0 482:1.0 483:1.0 484:1.0 485:1.0 
3.8758509921091835 5.273763826155457 5:1.0 131:1.0 222:1.0 245:1.0 491:1.0 492:1.0 
0.0 0.6912164321652898 25:1.0 43:1.0 88:1.0 149:1.0 225:1.0 506:1.0 507:1.0 
0.2063359591239379 1.5923735901730516 43:1.0 221:1.0 253:1.0 508:1.0 519:1.0 
1.129186749441313 3.7112694295547426 151:1.0 522:1.0 523:1.0 524:1.0 525:1.0 526:1.0 
2.6479684261533043 0.0 10:1.0 429:1.0 539:1.0 540:1.0 541:1.0 
0.0 0.7509568308947165 247:1.0 315:1.0 316:1.0 319:1.0 542:1.0 543:1.0 544:1.0 545:1.0 546:1.0 547:1.0 
1.9628591185363926 0.0 40:1.0 101:1.0 102:1.0 186:1.0 270:1.0 385:1.0 403:1.0 578:1.0 579:1.0 580:1.0 581:1.0 
1.5127296506690364 2.609177799879249 98:1.0 584:1.0 585:1.0 586:1.0 587:1.0 588:1.0 
0.0 0.4619818160646567 89:1.0 98:1.0 522:1.0 589:1.0 590:1.0 591:1.0 592:1.0 593:1.0 594:1.0 595:1.0 596:1.0 
0.1641253838970833 0.7064812071023797 10:1.0 98:1.0 589:1.0 592:1.0 597:1.0 598:1.0 599:1.0 600:1.0 
0.9175009543279532 1.696326831602978 98:1.0 601:1.0 602:1.0 603:1.0 604:1.0 605:1.0 606:1.0 607:1.0 608:1.0 609:1.0 610:1.0 
0.9387269935978849 1.4080822570001632 76:1.0 98:1.0 597:1.0 611:1.0 612:1.0 613:1.0 614:1.0 615:1.0 616:1.0 617:1.0 618:1.0 619:1.0 
1.0226137456009121 1.4175639830131441 98:1.0 187:1.0 317:1.0 549:1.0 620:1.0 621:1.0 622:1.0 623:1.0 
2.503347145893317 2.258946266434667 98:1.0 639:1.0 640:1.0 641:1.0 642:1.0 643:1.0 644:1.0 
3.264147678884293 3.5167212873149594 125:1.0 645:1.0 646:1.0 647:1.0 
8.0 8.0 
1.0528368823502376 0.3046473230307195 69:1.0 159:1.0 664:1.0 665:1.0 666:1.0 667:1.0 668:1.0 669:1.0 670:1.0 671:1.0 672:1.0 
0.32536471145152823 1.8657054865691498 25:1.0 270:1.0 564:1.0 701:1.0 702:1.0 703:1.0 
8.0 4.3688421483451165 79:1.0 189:1.0 225:1.0 709:1.0 710:1.0 
0.47375453872580736 1.6373327916162888 589:1.0 714:1.0 715:1.0 716:1.0 717:1.0 
4.6290554283670655 3.0392411276157767 88:1.0 233:1.0 724:1.0 725:1.0 726:1.0 
8.0 6.518643597325117 69:1.0 222:1.0 743:1.0 
2.4084791287369476 1.5566002536537091 84:1.0 366:1.0 539:1.0 761:1.0 762:1.0 763:1.0 764:1.0 765:1.0 766:1.0 767:1.0 768:1.0 
0.0 1.3418608454976328 25:1.0 43:1.0 81:1.0 117:1.0 149:1.0 151:1.0 159:1.0 238:1.0 283:1.0 328:1.0 772:1.0 773:1.0 774:1.0 775:1.0 776:1.0 777:1.0 
5.004044227677385 1.6432567491853074 84:1.0 186:1.0 492:1.0 596:1.0 778:1.0 779:1.0 
1.322726847791732 0.6925749105902829 11:1.0 119:1.0 144:1.0 276:1.0 461:1.0 780:1.0 781:1.0 782:1.0 783:1.0 784:1.0 785:1.0 786:1.0 787:1.0 
1.9687620749594483 2.783783070330047 52:1.0 150:1.0 788:1.0 789:1.0 790:1.0 791:1.0 792:1.0 
8.0 8.0 793:1.0 
1.8888879075246845 2.2141356977145064 479:1.0 803:1.0 804:1.0 805:1.0 
1.0494943459068595 1.2413194466640594 15:1.0 810:1.0 811:1.0 812:1.0 813:1.0 814:1.0 815:1.0 816:1.0 
1.6838342450133672 0.0 90:1.0 120:1.0 833:1.0 834:1.0 
1.9175824926736982 0.5798353690509587 399:1.0 835:1.0 836:1.0 837:1.0 
3.3357445366872915 4.902011761677131 11:1.0 38:1.0 400:1.0 657:1.0 848:1.0 849:1.0 850:1.0 
2.111330200940756 0.0 80:1.0 90:1.0 144:1.0 186:1.0 739:1.0 808:1.0 861:1.0 862:1.0 
8.0 1.483618202239771 69:1.0 879:1.0 
8.0 3.169436761005793 38:1.0 57:1.0 880:1.0 881:1.0 
0.0 2.460052499331962 90:1.0 139:1.0 661:1.0 
3.402368165171792 3.7583634464585476 887:1.0 888:1.0 889:1.0 
0.0 0.75551841693773 128:1.0 890:1.0 891:1.0 892:1.0 893:1.0 894:1.0 895:1.0 896:1.0 897:1.0 
0.7855697279290538 0.20286314326407864 1:1.0 196:1.0 447:1.0 630:1.0 905:1.0 906:1.0 907:1.0 908:1.0 909:1.0 910:1.0 
1.2784373939642237 0.0 38:1.0 69:1.0 75:1.0 171:1.0 281:1.0 752:1.0 918:1.0 919:1.0 920:1.0 921:1.0 922:1.0 923:1.0 
0.0 0.2898490459450841 43:1.0 125:1.0 156:1.0 168:1.0 172:1.0 508:1.0 927:1.0 928:1.0 929:1.0 930:1.0 931:1.0 932:1.0 
8.0 7.362195815989325 38:1.0 934:1.0 
2.2781224395606774 1.4079116812909926 47:1.0 391:1.0 551:1.0 552:1.0 830:1.0 935:1.0 936:1.0 937:1.0 
1.2703723909258453 2.3845101147331604 40:1.0 122:1.0 168:1.0 283:1.0 413:1.0 414:1.0 549:1.0 929:1.0 958:1.0 959:1.0 960:1.0 
5.553815767896233 1.1148303133519337 1:1.0 38:1.0 40:1.0 97:1.0 122:1.0 968:1.0 
2.3688612281908625 1.5686409376746298 40:1.0 81:1.0 122:1.0 214:1.0 970:1.0 971:1.0 972:1.0 973:1.0 
5.958746358092032 5.357975944878561 1:1.0 40:1.0 122:1.0 144:1.0 
1.403964730917423 1.2432056972274423 31:1.0 40:1.0 78:1.0 171:1.0 210:1.0 280:1.0 351:1.0 355:1.0 378:1.0 379:1.0 947:1.0 975:1.0 976:1.0 977:1.0 978:1.0 979:1.0 
3.6803133577873557 2.4381402493829234 38:1.0 40:1.0 980:1.0 981:1.0 982:1.0 983:1.0 984:1.0 
8.0 4.020906554682812 40:1.0 81:1.0 213:1.0 524:1.0 985:1.0 
4.812936210117633 5.528384169123375 40:1.0 169:1.0 170:1.0 171:1.0 991:1.0 
5.0344623413035485 5.972914535601106 40:1.0 131:1.0 159:1.0 994:1.0 995:1.0 
4.465337941773877 3.9247694165388136 40:1.0 329:1.0 1025:1.0 1026:1.0 
1.8601291009725895 0.08946790741464829 31:1.0 40:1.0 96:1.0 233:1.0 372:1.0 385:1.0 793:1.0 1028:1.0 
0.6744899113500114 0.7792280192840493 40:1.0 197:1.0 233:1.0 378:1.0 379:1.0 1029:1.0 1030:1.0 1031:1.0 
2.880712793677955 3.634448456686784 40:1.0 233:1.0 357:1.0 533:1.0 1032:1.0 
2.653863581593097 0.0 25:1.0 31:1.0 40:1.0 72:1.0 171:1.0 233:1.0 282:1.0 926:1.0 1033:1.0 1034:1.0 
8.0 4.153532666955025 38:1.0 40:1.0 1039:1.0 1040:1.0 1041:1.0 
2.26973323249176 0.4601820264313203 40:1.0 117:1.0 210:1.0 280:1.0 282:1.0 403:1.0 1045:1.0 1046:1.0 
7.758170403479061 4.884397925756862 40:1.0 178:1.0 188:1.0 281:1.0 282:1.0 1057:1.0 1058:1.0 
0.6970801442844519 1.3779642571404893 40:1.0 168:1.0 430:1.0 462:1.0 673:1.0 1059:1.0 1060:1.0 
2.462494888199939 0.9121937814632997 75:1.0 94:1.0 289:1.0 372:1.0 437:1.0 987:1.0 1068:1.0 1069:1.0 1070:1.0 1071:1.0 
0.0 2.5689189576729867 96:1.0 112:1.0 316:1.0 1072:1.0 
0.0 0.07191854411961673 96:1.0 97:1.0 316:1.0 319:1.0 444:1.0 1078:1.0 1079:1.0 1080:1.0 1081:1.0 1082:1.0 1083:1.0 1084:1.0 
0.47082232084825637 0.0 1:1.0 158:1.0 281:1.0 289:1.0 290:1.0 1088:1.0 
6.187916064090269 2.6208768169300183 40:1.0 289:1.0 290:1.0 1089:1.0 1090:1.0 1091:1.0 
2.5489755027687 2.6773564168141597 169:1.0 289:1.0 470:1.0 996:1.0 1096:1.0 1097:1.0 
2.232978259435152 2.882917787149614 24:1.0 75:1.0 106:1.0 125:1.0 172:1.0 289:1.0 780:1.0 1099:1.0 1100:1.0 1101:1.0 
2.574543971895582 2.133843929833503 88:1.0 321:1.0 1103:1.0 1104:1.0 1105:1.0 1106:1.0 1107:1.0 1108:1.0 
6.120518435867631 4.971151703873197 75:1.0 77:1.0 143:1.0 1020:1.0 
1.6243488413623743 0.6325303731133305 31:1.0 88:1.0 353:1.0 580:1.0 798:1.0 1114:1.0 1115:1.0 1116:1.0 1117:1.0 1118:1.0 1119:1.0 
0.003312462812833988 2.350188435839421 1114:1.0 1120:1.0 
5.750905368125668 8.0 1114:1.0 
2.2767229557345074 1.6584206383868731 522:1.0 1121:1.0 1122:1.0 1123:1.0 1124:1.0 
2.549269907645545 2.9380175794102685 1125:1.0 1126:1.0 1127:1.0 1128:1.0 
4.449512611905786 1.2508385533080748 28:1.0 31:1.0 232:1.0 395:1.0 418:1.0 1129:1.0 
1.9585041954794704 2.158340678564429 481:1.0 497:1.0 589:1.0 1130:1.0 1131:1.0 1132:1.0 
8.0 8.0 727:1.0 
4.184306281542317 3.7563892884063947 434:1.0 1133:1.0 1134:1.0 
0.0 8.0 43:1.0 1136:1.0 
8.0 5.399124111426608 396:1.0 1144:1.0 
1.6111608924835608 3.0284232754449194 772:1.0 808:1.0 1164:1.0 1165:1.0 1166:1.0 
0.619837596112642 0.24320023027651036 316:1.0 1173:1.0 1178:1.0 
0.60169252114023 1.8258989642385148 75:1.0 233:1.0 336:1.0 657:1.0 1184:1.0 1185:1.0 1186:1.0 1187:1.0 1188:1.0 
0.810431663934681 2.0096673566186545 233:1.0 871:1.0 1189:1.0 1190:1.0 1191:1.0 1192:1.0 
1.8111107053890312 4.909528063111129 233:1.0 583:1.0 1189:1.0 
8.0 5.754042598994389 147:1.0 196:1.0 233:1.0 548:1.0 
4.105230897691553 1.4085290365440286 8:1.0 101:1.0 102:1.0 233:1.0 1193:1.0 1194:1.0 1195:1.0 1196:1.0 
2.623608992853195 0.8747858754566133 31:1.0 233:1.0 280:1.0 696:1.0 1197:1.0 1198:1.0 1199:1.0 
7.815975975564267 8.0 54:1.0 105:1.0 233:1.0 689:1.0 1203:1.0 
0.958319174211176 0.4348710479831945 10:1.0 31:1.0 75:1.0 145:1.0 165:1.0 168:1.0 346:1.0 1208:1.0 1209:1.0 1210:1.0 1211:1.0 
3.695167242426065 1.8395563751711843 40:1.0 46:1.0 106:1.0 117:1.0 125:1.0 128:1.0 151:1.0 288:1.0 1218:1.0 1219:1.0 
6.196943670193657 3.2344822668423747 38:1.0 183:1.0 288:1.0 318:1.0 561:1.0 
0.9339697002308299 0.0 97:1.0 316:1.0 1063:1.0 1084:1.0 1230:1.0 1231:1.0 
3.9664854080026175 0.0 57:1.0 97:1.0 316:1.0 319:1.0 566:1.0 
0.10338583755048887 1.2173476928540148 171:1.0 987:1.0 1244:1.0 1245:1.0 1246:1.0 1247:1.0 
2.5131232011129443 2.3712917779597693 75:1.0 278:1.0 657:1.0 1248:1.0 1249:1.0 
6.991460665638995 1.6928979796918264 40:1.0 87:1.0 349:1.0 1061:1.0 1250:1.0 1251:1.0 
0.48760857187532974 3.195080908981934 78:1.0 233:1.0 470:1.0 1174:1.0 1250:1.0 1252:1.0 
0.5954379926175447 1.9346562863682444 75:1.0 89:1.0 293:1.0 1259:1.0 1260:1.0 1261:1.0 
0.6452087029628927 0.13142946818819842 90:1.0 247:1.0 418:1.0 1262:1.0 1263:1.0 1264:1.0 1265:1.0 
8.0 3.9150999425673807 38:1.0 1274:1.0 1275:1.0 
1.742614960781802 0.0 10:1.0 29:1.0 457:1.0 1294:1.0 1295:1.0 
0.0 0.03246063789050639 10:1.0 29:1.0 43:1.0 457:1.0 779:1.0 1296:1.0 1297:1.0 1298:1.0 1299:1.0 1300:1.0 1301:1.0 
0.0 0.14511770640286537 183:1.0 196:1.0 317:1.0 402:1.0 430:1.0 1308:1.0 1309:1.0 1310:1.0 
0.41765451654360647 3.64013633676376 92:1.0 112:1.0 183:1.0 278:1.0 402:1.0 982:1.0 1311:1.0 
2.232417432456177 2.0224224451963044 77:1.0 145:1.0 159:1.0 178:1.0 271:1.0 328:1.0 707:1.0 1114:1.0 1324:1.0 1325:1.0 1326:1.0 1327:1.0 1328:1.0 1329:1.0 
3.4189168289505885 0.0 524:1.0 985:1.0 1331:1.0 1332:1.0 
4.3718653416689115 0.5337349486015303 38:1.0 171:1.0 356:1.0 1356:1.0 
2.627637977228905 0.9140367401207372 40:1.0 42:1.0 78:1.0 90:1.0 253:1.0 270:1.0 306:1.0 401:1.0 402:1.0 884:1.0 1158:1.0 1198:1.0 1357:1.0 1358:1.0 
4.034899576141479 2.539755339986987 101:1.0 102:1.0 924:1.0 1359:1.0 
2.5750461040619976 0.0 10:1.0 27:1.0 38:1.0 75:1.0 266:1.0 1040:1.0 1360:1.0 
1.6671528146603027 1.135154223273921 417:1.0 839:1.0 958:1.0 1368:1.0 1369:1.0 1370:1.0 1371:1.0 1372:1.0 1373:1.0 
0.6849295452280247 1.2963933341800575 302:1.0 312:1.0 978:1.0 1108:1.0 1304:1.0 1374:1.0 1375:1.0 1376:1.0 
8.0 5.201896503982726 38:1.0 257:1.0 876:1.0 1377:1.0 
2.6160715403795916 0.0 29:1.0 589:1.0 717:1.0 
0.0 0.2124402864706255 25:1.0 77:1.0 168:1.0 171:1.0 513:1.0 685:1.0 752:1.0 779:1.0 899:1.0 1052:1.0 1371:1.0 1384:1.0 1390:1.0 1391:1.0 1392:1.0 
0.9773329933901967 2.237282642226792 395:1.0 696:1.0 1390:1.0 1391:1.0 1393:1.0 
0.3009102803376369 2.8395658541846123 40:1.0 43:1.0 87:1.0 354:1.0 418:1.0 751:1.0 752:1.0 1394:1.0 
1.3072136904132514 1.3248282726788825 10:1.0 64:1.0 90:1.0 105:1.0 295:1.0 1103:1.0 1395:1.0 1396:1.0 1397:1.0 1398:1.0 1399:1.0 
4.2627000304874185 2.615488553692471 125:1.0 186:1.0 549:1.0 1403:1.0 
2.714109269322809 0.0 168:1.0 186:1.0 549:1.0 1404:1.0 
1.2557992059834948 0.890117916724431 394:1.0 970:1.0 971:1.0 1411:1.0 1412:1.0 1413:1.0 1414:1.0 1415:1.0 1416:1.0 
1.0407627571272022 1.0618093764244005 42:1.0 89:1.0 539:1.0 1152:1.0 1417:1.0 1418:1.0 1419:1.0 
8.0 8.0 2:1.0 
2.4722533180054835 0.5214189866610153 1:1.0 38:1.0 1424:1.0 1425:1.0 1426:1.0 
0.6450221783225929 0.25550063853223764 1:1.0 135:1.0 241:1.0 317:1.0 616:1.0 900:1.0 1220:1.0 1437:1.0 1438:1.0 
1.63319021562006 3.1009133342277253 265:1.0 1444:1.0 1445:1.0 1446:1.0 1447:1.0 
0.0 0.3703592719148661 171:1.0 302:1.0 324:1.0 1224:1.0 1358:1.0 1451:1.0 1452:1.0 
3.3255240021907904 2.1642255644791812 40:1.0 79:1.0 81:1.0 90:1.0 243:1.0 399:1.0 528:1.0 1454:1.0 1455:1.0 
5.764668307128643 4.803587308067156 40:1.0 283:1.0 302:1.0 304:1.0 306:1.0 358:1.0 1460:1.0 1461:1.0 
1.7667017992279006 0.0 10:1.0 31:1.0 72:1.0 175:1.0 462:1.0 757:1.0 849:1.0 1296:1.0 1462:1.0 1463:1.0 1464:1.0 
1.8260366686666427 1.2840111671591523 127:1.0 449:1.0 1093:1.0 1465:1.0 1466:1.0 1467:1.0 1468:1.0 
7.391933604518932 0.0 10:1.0 234:1.0 470:1.0 1060:1.0 
1.8516883831435484 1.1092413869157383 29:1.0 418:1.0 480:1.0 1471:1.0 1472:1.0 1473:1.0 1474:1.0 
2.9042413152708244 3.479161791108501 75:1.0 393:1.0 657:1.0 1478:1.0 1479:1.0 
3.448439770290191 4.642876825474346 370:1.0 1066:1.0 1265:1.0 1331:1.0 
4.117950431016476 8.0 86:1.0 257:1.0 580:1.0 1485:1.0 
0.9556850537833205 1.5759178957687807 2:1.0 488:1.0 797:1.0 1324:1.0 1493:1.0 1494:1.0 
2.5485053340926163 2.9394569359456706 1495:1.0 1496:1.0 1497:1.0 1498:1.0 
3.1839112941644134 1.2877505521842076 31:1.0 89:1.0 469:1.0 1502:1.0 1503:1.0 
4.568516419734945 0.0 11:1.0 38:1.0 156:1.0 233:1.0 290:1.0 380:1.0 418:1.0 419:1.0 422:1.0 423:1.0 1505:1.0 
2.548925930611841 4.814571284564757 1006:1.0 1137:1.0 1521:1.0 1522:1.0 
7.621624949973055 5.350098482498369 3:1.0 45:1.0 152:1.0 403:1.0 1523:1.0 
3.454274928103982 1.290380495797109 30:1.0 32:1.0 891:1.0 1331:1.0 1540:1.0 
4.882755897409326 1.2680565857684263 349:1.0 1541:1.0 1542:1.0 1543:1.0 
8.0 2.0604741260676445 349:1.0 1541:1.0 1544:1.0 
4.0423794149075425 0.9406097572206156 101:1.0 102:1.0 1545:1.0 1546:1.0 
8.0 3.8260497238226923 96:1.0 97:1.0 423:1.0 430:1.0 
5.1042946421074475 6.091670936181769 1282:1.0 1547:1.0 
2.6468045917605125 4.511404552740792 11:1.0 795:1.0 1550:1.0 
8.0 8.0 1551:1.0 
2.038644740919746 0.8092148919194877 378:1.0 379:1.0 1552:1.0 1553:1.0 1554:1.0 
0.1412196449484379 2.950055315261799 25:1.0 88:1.0 171:1.0 204:1.0 1033:1.0 1212:1.0 1296:1.0 1555:1.0 
0.0 1.0820140236641775 75:1.0 533:1.0 1296:1.0 1505:1.0 1559:1.0 1560:1.0 1561:1.0 1562:1.0 1563:1.0 
1.7968468513783156 1.4491281741128352 312:1.0 863:1.0 1246:1.0 1577:1.0 1578:1.0 1579:1.0 
1.3464867719474167 4.989075083436707 419:1.0 1582:1.0 
3.50480371498242 8.0 315:1.0 1583:1.0 1584:1.0 
0.7812843049107963 0.5582826380767506 224:1.0 225:1.0 250:1.0 251:1.0 385:1.0 393:1.0 1326:1.0 1552:1.0 1583:1.0 1585:1.0 1586:1.0 
2.7241307863083253 0.0 11:1.0 31:1.0 75:1.0 77:1.0 345:1.0 346:1.0 
5.945121522992595 3.4476056553840912 135:1.0 570:1.0 829:1.0 1201:1.0 
0.7924374643456218 0.3947350176083794 54:1.0 418:1.0 419:1.0 423:1.0 465:1.0 1599:1.0 1600:1.0 1601:1.0 1602:1.0 1603:1.0 
2.3853509086755036 3.62509254555717 583:1.0 1604:1.0 1605:1.0 
0.10237570288041786 1.3503513959541384 452:1.0 970:1.0 971:1.0 1613:1.0 
0.13686683505335934 2.6219622627021093 127:1.0 131:1.0 300:1.0 696:1.0 1614:1.0 
2.586812257428693 0.0 30:1.0 31:1.0 32:1.0 43:1.0 168:1.0 403:1.0 452:1.0 580:1.0 828:1.0 
0.0 4.378904825146408 43:1.0 86:1.0 212:1.0 403:1.0 580:1.0 828:1.0 
0.0 0.8282544085200737 40:1.0 43:1.0 75:1.0 87:1.0 526:1.0 752:1.0 1174:1.0 1250:1.0 1316:1.0 1593:1.0 1619:1.0 1620:1.0 1621:1.0 1622:1.0 1623:1.0 
2.1907192673821263 1.7778383891648355 551:1.0 552:1.0 571:1.0 572:1.0 1627:1.0 1628:1.0 
2.4391771970135485 1.2845246633205472 551:1.0 552:1.0 924:1.0 1629:1.0 1630:1.0 
1.3153742400819455 3.7642563999964227 149:1.0 1135:1.0 1638:1.0 1639:1.0 1640:1.0 
6.840522537624187 3.2913075406092145 121:1.0 518:1.0 1641:1.0 
6.257582562152984 1.6308036084347335 378:1.0 379:1.0 447:1.0 518:1.0 749:1.0 808:1.0 
5.234601561051735 4.253666434839635 38:1.0 78:1.0 837:1.0 1658:1.0 1659:1.0 1660:1.0 
0.13432953401021713 0.45455079487430206 168:1.0 696:1.0 766:1.0 816:1.0 1661:1.0 1662:1.0 1663:1.0 1664:1.0 1665:1.0 
1.1960223438137856 1.658213873009763 481:1.0 497:1.0 717:1.0 1130:1.0 1666:1.0 1667:1.0 1668:1.0 1669:1.0 
1.4127193380894636 0.5878888704911411 10:1.0 274:1.0 522:1.0 899:1.0 1371:1.0 1372:1.0 1670:1.0 1671:1.0 
5.086563126053731 0.9726980128755065 32:1.0 225:1.0 425:1.0 426:1.0 1138:1.0 1204:1.0 1675:1.0 1676:1.0 
2.5958540039461 5.580524492495756 523:1.0 1685:1.0 1686:1.0 1687:1.0 
0.0 2.3304824715009835 43:1.0 149:1.0 284:1.0 292:1.0 372:1.0 508:1.0 1688:1.0 1689:1.0 1690:1.0 
0.0 0.8596216569208185 43:1.0 230:1.0 283:1.0 378:1.0 379:1.0 508:1.0 1096:1.0 1691:1.0 
0.40804895838450356 1.0887852400431102 808:1.0 1410:1.0 1695:1.0 1696:1.0 1697:1.0 1698:1.0 1699:1.0 
2.2403866817200893 1.8797477728598273 40:1.0 128:1.0 186:1.0 403:1.0 905:1.0 
1.8115258663620906 1.6183762263378176 696:1.0 837:1.0 1706:1.0 1707:1.0 1708:1.0 1709:1.0 
2.643239643419791 0.2639092265973797 5:1.0 11:1.0 43:1.0 117:1.0 156:1.0 221:1.0 508:1.0 732:1.0 780:1.0 1716:1.0 
3.7022407688468735 4.2902496210973196 399:1.0 1088:1.0 
0.0 1.7663207119740005 106:1.0 125:1.0 270:1.0 318:1.0 752:1.0 1717:1.0 1718:1.0 1719:1.0 1720:1.0 1721:1.0 
0.8408051724854851 2.2763008050175997 380:1.0 863:1.0 980:1.0 1722:1.0 1723:1.0 
4.82628439147373 4.821126772123884 31:1.0 75:1.0 345:1.0 704:1.0 1410:1.0 1724:1.0 
0.49966947029287 3.300432572971264 186:1.0 492:1.0 1288:1.0 1365:1.0 1727:1.0 
2.7407590028024944 8.0 90:1.0 257:1.0 263:1.0 
0.0 1.112905645729152 1:1.0 40:1.0 122:1.0 257:1.0 266:1.0 282:1.0 663:1.0 721:1.0 840:1.0 976:1.0 1283:1.0 1734:1.0 1735:1.0 1736:1.0 1737:1.0 1738:1.0 
7.9371206107428085 5.846503471635514 168:1.0 1745:1.0 
0.9134445884203612 0.5162208881975878 30:1.0 32:1.0 43:1.0 81:1.0 86:1.0 230:1.0 461:1.0 
0.0 1.084930763257809 302:1.0 472:1.0 785:1.0 798:1.0 1414:1.0 1415:1.0 1452:1.0 1750:1.0 1751:1.0 1752:1.0 1753:1.0 1754:1.0 1755:1.0 1756:1.0 
1.1495879846166246 1.8034590600270952 549:1.0 840:1.0 1757:1.0 1758:1.0 1759:1.0 1760:1.0 1761:1.0 1762:1.0 1763:1.0 
8.0 8.0 
8.0 8.0 
8.0 8.0 
1.2303659665717501 2.85539268116075 38:1.0 86:1.0 96:1.0 97:1.0 149:1.0 257:1.0 266:1.0 381:1.0 1218:1.0 1784:1.0 
3.5934120625534405 3.8008204604424254 10:1.0 75:1.0 96:1.0 105:1.0 989:1.0 1364:1.0 1788:1.0 1789:1.0 
2.4413256797272243 0.37149395274343144 11:1.0 112:1.0 199:1.0 524:1.0 985:1.0 1445:1.0 1753:1.0 
0.0 2.9870231445375452 26:1.0 86:1.0 257:1.0 381:1.0 581:1.0 1218:1.0 1795:1.0 
2.9850345592492142 1.9538672550412703 77:1.0 795:1.0 1796:1.0 1797:1.0 
5.101840109828718 5.397372639246675 1799:1.0 1800:1.0 
0.004468177421334054 2.357610135009412 1114:1.0 1801:1.0 
2.4259889884731747 0.5804829788969504 40:1.0 72:1.0 75:1.0 79:1.0 117:1.0 346:1.0 357:1.0 540:1.0 1114:1.0 1802:1.0 1803:1.0 
0.7621620028723517 1.7259403589164284 75:1.0 247:1.0 1159:1.0 1638:1.0 1809:1.0 1810:1.0 1811:1.0 1812:1.0 
2.192925261290101 2.3461080001852577 105:1.0 149:1.0 156:1.0 245:1.0 389:1.0 508:1.0 1638:1.0 1813:1.0 
0.20308164482808058 1.490030553101348 233:1.0 929:1.0 1135:1.0 1413:1.0 1823:1.0 1824:1.0 1825:1.0 1826:1.0 
0.7376278037454199 0.0 75:1.0 233:1.0 278:1.0 393:1.0 657:1.0 1100:1.0 1108:1.0 1827:1.0 
2.1009634236528654 2.813387036315884 233:1.0 479:1.0 1829:1.0 
2.270229806069154 2.581616446841314 696:1.0 1190:1.0 1665:1.0 1831:1.0 
2.0624557149487437 2.6229949410874833 47:1.0 97:1.0 125:1.0 186:1.0 204:1.0 245:1.0 506:1.0 1002:1.0 1760:1.0 1832:1.0 
0.959637361190751 5.571958473876467 75:1.0 168:1.0 222:1.0 1701:1.0 1833:1.0 1834:1.0 1835:1.0 
8.0 2.1994222656306266 38:1.0 70:1.0 1816:1.0 1839:1.0 1840:1.0 
2.9381827623428407 7.010800738402832 112:1.0 262:1.0 270:1.0 580:1.0 1469:1.0 
0.0 2.173076197066564 78:1.0 112:1.0 302:1.0 429:1.0 814:1.0 1853:1.0 1854:1.0 1855:1.0 1856:1.0 
8.0 8.0 429:1.0 
0.004596131816119532 0.0 2:1.0 11:1.0 54:1.0 1265:1.0 1862:1.0 
2.561659895149915 1.9791770623647755 31:1.0 271:1.0 929:1.0 1119:1.0 1863:1.0 1864:1.0 
3.2665355540872105 0.5960605464029917 31:1.0 77:1.0 197:1.0 417:1.0 840:1.0 1143:1.0 1865:1.0 1866:1.0 
0.30732882017357455 0.17679432034718476 126:1.0 168:1.0 423:1.0 490:1.0 528:1.0 814:1.0 1869:1.0 1870:1.0 
0.1606706190545643 1.2267143950306263 168:1.0 302:1.0 1065:1.0 1100:1.0 1349:1.0 1872:1.0 
1.5874652359225045 1.2013173343702321 31:1.0 102:1.0 246:1.0 423:1.0 490:1.0 1873:1.0 1874:1.0 1875:1.0 1876:1.0 1877:1.0 
0.6523790054470234 1.32381029775276 75:1.0 270:1.0 892:1.0 1880:1.0 1881:1.0 1882:1.0 1883:1.0 
1.650925687872505 0.0 30:1.0 31:1.0 89:1.0 185:1.0 186:1.0 231:1.0 232:1.0 393:1.0 1259:1.0 1884:1.0 
5.094120571397902 8.0 462:1.0 1309:1.0 
1.9665460499771779 2.023464932006497 29:1.0 69:1.0 75:1.0 78:1.0 86:1.0 96:1.0 124:1.0 154:1.0 234:1.0 858:1.0 1864:1.0 
3.081291723149588 0.0 10:1.0 11:1.0 152:1.0 370:1.0 418:1.0 419:1.0 422:1.0 423:1.0 1608:1.0 
0.0 3.23460417270748 739:1.0 921:1.0 1282:1.0 1899:1.0 1900:1.0 
4.684667462568046 8.0 10:1.0 54:1.0 105:1.0 209:1.0 346:1.0 1683:1.0 
2.940254776108261 4.217202490340692 174:1.0 739:1.0 1905:1.0 1906:1.0 
2.319623949879788 0.7990878028171812 30:1.0 32:1.0 189:1.0 231:1.0 1352:1.0 1552:1.0 1769:1.0 1913:1.0 1914:1.0 
3.592140834816724 2.559366782313835 75:1.0 88:1.0 89:1.0 98:1.0 418:1.0 1296:1.0 1915:1.0 
8.0 0.5940070347348566 38:1.0 199:1.0 419:1.0 623:1.0 661:1.0 
5.590364280674609 1.4294601235459719 349:1.0 894:1.0 1932:1.0 1933:1.0 1934:1.0 
1.483163193959135 3.364239702657374 1604:1.0 1753:1.0 1936:1.0 1937:1.0 
0.012946012105436224 0.0027898885599912005 316:1.0 618:1.0 1376:1.0 1939:1.0 1940:1.0 1941:1.0 
-4.341898056889658 1.4054864932410585 5:1.0 30:1.0 31:1.0 32:1.0 33:1.0 34:1.0 
-3.3270199993392824 0.0 38:1.0 56:1.0 57:1.0 58:1.0 
-1.0113198515061266 0.0 38:1.0 68:1.0 69:1.0 70:1.0 
-2.9889317587228916 0.0 38:1.0 71:1.0 72:1.0 
-0.12012377489110439 2.106555617692996 73:1.0 74:1.0 75:1.0 76:1.0 77:1.0 78:1.0 79:1.0 80:1.0 81:1.0 82:1.0 
-2.730902599442858 1.2463488068520978 83:1.0 84:1.0 85:1.0 86:1.0 87:1.0 88:1.0 89:1.0 90:1.0 91:1.0 92:1.0 93:1.0 
-2.1452521442816987 0.5878293924424045 38:1.0 84:1.0 94:1.0 95:1.0 
-8.0 2.238257604306394 96:1.0 100:1.0 101:1.0 102:1.0 
-2.4498084805387146 3.2212012883077974 8:1.0 57:1.0 75:1.0 111:1.0 112:1.0 113:1.0 114:1.0 115:1.0 116:1.0 
-2.353290942631073 2.127324277834939 4:1.0 80:1.0 121:1.0 
-2.0465101841737763 5.714544424857577 8:1.0 40:1.0 122:1.0 123:1.0 
-1.311636989203714 0.9428112899427641 145:1.0 199:1.0 200:1.0 201:1.0 202:1.0 
-0.0 0.7098591903685542 4:1.0 57:1.0 78:1.0 195:1.0 203:1.0 204:1.0 205:1.0 206:1.0 
-7.822488233084342 8.0 40:1.0 152:1.0 221:1.0 222:1.0 223:1.0 
-4.580714576976842 0.49006890862262975 101:1.0 102:1.0 224:1.0 225:1.0 226:1.0 227:1.0 228:1.0 
-1.5943018861928768 0.27058880300774796 4:1.0 30:1.0 45:1.0 46:1.0 47:1.0 77:1.0 78:1.0 138:1.0 231:1.0 232:1.0 233:1.0 234:1.0 
-7.366257080123105 4.932621233387058 30:1.0 77:1.0 235:1.0 236:1.0 
-4.786888167892215 2.5655361370966996 40:1.0 135:1.0 237:1.0 238:1.0 239:1.0 240:1.0 241:1.0 
-0.07383077657521936 0.4231293966415762 40:1.0 57:1.0 75:1.0 79:1.0 96:1.0 100:1.0 154:1.0 213:1.0 248:1.0 249:1.0 250:1.0 251:1.0 252:1.0 253:1.0 
-2.3639199763133893 2.495125654083204 31:1.0 40:1.0 78:1.0 87:1.0 101:1.0 153:1.0 178:1.0 254:1.0 255:1.0 256:1.0 257:1.0 258:1.0 
-0.0 2.1819309691334197 178:1.0 271:1.0 272:1.0 
-4.020138445005252 1.17573750798559 31:1.0 75:1.0 81:1.0 257:1.0 270:1.0 276:1.0 277:1.0 278:1.0 279:1.0 280:1.0 281:1.0 
-2.193374903758097 0.2723291715394017 40:1.0 310:1.0 311:1.0 312:1.0 
-0.0 0.06481243279238631 180:1.0 271:1.0 296:1.0 313:1.0 314:1.0 
-3.420562251666938 0.19224309023560857 10:1.0 77:1.0 290:1.0 344:1.0 345:1.0 346:1.0 347:1.0 348:1.0 349:1.0 
-4.519828453931971 1.604029808517563 1:1.0 147:1.0 186:1.0 289:1.0 290:1.0 367:1.0 368:1.0 369:1.0 370:1.0 371:1.0 
-2.482498869158563 0.34957535184109845 40:1.0 84:1.0 159:1.0 272:1.0 378:1.0 379:1.0 380:1.0 381:1.0 382:1.0 
-0.773579358672722 0.07748016850350828 92:1.0 383:1.0 384:1.0 385:1.0 386:1.0 387:1.0 
-1.0780951443793376 0.0 80:1.0 115:1.0 179:1.0 307:1.0 388:1.0 
-5.540827288896225 7.173837703079801 57:1.0 105:1.0 313:1.0 
-7.303106082679847 1.945826008172699 28:1.0 29:1.0 170:1.0 171:1.0 233:1.0 296:1.0 397:1.0 
-2.4760678114882673 1.541778325149737 40:1.0 178:1.0 230:1.0 306:1.0 398:1.0 399:1.0 400:1.0 401:1.0 402:1.0 
-0.30587209210626787 1.5108756442314033 40:1.0 100:1.0 122:1.0 248:1.0 358:1.0 
-3.3159349759543963 0.8377474381190273 28:1.0 56:1.0 75:1.0 152:1.0 428:1.0 429:1.0 430:1.0 431:1.0 432:1.0 433:1.0 434:1.0 435:1.0 
-3.927123027159521 3.0881870396107556 40:1.0 221:1.0 436:1.0 437:1.0 
-6.693104974692512 2.8026874831258968 38:1.0 199:1.0 445:1.0 
-1.038140631875652 1.0261371358836557 28:1.0 407:1.0 447:1.0 448:1.0 449:1.0 450:1.0 451:1.0 
-2.960500199378955 1.7937220008743198 40:1.0 45:1.0 78:1.0 86:1.0 109:1.0 117:1.0 196:1.0 289:1.0 401:1.0 429:1.0 459:1.0 460:1.0 461:1.0 462:1.0 463:1.0 464:1.0 
-8.0 8.0 35:1.0 38:1.0 
-0.5244904905862536 0.0 57:1.0 77:1.0 79:1.0 90:1.0 138:1.0 156:1.0 166:1.0 195:1.0 207:1.0 233:1.0 257:1.0 290:1.0 393:1.0 400:1.0 493:1.0 
-0.2441181943322357 3.555540054303185 277:1.0 283:1.0 494:1.0 495:1.0 496:1.0 497:1.0 
-1.988184927312621 2.1252364581993253 9:1.0 88:1.0 388:1.0 498:1.0 
-1.0140359264837886 4.876413555644139 54:1.0 108:1.0 503:1.0 
-1.2606168477911324 3.5047374201507044 108:1.0 325:1.0 504:1.0 
-0.0 0.13370049596157155 46:1.0 47:1.0 147:1.0 485:1.0 505:1.0 
-1.7236259684568789 0.0 296:1.0 317:1.0 328:1.0 378:1.0 379:1.0 403:1.0 532:1.0 533:1.0 534:1.0 535:1.0 536:1.0 537:1.0 
-8.0 1.054828335624697 383:1.0 548:1.0 549:1.0 
-1.980337581924185 1.3443978887572279 53:1.0 57:1.0 147:1.0 156:1.0 222:1.0 556:1.0 557:1.0 558:1.0 559:1.0 560:1.0 561:1.0 562:1.0 563:1.0 564:1.0 
-3.312348309844436 2.2631503569673024 92:1.0 147:1.0 204:1.0 565:1.0 566:1.0 567:1.0 
-2.473280682966487 2.5110810858883155 84:1.0 86:1.0 117:1.0 165:1.0 629:1.0 630:1.0 631:1.0 632:1.0 633:1.0 634:1.0 635:1.0 
-0.0 0.023123129091906676 52:1.0 108:1.0 207:1.0 637:1.0 638:1.0 
-3.6999873705736595 0.01129832363265898 10:1.0 38:1.0 108:1.0 170:1.0 171:1.0 430:1.0 449:1.0 660:1.0 
-3.8839128145785566 1.6079646359115585 11:1.0 27:1.0 28:1.0 117:1.0 168:1.0 172:1.0 206:1.0 270:1.0 274:1.0 685:1.0 686:1.0 687:1.0 
-6.130709883992917 1.7934183930756131 38:1.0 40:1.0 206:1.0 282:1.0 580:1.0 
-4.346742331046423 2.2156975597239614 29:1.0 46:1.0 86:1.0 89:1.0 172:1.0 410:1.0 695:1.0 696:1.0 697:1.0 698:1.0 699:1.0 
-8.0 8.0 704:1.0 705:1.0 706:1.0 
-1.632315076494696 2.132198075617771 45:1.0 56:1.0 79:1.0 302:1.0 711:1.0 712:1.0 713:1.0 
-4.272834126966615 0.0 38:1.0 84:1.0 159:1.0 271:1.0 313:1.0 727:1.0 
-2.830855436437877 1.7060362423128441 4:1.0 11:1.0 31:1.0 45:1.0 47:1.0 276:1.0 492:1.0 756:1.0 757:1.0 758:1.0 759:1.0 
-4.315736966768098 0.0 38:1.0 349:1.0 760:1.0 
-8.0 6.839432695237905 24:1.0 403:1.0 429:1.0 771:1.0 
-3.659575998097734 4.422691668536641 201:1.0 796:1.0 797:1.0 798:1.0 
-0.5794504854431152 1.0548113523597888 5:1.0 6:1.0 8:1.0 9:1.0 799:1.0 800:1.0 801:1.0 802:1.0 
-6.1444112243909474 4.155827228240096 186:1.0 288:1.0 806:1.0 807:1.0 808:1.0 809:1.0 
-0.02152702876976298 1.1583806453656151 169:1.0 263:1.0 289:1.0 290:1.0 296:1.0 472:1.0 557:1.0 721:1.0 838:1.0 839:1.0 840:1.0 
-5.988006461998926 4.162816104218637 38:1.0 169:1.0 839:1.0 841:1.0 842:1.0 
-4.987519744681889 2.7679290968630355 28:1.0 36:1.0 38:1.0 86:1.0 169:1.0 839:1.0 844:1.0 845:1.0 846:1.0 
-8.0 6.444484056691329 42:1.0 657:1.0 780:1.0 847:1.0 
-0.0 0.4701176726855952 79:1.0 81:1.0 127:1.0 156:1.0 178:1.0 278:1.0 300:1.0 388:1.0 393:1.0 863:1.0 864:1.0 865:1.0 
-0.28695849122431144 1.114323335032602 40:1.0 121:1.0 171:1.0 206:1.0 207:1.0 421:1.0 663:1.0 718:1.0 866:1.0 867:1.0 868:1.0 869:1.0 
-4.72739964212415 0.0 31:1.0 383:1.0 876:1.0 
-5.511700315311819 6.597285369056874 105:1.0 349:1.0 878:1.0 
-1.779429040092277 2.308036202258406 40:1.0 81:1.0 84:1.0 145:1.0 165:1.0 636:1.0 882:1.0 883:1.0 884:1.0 
-0.018739531798787436 0.0 10:1.0 54:1.0 75:1.0 97:1.0 105:1.0 207:1.0 383:1.0 689:1.0 885:1.0 886:1.0 
-8.0 8.0 97:1.0 108:1.0 
-4.978313636801189 3.5542919933047408 189:1.0 257:1.0 296:1.0 418:1.0 422:1.0 473:1.0 
-0.0 1.750467633487389 296:1.0 354:1.0 823:1.0 898:1.0 899:1.0 
-2.663362191718631 0.7455251843808743 325:1.0 349:1.0 901:1.0 902:1.0 903:1.0 904:1.0 
-5.314140669394151 3.7205509602938465 233:1.0 294:1.0 911:1.0 912:1.0 913:1.0 914:1.0 915:1.0 
-2.8361008186184327 4.8770593925343055 75:1.0 201:1.0 283:1.0 328:1.0 933:1.0 
-4.194756900287684 6.472979408771243 44:1.0 275:1.0 938:1.0 939:1.0 940:1.0 941:1.0 942:1.0 
-1.1872760694834106 2.75087448075811 350:1.0 383:1.0 945:1.0 946:1.0 
-0.0 0.3988532488573498 40:1.0 447:1.0 451:1.0 
-1.7650255825253924 3.3095468924797475 40:1.0 78:1.0 106:1.0 107:1.0 178:1.0 222:1.0 306:1.0 358:1.0 378:1.0 379:1.0 581:1.0 947:1.0 948:1.0 949:1.0 950:1.0 951:1.0 
-8.0 6.313451985181435 40:1.0 122:1.0 966:1.0 967:1.0 
-5.988503625129356 3.1433200478209247 31:1.0 40:1.0 78:1.0 112:1.0 122:1.0 168:1.0 280:1.0 316:1.0 806:1.0 969:1.0 
-0.4654209434181425 0.9570468840766232 40:1.0 168:1.0 210:1.0 296:1.0 497:1.0 839:1.0 996:1.0 999:1.0 1000:1.0 1001:1.0 1002:1.0 1003:1.0 1004:1.0 1005:1.0 
-1.7593840133495904 0.8843648452406515 11:1.0 40:1.0 81:1.0 186:1.0 196:1.0 296:1.0 696:1.0 698:1.0 721:1.0 1023:1.0 
-8.0 8.0 40:1.0 451:1.0 
-6.352133508296101 0.8126878817671119 40:1.0 188:1.0 447:1.0 451:1.0 
-0.0 1.0551763759572654 38:1.0 40:1.0 75:1.0 79:1.0 105:1.0 206:1.0 233:1.0 372:1.0 1027:1.0 
-0.0 1.154174067478484 40:1.0 86:1.0 310:1.0 437:1.0 
-0.0 2.4239749671671644 40:1.0 178:1.0 306:1.0 
-6.450903494197835 4.939889603845277 40:1.0 54:1.0 828:1.0 1063:1.0 1064:1.0 
-2.8285152758346697 1.3124683787760762 10:1.0 76:1.0 96:1.0 123:1.0 156:1.0 283:1.0 780:1.0 1073:1.0 1074:1.0 
-7.07341108802971 4.676198686426885 96:1.0 1075:1.0 1076:1.0 1077:1.0 
-2.1791276837314886 3.4669525312634923 40:1.0 45:1.0 47:1.0 96:1.0 125:1.0 354:1.0 797:1.0 1085:1.0 1086:1.0 
-7.474549523521578 0.0 52:1.0 75:1.0 96:1.0 524:1.0 985:1.0 1087:1.0 
-1.279865083301447 1.1580067076246803 3:1.0 40:1.0 77:1.0 78:1.0 81:1.0 90:1.0 168:1.0 289:1.0 290:1.0 296:1.0 437:1.0 721:1.0 849:1.0 1043:1.0 1092:1.0 1093:1.0 
-2.991631839789688 0.0 77:1.0 289:1.0 290:1.0 296:1.0 378:1.0 379:1.0 
-0.7457462660182227 0.472619079907557 4:1.0 5:1.0 77:1.0 90:1.0 207:1.0 283:1.0 289:1.0 290:1.0 840:1.0 
-4.383083363244677 1.1018406168584214 57:1.0 168:1.0 196:1.0 245:1.0 430:1.0 522:1.0 1110:1.0 1111:1.0 1112:1.0 1113:1.0 
-6.859558954906242 0.0 79:1.0 81:1.0 272:1.0 
-0.0 3.6236251523390735 147:1.0 277:1.0 
-6.457377893957696 3.958134719789753 226:1.0 227:1.0 425:1.0 426:1.0 1138:1.0 
-8.0 4.760080875457182 349:1.0 1139:1.0 
-8.0 8.0 1142:1.0 1143:1.0 
-1.2890008761430987 0.0 5:1.0 8:1.0 40:1.0 77:1.0 122:1.0 189:1.0 258:1.0 
-8.0 8.0 88:1.0 1145:1.0 
-0.296443352101839 0.0 383:1.0 504:1.0 
-8.0 5.527518448550286 80:1.0 144:1.0 
-3.1577391578625447 1.0817918330308602 38:1.0 306:1.0 794:1.0 1154:1.0 1155:1.0 
-1.879613422989374 1.519931582588158 207:1.0 283:1.0 388:1.0 423:1.0 490:1.0 1156:1.0 1157:1.0 1158:1.0 1159:1.0 1160:1.0 1161:1.0 
-0.0 1.7931592060218131 88:1.0 178:1.0 388:1.0 1162:1.0 1163:1.0 
-3.391050280501755 1.3762710345187348 79:1.0 325:1.0 388:1.0 
-2.0761420080360646 2.713278364949738 196:1.0 233:1.0 262:1.0 296:1.0 605:1.0 1110:1.0 
-3.3775559492258544 2.7623752682228826 233:1.0 277:1.0 1200:1.0 1201:1.0 1202:1.0 
-7.1643934672558425 6.342406338434852 96:1.0 100:1.0 233:1.0 234:1.0 248:1.0 
-7.853113189024525 3.16511642068564 199:1.0 233:1.0 458:1.0 623:1.0 1204:1.0 1205:1.0 1206:1.0 
-3.061184834781266 0.9890741649227869 31:1.0 124:1.0 253:1.0 277:1.0 
-1.7716168519156927 0.7349963382248375 5:1.0 8:1.0 38:1.0 131:1.0 189:1.0 418:1.0 1220:1.0 1221:1.0 
-2.2083799672184807 2.1355314040786904 179:1.0 713:1.0 1222:1.0 1223:1.0 1224:1.0 1225:1.0 
-2.090239781221008 0.5146763884987517 204:1.0 310:1.0 864:1.0 1096:1.0 1237:1.0 
-8.0 8.0 75:1.0 310:1.0 
-0.22774380494015695 1.015225093808822 202:1.0 310:1.0 562:1.0 1240:1.0 
-7.163212029552231 2.426775181791468 54:1.0 524:1.0 985:1.0 1087:1.0 
-0.0 0.4212814810998762 79:1.0 493:1.0 1087:1.0 
-3.098187235928959 4.549033076637198 31:1.0 204:1.0 336:1.0 1066:1.0 1087:1.0 
-1.9582434227374883 2.733918487799337 40:1.0 208:1.0 345:1.0 1043:1.0 1087:1.0 1241:1.0 1242:1.0 
-4.7553726688915585 3.6459205144013627 72:1.0 1253:1.0 1254:1.0 
-8.0 8.0 72:1.0 
-2.40576565679723 0.0 1:1.0 207:1.0 277:1.0 924:1.0 1256:1.0 
-0.0 0.9668101631204027 147:1.0 383:1.0 400:1.0 418:1.0 1266:1.0 1267:1.0 
-2.349003178949738 0.014215842375712023 45:1.0 69:1.0 125:1.0 168:1.0 806:1.0 1272:1.0 1273:1.0 
-1.7256086011368779 0.0 10:1.0 31:1.0 97:1.0 277:1.0 1290:1.0 1291:1.0 1292:1.0 1293:1.0 
-6.42408903531256 0.0 10:1.0 11:1.0 38:1.0 349:1.0 418:1.0 1302:1.0 
-4.006473373733878 2.6321535806742373 10:1.0 147:1.0 1223:1.0 1303:1.0 
-3.2137743733482256 2.181146037162767 69:1.0 70:1.0 1108:1.0 1304:1.0 1305:1.0 1306:1.0 
-0.7596716384172204 1.8858319592559272 9:1.0 272:1.0 295:1.0 916:1.0 1307:1.0 
-0.0 1.7900536696534475 178:1.0 206:1.0 278:1.0 524:1.0 557:1.0 898:1.0 1285:1.0 1330:1.0 
-0.1455244827413519 0.0 117:1.0 183:1.0 210:1.0 325:1.0 349:1.0 383:1.0 448:1.0 876:1.0 1205:1.0 1335:1.0 1336:1.0 1337:1.0 1338:1.0 
-2.4408742031276334 1.0274404503860555 40:1.0 75:1.0 79:1.0 81:1.0 152:1.0 318:1.0 485:1.0 1066:1.0 1344:1.0 1345:1.0 1346:1.0 1347:1.0 1348:1.0 
-2.6763399005423882 0.8382512554286722 30:1.0 31:1.0 32:1.0 445:1.0 
-0.0 0.371167964507513 30:1.0 32:1.0 89:1.0 108:1.0 178:1.0 1350:1.0 1351:1.0 1352:1.0 1353:1.0 1354:1.0 1355:1.0 
-2.941355272179337 0.0 30:1.0 72:1.0 
-0.7926715776628837 1.3065346540119531 32:1.0 206:1.0 207:1.0 413:1.0 414:1.0 718:1.0 859:1.0 1361:1.0 1362:1.0 1363:1.0 1364:1.0 
-2.729822567226925 7.831165620208017 4:1.0 207:1.0 1367:1.0 
-1.729594115194746 1.143575521420605 38:1.0 207:1.0 1378:1.0 1379:1.0 1380:1.0 
-0.0 6.169348735620702 105:1.0 207:1.0 272:1.0 
-0.0 0.6618934525603009 24:1.0 25:1.0 94:1.0 201:1.0 202:1.0 383:1.0 695:1.0 1386:1.0 1387:1.0 1388:1.0 1389:1.0 
-5.048012382911433 0.0 31:1.0 72:1.0 1400:1.0 
-0.7971730037313686 1.6934273025379827 31:1.0 72:1.0 78:1.0 372:1.0 1401:1.0 1402:1.0 
-4.986799430857755 3.8714096055759706 178:1.0 358:1.0 713:1.0 
-5.967653264813247 2.9082501666128544 178:1.0 306:1.0 551:1.0 552:1.0 
-8.0 5.061880533813124 46:1.0 1408:1.0 
-6.247527702166554 2.9625888212178006 38:1.0 349:1.0 393:1.0 394:1.0 444:1.0 
-1.7575959334801385 2.408932187424945 79:1.0 85:1.0 237:1.0 493:1.0 1409:1.0 
-0.7778144681914098 0.0 8:1.0 57:1.0 128:1.0 206:1.0 470:1.0 492:1.0 622:1.0 1420:1.0 1421:1.0 1422:1.0 1423:1.0 
-7.987971465479781 0.0 38:1.0 233:1.0 277:1.0 
-8.0 8.0 464:1.0 643:1.0 
-3.314627579325338 2.837063477096168 39:1.0 296:1.0 470:1.0 1441:1.0 
-2.524179548770317 2.820165066969989 7:1.0 77:1.0 1100:1.0 1448:1.0 1449:1.0 1450:1.0 
-5.508277830514083 2.6397652504771396 156:1.0 290:1.0 437:1.0 515:1.0 
-4.7730872206287405 3.921986204958872 8:1.0 9:1.0 11:1.0 1453:1.0 
-0.0 7.590530148596831 79:1.0 206:1.0 
-1.2122832110551311 0.27266041018119475 40:1.0 310:1.0 1456:1.0 1457:1.0 
-2.7449159381719697 0.3051908095961484 38:1.0 306:1.0 559:1.0 1458:1.0 1459:1.0 
-1.9833856962387726 3.4789678470822727 78:1.0 112:1.0 152:1.0 328:1.0 351:1.0 580:1.0 806:1.0 1024:1.0 1469:1.0 1470:1.0 
-8.0 8.0 105:1.0 1385:1.0 
-3.328688919308856 0.0 38:1.0 75:1.0 234:1.0 448:1.0 518:1.0 752:1.0 806:1.0 1480:1.0 
-8.0 7.88399255500865 7:1.0 1481:1.0 
-0.0 1.9115483917834715 8:1.0 54:1.0 105:1.0 871:1.0 1223:1.0 1458:1.0 1482:1.0 
-8.0 0.6646147572189417 31:1.0 69:1.0 70:1.0 1040:1.0 
-0.5872298266210328 2.2804960529575644 105:1.0 383:1.0 541:1.0 1486:1.0 1491:1.0 1492:1.0 
-0.0 0.0857775981984747 54:1.0 105:1.0 207:1.0 383:1.0 689:1.0 1499:1.0 
-3.1527517293061904 8.0 54:1.0 108:1.0 
-2.2949551797555676 1.7046036430912237 10:1.0 38:1.0 84:1.0 89:1.0 146:1.0 165:1.0 222:1.0 1500:1.0 1501:1.0 
-3.486030325245472 3.070160009063349 201:1.0 202:1.0 570:1.0 916:1.0 1504:1.0 
-0.0 0.10660783282231111 38:1.0 79:1.0 105:1.0 262:1.0 272:1.0 1389:1.0 1509:1.0 1510:1.0 
-7.739462251501687 7.890545935684968 40:1.0 88:1.0 125:1.0 306:1.0 
-6.6995298102321055 2.0001545186820664 10:1.0 97:1.0 121:1.0 658:1.0 1223:1.0 1513:1.0 
-6.374413328759096 7.74323179856799 131:1.0 207:1.0 749:1.0 1520:1.0 
-8.0 3.730270096152215 69:1.0 70:1.0 174:1.0 
-1.0142064518479816 0.0 38:1.0 69:1.0 70:1.0 1527:1.0 
-8.0 2.969998068648565 383:1.0 837:1.0 
-0.7567832015035637 1.8195156546352753 10:1.0 27:1.0 86:1.0 296:1.0 388:1.0 497:1.0 557:1.0 1531:1.0 1532:1.0 1533:1.0 1534:1.0 1535:1.0 
-1.9421749137825757 1.4650357773069256 38:1.0 54:1.0 105:1.0 262:1.0 310:1.0 689:1.0 1552:1.0 
-3.103771016252116 0.6970967519501037 56:1.0 281:1.0 349:1.0 1069:1.0 1569:1.0 1570:1.0 1571:1.0 
-0.8848221322341946 2.781832831717571 10:1.0 108:1.0 202:1.0 1291:1.0 1572:1.0 
-7.648577338225738 0.43497328079915554 84:1.0 90:1.0 347:1.0 418:1.0 419:1.0 422:1.0 423:1.0 1581:1.0 
-0.0 0.29682985328815464 77:1.0 96:1.0 178:1.0 258:1.0 839:1.0 1587:1.0 1588:1.0 
-0.0 0.6458338963262489 8:1.0 168:1.0 654:1.0 655:1.0 806:1.0 1344:1.0 
-0.3048536653255804 3.188216254558266 8:1.0 52:1.0 86:1.0 105:1.0 271:1.0 1385:1.0 1590:1.0 
-1.1590531411697103 1.4621971793121942 46:1.0 47:1.0 54:1.0 146:1.0 438:1.0 1332:1.0 1612:1.0 
-1.4564992857893053 3.0076177786803453 45:1.0 46:1.0 174:1.0 364:1.0 749:1.0 943:1.0 
-0.0 1.1528400258457554 38:1.0 238:1.0 296:1.0 580:1.0 
-1.5053760052776473 0.0 38:1.0 76:1.0 201:1.0 580:1.0 
-2.7385421151137983 4.440220132824761 108:1.0 1634:1.0 1635:1.0 
-1.7247224996774773 3.406197173896513 79:1.0 96:1.0 123:1.0 1650:1.0 
-0.6210582980012578 1.67724195945183 277:1.0 1650:1.0 1652:1.0 
-3.1435465421180293 0.0 38:1.0 201:1.0 1653:1.0 
-2.859886346375944 2.9668862032049357 38:1.0 86:1.0 206:1.0 257:1.0 372:1.0 565:1.0 1656:1.0 1657:1.0 
-2.2571604640068825 1.511222045520162 75:1.0 156:1.0 447:1.0 451:1.0 1678:1.0 1679:1.0 
-3.519509478680047 1.5050152394830976 8:1.0 40:1.0 97:1.0 196:1.0 210:1.0 539:1.0 580:1.0 1703:1.0 1704:1.0 1705:1.0 
-7.741410097554745 1.6307097875163654 206:1.0 304:1.0 396:1.0 898:1.0 
-3.0818507350349336 1.591792639866376 310:1.0 1732:1.0 1733:1.0 
-1.304174287355851 2.520863394329495 274:1.0 310:1.0 370:1.0 1746:1.0 1747:1.0 
-0.0 0.1521615874108966 47:1.0 296:1.0 418:1.0 839:1.0 1748:1.0 
-2.1605529910246104 2.0937240302400846 40:1.0 75:1.0 88:1.0 89:1.0 99:1.0 105:1.0 117:1.0 178:1.0 263:1.0 433:1.0 871:1.0 1364:1.0 1583:1.0 1765:1.0 1766:1.0 1767:1.0 
-3.9392900049745525 5.768997640139905 5:1.0 40:1.0 75:1.0 306:1.0 662:1.0 1777:1.0 
-1.375955557501275 1.2305365282517613 40:1.0 84:1.0 88:1.0 94:1.0 329:1.0 370:1.0 524:1.0 744:1.0 1285:1.0 1332:1.0 1778:1.0 1779:1.0 1780:1.0 1781:1.0 1782:1.0 1783:1.0 
-0.5001900770550007 3.7595998822173 96:1.0 105:1.0 806:1.0 1770:1.0 
-8.0 8.0 284:1.0 1790:1.0 1791:1.0 
-7.180130870439017 5.246193706080949 79:1.0 143:1.0 578:1.0 1798:1.0 
-5.516855251471857 1.590762403906163 80:1.0 288:1.0 295:1.0 518:1.0 1738:1.0 
-3.356256867225845 3.402218935872688 57:1.0 156:1.0 370:1.0 864:1.0 1760:1.0 1815:1.0 
-0.7380650968483523 0.46219743736047614 38:1.0 147:1.0 186:1.0 201:1.0 202:1.0 222:1.0 267:1.0 447:1.0 578:1.0 975:1.0 1065:1.0 1092:1.0 1146:1.0 1816:1.0 1817:1.0 1818:1.0 1819:1.0 1820:1.0 
-2.4949949688556288 0.11280290757799936 8:1.0 11:1.0 80:1.0 170:1.0 171:1.0 233:1.0 1351:1.0 1373:1.0 1821:1.0 1822:1.0 
-8.0 5.157921895416336 40:1.0 98:1.0 178:1.0 403:1.0 1830:1.0 
-6.846390626217375 6.496222699579334 147:1.0 1836:1.0 1837:1.0 
-8.0 4.9429911692875095 423:1.0 497:1.0 1381:1.0 1841:1.0 
-4.207257662567884 0.0 30:1.0 31:1.0 32:1.0 72:1.0 125:1.0 231:1.0 
-0.0 0.4874613741135543 77:1.0 178:1.0 206:1.0 423:1.0 490:1.0 1193:1.0 
-1.2646553370830396 2.799613906597768 7:1.0 178:1.0 1687:1.0 1871:1.0 
-0.3675437886165785 0.0 57:1.0 79:1.0 493:1.0 
-6.245952258532559 0.0 57:1.0 328:1.0 470:1.0 1897:1.0 
-4.641871010485195 1.1507641209892046 10:1.0 31:1.0 445:1.0 687:1.0 1201:1.0 
-0.0 2.79103745799288 80:1.0 119:1.0 147:1.0 
-0.0 0.35664838156079887 28:1.0 296:1.0 357:1.0 839:1.0 1569:1.0 1907:1.0 1908:1.0 1909:1.0 
-0.2203367475542924 0.0 31:1.0 72:1.0 75:1.0 349:1.0 366:1.0 798:1.0 1907:1.0 1910:1.0 
-0.0 2.6778379909533125 38:1.0 84:1.0 165:1.0 636:1.0 797:1.0 
-0.8541985474458457 1.6714602877226132 40:1.0 79:1.0 288:1.0 493:1.0 580:1.0 1075:1.0 1552:1.0 1912:1.0 
-1.3984976855228517 2.855705420745265 45:1.0 47:1.0 79:1.0 92:1.0 112:1.0 125:1.0 1921:1.0 1922:1.0 1923:1.0 1924:1.0 1925:1.0 
-8.0 8.0 38:1.0 1926:1.0 
-1.726973085529198 2.58913765594336 8:1.0 40:1.0 213:1.0 249:1.0 272:1.0 381:1.0 1927:1.0 1928:1.0 
-2.222376957103754 2.8038650317458447 46:1.0 47:1.0 149:1.0 230:1.0 245:1.0 289:1.0 438:1.0 658:1.0 749:1.0 
-8.0 6.5761628717027225 186:1.0 225:1.0 1401:1.0 1450:1.0 
-1.9337966569737084 0.0 31:1.0 40:1.0 46:1.0 372:1.0 485:1.0 840:1.0 1650:1.0 1952:1.0 
-2.391787681321065 0.0 38:1.0 69:1.0 70:1.0 
-0.0 8.0 79:1.0 86:1.0 383:1.0 
-1.0172129641280594 -0.6690938290809337 103:1.0 104:1.0 105:1.0 
-4.396539568685019 -7.345627562489069 97:1.0 106:1.0 107:1.0 108:1.0 109:1.0 110:1.0 
-1.1492549426106695 -0.0 131:1.0 132:1.0 133:1.0 134:1.0 135:1.0 136:1.0 137:1.0 138:1.0 139:1.0 140:1.0 141:1.0 
-0.0 -1.401578757829219 79:1.0 86:1.0 145:1.0 146:1.0 147:1.0 148:1.0 149:1.0 150:1.0 151:1.0 152:1.0 
-0.40190193975930666 -0.18568137125893758 105:1.0 145:1.0 164:1.0 165:1.0 166:1.0 167:1.0 168:1.0 
-0.0 -2.1620297499686862 54:1.0 79:1.0 148:1.0 207:1.0 208:1.0 209:1.0 210:1.0 211:1.0 212:1.0 213:1.0 214:1.0 215:1.0 
-1.9255353607296375 -2.430972957741993 8:1.0 25:1.0 88:1.0 132:1.0 216:1.0 217:1.0 218:1.0 219:1.0 220:1.0 
-4.700994094857106 -1.9454589488999265 77:1.0 78:1.0 96:1.0 149:1.0 242:1.0 243:1.0 244:1.0 245:1.0 246:1.0 247:1.0 
-3.3066977716068924 -1.3945466789515986 40:1.0 75:1.0 153:1.0 259:1.0 260:1.0 261:1.0 262:1.0 263:1.0 264:1.0 265:1.0 266:1.0 267:1.0 268:1.0 269:1.0 270:1.0 
-2.5076176998485047 -2.692751086622568 25:1.0 40:1.0 125:1.0 156:1.0 282:1.0 283:1.0 284:1.0 285:1.0 286:1.0 287:1.0 288:1.0 
-8.0 -8.0 105:1.0 322:1.0 
-4.746897935338228 -6.418203414894053 54:1.0 275:1.0 350:1.0 
-1.106772024544761 -0.9056657320186301 40:1.0 183:1.0 359:1.0 360:1.0 361:1.0 362:1.0 363:1.0 364:1.0 365:1.0 366:1.0 
-4.426573897861743 -8.0 40:1.0 105:1.0 123:1.0 374:1.0 
-8.0 -8.0 443:1.0 
-4.058518156852243 -6.145860876174523 178:1.0 372:1.0 486:1.0 487:1.0 
-4.531373124833648 -5.586109035787447 40:1.0 221:1.0 222:1.0 488:1.0 489:1.0 490:1.0 
-1.3687824676738762 -0.0 148:1.0 499:1.0 500:1.0 501:1.0 
-0.8146091534473083 -5.975240046204954 105:1.0 108:1.0 112:1.0 520:1.0 521:1.0 
-0.314094142538258 -0.0 10:1.0 40:1.0 43:1.0 86:1.0 105:1.0 112:1.0 117:1.0 416:1.0 523:1.0 527:1.0 528:1.0 529:1.0 530:1.0 531:1.0 
-4.7468979353382155 -4.067093918587978 54:1.0 275:1.0 538:1.0 
-8.0 -7.214887571869005 38:1.0 273:1.0 582:1.0 583:1.0 
-2.317454461801986 -0.6034264639282341 624:1.0 625:1.0 626:1.0 627:1.0 628:1.0 
-8.0 -8.0 78:1.0 650:1.0 
-0.8169031516542874 -0.7928431547319152 57:1.0 78:1.0 86:1.0 148:1.0 651:1.0 652:1.0 653:1.0 
-4.126682251721942 -3.4247825597087944 78:1.0 108:1.0 112:1.0 233:1.0 257:1.0 370:1.0 402:1.0 
-1.5081211649872088 -0.5239551096899681 78:1.0 273:1.0 601:1.0 654:1.0 655:1.0 
-7.876317123029333 -4.721604175698559 45:1.0 75:1.0 315:1.0 656:1.0 657:1.0 658:1.0 
-2.902089865104032 -2.9954156545766244 96:1.0 186:1.0 283:1.0 292:1.0 293:1.0 555:1.0 661:1.0 662:1.0 663:1.0 
-3.02409238531404 -2.174981499697332 130:1.0 271:1.0 673:1.0 674:1.0 
-8.0 -7.5239862225872844 675:1.0 676:1.0 
-3.167890125357751 -1.1087049506379758 40:1.0 86:1.0 92:1.0 125:1.0 677:1.0 
-2.536688205097553 -3.9488559354865376 178:1.0 443:1.0 679:1.0 680:1.0 
-2.156071414259424 -1.2880561877321188 54:1.0 87:1.0 90:1.0 152:1.0 265:1.0 275:1.0 578:1.0 688:1.0 689:1.0 690:1.0 691:1.0 692:1.0 693:1.0 694:1.0 
-5.371820154657059 -3.9577578542457967 4:1.0 106:1.0 131:1.0 204:1.0 257:1.0 700:1.0 
-6.31267475250855 -8.0 77:1.0 207:1.0 704:1.0 707:1.0 708:1.0 
-0.0 -0.30969261784009716 363:1.0 494:1.0 718:1.0 
-8.0 -8.0 86:1.0 718:1.0 
-0.0 -0.2618337684824067 11:1.0 79:1.0 106:1.0 130:1.0 545:1.0 722:1.0 723:1.0 
-2.1509620395922755 -0.0 75:1.0 78:1.0 728:1.0 729:1.0 730:1.0 731:1.0 732:1.0 733:1.0 
-1.7166842692181592 -0.43762281947404513 40:1.0 81:1.0 171:1.0 257:1.0 263:1.0 363:1.0 720:1.0 734:1.0 735:1.0 736:1.0 737:1.0 738:1.0 739:1.0 740:1.0 741:1.0 742:1.0 
-6.102215065047211 -4.297462879911322 744:1.0 745:1.0 746:1.0 747:1.0 
-1.291844211806571 -2.5873395878379695 7:1.0 363:1.0 748:1.0 749:1.0 750:1.0 751:1.0 752:1.0 753:1.0 754:1.0 755:1.0 
-8.0 -8.0 88:1.0 770:1.0 
-8.0 -8.0 86:1.0 817:1.0 
-1.6821814358693181 -0.7519220788901412 130:1.0 818:1.0 819:1.0 
-0.0 -0.5324328303954633 28:1.0 86:1.0 105:1.0 659:1.0 820:1.0 821:1.0 822:1.0 823:1.0 824:1.0 
-8.0 -2.697895461947515 86:1.0 820:1.0 
-2.242672256774904 -0.7009851500933826 28:1.0 86:1.0 196:1.0 256:1.0 257:1.0 346:1.0 739:1.0 820:1.0 825:1.0 826:1.0 827:1.0 828:1.0 829:1.0 830:1.0 831:1.0 832:1.0 
-8.0 -7.548052491888117 169:1.0 302:1.0 843:1.0 
-3.9065643012177995 -2.6903254216912162 96:1.0 105:1.0 186:1.0 233:1.0 418:1.0 851:1.0 852:1.0 853:1.0 
-0.0 -0.6697031251879371 105:1.0 178:1.0 854:1.0 855:1.0 
-0.49542203156647535 -1.9149143561941242 28:1.0 86:1.0 721:1.0 820:1.0 856:1.0 
-4.034273215653887 -5.405072543531383 75:1.0 79:1.0 88:1.0 131:1.0 213:1.0 248:1.0 393:1.0 857:1.0 858:1.0 
-2.9964152272409983 -0.8729076058263494 222:1.0 318:1.0 625:1.0 626:1.0 808:1.0 859:1.0 860:1.0 
-3.4008653896779393 -2.47624590804182 136:1.0 870:1.0 871:1.0 872:1.0 873:1.0 874:1.0 875:1.0 
-3.8171900041963003 -1.8339733014196873 40:1.0 677:1.0 876:1.0 877:1.0 
-5.792148630445245 -5.196561845720597 129:1.0 500:1.0 916:1.0 917:1.0 
-8.0 -8.0 38:1.0 943:1.0 944:1.0 
-2.137666602108376 -5.42256964601205 40:1.0 147:1.0 207:1.0 315:1.0 400:1.0 952:1.0 953:1.0 954:1.0 
-1.1833065896967485 -1.6491498283606365 40:1.0 147:1.0 852:1.0 952:1.0 955:1.0 956:1.0 957:1.0 
-2.9394571727830097 -3.239110674890313 40:1.0 75:1.0 122:1.0 262:1.0 624:1.0 625:1.0 626:1.0 961:1.0 
-0.4925495615830141 -0.8162761319134328 40:1.0 75:1.0 122:1.0 625:1.0 626:1.0 962:1.0 963:1.0 964:1.0 965:1.0 
-2.3867942433622447 -1.6264803458279562 10:1.0 40:1.0 105:1.0 148:1.0 183:1.0 306:1.0 689:1.0 986:1.0 987:1.0 988:1.0 989:1.0 
-8.0 -8.0 40:1.0 990:1.0 
-5.230647010910009 -4.840118800645195 40:1.0 348:1.0 779:1.0 992:1.0 993:1.0 
-0.3140257803040735 -0.8647892415285685 11:1.0 40:1.0 47:1.0 125:1.0 130:1.0 420:1.0 996:1.0 997:1.0 998:1.0 
-5.624405400062153 -8.0 38:1.0 40:1.0 677:1.0 1007:1.0 
-2.649122559821236 -1.724690180675039 40:1.0 75:1.0 81:1.0 363:1.0 540:1.0 541:1.0 924:1.0 1019:1.0 1020:1.0 1021:1.0 1022:1.0 
-0.8828201310520185 -2.512028769434598 40:1.0 148:1.0 1042:1.0 1043:1.0 1044:1.0 
-2.9701436704657644 -3.062444009688791 40:1.0 119:1.0 677:1.0 1053:1.0 
-0.7724141068518363 -0.6562995238756206 38:1.0 40:1.0 43:1.0 78:1.0 105:1.0 148:1.0 288:1.0 420:1.0 581:1.0 828:1.0 1066:1.0 1067:1.0 
-8.0 -8.0 96:1.0 852:1.0 
-0.4834210883879282 -0.0 112:1.0 130:1.0 145:1.0 289:1.0 315:1.0 348:1.0 953:1.0 1094:1.0 1095:1.0 
-8.0 -8.0 1008:1.0 1102:1.0 
-4.110238791512979 -2.353439814987445 4:1.0 487:1.0 492:1.0 881:1.0 1109:1.0 
-4.604941328740491 -0.0 43:1.0 148:1.0 178:1.0 222:1.0 233:1.0 257:1.0 982:1.0 1135:1.0 
-8.0 -8.0 233:1.0 283:1.0 1137:1.0 
-5.215895553434908 -5.8516041693230685 4:1.0 849:1.0 1140:1.0 1141:1.0 
-1.5660962477037041 -0.3053114357890455 156:1.0 168:1.0 213:1.0 233:1.0 249:1.0 652:1.0 819:1.0 820:1.0 937:1.0 1146:1.0 1147:1.0 1148:1.0 
-5.756257655238871 -5.7332547990449685 132:1.0 202:1.0 1149:1.0 
-3.003275539311672 -0.6678386433604666 130:1.0 549:1.0 572:1.0 1150:1.0 1151:1.0 1152:1.0 
-3.8653182128646546 -1.5061328995730157 130:1.0 1153:1.0 
-6.777403036181215 -3.8925940116806164 1167:1.0 1168:1.0 
-8.0 -8.0 855:1.0 
-5.031145174620248 -1.8964850895305467 124:1.0 204:1.0 487:1.0 1212:1.0 1213:1.0 
-4.9111106224065715 -2.86280749939834 98:1.0 590:1.0 1214:1.0 1215:1.0 1216:1.0 1217:1.0 
-1.6904368632983113 -2.151965157874161 97:1.0 147:1.0 148:1.0 151:1.0 306:1.0 357:1.0 862:1.0 1043:1.0 1233:1.0 1234:1.0 1235:1.0 1236:1.0 
-7.830486979378363 -5.392505518185131 719:1.0 1238:1.0 
-7.8319073539447315 -5.397090816322382 719:1.0 1239:1.0 
-1.8687994889689952 -3.077553685789369 78:1.0 179:1.0 296:1.0 519:1.0 730:1.0 731:1.0 797:1.0 809:1.0 837:1.0 1255:1.0 
-1.5959837931596792 -4.930508698119296 178:1.0 186:1.0 662:1.0 809:1.0 1257:1.0 1258:1.0 
-1.2827730444524714 -0.2445102444061989 125:1.0 165:1.0 167:1.0 210:1.0 338:1.0 444:1.0 862:1.0 891:1.0 1268:1.0 1269:1.0 1270:1.0 1271:1.0 
-4.369962721839419 -0.46045109062427747 75:1.0 104:1.0 105:1.0 
-0.0 -7.69248869065728 75:1.0 79:1.0 105:1.0 855:1.0 
-5.2891825685922145 -1.8294770420262534 168:1.0 1276:1.0 1277:1.0 1278:1.0 1279:1.0 1280:1.0 1281:1.0 1282:1.0 
-8.0 -8.0 104:1.0 
-2.9477919305954745 -4.1743177940882275 38:1.0 40:1.0 75:1.0 288:1.0 381:1.0 942:1.0 1276:1.0 1312:1.0 1313:1.0 1314:1.0 1315:1.0 
-0.8732053760581391 -0.0 105:1.0 852:1.0 
-1.2601771461305074 -0.0 38:1.0 78:1.0 112:1.0 138:1.0 526:1.0 1168:1.0 1316:1.0 
-1.2929599729974066 -0.0 112:1.0 148:1.0 400:1.0 555:1.0 791:1.0 1317:1.0 
-6.458106683227043 -2.7327402641054657 125:1.0 209:1.0 283:1.0 662:1.0 
-1.9795705491664475 -3.7891207793918538 88:1.0 156:1.0 165:1.0 167:1.0 196:1.0 289:1.0 394:1.0 636:1.0 798:1.0 1321:1.0 1322:1.0 1323:1.0 
-6.593679880620992 -3.094728757508684 739:1.0 943:1.0 1339:1.0 
-0.7035719691541903 -0.40950827758172037 130:1.0 131:1.0 156:1.0 186:1.0 348:1.0 1340:1.0 1341:1.0 1342:1.0 1343:1.0 
-8.0 -7.787794759939079 10:1.0 24:1.0 497:1.0 1365:1.0 1366:1.0 
-3.345690159654004 -1.7926612519765102 167:1.0 903:1.0 1382:1.0 1383:1.0 1384:1.0 
-0.33508339748952237 -2.1551421488093236 178:1.0 487:1.0 1212:1.0 1406:1.0 1407:1.0 
-0.0 -0.8545662120063102 178:1.0 222:1.0 852:1.0 
-0.7446299746439875 -1.3288718389691943 54:1.0 105:1.0 148:1.0 1060:1.0 1200:1.0 1439:1.0 1440:1.0 
-2.913605290526706 -2.045190613947442 38:1.0 275:1.0 689:1.0 721:1.0 871:1.0 1096:1.0 
-0.0 -0.994277706592075 79:1.0 132:1.0 527:1.0 1483:1.0 1484:1.0 
-1.1272701744234985 -1.1796489707656808 81:1.0 105:1.0 133:1.0 136:1.0 638:1.0 988:1.0 1486:1.0 1487:1.0 1488:1.0 1489:1.0 1490:1.0 
-0.9632072816913493 -3.8118159032747596 54:1.0 108:1.0 112:1.0 947:1.0 1506:1.0 1507:1.0 1508:1.0 
-0.19235314914595586 -1.6955434860115282 74:1.0 78:1.0 105:1.0 178:1.0 245:1.0 529:1.0 1307:1.0 1514:1.0 1515:1.0 1516:1.0 
-0.04167154859804664 -1.8970065351710508 104:1.0 105:1.0 1139:1.0 1512:1.0 1517:1.0 
-4.349038726370958 -3.83201404729118 178:1.0 270:1.0 438:1.0 768:1.0 791:1.0 841:1.0 1518:1.0 1519:1.0 
-5.854521649644032 -3.7799556058100645 284:1.0 696:1.0 848:1.0 1524:1.0 1525:1.0 1526:1.0 
-8.0 -3.8808233427138243 233:1.0 363:1.0 1528:1.0 
-2.3985058355862403 -1.0379422443020674 11:1.0 130:1.0 1529:1.0 1530:1.0 
-3.521443149272723 -0.8545623598796371 130:1.0 1103:1.0 1536:1.0 
-1.0669425512531783 -1.5673738496246208 40:1.0 94:1.0 165:1.0 167:1.0 400:1.0 636:1.0 797:1.0 828:1.0 929:1.0 1002:1.0 1537:1.0 1538:1.0 1539:1.0 
-0.42304074197033736 -0.7581850829157517 40:1.0 116:1.0 430:1.0 677:1.0 
-4.023448104334823 -3.056265195577933 131:1.0 132:1.0 749:1.0 1166:1.0 1548:1.0 
-4.142375201560376 -2.4107402510414695 133:1.0 529:1.0 1034:1.0 1567:1.0 1568:1.0 
-5.803227252088524 -2.7813909162501784 1309:1.0 1573:1.0 1574:1.0 1575:1.0 1576:1.0 
-8.0 -8.0 1580:1.0 
-5.748597572895375 -6.42980603817271 8:1.0 116:1.0 168:1.0 1591:1.0 1592:1.0 1593:1.0 
-2.9943983853418863 -2.2959042479663285 580:1.0 820:1.0 1192:1.0 1594:1.0 
-3.352580394685844 -2.5687390210906247 5:1.0 32:1.0 112:1.0 749:1.0 1255:1.0 1359:1.0 1595:1.0 1596:1.0 1597:1.0 
-8.0 -2.0137633985198238 11:1.0 75:1.0 112:1.0 233:1.0 1114:1.0 1203:1.0 1583:1.0 1598:1.0 
-2.158036465801093 -3.015447232357597 5:1.0 11:1.0 130:1.0 729:1.0 
-7.361920186731411 -0.0 580:1.0 855:1.0 1618:1.0 
-8.0 -1.7210945388460774 43:1.0 151:1.0 403:1.0 523:1.0 1626:1.0 
-3.0796474461212755 -3.5151846437765633 79:1.0 125:1.0 354:1.0 418:1.0 928:1.0 1574:1.0 1631:1.0 1632:1.0 1633:1.0 
-5.654752497642437 -1.4474998244675321 38:1.0 43:1.0 381:1.0 527:1.0 1636:1.0 1637:1.0 
-2.815663834527662 -3.602293760652357 79:1.0 147:1.0 148:1.0 278:1.0 523:1.0 1638:1.0 
-1.112888718143119 -0.4620934740509676 40:1.0 103:1.0 165:1.0 167:1.0 202:1.0 222:1.0 300:1.0 318:1.0 342:1.0 389:1.0 410:1.0 929:1.0 975:1.0 1642:1.0 1643:1.0 1644:1.0 1645:1.0 
-0.347520601427493 -0.42544793986028995 165:1.0 167:1.0 528:1.0 529:1.0 636:1.0 1646:1.0 1647:1.0 1648:1.0 
-3.1495072346099056 -2.353870891177733 165:1.0 167:1.0 790:1.0 1649:1.0 
-3.302762458702479 -2.711396233658082 38:1.0 86:1.0 363:1.0 1654:1.0 1655:1.0 
-3.3549837808052128 -2.8400681633803107 27:1.0 40:1.0 117:1.0 149:1.0 169:1.0 274:1.0 306:1.0 380:1.0 770:1.0 947:1.0 996:1.0 1677:1.0 
-8.0 -8.0 222:1.0 1450:1.0 1680:1.0 
-3.799591992574159 -0.45543693418243253 222:1.0 257:1.0 718:1.0 1681:1.0 1682:1.0 1683:1.0 1684:1.0 
-7.8825729548770855 -2.671086901412939 31:1.0 43:1.0 249:1.0 1692:1.0 1693:1.0 1694:1.0 
-6.29064637116121 -4.385281425250261 47:1.0 656:1.0 1700:1.0 1701:1.0 
-0.0 -1.578351585992016 40:1.0 89:1.0 122:1.0 624:1.0 625:1.0 749:1.0 808:1.0 943:1.0 1702:1.0 
-2.5819762560633968 -2.710716057290807 78:1.0 81:1.0 114:1.0 133:1.0 152:1.0 1710:1.0 1711:1.0 1712:1.0 1713:1.0 
-0.42975698910408716 -1.5494426641505654 78:1.0 79:1.0 89:1.0 852:1.0 1714:1.0 1715:1.0 
-8.0 -5.408014236667143 1724:1.0 1725:1.0 1726:1.0 
-4.531621332842327 -4.070426219846875 40:1.0 263:1.0 296:1.0 1136:1.0 1258:1.0 1729:1.0 
-1.5017905358046029 -1.7775112728499498 145:1.0 165:1.0 167:1.0 172:1.0 798:1.0 1730:1.0 1731:1.0 
-4.457768139178888 -1.4435593197213672 159:1.0 257:1.0 284:1.0 820:1.0 1296:1.0 1744:1.0 
-8.0 -8.0 31:1.0 336:1.0 962:1.0 1702:1.0 
-8.0 -5.168807115550203 444:1.0 1506:1.0 1749:1.0 
-0.01502416858810828 -0.0 855:1.0 1506:1.0 
-8.0 -8.0 40:1.0 122:1.0 1764:1.0 
-2.316949370573989 -0.0 40:1.0 75:1.0 86:1.0 89:1.0 90:1.0 315:1.0 527:1.0 721:1.0 752:1.0 1309:1.0 1768:1.0 1769:1.0 1770:1.0 1771:1.0 1772:1.0 1773:1.0 
-1.5981334295189582 -1.8335172393976782 40:1.0 677:1.0 1775:1.0 1776:1.0 
-4.0697818591131965 -3.7988973153363905 25:1.0 96:1.0 100:1.0 112:1.0 248:1.0 1785:1.0 1786:1.0 1787:1.0 
-0.8776571617157212 -0.0760151154463828 487:1.0 739:1.0 1598:1.0 1792:1.0 1793:1.0 1794:1.0 
-7.676997484446191 -4.629460690406261 98:1.0 1806:1.0 1807:1.0 1808:1.0 
-2.166207312223677 -0.0 149:1.0 707:1.0 849:1.0 1018:1.0 1043:1.0 1319:1.0 1594:1.0 1814:1.0 
-0.0 -4.889166280344823 40:1.0 47:1.0 125:1.0 130:1.0 370:1.0 797:1.0 1086:1.0 
-8.0 -8.0 206:1.0 557:1.0 1136:1.0 1833:1.0 
-0.7145609403866704 -0.01207282048335881 105:1.0 112:1.0 123:1.0 131:1.0 557:1.0 657:1.0 1842:1.0 1843:1.0 1844:1.0 
-1.9633181527566552 -0.0 90:1.0 97:1.0 104:1.0 105:1.0 112:1.0 318:1.0 370:1.0 1845:1.0 1846:1.0 
-3.4317667449966995 -1.2829452047334495 43:1.0 79:1.0 86:1.0 155:1.0 1100:1.0 1452:1.0 1847:1.0 1848:1.0 1849:1.0 1850:1.0 
-2.036021603142925 -1.0665276856407624 75:1.0 111:1.0 257:1.0 359:1.0 527:1.0 1730:1.0 1851:1.0 1852:1.0 
-2.2235073221231807 -1.1255524470707976 28:1.0 266:1.0 270:1.0 363:1.0 494:1.0 1857:1.0 1858:1.0 1859:1.0 1860:1.0 1861:1.0 
-0.0 -0.9393474811216458 7:1.0 78:1.0 527:1.0 731:1.0 785:1.0 928:1.0 1878:1.0 1879:1.0 
-2.5006067895740087 -1.6787729653602388 38:1.0 86:1.0 233:1.0 527:1.0 1612:1.0 1885:1.0 1886:1.0 1887:1.0 1888:1.0 
-3.803724020538314 -5.4202249442152235 79:1.0 249:1.0 1889:1.0 1890:1.0 1891:1.0 
-0.0 -1.0830079054877233 104:1.0 105:1.0 202:1.0 1892:1.0 1893:1.0 
-4.193875122775791 -1.6650303350839142 209:1.0 273:1.0 1344:1.0 1898:1.0 
-0.9062503083350819 -3.8779877416925466 105:1.0 108:1.0 147:1.0 489:1.0 657:1.0 1901:1.0 1902:1.0 1903:1.0 1904:1.0 
-8.0 -6.7131341890657374 1168:1.0 1760:1.0 
-0.9902691761121175 -1.9026145720008618 578:1.0 729:1.0 1168:1.0 1916:1.0 
-3.8354750195073057 -1.164696780517889 3:1.0 87:1.0 89:1.0 144:1.0 257:1.0 430:1.0 527:1.0 648:1.0 696:1.0 929:1.0 978:1.0 1795:1.0 1917:1.0 1918:1.0 1919:1.0 1920:1.0 
-5.7794649014969535 -8.0 275:1.0 306:1.0 1935:1.0 
-3.6283885489181715 -3.4812245993038657 40:1.0 54:1.0 138:1.0 159:1.0 171:1.0 207:1.0 364:1.0 370:1.0 689:1.0 1753:1.0 1942:1.0 1943:1.0 
-8.0 -8.0 580:1.0 1944:1.0 
-1.309998813792884 -0.8966908927978857 25:1.0 38:1.0 54:1.0 78:1.0 105:1.0 145:1.0 148:1.0 152:1.0 189:1.0 438:1.0 580:1.0 701:1.0 
-0.6873706405193153 -2.574208998930534 43:1.0 45:1.0 79:1.0 403:1.0 523:1.0 527:1.0 1077:1.0 1945:1.0 1946:1.0 1947:1.0 
-4.58287698381883 -1.2457942460026143 38:1.0 43:1.0 75:1.0 328:1.0 523:1.0 675:1.0 1936:1.0 1948:1.0 1949:1.0 
-5.2969507682677515 -4.593657721758888 24:1.0 149:1.0 464:1.0 1950:1.0 1951:1.0 
-0.6616186532358564 -4.35432150196707 8:1.0 9:1.0 178:1.0 222:1.0 1136:1.0 1285:1.0 1953:1.0 1954:1.0 
-2.4744846966826843 -1.6478050737100571 86:1.0 527:1.0 1254:1.0 1955:1.0 
