svm_type c_svc
kernel_type rbf
gamma 3.0517578125E-5
nr_class 3
total_sv 677
rho -8.47297906569147 1.0009224676199935 5.438440840757035
label 0 3 1
probA -3.192225288032244 -3.1114973591877972 -3.8068165788200212
probB -0.1862305279610122 0.17203646391066715 0.22062815557999915
nr_sv 275 221 181
SV
291.3345651215022 409.4842884785642 10:1.0 11:1.0 12:1.0 13:1.0 14:1.0 15:1.0 16:1.0 17:1.0 
469.8324021866609 625.4621985526907 10:1.0 11:1.0 14:1.0 15:1.0 16:1.0 18:1.0 19:1.0 
409.2255611524984 566.5887247015504 10:1.0 11:1.0 14:1.0 15:1.0 20:1.0 21:1.0 22:1.0 23:1.0 
4268.013969641765 4046.1774320822883 24:1.0 25:1.0 26:1.0 27:1.0 28:1.0 29:1.0 
8192.0 2379.271346357716 35:1.0 36:1.0 37:1.0 38:1.0 
574.2977023694036 2876.136695126582 39:1.0 40:1.0 41:1.0 42:1.0 43:1.0 
3605.725809283156 826.584338315173 50:1.0 51:1.0 52:1.0 53:1.0 54:1.0 55:1.0 
928.8377363469111 1071.8368170285528 59:1.0 60:1.0 61:1.0 62:1.0 63:1.0 64:1.0 65:1.0 66:1.0 67:1.0 
464.91170506140395 0.0 42:1.0 75:1.0 90:1.0 96:1.0 97:1.0 98:1.0 99:1.0 
0.0 2738.0265253221246 75:1.0 86:1.0 117:1.0 118:1.0 119:1.0 120:1.0 
2323.124133467015 2381.419648986015 40:1.0 122:1.0 124:1.0 125:1.0 126:1.0 127:1.0 128:1.0 
2517.1072240314684 0.0 31:1.0 42:1.0 90:1.0 142:1.0 143:1.0 144:1.0 
1762.4344903552626 1434.6463561243756 31:1.0 88:1.0 138:1.0 153:1.0 154:1.0 155:1.0 156:1.0 157:1.0 158:1.0 159:1.0 160:1.0 161:1.0 162:1.0 163:1.0 
7229.276967636941 0.0 10:1.0 28:1.0 169:1.0 170:1.0 171:1.0 172:1.0 
6961.428282526809 1476.2243625157266 31:1.0 72:1.0 112:1.0 173:1.0 174:1.0 175:1.0 176:1.0 
1560.3658610070981 1450.0347701103133 31:1.0 81:1.0 86:1.0 112:1.0 117:1.0 177:1.0 178:1.0 179:1.0 180:1.0 181:1.0 182:1.0 183:1.0 184:1.0 
2196.3253475309484 0.0 72:1.0 186:1.0 190:1.0 191:1.0 192:1.0 193:1.0 194:1.0 195:1.0 196:1.0 197:1.0 198:1.0 
4166.368283377123 1624.0852064993874 30:1.0 138:1.0 229:1.0 230:1.0 231:1.0 232:1.0 
0.0 1163.1773822105008 75:1.0 120:1.0 159:1.0 197:1.0 
4170.748639894749 715.9009241226581 31:1.0 96:1.0 270:1.0 299:1.0 300:1.0 301:1.0 
3837.652327042658 405.7455344631534 302:1.0 303:1.0 304:1.0 305:1.0 306:1.0 
3336.638449364049 3339.8712065056725 40:1.0 56:1.0 86:1.0 103:1.0 233:1.0 307:1.0 308:1.0 309:1.0 
178.11730995074737 253.89697791581278 36:1.0 40:1.0 282:1.0 296:1.0 315:1.0 316:1.0 317:1.0 318:1.0 319:1.0 320:1.0 321:1.0 
2846.185208888252 3022.2652230228473 53:1.0 86:1.0 323:1.0 324:1.0 325:1.0 
1378.294387932433 3498.2759308395566 78:1.0 249:1.0 284:1.0 329:1.0 330:1.0 331:1.0 332:1.0 333:1.0 334:1.0 335:1.0 336:1.0 337:1.0 
0.0 988.7239867737069 43:1.0 302:1.0 338:1.0 339:1.0 340:1.0 341:1.0 342:1.0 343:1.0 
751.4792167293504 735.2194332781818 79:1.0 329:1.0 356:1.0 357:1.0 358:1.0 359:1.0 360:1.0 361:1.0 362:1.0 
2691.343684432055 3539.1107698690266 89:1.0 377:1.0 378:1.0 
500.757684721778 2017.9616571186116 39:1.0 43:1.0 86:1.0 88:1.0 380:1.0 381:1.0 382:1.0 
1580.2464850535434 3885.0248183522276 40:1.0 249:1.0 394:1.0 395:1.0 396:1.0 397:1.0 
3124.296980378226 0.0 69:1.0 96:1.0 352:1.0 408:1.0 409:1.0 410:1.0 411:1.0 
356.5815007884254 1203.3446109317833 86:1.0 87:1.0 145:1.0 198:1.0 253:1.0 352:1.0 412:1.0 413:1.0 414:1.0 
276.0902242737978 761.2251307963616 96:1.0 153:1.0 257:1.0 415:1.0 416:1.0 417:1.0 418:1.0 419:1.0 420:1.0 421:1.0 
0.0 358.4522086489073 43:1.0 81:1.0 86:1.0 225:1.0 261:1.0 428:1.0 429:1.0 430:1.0 431:1.0 
1484.2127506804666 4753.285411323239 43:1.0 86:1.0 306:1.0 442:1.0 443:1.0 444:1.0 
4756.915430420283 5246.083812481822 445:1.0 446:1.0 
8192.0 7856.5211880582 96:1.0 316:1.0 448:1.0 
4780.3755631546865 3446.953185604141 43:1.0 57:1.0 204:1.0 450:1.0 
2679.578527786176 3229.231053315923 4:1.0 77:1.0 78:1.0 112:1.0 144:1.0 306:1.0 455:1.0 456:1.0 457:1.0 458:1.0 459:1.0 460:1.0 461:1.0 
1005.2811648387739 0.0 43:1.0 97:1.0 178:1.0 206:1.0 210:1.0 316:1.0 319:1.0 427:1.0 439:1.0 468:1.0 469:1.0 470:1.0 471:1.0 472:1.0 473:1.0 
0.0 567.2920405241308 315:1.0 316:1.0 319:1.0 474:1.0 
1186.736573429866 1216.4743165290981 86:1.0 117:1.0 222:1.0 394:1.0 426:1.0 475:1.0 476:1.0 477:1.0 478:1.0 
846.5287824938368 0.0 31:1.0 125:1.0 479:1.0 480:1.0 481:1.0 482:1.0 483:1.0 484:1.0 485:1.0 486:1.0 487:1.0 488:1.0 
3653.3148612907116 5287.095546660404 5:1.0 131:1.0 222:1.0 245:1.0 494:1.0 495:1.0 
0.0 191.98684459818017 25:1.0 43:1.0 88:1.0 149:1.0 225:1.0 509:1.0 510:1.0 
0.0 1909.0058889415275 43:1.0 221:1.0 253:1.0 511:1.0 522:1.0 
862.001582183316 3694.6145097319413 151:1.0 525:1.0 526:1.0 527:1.0 528:1.0 529:1.0 
2416.788567551023 0.0 10:1.0 433:1.0 542:1.0 543:1.0 544:1.0 
0.0 546.7000763975498 247:1.0 315:1.0 316:1.0 319:1.0 545:1.0 546:1.0 547:1.0 548:1.0 549:1.0 550:1.0 
2263.141869239749 0.0 40:1.0 101:1.0 102:1.0 186:1.0 270:1.0 352:1.0 390:1.0 581:1.0 582:1.0 583:1.0 584:1.0 
1383.2504479021009 2244.939258208517 98:1.0 587:1.0 588:1.0 589:1.0 590:1.0 591:1.0 
0.0 10.674859247410023 89:1.0 98:1.0 525:1.0 592:1.0 593:1.0 594:1.0 595:1.0 596:1.0 597:1.0 598:1.0 599:1.0 
0.0 367.0586937578277 10:1.0 98:1.0 592:1.0 595:1.0 600:1.0 601:1.0 602:1.0 603:1.0 
762.7915217792338 1210.000708419813 98:1.0 604:1.0 605:1.0 606:1.0 607:1.0 608:1.0 609:1.0 610:1.0 611:1.0 612:1.0 613:1.0 
943.3320380798358 990.3344687085123 76:1.0 98:1.0 600:1.0 614:1.0 615:1.0 616:1.0 617:1.0 618:1.0 619:1.0 620:1.0 621:1.0 622:1.0 
815.9682327976061 1058.6226442553575 98:1.0 187:1.0 317:1.0 552:1.0 623:1.0 624:1.0 625:1.0 626:1.0 
2526.9081934265755 1877.411280652867 98:1.0 642:1.0 643:1.0 644:1.0 645:1.0 646:1.0 647:1.0 
2945.7633118859194 3280.301963076888 125:1.0 648:1.0 649:1.0 650:1.0 
8192.0 8192.0 
872.0805905852069 0.0 69:1.0 159:1.0 667:1.0 668:1.0 669:1.0 670:1.0 671:1.0 672:1.0 673:1.0 674:1.0 675:1.0 
0.0 1684.4165139129366 25:1.0 270:1.0 567:1.0 704:1.0 705:1.0 706:1.0 
8165.74907281873 4437.360510532486 79:1.0 189:1.0 225:1.0 712:1.0 713:1.0 
194.7724394692459 1314.1630630165853 592:1.0 717:1.0 718:1.0 719:1.0 720:1.0 
4253.960974389214 2848.677767554198 88:1.0 233:1.0 727:1.0 728:1.0 729:1.0 
8192.0 6392.130525695067 69:1.0 222:1.0 746:1.0 
2572.748785041769 1181.7193787585393 84:1.0 371:1.0 542:1.0 764:1.0 765:1.0 766:1.0 767:1.0 768:1.0 769:1.0 770:1.0 771:1.0 
0.0 1138.2768659400888 25:1.0 43:1.0 81:1.0 117:1.0 149:1.0 151:1.0 159:1.0 238:1.0 283:1.0 328:1.0 775:1.0 776:1.0 777:1.0 778:1.0 779:1.0 780:1.0 
5225.780440227586 1240.006206579634 84:1.0 186:1.0 495:1.0 599:1.0 781:1.0 782:1.0 
1574.3858298187802 44.76904354746637 11:1.0 119:1.0 144:1.0 276:1.0 464:1.0 783:1.0 784:1.0 785:1.0 786:1.0 787:1.0 788:1.0 789:1.0 790:1.0 
2023.954537714907 2531.4039078656688 52:1.0 150:1.0 791:1.0 792:1.0 793:1.0 794:1.0 795:1.0 
8192.0 8192.0 796:1.0 
1777.0948471910112 1865.976491807334 482:1.0 806:1.0 807:1.0 808:1.0 
1041.8675290350793 916.6215235349507 15:1.0 813:1.0 814:1.0 815:1.0 816:1.0 817:1.0 818:1.0 819:1.0 
1390.3140902761222 0.0 90:1.0 120:1.0 836:1.0 837:1.0 
1587.9103129185376 63.176514656886305 404:1.0 838:1.0 839:1.0 840:1.0 
3157.331148892327 5126.32475485392 11:1.0 38:1.0 405:1.0 660:1.0 851:1.0 852:1.0 853:1.0 
1737.9645995260298 0.0 80:1.0 90:1.0 144:1.0 186:1.0 742:1.0 811:1.0 864:1.0 865:1.0 
8192.0 1334.1183371203413 69:1.0 882:1.0 
8192.0 2709.4202166794976 38:1.0 57:1.0 883:1.0 884:1.0 
0.0 2446.009694899948 90:1.0 139:1.0 664:1.0 
3156.957181284467 3495.0733254890743 890:1.0 891:1.0 892:1.0 
0.0 303.10160256147003 128:1.0 893:1.0 894:1.0 895:1.0 896:1.0 897:1.0 898:1.0 899:1.0 900:1.0 
587.072391228027 0.0 1:1.0 196:1.0 351:1.0 633:1.0 908:1.0 909:1.0 910:1.0 911:1.0 912:1.0 913:1.0 
884.5022544120177 0.0 38:1.0 69:1.0 75:1.0 171:1.0 281:1.0 755:1.0 921:1.0 922:1.0 923:1.0 924:1.0 925:1.0 926:1.0 
8192.0 7433.099581571168 38:1.0 937:1.0 
2280.2270131145838 939.8626046024926 47:1.0 396:1.0 554:1.0 555:1.0 833:1.0 938:1.0 939:1.0 940:1.0 
1151.468844550999 2302.5284295597594 40:1.0 122:1.0 168:1.0 283:1.0 417:1.0 418:1.0 552:1.0 932:1.0 961:1.0 962:1.0 963:1.0 
6609.655995838722 0.0 1:1.0 38:1.0 40:1.0 97:1.0 122:1.0 971:1.0 
2356.4036380600996 1157.594714371783 40:1.0 81:1.0 122:1.0 214:1.0 973:1.0 974:1.0 975:1.0 976:1.0 
4642.454372660166 6283.085794152079 1:1.0 40:1.0 122:1.0 144:1.0 
1340.0558966146511 1000.3812854904372 31:1.0 40:1.0 78:1.0 171:1.0 210:1.0 280:1.0 356:1.0 360:1.0 383:1.0 384:1.0 950:1.0 978:1.0 979:1.0 980:1.0 981:1.0 982:1.0 
3721.3339493919943 2146.465288443399 38:1.0 40:1.0 983:1.0 984:1.0 985:1.0 986:1.0 987:1.0 
8192.0 3662.843080413055 40:1.0 81:1.0 213:1.0 527:1.0 988:1.0 
4599.5840606490765 5709.843171743793 40:1.0 169:1.0 170:1.0 171:1.0 994:1.0 
4477.104936182358 5685.504322279304 40:1.0 131:1.0 159:1.0 997:1.0 998:1.0 
3731.357525891683 3379.0540896546054 40:1.0 329:1.0 1028:1.0 1029:1.0 
922.8908024989963 0.0 31:1.0 40:1.0 96:1.0 233:1.0 377:1.0 390:1.0 796:1.0 1031:1.0 
0.0 534.0382490197644 40:1.0 197:1.0 233:1.0 383:1.0 384:1.0 1032:1.0 1033:1.0 1034:1.0 
2088.792155463021 3982.307495766948 40:1.0 233:1.0 362:1.0 536:1.0 1035:1.0 
2686.4132859787424 0.0 25:1.0 31:1.0 40:1.0 72:1.0 171:1.0 233:1.0 282:1.0 929:1.0 1036:1.0 1037:1.0 
8192.0 3776.984162685017 38:1.0 40:1.0 1042:1.0 1043:1.0 1044:1.0 
2241.7815437349605 0.0 40:1.0 117:1.0 210:1.0 280:1.0 282:1.0 352:1.0 1048:1.0 1049:1.0 
8192.0 4696.4017996792745 40:1.0 178:1.0 188:1.0 281:1.0 282:1.0 1060:1.0 1061:1.0 
421.55922966865745 785.542125902085 40:1.0 168:1.0 434:1.0 465:1.0 676:1.0 1062:1.0 1063:1.0 
2608.044998576343 421.8661251350451 75:1.0 94:1.0 289:1.0 377:1.0 441:1.0 990:1.0 1071:1.0 1072:1.0 1073:1.0 1074:1.0 
0.0 1524.5904483023196 96:1.0 112:1.0 316:1.0 1075:1.0 
6101.767676169267 2054.0969495198624 40:1.0 289:1.0 290:1.0 1092:1.0 1093:1.0 1094:1.0 
2047.044519467925 2235.7463415668713 169:1.0 289:1.0 473:1.0 999:1.0 1099:1.0 1100:1.0 
2180.9256067743527 3101.472797719758 24:1.0 75:1.0 106:1.0 125:1.0 172:1.0 289:1.0 783:1.0 1102:1.0 1103:1.0 1104:1.0 
2420.1659579343514 1762.9152732353573 88:1.0 321:1.0 1106:1.0 1107:1.0 1108:1.0 1109:1.0 1110:1.0 1111:1.0 
6072.8974966907945 5144.6109637754735 75:1.0 77:1.0 143:1.0 1023:1.0 
1687.202290141908 87.31136158803855 31:1.0 88:1.0 358:1.0 583:1.0 801:1.0 1117:1.0 1118:1.0 1119:1.0 1120:1.0 1121:1.0 1122:1.0 
0.0 2862.206116858255 1117:1.0 1123:1.0 
2677.494580755918 8192.0 1117:1.0 
2243.293567570725 1278.1235578114117 525:1.0 1124:1.0 1125:1.0 1126:1.0 1127:1.0 
2359.632102856373 2614.1356571662454 1128:1.0 1129:1.0 1130:1.0 1131:1.0 
4448.40081607503 758.3353138358792 28:1.0 31:1.0 232:1.0 400:1.0 422:1.0 1132:1.0 
1774.0928132249662 2152.1790479782157 484:1.0 500:1.0 592:1.0 1133:1.0 1134:1.0 1135:1.0 
8192.0 8192.0 730:1.0 
3965.1461074014487 3496.52738326867 438:1.0 1136:1.0 1137:1.0 
0.0 8192.0 43:1.0 1139:1.0 
8192.0 5246.013729221 401:1.0 1147:1.0 
1338.4858143886881 2706.307366354029 775:1.0 811:1.0 1167:1.0 1168:1.0 1169:1.0 
666.7876609613288 0.0 316:1.0 1176:1.0 1181:1.0 
323.57431208269924 1423.1549911358209 75:1.0 233:1.0 336:1.0 660:1.0 1187:1.0 1188:1.0 1189:1.0 1190:1.0 1191:1.0 
791.8294533873232 1254.9407494057382 233:1.0 874:1.0 1192:1.0 1193:1.0 1194:1.0 1195:1.0 
1180.7097167340576 5858.6623640653115 233:1.0 586:1.0 1192:1.0 
8192.0 6026.436647883628 147:1.0 196:1.0 233:1.0 551:1.0 
4236.630350256407 1033.0074969754369 8:1.0 101:1.0 102:1.0 233:1.0 1196:1.0 1197:1.0 1198:1.0 1199:1.0 
2806.5276845831504 1054.0128393948341 31:1.0 233:1.0 280:1.0 699:1.0 1200:1.0 1201:1.0 1202:1.0 
7745.967520650713 8192.0 54:1.0 105:1.0 233:1.0 692:1.0 1206:1.0 
677.5446115244558 0.0 10:1.0 31:1.0 75:1.0 145:1.0 165:1.0 168:1.0 346:1.0 1211:1.0 1212:1.0 1213:1.0 1214:1.0 
3724.438474667123 1496.8651744311935 40:1.0 46:1.0 106:1.0 117:1.0 125:1.0 128:1.0 151:1.0 288:1.0 1221:1.0 1222:1.0 
5998.179560666686 2705.715153324379 38:1.0 183:1.0 288:1.0 318:1.0 564:1.0 
1065.618133055494 0.0 97:1.0 316:1.0 1066:1.0 1087:1.0 1233:1.0 1234:1.0 
4385.627708615078 0.0 57:1.0 97:1.0 316:1.0 319:1.0 569:1.0 
0.0 1041.2381533919406 171:1.0 990:1.0 1247:1.0 1248:1.0 1249:1.0 1250:1.0 
2691.7913129830804 1705.175705941338 75:1.0 278:1.0 660:1.0 1251:1.0 1252:1.0 
7471.462027588927 1565.6915654652303 40:1.0 87:1.0 349:1.0 1064:1.0 1253:1.0 1254:1.0 
0.0 2912.284626274525 78:1.0 233:1.0 473:1.0 1177:1.0 1253:1.0 1255:1.0 
215.5964876348048 1843.1004147018948 75:1.0 89:1.0 293:1.0 1262:1.0 1263:1.0 1264:1.0 
458.01120439864917 0.0 90:1.0 247:1.0 422:1.0 1265:1.0 1266:1.0 1267:1.0 1268:1.0 
7438.109444081835 3711.402458647436 38:1.0 1277:1.0 1278:1.0 
1296.464813332469 0.0 10:1.0 29:1.0 460:1.0 1297:1.0 1298:1.0 
0.0 3914.263746927664 92:1.0 112:1.0 183:1.0 278:1.0 407:1.0 985:1.0 1314:1.0 
2507.5956968276255 1821.1104308292481 77:1.0 145:1.0 159:1.0 178:1.0 271:1.0 328:1.0 710:1.0 1117:1.0 1327:1.0 1328:1.0 1329:1.0 1330:1.0 1331:1.0 1332:1.0 
2427.1744073930117 0.0 527:1.0 988:1.0 1334:1.0 1335:1.0 
3578.597644349857 229.4809497585618 38:1.0 171:1.0 361:1.0 1359:1.0 
2967.463011283609 121.4636121488698 40:1.0 42:1.0 78:1.0 90:1.0 253:1.0 270:1.0 306:1.0 406:1.0 407:1.0 887:1.0 1161:1.0 1201:1.0 1360:1.0 1361:1.0 
2846.8860444081392 2632.675067227 101:1.0 102:1.0 927:1.0 1362:1.0 
2033.4683434505896 0.0 10:1.0 27:1.0 38:1.0 75:1.0 266:1.0 1043:1.0 1363:1.0 
1660.998377242357 703.2680605816367 421:1.0 842:1.0 961:1.0 1371:1.0 1372:1.0 1373:1.0 1374:1.0 1375:1.0 1376:1.0 
68.23674812031335 1113.2843459983642 302:1.0 312:1.0 981:1.0 1111:1.0 1307:1.0 1377:1.0 1378:1.0 1379:1.0 
8138.640492839652 5814.854797550908 38:1.0 257:1.0 879:1.0 1380:1.0 
2833.2129421894174 0.0 29:1.0 592:1.0 720:1.0 
589.3749088438462 2276.2044609550853 400:1.0 699:1.0 1393:1.0 1394:1.0 1396:1.0 
0.0 3215.580489802984 40:1.0 43:1.0 87:1.0 359:1.0 422:1.0 754:1.0 755:1.0 1397:1.0 
1082.7434622330993 822.2905012788185 10:1.0 64:1.0 90:1.0 105:1.0 295:1.0 1106:1.0 1398:1.0 1399:1.0 1400:1.0 1401:1.0 1402:1.0 
3807.2117380281343 2228.3695988222294 125:1.0 186:1.0 552:1.0 1406:1.0 
3059.0839191169507 0.0 168:1.0 186:1.0 552:1.0 1407:1.0 
1263.6114215313128 533.0554501139801 399:1.0 973:1.0 974:1.0 1414:1.0 1415:1.0 1416:1.0 1417:1.0 1418:1.0 1419:1.0 
1101.153522768574 729.1399642406165 42:1.0 89:1.0 542:1.0 1155:1.0 1420:1.0 1421:1.0 1422:1.0 
8192.0 8192.0 2:1.0 
1895.0406493644991 109.65461692678734 1:1.0 38:1.0 1427:1.0 1428:1.0 1429:1.0 
304.65210904520353 0.0 1:1.0 135:1.0 241:1.0 317:1.0 619:1.0 903:1.0 1223:1.0 1440:1.0 1441:1.0 
1294.0187261379845 3030.284869218105 265:1.0 1447:1.0 1448:1.0 1449:1.0 1450:1.0 
0.0 127.19583570746587 171:1.0 302:1.0 324:1.0 1227:1.0 1361:1.0 1454:1.0 1455:1.0 
3419.9699631288236 2070.0288165187176 40:1.0 79:1.0 81:1.0 90:1.0 243:1.0 404:1.0 531:1.0 1457:1.0 1458:1.0 
6128.1648981571525 5098.889470696274 40:1.0 283:1.0 302:1.0 304:1.0 306:1.0 363:1.0 1463:1.0 1464:1.0 
1439.9559773933436 0.0 10:1.0 31:1.0 72:1.0 175:1.0 465:1.0 760:1.0 852:1.0 1299:1.0 1465:1.0 1466:1.0 1467:1.0 
1593.3591052537054 845.480535688807 127:1.0 452:1.0 1096:1.0 1468:1.0 1469:1.0 1470:1.0 1471:1.0 
7258.664413292409 0.0 10:1.0 234:1.0 473:1.0 1063:1.0 
2065.8981380423575 642.7582880513768 29:1.0 422:1.0 483:1.0 1474:1.0 1475:1.0 1476:1.0 1477:1.0 
2962.8013454643674 3316.8938186512355 75:1.0 398:1.0 660:1.0 1481:1.0 1482:1.0 
3120.083103227043 4697.159567165569 375:1.0 1069:1.0 1268:1.0 1334:1.0 
4088.8991207117465 8192.0 86:1.0 257:1.0 583:1.0 1488:1.0 
584.5419742099033 1131.8863847970647 2:1.0 491:1.0 800:1.0 1327:1.0 1496:1.0 1497:1.0 
2357.6838672765775 2611.7738656983247 1498:1.0 1499:1.0 1500:1.0 1501:1.0 
2892.5507599920747 1291.2750189924157 31:1.0 89:1.0 472:1.0 1505:1.0 1506:1.0 
6272.34693734545 0.0 11:1.0 38:1.0 156:1.0 233:1.0 290:1.0 385:1.0 422:1.0 423:1.0 426:1.0 427:1.0 1508:1.0 
2358.6532033415706 4661.892485473633 1009:1.0 1140:1.0 1524:1.0 1525:1.0 
7555.994957461402 5827.976734042885 3:1.0 45:1.0 152:1.0 352:1.0 1526:1.0 
3448.6738571080737 977.0300699994905 30:1.0 32:1.0 894:1.0 1334:1.0 1543:1.0 
4802.420229306465 962.3099938728132 349:1.0 1544:1.0 1545:1.0 1546:1.0 
8192.0 1954.3572168649625 349:1.0 1544:1.0 1547:1.0 
3718.7251110361517 530.397548871441 101:1.0 102:1.0 1548:1.0 1549:1.0 
8192.0 4323.537765271596 96:1.0 97:1.0 427:1.0 434:1.0 
4755.735071044515 6221.050306583705 1285:1.0 1550:1.0 
2339.7918030532746 4722.144270339328 11:1.0 798:1.0 1553:1.0 
8192.0 8192.0 1554:1.0 
1461.1265358337848 512.563261091598 383:1.0 384:1.0 1555:1.0 1556:1.0 1557:1.0 
0.0 2672.6712846236805 25:1.0 88:1.0 171:1.0 204:1.0 1036:1.0 1215:1.0 1299:1.0 1558:1.0 
0.0 490.750919799748 75:1.0 536:1.0 1299:1.0 1508:1.0 1562:1.0 1563:1.0 1564:1.0 1565:1.0 1566:1.0 
1917.2066893177143 1053.2020184648454 312:1.0 866:1.0 1249:1.0 1580:1.0 1581:1.0 1582:1.0 
53.45820680128401 5078.529824546152 423:1.0 1585:1.0 
3514.1950111106516 8192.0 315:1.0 1586:1.0 1587:1.0 
225.28329139280305 207.39034908257798 224:1.0 225:1.0 250:1.0 251:1.0 390:1.0 398:1.0 1329:1.0 1555:1.0 1586:1.0 1588:1.0 1589:1.0 
653.4779473756307 0.0 11:1.0 31:1.0 75:1.0 77:1.0 345:1.0 346:1.0 
5889.528507448124 3224.271513548648 135:1.0 573:1.0 832:1.0 1204:1.0 
359.2179938295816 0.0 54:1.0 422:1.0 423:1.0 427:1.0 468:1.0 1602:1.0 1603:1.0 1604:1.0 1605:1.0 1606:1.0 
2433.0842691709063 3070.442636462389 586:1.0 1607:1.0 1608:1.0 
0.0 960.8724343856034 455:1.0 973:1.0 974:1.0 1616:1.0 
0.0 2254.328530863506 127:1.0 131:1.0 300:1.0 699:1.0 1617:1.0 
3140.4591174807892 0.0 30:1.0 31:1.0 32:1.0 43:1.0 168:1.0 352:1.0 455:1.0 583:1.0 831:1.0 
0.0 4094.721373698693 43:1.0 86:1.0 212:1.0 352:1.0 583:1.0 831:1.0 
0.0 301.35752566336237 40:1.0 43:1.0 75:1.0 87:1.0 529:1.0 755:1.0 1177:1.0 1253:1.0 1319:1.0 1596:1.0 1622:1.0 1623:1.0 1624:1.0 1625:1.0 1626:1.0 
2195.8539368317906 1542.7564206056886 554:1.0 555:1.0 574:1.0 575:1.0 1630:1.0 1631:1.0 
2077.5287401946744 1012.0258839329149 554:1.0 555:1.0 927:1.0 1632:1.0 1633:1.0 
1246.429023440462 3999.371578220114 149:1.0 1138:1.0 1641:1.0 1642:1.0 1643:1.0 
6539.888920371006 2983.1806772089762 121:1.0 521:1.0 1644:1.0 
6837.55333593097 1537.7112660453593 351:1.0 383:1.0 384:1.0 521:1.0 752:1.0 811:1.0 
5062.7181826498 3867.6614827786057 38:1.0 78:1.0 840:1.0 1661:1.0 1662:1.0 1663:1.0 
0.0 29.044191140131243 168:1.0 699:1.0 769:1.0 819:1.0 1664:1.0 1665:1.0 1666:1.0 1667:1.0 1668:1.0 
1063.1579668940985 1367.6804409026433 484:1.0 500:1.0 720:1.0 1133:1.0 1669:1.0 1670:1.0 1671:1.0 1672:1.0 
1228.1287130245717 366.710909982304 10:1.0 274:1.0 525:1.0 902:1.0 1374:1.0 1375:1.0 1673:1.0 1674:1.0 
5382.299960105639 712.1982433945475 32:1.0 225:1.0 429:1.0 430:1.0 1141:1.0 1207:1.0 1678:1.0 1679:1.0 
2269.129402524991 5462.8763089175945 526:1.0 1688:1.0 1689:1.0 1690:1.0 
0.0 2347.861982777786 43:1.0 149:1.0 284:1.0 292:1.0 377:1.0 511:1.0 1691:1.0 1692:1.0 1693:1.0 
0.0 487.7849935656006 43:1.0 230:1.0 283:1.0 383:1.0 384:1.0 511:1.0 1099:1.0 1694:1.0 
28.884209512301425 501.6897786928479 811:1.0 1413:1.0 1698:1.0 1699:1.0 1700:1.0 1701:1.0 1702:1.0 
394.00686794788373 1319.3044557013295 40:1.0 128:1.0 186:1.0 352:1.0 908:1.0 
1679.1267539817711 1472.844290837026 699:1.0 840:1.0 1709:1.0 1710:1.0 1711:1.0 1712:1.0 
2712.5737398437304 0.0 5:1.0 11:1.0 43:1.0 117:1.0 156:1.0 221:1.0 511:1.0 735:1.0 783:1.0 1719:1.0 
3385.3660412038944 4178.423496358547 404:1.0 1091:1.0 
0.0 1476.5692125060948 106:1.0 125:1.0 270:1.0 318:1.0 755:1.0 1720:1.0 1721:1.0 1722:1.0 1723:1.0 1724:1.0 
0.0 2050.9381547322464 385:1.0 866:1.0 983:1.0 1725:1.0 1726:1.0 
5282.232188836311 5276.184437911079 31:1.0 75:1.0 345:1.0 707:1.0 1413:1.0 1727:1.0 
0.0 3136.462632184573 186:1.0 495:1.0 1291:1.0 1368:1.0 1730:1.0 
2018.4429585125029 8192.0 90:1.0 257:1.0 263:1.0 
0.0 687.5194041653903 1:1.0 40:1.0 122:1.0 257:1.0 266:1.0 282:1.0 666:1.0 724:1.0 843:1.0 979:1.0 1286:1.0 1737:1.0 1738:1.0 1739:1.0 1740:1.0 1741:1.0 
8164.705811456809 5799.5477926901995 168:1.0 1748:1.0 
0.0 386.31565239713103 30:1.0 32:1.0 43:1.0 81:1.0 86:1.0 230:1.0 464:1.0 
0.0 856.200731453485 302:1.0 475:1.0 788:1.0 801:1.0 1417:1.0 1418:1.0 1455:1.0 1753:1.0 1754:1.0 1755:1.0 1756:1.0 1757:1.0 1758:1.0 1759:1.0 
974.1321182933053 1344.032321307831 552:1.0 843:1.0 1760:1.0 1761:1.0 1762:1.0 1763:1.0 1764:1.0 1765:1.0 1766:1.0 
8192.0 8192.0 
8192.0 8192.0 
8192.0 8192.0 
916.7910404423174 3402.3390126608892 38:1.0 86:1.0 96:1.0 97:1.0 149:1.0 257:1.0 266:1.0 386:1.0 1221:1.0 1787:1.0 
3366.1787448642553 3769.8645726720974 10:1.0 75:1.0 96:1.0 105:1.0 992:1.0 1367:1.0 1791:1.0 1792:1.0 
3005.2586567720764 0.0 11:1.0 112:1.0 199:1.0 527:1.0 988:1.0 1448:1.0 1756:1.0 
0.0 2566.690372819677 26:1.0 86:1.0 257:1.0 386:1.0 584:1.0 1221:1.0 1798:1.0 
2621.040189934788 1462.9970020139751 77:1.0 798:1.0 1799:1.0 1800:1.0 
4756.90165411904 5245.987749604753 1802:1.0 1803:1.0 
0.0 2856.885044913317 1117:1.0 1804:1.0 
2643.960940969281 0.0 40:1.0 72:1.0 75:1.0 79:1.0 117:1.0 346:1.0 362:1.0 543:1.0 1117:1.0 1805:1.0 1806:1.0 
621.6776410443504 1559.184095735508 75:1.0 247:1.0 1162:1.0 1641:1.0 1818:1.0 1819:1.0 1820:1.0 1821:1.0 
1420.3765933793456 1383.9305562973896 105:1.0 149:1.0 156:1.0 245:1.0 394:1.0 511:1.0 1641:1.0 1822:1.0 
0.0 1333.0005042370447 233:1.0 932:1.0 1138:1.0 1416:1.0 1832:1.0 1833:1.0 1834:1.0 1835:1.0 
496.2185237238829 0.0 75:1.0 233:1.0 278:1.0 398:1.0 660:1.0 1103:1.0 1111:1.0 1836:1.0 
1480.5853946452576 2989.6361561012786 233:1.0 482:1.0 1838:1.0 
1990.7720069414165 2856.1662695618443 699:1.0 1193:1.0 1668:1.0 1840:1.0 
1668.2128174891222 2586.8494024407446 47:1.0 97:1.0 125:1.0 186:1.0 204:1.0 245:1.0 509:1.0 1005:1.0 1763:1.0 1841:1.0 
920.4266377283342 5971.837098274916 75:1.0 168:1.0 222:1.0 1704:1.0 1842:1.0 1843:1.0 1844:1.0 
8192.0 1849.8482441630483 38:1.0 70:1.0 1825:1.0 1848:1.0 1849:1.0 
1617.9831826813177 7443.07857907318 112:1.0 262:1.0 270:1.0 583:1.0 1472:1.0 
0.0 1562.6908298160165 78:1.0 112:1.0 302:1.0 433:1.0 817:1.0 1862:1.0 1863:1.0 1864:1.0 1865:1.0 
8192.0 8192.0 433:1.0 
2003.2973188500407 1849.8386785628036 31:1.0 271:1.0 932:1.0 1122:1.0 1872:1.0 1873:1.0 
3132.0372033539775 341.21985822099145 31:1.0 77:1.0 197:1.0 421:1.0 843:1.0 1146:1.0 1874:1.0 1875:1.0 
0.0 750.722715173732 168:1.0 302:1.0 1068:1.0 1103:1.0 1352:1.0 1881:1.0 
1302.098379592752 1001.4193415116902 31:1.0 102:1.0 246:1.0 427:1.0 493:1.0 1882:1.0 1883:1.0 1884:1.0 1885:1.0 1886:1.0 
461.2492971803353 1085.8162837981029 75:1.0 270:1.0 895:1.0 1889:1.0 1890:1.0 1891:1.0 1892:1.0 
2088.997300475156 0.0 30:1.0 31:1.0 89:1.0 185:1.0 186:1.0 231:1.0 232:1.0 398:1.0 1262:1.0 1893:1.0 
5064.525323956098 8192.0 465:1.0 1312:1.0 
2177.9000538268497 1431.9018138533029 29:1.0 69:1.0 75:1.0 78:1.0 86:1.0 96:1.0 124:1.0 154:1.0 234:1.0 861:1.0 1873:1.0 
2765.6061991260876 0.0 10:1.0 11:1.0 152:1.0 375:1.0 422:1.0 423:1.0 426:1.0 427:1.0 1611:1.0 
0.0 2819.7070178470717 742:1.0 924:1.0 1285:1.0 1908:1.0 1909:1.0 
4617.099173858687 8192.0 10:1.0 54:1.0 105:1.0 209:1.0 346:1.0 1686:1.0 
2541.2990183558672 3746.073692604476 174:1.0 742:1.0 1914:1.0 1915:1.0 
2380.376348309354 568.3598779224233 30:1.0 32:1.0 189:1.0 231:1.0 1355:1.0 1555:1.0 1772:1.0 1922:1.0 1923:1.0 
3906.878789675822 3043.810295963308 75:1.0 88:1.0 89:1.0 98:1.0 422:1.0 1299:1.0 1924:1.0 
8192.0 333.6409784924153 38:1.0 199:1.0 423:1.0 626:1.0 664:1.0 
5661.604289100005 1135.6283847521968 349:1.0 897:1.0 1941:1.0 1942:1.0 1943:1.0 
999.3527066658216 3608.2100048237958 1607:1.0 1756:1.0 1945:1.0 1946:1.0 
76.44419306685397 0.0 316:1.0 621:1.0 1379:1.0 1948:1.0 1949:1.0 1950:1.0 
-4271.450581035335 997.0877789945105 5:1.0 30:1.0 31:1.0 32:1.0 33:1.0 34:1.0 
-3061.9574793421257 0.0 38:1.0 56:1.0 57:1.0 58:1.0 
-35.38641087443518 0.0 38:1.0 68:1.0 69:1.0 70:1.0 
-3482.6840295248753 0.0 38:1.0 71:1.0 72:1.0 
-0.0 1788.0367868311969 73:1.0 74:1.0 75:1.0 76:1.0 77:1.0 78:1.0 79:1.0 80:1.0 81:1.0 82:1.0 
-2113.3780255836987 555.6894479170807 83:1.0 84:1.0 85:1.0 86:1.0 87:1.0 88:1.0 89:1.0 90:1.0 91:1.0 92:1.0 93:1.0 
-2268.1074404244555 448.93518261898055 38:1.0 84:1.0 94:1.0 95:1.0 
-8192.0 1856.5787012697747 96:1.0 100:1.0 101:1.0 102:1.0 
-1733.008898131598 2884.4170228786497 8:1.0 57:1.0 75:1.0 111:1.0 112:1.0 113:1.0 114:1.0 115:1.0 116:1.0 
-1494.4529033815154 2366.653674433101 4:1.0 80:1.0 121:1.0 
-1338.9970323312314 6792.926728059223 8:1.0 40:1.0 122:1.0 123:1.0 
-876.8100432102381 0.0 145:1.0 199:1.0 200:1.0 201:1.0 202:1.0 
-8192.0 8192.0 40:1.0 152:1.0 221:1.0 222:1.0 223:1.0 
-3626.7864982330184 0.0 101:1.0 102:1.0 224:1.0 225:1.0 226:1.0 227:1.0 228:1.0 
-1989.2158727128322 0.0 4:1.0 30:1.0 45:1.0 46:1.0 47:1.0 77:1.0 78:1.0 138:1.0 231:1.0 232:1.0 233:1.0 234:1.0 
-6855.005736645809 4896.113672605122 30:1.0 77:1.0 235:1.0 236:1.0 
-4175.178202081715 1868.6628354017407 40:1.0 135:1.0 237:1.0 238:1.0 239:1.0 240:1.0 241:1.0 
-1789.2026284957308 2115.9320038494056 31:1.0 40:1.0 78:1.0 87:1.0 101:1.0 153:1.0 178:1.0 254:1.0 255:1.0 256:1.0 257:1.0 258:1.0 
-0.0 1705.187494069956 178:1.0 271:1.0 272:1.0 
-3511.580397883442 413.2518011370809 31:1.0 75:1.0 81:1.0 257:1.0 270:1.0 276:1.0 277:1.0 278:1.0 279:1.0 280:1.0 281:1.0 
-2051.5963707443934 0.0 40:1.0 310:1.0 311:1.0 312:1.0 
-2309.748284103952 0.0 10:1.0 77:1.0 290:1.0 344:1.0 345:1.0 346:1.0 347:1.0 348:1.0 349:1.0 
-4489.215975481404 1147.66922263291 1:1.0 147:1.0 186:1.0 289:1.0 290:1.0 372:1.0 373:1.0 374:1.0 375:1.0 376:1.0 
-2065.5264841028716 0.0 40:1.0 84:1.0 159:1.0 272:1.0 383:1.0 384:1.0 385:1.0 386:1.0 387:1.0 
-512.6342539256442 0.0 80:1.0 115:1.0 179:1.0 307:1.0 393:1.0 
-5541.998747343996 7210.656393117312 57:1.0 105:1.0 313:1.0 
-8192.0 1775.401613872476 28:1.0 29:1.0 170:1.0 171:1.0 233:1.0 296:1.0 402:1.0 
-2267.7305723156333 867.542051802434 40:1.0 178:1.0 230:1.0 306:1.0 403:1.0 404:1.0 405:1.0 406:1.0 407:1.0 
-2423.751426861771 0.0 28:1.0 56:1.0 75:1.0 152:1.0 432:1.0 433:1.0 434:1.0 435:1.0 436:1.0 437:1.0 438:1.0 439:1.0 
-3211.573915435157 2440.083373644144 40:1.0 221:1.0 440:1.0 441:1.0 
-7268.897419728436 3011.024530476891 38:1.0 199:1.0 449:1.0 
-0.0 109.41347675461357 28:1.0 351:1.0 411:1.0 451:1.0 452:1.0 453:1.0 454:1.0 
-2478.3033677791173 1269.9428622458086 40:1.0 45:1.0 78:1.0 86:1.0 109:1.0 117:1.0 196:1.0 289:1.0 406:1.0 433:1.0 462:1.0 463:1.0 464:1.0 465:1.0 466:1.0 467:1.0 
-8192.0 8192.0 35:1.0 38:1.0 
-461.98881294668394 0.0 38:1.0 277:1.0 483:1.0 
-0.0 3100.541299470841 277:1.0 283:1.0 497:1.0 498:1.0 499:1.0 500:1.0 
-1515.1648118583776 3103.4226227576787 9:1.0 88:1.0 393:1.0 501:1.0 
-26.35201210794797 5778.4791652374815 54:1.0 108:1.0 506:1.0 
-0.0 3271.220783990912 108:1.0 325:1.0 507:1.0 
-423.231298156561 0.0 296:1.0 317:1.0 328:1.0 352:1.0 383:1.0 384:1.0 535:1.0 536:1.0 537:1.0 538:1.0 539:1.0 540:1.0 
-8192.0 451.410757729463 388:1.0 551:1.0 552:1.0 
-1192.124237793813 499.9873308635632 53:1.0 57:1.0 147:1.0 156:1.0 222:1.0 559:1.0 560:1.0 561:1.0 562:1.0 563:1.0 564:1.0 565:1.0 566:1.0 567:1.0 
-3172.281265208405 1435.6779393028062 92:1.0 147:1.0 204:1.0 568:1.0 569:1.0 570:1.0 
-1596.8616567865045 1779.2657010491778 84:1.0 86:1.0 117:1.0 165:1.0 632:1.0 633:1.0 634:1.0 635:1.0 636:1.0 637:1.0 638:1.0 
-3425.1589475143987 0.0 10:1.0 38:1.0 108:1.0 170:1.0 171:1.0 434:1.0 452:1.0 663:1.0 
-3683.4396539984486 1211.2363004910042 11:1.0 27:1.0 28:1.0 117:1.0 168:1.0 172:1.0 206:1.0 270:1.0 274:1.0 688:1.0 689:1.0 690:1.0 
-7779.93794582493 1621.88629921565 38:1.0 40:1.0 206:1.0 282:1.0 583:1.0 
-3871.3410659017272 1533.7223791575852 29:1.0 46:1.0 86:1.0 89:1.0 172:1.0 414:1.0 698:1.0 699:1.0 700:1.0 701:1.0 702:1.0 
-8192.0 8192.0 707:1.0 708:1.0 709:1.0 
-997.3230305658735 1766.8132322316023 45:1.0 56:1.0 79:1.0 302:1.0 714:1.0 715:1.0 716:1.0 
-4204.948257313358 0.0 38:1.0 84:1.0 159:1.0 271:1.0 313:1.0 730:1.0 
-2664.392380558701 1088.8636281912572 4:1.0 11:1.0 31:1.0 45:1.0 47:1.0 276:1.0 495:1.0 759:1.0 760:1.0 761:1.0 762:1.0 
-4722.0002877940515 0.0 38:1.0 349:1.0 763:1.0 
-8192.0 6736.085168927747 24:1.0 352:1.0 433:1.0 774:1.0 
-3153.727297055237 4553.294994716821 201:1.0 799:1.0 800:1.0 801:1.0 
-0.0 312.630096660595 5:1.0 6:1.0 8:1.0 9:1.0 802:1.0 803:1.0 804:1.0 805:1.0 
-5821.803233512958 4320.892863202986 186:1.0 288:1.0 809:1.0 810:1.0 811:1.0 812:1.0 
-0.0 270.47543750658457 169:1.0 263:1.0 289:1.0 290:1.0 296:1.0 475:1.0 560:1.0 724:1.0 841:1.0 842:1.0 843:1.0 
-5947.63518591379 4606.460286938136 38:1.0 169:1.0 842:1.0 844:1.0 845:1.0 
-4816.368455294968 2393.364863812245 28:1.0 36:1.0 38:1.0 86:1.0 169:1.0 842:1.0 847:1.0 848:1.0 849:1.0 
-8192.0 6199.542312413234 42:1.0 660:1.0 783:1.0 850:1.0 
-0.0 244.0315108878729 40:1.0 121:1.0 171:1.0 206:1.0 207:1.0 425:1.0 666:1.0 721:1.0 869:1.0 870:1.0 871:1.0 872:1.0 
-5091.416371693017 0.0 31:1.0 388:1.0 879:1.0 
-5796.2162516219805 6635.550109534577 105:1.0 349:1.0 881:1.0 
-1112.1103904871081 1730.7668004300456 40:1.0 81:1.0 84:1.0 145:1.0 165:1.0 639:1.0 885:1.0 886:1.0 887:1.0 
-8192.0 8192.0 97:1.0 108:1.0 
-5041.405839441133 3333.151023353045 189:1.0 257:1.0 296:1.0 422:1.0 426:1.0 476:1.0 
-0.0 1148.5281992295754 296:1.0 359:1.0 826:1.0 901:1.0 902:1.0 
-1620.2679655675092 0.0 325:1.0 349:1.0 904:1.0 905:1.0 906:1.0 907:1.0 
-4513.991916759328 3028.9309738070224 233:1.0 294:1.0 914:1.0 915:1.0 916:1.0 917:1.0 918:1.0 
-3173.2656016246756 5342.845972699331 75:1.0 201:1.0 283:1.0 328:1.0 936:1.0 
-3313.9502332417683 5997.617078402696 44:1.0 275:1.0 941:1.0 942:1.0 943:1.0 944:1.0 945:1.0 
-276.98251203490196 2211.227921141304 350:1.0 388:1.0 948:1.0 949:1.0 
-0.0 1878.5771731995073 40:1.0 351:1.0 454:1.0 
-1153.2284907150247 3110.627909349286 40:1.0 78:1.0 106:1.0 107:1.0 178:1.0 222:1.0 306:1.0 363:1.0 383:1.0 384:1.0 584:1.0 950:1.0 951:1.0 952:1.0 953:1.0 954:1.0 
-8192.0 5862.606421387535 40:1.0 122:1.0 969:1.0 970:1.0 
-7427.3789462902305 3368.857412168527 31:1.0 40:1.0 78:1.0 112:1.0 122:1.0 168:1.0 280:1.0 316:1.0 809:1.0 972:1.0 
-0.0 179.07753836427435 40:1.0 168:1.0 210:1.0 296:1.0 500:1.0 842:1.0 999:1.0 1002:1.0 1003:1.0 1004:1.0 1005:1.0 1006:1.0 1007:1.0 1008:1.0 
-526.2553254057151 346.62266142654505 11:1.0 40:1.0 81:1.0 186:1.0 196:1.0 296:1.0 699:1.0 701:1.0 724:1.0 1026:1.0 
-8192.0 8192.0 40:1.0 454:1.0 
-8014.487752856138 10.56134694427601 40:1.0 188:1.0 351:1.0 454:1.0 
-0.0 107.0787115619612 40:1.0 86:1.0 310:1.0 441:1.0 
-0.0 5829.0674632017135 40:1.0 178:1.0 306:1.0 
-6623.635649038355 4542.563173389208 40:1.0 54:1.0 831:1.0 1066:1.0 1067:1.0 
-3028.5140228675127 524.4863870320798 10:1.0 76:1.0 96:1.0 123:1.0 156:1.0 283:1.0 783:1.0 1076:1.0 1077:1.0 
-6624.334121181532 4575.6591570985365 96:1.0 1078:1.0 1079:1.0 1080:1.0 
-1533.933800097928 3139.692512285053 40:1.0 45:1.0 47:1.0 96:1.0 125:1.0 359:1.0 800:1.0 1088:1.0 1089:1.0 
-8192.0 0.0 52:1.0 75:1.0 96:1.0 527:1.0 988:1.0 1090:1.0 
-482.79095204179055 1011.2633721249528 3:1.0 40:1.0 77:1.0 78:1.0 81:1.0 90:1.0 168:1.0 289:1.0 290:1.0 296:1.0 441:1.0 724:1.0 852:1.0 1046:1.0 1095:1.0 1096:1.0 
-3970.7838219767877 0.0 77:1.0 289:1.0 290:1.0 296:1.0 383:1.0 384:1.0 
-0.0 203.51171411657447 4:1.0 5:1.0 77:1.0 90:1.0 207:1.0 283:1.0 289:1.0 290:1.0 843:1.0 
-3835.5012467629817 200.6859362420961 57:1.0 168:1.0 196:1.0 245:1.0 434:1.0 525:1.0 1113:1.0 1114:1.0 1115:1.0 1116:1.0 
-8192.0 113.7175105308391 79:1.0 81:1.0 272:1.0 
-0.0 6161.12267388272 147:1.0 277:1.0 
-6438.771411675164 3508.3553289118827 226:1.0 227:1.0 429:1.0 430:1.0 1141:1.0 
-8192.0 4583.539031948011 349:1.0 1142:1.0 
-8192.0 8192.0 1145:1.0 1146:1.0 
-1178.8419833254554 0.0 5:1.0 8:1.0 40:1.0 77:1.0 122:1.0 189:1.0 258:1.0 
-8192.0 8192.0 88:1.0 1148:1.0 
-750.2675214235302 0.0 388:1.0 507:1.0 
-8192.0 5378.958651363494 80:1.0 144:1.0 
-2689.202717957622 0.0 38:1.0 306:1.0 797:1.0 1157:1.0 1158:1.0 
-949.1784656408964 700.2887753336584 207:1.0 283:1.0 393:1.0 427:1.0 493:1.0 1159:1.0 1160:1.0 1161:1.0 1162:1.0 1163:1.0 1164:1.0 
-4829.602289767426 2045.9856061324735 79:1.0 325:1.0 393:1.0 
-729.2954840721095 3164.135409760653 196:1.0 233:1.0 262:1.0 296:1.0 608:1.0 1113:1.0 
-2894.305805991632 1844.045057344536 233:1.0 277:1.0 1203:1.0 1204:1.0 1205:1.0 
-6801.073469064981 7474.225082633688 96:1.0 100:1.0 233:1.0 234:1.0 248:1.0 
-7866.449392995887 2528.0338381607608 199:1.0 233:1.0 461:1.0 626:1.0 1207:1.0 1208:1.0 1209:1.0 
-3493.8361045068896 256.19833425301215 31:1.0 124:1.0 253:1.0 277:1.0 
-1258.2899510602101 77.63143494590425 5:1.0 8:1.0 38:1.0 131:1.0 189:1.0 422:1.0 1223:1.0 1224:1.0 
-1123.9328638771617 1552.1006925685883 179:1.0 716:1.0 1225:1.0 1226:1.0 1227:1.0 1228:1.0 
-1432.6906351467787 0.0 204:1.0 310:1.0 867:1.0 1099:1.0 1240:1.0 
-8192.0 8192.0 75:1.0 310:1.0 
-30.244927708539763 898.577277551429 202:1.0 310:1.0 565:1.0 1243:1.0 
-6506.479437090109 1697.87642020564 54:1.0 527:1.0 988:1.0 1090:1.0 
-0.0 174.26925082008782 79:1.0 496:1.0 1090:1.0 
-2174.9442804979126 4904.489962019564 31:1.0 204:1.0 336:1.0 1069:1.0 1090:1.0 
-964.5090503106338 2170.8599999606968 40:1.0 208:1.0 345:1.0 1046:1.0 1090:1.0 1244:1.0 1245:1.0 
-4442.25617633201 3269.9109398499845 72:1.0 1256:1.0 1257:1.0 
-8192.0 8192.0 72:1.0 
-338.86517288000243 0.0 1:1.0 207:1.0 277:1.0 927:1.0 1259:1.0 
-0.0 901.4281778613799 147:1.0 388:1.0 405:1.0 422:1.0 1269:1.0 1270:1.0 
-761.0235154509086 0.0 45:1.0 69:1.0 125:1.0 168:1.0 809:1.0 1275:1.0 1276:1.0 
-1223.0163940178163 0.0 10:1.0 31:1.0 97:1.0 277:1.0 1293:1.0 1294:1.0 1295:1.0 1296:1.0 
-7501.763291156303 0.0 10:1.0 11:1.0 38:1.0 349:1.0 422:1.0 1305:1.0 
-3440.9032408267226 2886.489370372195 10:1.0 147:1.0 1226:1.0 1306:1.0 
-2104.7712584835876 1557.338060885678 69:1.0 70:1.0 1111:1.0 1307:1.0 1308:1.0 1309:1.0 
-0.0 1508.2946731429013 9:1.0 272:1.0 295:1.0 919:1.0 1310:1.0 
-0.0 1670.0935511266312 178:1.0 206:1.0 278:1.0 527:1.0 560:1.0 901:1.0 1288:1.0 1333:1.0 
-1779.4116997645478 101.0569064483656 40:1.0 75:1.0 79:1.0 81:1.0 152:1.0 318:1.0 488:1.0 1069:1.0 1347:1.0 1348:1.0 1349:1.0 1350:1.0 1351:1.0 
-1785.7619488731032 916.5572090961309 30:1.0 31:1.0 32:1.0 449:1.0 
-3306.229319837479 0.0 30:1.0 72:1.0 
-0.0 462.330783739185 32:1.0 206:1.0 207:1.0 417:1.0 418:1.0 721:1.0 862:1.0 1364:1.0 1365:1.0 1366:1.0 1367:1.0 
-1709.1864588818985 7457.131930582717 4:1.0 207:1.0 1370:1.0 
-492.65914640293363 141.08849115381676 38:1.0 207:1.0 1381:1.0 1382:1.0 1383:1.0 
-0.0 5329.004135120048 105:1.0 207:1.0 272:1.0 
-6843.776924027593 7654.866330469098 207:1.0 1166:1.0 
-5041.54013024523 0.0 31:1.0 72:1.0 1403:1.0 
-0.0 882.660013096405 31:1.0 72:1.0 78:1.0 377:1.0 1404:1.0 1405:1.0 
-5949.151641313502 3794.6001771155534 178:1.0 363:1.0 716:1.0 
-6187.03310159511 1566.4425396464928 178:1.0 306:1.0 554:1.0 555:1.0 
-8192.0 4917.548444927228 46:1.0 1411:1.0 
-6644.099895743906 3324.6913434361436 38:1.0 349:1.0 398:1.0 399:1.0 448:1.0 
-973.5110876803238 2170.0911143792127 79:1.0 85:1.0 237:1.0 496:1.0 1412:1.0 
-8192.0 0.0 38:1.0 233:1.0 277:1.0 
-8192.0 8192.0 467:1.0 646:1.0 
-2180.9853892853444 2459.85489312181 39:1.0 296:1.0 473:1.0 1444:1.0 
-1653.1679616086292 2362.509022534444 7:1.0 77:1.0 1103:1.0 1451:1.0 1452:1.0 1453:1.0 
-6656.493790583153 2935.7186517106556 156:1.0 290:1.0 441:1.0 518:1.0 
-5337.482493839744 3740.4387460680377 8:1.0 9:1.0 11:1.0 1456:1.0 
-0.0 8192.0 79:1.0 206:1.0 
-0.0 152.72080253108015 79:1.0 108:1.0 496:1.0 
-1059.3252134461534 0.0 40:1.0 310:1.0 1459:1.0 1460:1.0 
-2292.7528021140442 0.0 38:1.0 306:1.0 562:1.0 1461:1.0 1462:1.0 
-719.265806730563 2451.36735992274 78:1.0 112:1.0 152:1.0 328:1.0 356:1.0 583:1.0 809:1.0 1027:1.0 1472:1.0 1473:1.0 
-8192.0 8192.0 105:1.0 1388:1.0 
-2543.9193198607063 0.0 38:1.0 75:1.0 234:1.0 451:1.0 521:1.0 755:1.0 809:1.0 1483:1.0 
-8192.0 7985.902231617103 7:1.0 1484:1.0 
-0.0 1239.672893604043 8:1.0 54:1.0 105:1.0 874:1.0 1226:1.0 1461:1.0 1485:1.0 
-8192.0 466.8839313921751 31:1.0 69:1.0 70:1.0 1043:1.0 
-0.0 1536.932168055874 105:1.0 388:1.0 544:1.0 1489:1.0 1494:1.0 1495:1.0 
-5313.7628122661545 8192.0 54:1.0 108:1.0 
-1836.6059549912718 1094.6938797948312 10:1.0 38:1.0 84:1.0 89:1.0 146:1.0 165:1.0 222:1.0 1503:1.0 1504:1.0 
-3343.616264112093 2623.963730320658 201:1.0 202:1.0 573:1.0 919:1.0 1507:1.0 
-8192.0 8192.0 40:1.0 88:1.0 125:1.0 306:1.0 
-7169.5586016699035 1642.0175570640047 10:1.0 97:1.0 121:1.0 661:1.0 1226:1.0 1516:1.0 
-6078.081738731568 7323.508491703067 131:1.0 207:1.0 752:1.0 1523:1.0 
-8192.0 3633.662225439596 69:1.0 70:1.0 174:1.0 
-35.863623799082625 0.0 38:1.0 69:1.0 70:1.0 1530:1.0 
-8192.0 3665.099356639888 388:1.0 840:1.0 
-0.0 1324.3890303454034 10:1.0 27:1.0 86:1.0 296:1.0 393:1.0 500:1.0 560:1.0 1534:1.0 1535:1.0 1536:1.0 1537:1.0 1538:1.0 
-1563.6390037681042 1409.0341213762415 38:1.0 54:1.0 105:1.0 262:1.0 310:1.0 692:1.0 1555:1.0 
-0.0 131.31051863420095 38:1.0 296:1.0 1569:1.0 
-2510.3871997080496 113.79262281691496 56:1.0 281:1.0 349:1.0 1072:1.0 1572:1.0 1573:1.0 1574:1.0 
-296.17853325493877 2883.0661677601133 10:1.0 108:1.0 202:1.0 1294:1.0 1575:1.0 
-8192.0 0.0 84:1.0 90:1.0 347:1.0 422:1.0 423:1.0 426:1.0 427:1.0 1584:1.0 
-0.0 2737.279620884173 8:1.0 52:1.0 86:1.0 105:1.0 271:1.0 1388:1.0 1593:1.0 
-288.40449868589866 659.0995873070906 46:1.0 47:1.0 54:1.0 146:1.0 442:1.0 1335:1.0 1615:1.0 
-1238.684364833982 2593.177796469871 45:1.0 46:1.0 174:1.0 369:1.0 752:1.0 946:1.0 
-0.0 999.2822913676259 38:1.0 238:1.0 296:1.0 583:1.0 
-789.0807929064614 0.0 38:1.0 76:1.0 201:1.0 583:1.0 
-2011.9731405741652 4293.901989583198 108:1.0 1637:1.0 1638:1.0 
-896.9968091658367 3480.328770535725 79:1.0 96:1.0 123:1.0 1653:1.0 
-228.6064980834669 764.4642236151859 277:1.0 1653:1.0 1655:1.0 
-3275.8312035632616 0.0 38:1.0 201:1.0 1656:1.0 
-1450.7900003009122 2850.621633342599 38:1.0 86:1.0 206:1.0 257:1.0 377:1.0 568:1.0 1659:1.0 1660:1.0 
-1510.5939419486213 1113.581185442344 75:1.0 156:1.0 351:1.0 454:1.0 1681:1.0 1682:1.0 
-3954.7063184476315 1368.6588049532352 8:1.0 40:1.0 97:1.0 196:1.0 210:1.0 542:1.0 583:1.0 1706:1.0 1707:1.0 1708:1.0 
-7396.118692034722 1342.7236260569148 206:1.0 304:1.0 401:1.0 901:1.0 
-2878.4044417193677 1395.7352492448667 310:1.0 1735:1.0 1736:1.0 
-330.9807167579098 2752.8261957015766 274:1.0 310:1.0 375:1.0 1749:1.0 1750:1.0 
-0.0 229.41740721383326 47:1.0 296:1.0 422:1.0 842:1.0 1751:1.0 
-1472.1165085689984 1738.000885857318 40:1.0 75:1.0 88:1.0 89:1.0 99:1.0 105:1.0 117:1.0 178:1.0 263:1.0 437:1.0 874:1.0 1367:1.0 1586:1.0 1768:1.0 1769:1.0 1770:1.0 
-4137.124098047511 6252.161001869153 5:1.0 40:1.0 75:1.0 306:1.0 665:1.0 1780:1.0 
-203.49553851302636 727.8175197835822 40:1.0 84:1.0 88:1.0 94:1.0 329:1.0 375:1.0 527:1.0 747:1.0 1288:1.0 1335:1.0 1781:1.0 1782:1.0 1783:1.0 1784:1.0 1785:1.0 1786:1.0 
-0.0 2756.909298504248 96:1.0 105:1.0 809:1.0 1773:1.0 
-8192.0 8138.591342777168 284:1.0 1793:1.0 1794:1.0 
-7429.724539592514 4983.310234368512 79:1.0 143:1.0 581:1.0 1801:1.0 
-5776.500768677855 1172.2901481263848 80:1.0 288:1.0 295:1.0 521:1.0 1741:1.0 
-3178.001056541159 3968.8259619610676 57:1.0 156:1.0 375:1.0 867:1.0 1763:1.0 1824:1.0 
-1763.0297820358735 0.0 8:1.0 11:1.0 80:1.0 170:1.0 171:1.0 233:1.0 1354:1.0 1376:1.0 1830:1.0 1831:1.0 
-8192.0 5132.228391266047 40:1.0 98:1.0 178:1.0 352:1.0 1839:1.0 
-6397.807962670316 6273.853498334631 147:1.0 1845:1.0 1846:1.0 
-8192.0 4777.187230379738 427:1.0 500:1.0 1384:1.0 1850:1.0 
-5866.582521849904 0.0 30:1.0 31:1.0 32:1.0 72:1.0 125:1.0 231:1.0 
-0.0 454.4076338172147 77:1.0 178:1.0 206:1.0 427:1.0 493:1.0 1196:1.0 
-503.99073802243987 2232.4624707503494 7:1.0 178:1.0 1690:1.0 1880:1.0 
-1222.7790625708978 0.0 57:1.0 79:1.0 496:1.0 
-6812.108742249573 0.0 57:1.0 328:1.0 473:1.0 1906:1.0 
-4020.8294927543534 819.2059583161547 10:1.0 31:1.0 449:1.0 690:1.0 1204:1.0 
-0.0 2364.1455310425445 80:1.0 119:1.0 147:1.0 
-0.0 3424.991863584001 38:1.0 84:1.0 165:1.0 639:1.0 800:1.0 
-0.0 1048.5720004952925 40:1.0 79:1.0 288:1.0 496:1.0 583:1.0 1078:1.0 1555:1.0 1921:1.0 
-543.4788004807492 2359.982351654699 45:1.0 47:1.0 79:1.0 92:1.0 112:1.0 125:1.0 1930:1.0 1931:1.0 1932:1.0 1933:1.0 1934:1.0 
-8192.0 8192.0 38:1.0 1935:1.0 
-1000.5371080075703 2777.6336123603187 8:1.0 40:1.0 213:1.0 249:1.0 272:1.0 386:1.0 1936:1.0 1937:1.0 
-1140.0635374208605 2910.8362652706905 46:1.0 47:1.0 149:1.0 230:1.0 245:1.0 289:1.0 442:1.0 661:1.0 752:1.0 
-8192.0 6729.720455868443 186:1.0 225:1.0 1404:1.0 1453:1.0 
-1594.2534780345518 0.0 31:1.0 40:1.0 46:1.0 377:1.0 488:1.0 843:1.0 1653:1.0 1961:1.0 
-5821.082816330789 0.0 38:1.0 69:1.0 70:1.0 
-0.0 8192.0 79:1.0 86:1.0 388:1.0 
-1986.8478495890045 -508.62853242994254 103:1.0 104:1.0 105:1.0 
-4111.648137996377 -7398.269902654166 97:1.0 106:1.0 107:1.0 108:1.0 109:1.0 110:1.0 
-559.1544634962497 -0.0 131:1.0 132:1.0 133:1.0 134:1.0 135:1.0 136:1.0 137:1.0 138:1.0 139:1.0 140:1.0 141:1.0 
-0.0 -749.9024559228666 79:1.0 86:1.0 145:1.0 146:1.0 147:1.0 148:1.0 149:1.0 150:1.0 151:1.0 152:1.0 
-46.24529917679497 -0.0 105:1.0 145:1.0 164:1.0 165:1.0 166:1.0 167:1.0 168:1.0 
-0.0 -2215.1601395391335 54:1.0 79:1.0 148:1.0 207:1.0 208:1.0 209:1.0 210:1.0 211:1.0 212:1.0 213:1.0 214:1.0 215:1.0 
-1271.0020823877387 -1912.0927382976374 8:1.0 25:1.0 88:1.0 132:1.0 216:1.0 217:1.0 218:1.0 219:1.0 220:1.0 
-4775.624164462385 -1597.470357872829 77:1.0 78:1.0 96:1.0 149:1.0 242:1.0 243:1.0 244:1.0 245:1.0 246:1.0 247:1.0 
-3082.850345770139 -1065.3536830209305 40:1.0 75:1.0 153:1.0 259:1.0 260:1.0 261:1.0 262:1.0 263:1.0 264:1.0 265:1.0 266:1.0 267:1.0 268:1.0 269:1.0 270:1.0 
-1938.5473179889805 -2393.1704042501487 25:1.0 40:1.0 125:1.0 156:1.0 282:1.0 283:1.0 284:1.0 285:1.0 286:1.0 287:1.0 288:1.0 
-8192.0 -8192.0 105:1.0 322:1.0 
-4762.986016375861 -6050.054744520168 54:1.0 275:1.0 350:1.0 
-464.6606552365516 -518.8897034757557 40:1.0 183:1.0 364:1.0 365:1.0 366:1.0 367:1.0 368:1.0 369:1.0 370:1.0 371:1.0 
-4849.908884601415 -8192.0 40:1.0 105:1.0 123:1.0 379:1.0 
-8192.0 -8192.0 447:1.0 
-3995.3246137165456 -5742.1261011658335 178:1.0 377:1.0 489:1.0 490:1.0 
-4222.6056312897235 -5135.451193893438 40:1.0 221:1.0 222:1.0 491:1.0 492:1.0 493:1.0 
-583.4066721924718 -0.0 148:1.0 502:1.0 503:1.0 504:1.0 
-862.9059273622338 -5897.226061487257 105:1.0 108:1.0 112:1.0 523:1.0 524:1.0 
-4760.704228736814 -3838.80492460473 54:1.0 275:1.0 541:1.0 
-8192.0 -7172.153573968173 38:1.0 273:1.0 585:1.0 586:1.0 
-1615.7408366421919 -0.0 627:1.0 628:1.0 629:1.0 630:1.0 631:1.0 
-8192.0 -8187.7624555337125 78:1.0 653:1.0 
-446.6199241855695 -678.0727659520895 57:1.0 78:1.0 86:1.0 148:1.0 654:1.0 655:1.0 656:1.0 
-3894.4578579447398 -3422.6469690141835 78:1.0 108:1.0 112:1.0 233:1.0 257:1.0 375:1.0 407:1.0 
-882.3098180586644 -18.8471311263072 78:1.0 273:1.0 604:1.0 657:1.0 658:1.0 
-7962.708697353005 -4055.0479708774064 45:1.0 75:1.0 315:1.0 659:1.0 660:1.0 661:1.0 
-2521.6486588429525 -2788.349722774699 96:1.0 186:1.0 283:1.0 292:1.0 293:1.0 558:1.0 664:1.0 665:1.0 666:1.0 
-2836.0874179048665 -1859.7709679877987 130:1.0 271:1.0 676:1.0 677:1.0 
-8192.0 -7217.488679051518 678:1.0 679:1.0 
-3949.7710715718213 -452.9226837416329 40:1.0 86:1.0 92:1.0 125:1.0 680:1.0 
-2027.3421219783243 -3523.095871419428 178:1.0 447:1.0 682:1.0 683:1.0 
-1602.9088392260567 -1043.6641825456134 54:1.0 87:1.0 90:1.0 152:1.0 265:1.0 275:1.0 581:1.0 691:1.0 692:1.0 693:1.0 694:1.0 695:1.0 696:1.0 697:1.0 
-5450.0400050659955 -3570.8469937744026 4:1.0 106:1.0 131:1.0 204:1.0 257:1.0 703:1.0 
-5887.888246616415 -8192.0 77:1.0 207:1.0 707:1.0 710:1.0 711:1.0 
-8192.0 -8192.0 86:1.0 721:1.0 
-1664.1920687815132 -0.0 75:1.0 78:1.0 731:1.0 732:1.0 733:1.0 734:1.0 735:1.0 736:1.0 
-1010.7137681902761 -9.60311178736206 40:1.0 81:1.0 171:1.0 257:1.0 263:1.0 368:1.0 723:1.0 737:1.0 738:1.0 739:1.0 740:1.0 741:1.0 742:1.0 743:1.0 744:1.0 745:1.0 
-5578.686011031816 -3989.7517199317986 747:1.0 748:1.0 749:1.0 750:1.0 
-701.7246210085536 -2583.5764257573705 7:1.0 368:1.0 751:1.0 752:1.0 753:1.0 754:1.0 755:1.0 756:1.0 757:1.0 758:1.0 
-8192.0 -8192.0 88:1.0 773:1.0 
-8192.0 -8192.0 86:1.0 820:1.0 
-1652.5918045150272 -569.7913776500268 130:1.0 821:1.0 822:1.0 
-0.0 -14.613782549511052 28:1.0 86:1.0 105:1.0 662:1.0 823:1.0 824:1.0 825:1.0 826:1.0 827:1.0 
-8192.0 -3256.4793349020756 86:1.0 823:1.0 
-1888.6566631378835 -488.1041716630116 28:1.0 86:1.0 196:1.0 256:1.0 257:1.0 346:1.0 742:1.0 823:1.0 828:1.0 829:1.0 830:1.0 831:1.0 832:1.0 833:1.0 834:1.0 835:1.0 
-8192.0 -7105.277268093732 169:1.0 302:1.0 846:1.0 
-3938.261595389175 -2338.0103954001875 96:1.0 105:1.0 186:1.0 233:1.0 422:1.0 854:1.0 855:1.0 856:1.0 
-0.0 -134.05650467722856 105:1.0 178:1.0 857:1.0 858:1.0 
-132.54265920250955 -1613.9025358968513 28:1.0 86:1.0 724:1.0 823:1.0 859:1.0 
-3695.473882401751 -5177.927305549448 75:1.0 79:1.0 88:1.0 131:1.0 213:1.0 248:1.0 398:1.0 860:1.0 861:1.0 
-2485.3211670871674 -663.6204649775397 222:1.0 318:1.0 628:1.0 629:1.0 811:1.0 862:1.0 863:1.0 
-2929.467358710169 -2365.0206275885357 136:1.0 873:1.0 874:1.0 875:1.0 876:1.0 877:1.0 878:1.0 
-3920.121284339832 -1704.2127415044342 40:1.0 680:1.0 879:1.0 880:1.0 
-5433.705477240578 -4839.5807736500155 129:1.0 503:1.0 919:1.0 920:1.0 
-8192.0 -8192.0 38:1.0 946:1.0 947:1.0 
-1815.600104490679 -5726.730715268714 40:1.0 147:1.0 207:1.0 315:1.0 405:1.0 955:1.0 956:1.0 957:1.0 
-503.1249128174892 -1185.3938153735623 40:1.0 147:1.0 855:1.0 955:1.0 958:1.0 959:1.0 960:1.0 
-3086.7662613435737 -3757.6908675455556 40:1.0 75:1.0 122:1.0 262:1.0 627:1.0 628:1.0 629:1.0 964:1.0 
-0.0 -193.2345229792755 40:1.0 75:1.0 122:1.0 628:1.0 629:1.0 965:1.0 966:1.0 967:1.0 968:1.0 
-2363.921961215972 -1504.82577475393 10:1.0 40:1.0 105:1.0 148:1.0 183:1.0 306:1.0 692:1.0 989:1.0 990:1.0 991:1.0 992:1.0 
-8192.0 -8192.0 40:1.0 993:1.0 
-4883.192139736665 -4580.9580541692385 40:1.0 348:1.0 782:1.0 995:1.0 996:1.0 
-0.0 -436.26167632385216 11:1.0 40:1.0 47:1.0 125:1.0 130:1.0 424:1.0 999:1.0 1000:1.0 1001:1.0 
-5084.482982404211 -8192.0 38:1.0 40:1.0 680:1.0 1010:1.0 
-2196.1474720600745 -1192.859540721705 40:1.0 75:1.0 81:1.0 368:1.0 543:1.0 544:1.0 927:1.0 1022:1.0 1023:1.0 1024:1.0 1025:1.0 
-6.834143807412327 -1923.3603160887471 40:1.0 148:1.0 1045:1.0 1046:1.0 1047:1.0 
-2401.6178107657256 -2883.18873677172 40:1.0 119:1.0 680:1.0 1056:1.0 
-157.97926737338202 -410.06978719059805 38:1.0 40:1.0 43:1.0 78:1.0 105:1.0 148:1.0 288:1.0 424:1.0 584:1.0 831:1.0 1069:1.0 1070:1.0 
-8192.0 -8192.0 96:1.0 855:1.0 
-8192.0 -7619.736477652096 1011:1.0 1105:1.0 
-3736.9571405052993 -1843.6329377311586 4:1.0 490:1.0 495:1.0 884:1.0 1112:1.0 
-5305.7429610799245 -0.0 43:1.0 148:1.0 178:1.0 222:1.0 233:1.0 257:1.0 985:1.0 1138:1.0 
-8192.0 -8192.0 233:1.0 283:1.0 1140:1.0 
-4922.354605430368 -5487.041896683825 4:1.0 852:1.0 1143:1.0 1144:1.0 
-722.5117828292197 -0.0 156:1.0 168:1.0 213:1.0 233:1.0 249:1.0 655:1.0 822:1.0 823:1.0 940:1.0 1149:1.0 1150:1.0 1151:1.0 
-5445.772876681076 -5363.214737019416 132:1.0 202:1.0 1152:1.0 
-2640.733878089018 -319.38774575204974 130:1.0 552:1.0 575:1.0 1153:1.0 1154:1.0 1155:1.0 
-4017.0262532334555 -1151.0962882641393 130:1.0 1156:1.0 
-6480.690103139759 -3284.6018849224492 1170:1.0 1171:1.0 
-8192.0 -8192.0 858:1.0 
-4865.103533170886 -1272.0092779336933 124:1.0 204:1.0 490:1.0 1215:1.0 1216:1.0 
-4311.77591917316 -2657.2135466727314 98:1.0 593:1.0 1217:1.0 1218:1.0 1219:1.0 1220:1.0 
-1412.3521691413437 -2299.2744507580323 97:1.0 147:1.0 148:1.0 151:1.0 306:1.0 362:1.0 865:1.0 1046:1.0 1236:1.0 1237:1.0 1238:1.0 1239:1.0 
-7427.35692886021 -5080.569195503781 722:1.0 1241:1.0 
-7420.475944604179 -5077.417684230272 722:1.0 1242:1.0 
-1378.843197492772 -3094.6679560630387 78:1.0 179:1.0 296:1.0 522:1.0 733:1.0 734:1.0 800:1.0 812:1.0 840:1.0 1258:1.0 
-645.2994612945872 -5119.338099730005 178:1.0 186:1.0 665:1.0 812:1.0 1260:1.0 1261:1.0 
-647.6140744535015 -0.0 125:1.0 165:1.0 167:1.0 210:1.0 338:1.0 448:1.0 865:1.0 894:1.0 1271:1.0 1272:1.0 1273:1.0 1274:1.0 
-2909.4872737434353 -0.0 75:1.0 104:1.0 105:1.0 
-0.0 -6556.443126806856 75:1.0 79:1.0 105:1.0 858:1.0 
-4773.249402550277 -1317.4092436960575 168:1.0 1279:1.0 1280:1.0 1281:1.0 1282:1.0 1283:1.0 1284:1.0 1285:1.0 
-8192.0 -8192.0 104:1.0 
-2564.1018662002452 -4289.04305514891 38:1.0 40:1.0 75:1.0 288:1.0 386:1.0 945:1.0 1279:1.0 1315:1.0 1316:1.0 1317:1.0 1318:1.0 
-1139.1152234895224 -0.0 105:1.0 855:1.0 
-671.286490793639 -0.0 38:1.0 78:1.0 112:1.0 138:1.0 529:1.0 1171:1.0 1319:1.0 
-800.8318439534817 -0.0 112:1.0 148:1.0 405:1.0 558:1.0 794:1.0 1320:1.0 
-6896.543973492221 -2143.750973071069 125:1.0 209:1.0 283:1.0 665:1.0 
-1609.6841134081585 -4105.926984218144 88:1.0 156:1.0 165:1.0 167:1.0 196:1.0 289:1.0 399:1.0 639:1.0 801:1.0 1324:1.0 1325:1.0 1326:1.0 
-5919.236664671533 -2646.9333889449363 742:1.0 946:1.0 1342:1.0 
-87.43151339985353 -0.0 130:1.0 131:1.0 156:1.0 186:1.0 348:1.0 1343:1.0 1344:1.0 1345:1.0 1346:1.0 
-8192.0 -7333.494865461677 10:1.0 24:1.0 500:1.0 1368:1.0 1369:1.0 
-2899.1770820115253 -1263.5003552019884 167:1.0 906:1.0 1385:1.0 1386:1.0 1387:1.0 
-0.0 -2158.288223113516 178:1.0 490:1.0 1215:1.0 1409:1.0 1410:1.0 
-0.0 -147.0420677164584 178:1.0 222:1.0 855:1.0 
-49.71814401181606 -677.1128198456325 54:1.0 105:1.0 148:1.0 1063:1.0 1203:1.0 1442:1.0 1443:1.0 
-1813.9064167949475 -1070.9257875607454 38:1.0 275:1.0 692:1.0 724:1.0 874:1.0 1099:1.0 
-0.0 -467.4414259271897 79:1.0 132:1.0 530:1.0 1486:1.0 1487:1.0 
-602.4532905649602 -612.5768437365016 81:1.0 105:1.0 133:1.0 136:1.0 641:1.0 991:1.0 1489:1.0 1490:1.0 1491:1.0 1492:1.0 1493:1.0 
-204.27574972357635 -3366.9564434235085 54:1.0 108:1.0 112:1.0 950:1.0 1509:1.0 1510:1.0 1511:1.0 
-0.0 -1515.43227912222 74:1.0 78:1.0 105:1.0 178:1.0 245:1.0 532:1.0 1310:1.0 1517:1.0 1518:1.0 1519:1.0 
-0.0 -1714.642763378779 104:1.0 105:1.0 1142:1.0 1515:1.0 1520:1.0 
-4035.8779896901433 -3826.0452521595826 178:1.0 270:1.0 442:1.0 771:1.0 794:1.0 844:1.0 1521:1.0 1522:1.0 
-5544.870389517613 -3488.366986478119 284:1.0 699:1.0 851:1.0 1527:1.0 1528:1.0 1529:1.0 
-7997.914134198703 -3590.0602726296856 233:1.0 368:1.0 1531:1.0 
-1822.0167392793048 -834.3763715150608 11:1.0 130:1.0 1532:1.0 1533:1.0 
-3305.1593823392886 -571.0234574751296 130:1.0 1106:1.0 1539:1.0 
-687.2985325019133 -1096.6632235080401 40:1.0 94:1.0 165:1.0 167:1.0 405:1.0 639:1.0 800:1.0 831:1.0 932:1.0 1005:1.0 1540:1.0 1541:1.0 1542:1.0 
-3765.8063028538204 -2609.614919161149 131:1.0 132:1.0 752:1.0 1169:1.0 1551:1.0 
-3770.9300478933988 -2079.6243439035234 133:1.0 532:1.0 1037:1.0 1570:1.0 1571:1.0 
-5195.8808042385945 -2376.9095625240834 1312:1.0 1576:1.0 1577:1.0 1578:1.0 1579:1.0 
-8192.0 -8192.0 1583:1.0 
-5403.467654074683 -6375.798581704572 8:1.0 116:1.0 168:1.0 1594:1.0 1595:1.0 1596:1.0 
-2382.770508934156 -2037.8957844781776 583:1.0 823:1.0 1195:1.0 1597:1.0 
-3015.320507723834 -2147.556811391304 5:1.0 32:1.0 112:1.0 752:1.0 1258:1.0 1362:1.0 1598:1.0 1599:1.0 1600:1.0 
-8192.0 -1620.5790592069438 11:1.0 75:1.0 112:1.0 233:1.0 1117:1.0 1206:1.0 1586:1.0 1601:1.0 
-1897.6007256821295 -2966.7517703830945 5:1.0 11:1.0 130:1.0 732:1.0 
-7292.6668879230565 -0.0 583:1.0 858:1.0 1621:1.0 
-8192.0 -1270.9771677743654 43:1.0 151:1.0 352:1.0 526:1.0 1629:1.0 
-2503.2535163547614 -3353.5331818011055 79:1.0 125:1.0 359:1.0 422:1.0 931:1.0 1577:1.0 1634:1.0 1635:1.0 1636:1.0 
-5234.529011900416 -855.6976441122849 38:1.0 43:1.0 386:1.0 530:1.0 1639:1.0 1640:1.0 
-2563.4517184329443 -2983.416302997318 79:1.0 147:1.0 148:1.0 278:1.0 526:1.0 1641:1.0 
-349.48541695315527 -25.670734383689947 40:1.0 103:1.0 165:1.0 167:1.0 202:1.0 222:1.0 300:1.0 318:1.0 342:1.0 394:1.0 414:1.0 932:1.0 978:1.0 1645:1.0 1646:1.0 1647:1.0 1648:1.0 
-0.0 -85.92016482381243 165:1.0 167:1.0 531:1.0 532:1.0 639:1.0 1649:1.0 1650:1.0 1651:1.0 
-3158.7495823186214 -2084.183620149751 165:1.0 167:1.0 793:1.0 1652:1.0 
-2932.7346462301716 -2354.3758968922116 38:1.0 86:1.0 368:1.0 1657:1.0 1658:1.0 
-2992.075550752741 -2944.552151786759 27:1.0 40:1.0 117:1.0 149:1.0 169:1.0 274:1.0 306:1.0 385:1.0 773:1.0 950:1.0 999:1.0 1680:1.0 
-8192.0 -8192.0 222:1.0 1453:1.0 1683:1.0 
-3371.5859737318137 -75.5384813289693 222:1.0 257:1.0 721:1.0 1684:1.0 1685:1.0 1686:1.0 1687:1.0 
-7594.443904359054 -2290.7817737087703 31:1.0 43:1.0 249:1.0 1695:1.0 1696:1.0 1697:1.0 
-5963.45445320724 -3935.624761608438 47:1.0 659:1.0 1703:1.0 1704:1.0 
-0.0 -1189.7630896863734 40:1.0 89:1.0 122:1.0 627:1.0 628:1.0 752:1.0 811:1.0 946:1.0 1705:1.0 
-2296.295873939842 -2624.34082471153 78:1.0 81:1.0 114:1.0 133:1.0 152:1.0 1713:1.0 1714:1.0 1715:1.0 1716:1.0 
-0.0 -1041.9686407639635 78:1.0 79:1.0 89:1.0 855:1.0 1717:1.0 1718:1.0 
-8192.0 -5073.796809546415 1727:1.0 1728:1.0 1729:1.0 
-4168.47845887995 -3113.6133943767836 40:1.0 263:1.0 296:1.0 1139:1.0 1261:1.0 1732:1.0 
-1320.4429420668591 -1518.9235419108857 145:1.0 165:1.0 167:1.0 172:1.0 801:1.0 1733:1.0 1734:1.0 
-4168.924452628828 -999.8008333815277 159:1.0 257:1.0 284:1.0 823:1.0 1299:1.0 1747:1.0 
-8192.0 -8171.1229693197165 31:1.0 336:1.0 965:1.0 1705:1.0 
-8192.0 -5063.609711833025 448:1.0 1509:1.0 1752:1.0 
-8192.0 -8192.0 40:1.0 122:1.0 1767:1.0 
-2021.2080797154708 -0.0 40:1.0 75:1.0 86:1.0 89:1.0 90:1.0 315:1.0 530:1.0 724:1.0 755:1.0 1312:1.0 1771:1.0 1772:1.0 1773:1.0 1774:1.0 1775:1.0 1776:1.0 
-1013.3118728956287 -1705.1581500349819 40:1.0 680:1.0 1778:1.0 1779:1.0 
-3637.314482126441 -3256.3089318033517 25:1.0 96:1.0 100:1.0 112:1.0 248:1.0 1788:1.0 1789:1.0 1790:1.0 
-7201.498695822656 -4424.5042763961965 98:1.0 1815:1.0 1816:1.0 1817:1.0 
-1806.9697732826078 -0.0 149:1.0 710:1.0 852:1.0 1021:1.0 1046:1.0 1322:1.0 1597:1.0 1823:1.0 
-0.0 -5386.509311497787 40:1.0 47:1.0 125:1.0 130:1.0 375:1.0 800:1.0 1089:1.0 
-8035.817970676706 -7352.705909377119 206:1.0 560:1.0 1139:1.0 1842:1.0 
-167.84096283562252 -0.0 105:1.0 112:1.0 123:1.0 131:1.0 560:1.0 660:1.0 1851:1.0 1852:1.0 1853:1.0 
-1689.6696577294795 -0.0 90:1.0 97:1.0 104:1.0 105:1.0 112:1.0 318:1.0 375:1.0 1854:1.0 1855:1.0 
-2995.9786535689473 -912.3338256160436 43:1.0 79:1.0 86:1.0 155:1.0 1103:1.0 1455:1.0 1856:1.0 1857:1.0 1858:1.0 1859:1.0 
-1053.669366650105 -771.7425240198013 75:1.0 111:1.0 257:1.0 364:1.0 530:1.0 1733:1.0 1860:1.0 1861:1.0 
-1619.5900578743142 -709.9489743345466 28:1.0 266:1.0 270:1.0 368:1.0 497:1.0 1866:1.0 1867:1.0 1868:1.0 1869:1.0 1870:1.0 
-0.0 -454.5766022246492 7:1.0 78:1.0 530:1.0 734:1.0 788:1.0 931:1.0 1887:1.0 1888:1.0 
-1899.8584788398298 -1323.2453081153253 38:1.0 86:1.0 233:1.0 530:1.0 1615:1.0 1894:1.0 1895:1.0 1896:1.0 1897:1.0 
-3371.6761271909872 -5192.678204390912 79:1.0 249:1.0 1898:1.0 1899:1.0 1900:1.0 
-0.0 -526.7058394507078 104:1.0 105:1.0 202:1.0 1901:1.0 1902:1.0 
-3632.5375990593247 -945.0326192707956 209:1.0 273:1.0 1347:1.0 1907:1.0 
-459.59413399608593 -3739.068993626181 105:1.0 108:1.0 147:1.0 492:1.0 660:1.0 1910:1.0 1911:1.0 1912:1.0 1913:1.0 
-8192.0 -7251.480126603206 1171:1.0 1763:1.0 
-451.9022449085293 -1417.30598980617 581:1.0 732:1.0 1171:1.0 1925:1.0 
-3795.383100738239 -919.2183026779863 3:1.0 87:1.0 89:1.0 144:1.0 257:1.0 434:1.0 530:1.0 651:1.0 699:1.0 932:1.0 981:1.0 1798:1.0 1926:1.0 1927:1.0 1928:1.0 1929:1.0 
-5396.191151647674 -8192.0 275:1.0 306:1.0 1944:1.0 
-3564.865318258328 -3521.2234615616594 40:1.0 54:1.0 138:1.0 159:1.0 171:1.0 207:1.0 369:1.0 375:1.0 692:1.0 1756:1.0 1951:1.0 1952:1.0 
-8192.0 -8192.0 583:1.0 1953:1.0 
-1448.5167476498127 -0.0 25:1.0 38:1.0 54:1.0 78:1.0 105:1.0 145:1.0 148:1.0 152:1.0 189:1.0 442:1.0 583:1.0 704:1.0 
-0.0 -2872.8132188961426 43:1.0 45:1.0 79:1.0 352:1.0 526:1.0 530:1.0 1080:1.0 1954:1.0 1955:1.0 1956:1.0 
-4341.649918076795 -806.5625517767003 38:1.0 43:1.0 75:1.0 328:1.0 526:1.0 678:1.0 1945:1.0 1957:1.0 1958:1.0 
-4830.571943505714 -4343.174090507323 24:1.0 149:1.0 467:1.0 1959:1.0 1960:1.0 
-0.0 -4522.576020044029 8:1.0 9:1.0 178:1.0 222:1.0 1139:1.0 1288:1.0 1962:1.0 1963:1.0 
-1908.2397460147993 -1340.0261587863788 86:1.0 530:1.0 1257:1.0 1964:1.0 
