svm_type c_svc
kernel_type rbf
gamma 0.03125
nr_class 3
total_sv 736
rho -1.1139544298799815 -0.19881358708060995 0.7140050231217177
label 0 3 1
probA -3.687829197789621 -3.4720546071447953 -4.592417091134253
probB -0.0035175352632571114 0.13331497037725623 0.2891897816984787
nr_sv 296 247 193
SV
0.3170765560858629 0.5620258389429322 10:1.0 11:1.0 12:1.0 13:1.0 14:1.0 15:1.0 16:1.0 17:1.0 
0.5050974425988679 0.63013465488554 10:1.0 11:1.0 14:1.0 15:1.0 16:1.0 18:1.0 19:1.0 
0.43541117311269795 0.7104062288976689 10:1.0 11:1.0 14:1.0 15:1.0 20:1.0 21:1.0 22:1.0 23:1.0 
4.007201693126376 4.056414629094201 24:1.0 25:1.0 26:1.0 27:1.0 28:1.0 29:1.0 
8.0 2.6446962335691366 35:1.0 36:1.0 37:1.0 38:1.0 
1.1079174382878536 2.6073931865647135 39:1.0 40:1.0 41:1.0 42:1.0 43:1.0 
3.5095515238017945 1.407618886565669 50:1.0 51:1.0 52:1.0 53:1.0 54:1.0 55:1.0 
1.041473965274174 1.493319459581877 59:1.0 60:1.0 61:1.0 62:1.0 63:1.0 64:1.0 65:1.0 66:1.0 67:1.0 
0.8785693875294541 0.0 42:1.0 75:1.0 90:1.0 96:1.0 97:1.0 98:1.0 99:1.0 
0.08935414331914417 2.7643589216850097 75:1.0 86:1.0 117:1.0 118:1.0 119:1.0 120:1.0 
2.0936917621117623 3.178493848255805 40:1.0 122:1.0 124:1.0 125:1.0 126:1.0 127:1.0 128:1.0 
2.908764564151297 0.0 31:1.0 42:1.0 90:1.0 142:1.0 143:1.0 144:1.0 
2.0613789313609687 1.704753868521093 31:1.0 88:1.0 138:1.0 153:1.0 154:1.0 155:1.0 156:1.0 157:1.0 158:1.0 159:1.0 160:1.0 161:1.0 162:1.0 163:1.0 
6.330050750689164 0.0 10:1.0 28:1.0 169:1.0 170:1.0 171:1.0 172:1.0 
6.736425538044042 1.977798736781547 31:1.0 72:1.0 112:1.0 173:1.0 174:1.0 175:1.0 176:1.0 
1.9154226478766416 2.8637558892103008 31:1.0 81:1.0 86:1.0 112:1.0 117:1.0 177:1.0 178:1.0 179:1.0 180:1.0 181:1.0 182:1.0 183:1.0 184:1.0 
2.129954417030982 0.0 72:1.0 186:1.0 190:1.0 191:1.0 192:1.0 193:1.0 194:1.0 195:1.0 196:1.0 197:1.0 198:1.0 
3.765103431145392 1.7577588477800703 30:1.0 138:1.0 229:1.0 230:1.0 231:1.0 232:1.0 
0.0 1.579753294877777 75:1.0 120:1.0 159:1.0 197:1.0 
4.179761803468345 1.0785967153021851 31:1.0 96:1.0 270:1.0 299:1.0 300:1.0 301:1.0 
4.330336485485298 1.1991952803458137 302:1.0 303:1.0 304:1.0 305:1.0 306:1.0 
3.103529659594545 3.5340112416454037 40:1.0 56:1.0 86:1.0 103:1.0 233:1.0 307:1.0 308:1.0 309:1.0 
0.431634113833785 0.2949085131990049 36:1.0 40:1.0 282:1.0 296:1.0 315:1.0 316:1.0 317:1.0 318:1.0 319:1.0 320:1.0 321:1.0 
3.3579647373940062 3.393354136662101 53:1.0 86:1.0 323:1.0 324:1.0 325:1.0 
0.0 0.25970264010117056 43:1.0 89:1.0 112:1.0 233:1.0 326:1.0 327:1.0 328:1.0 329:1.0 
1.5237808767562957 3.6687357327680017 78:1.0 249:1.0 284:1.0 329:1.0 330:1.0 331:1.0 332:1.0 333:1.0 334:1.0 335:1.0 336:1.0 337:1.0 
0.0 1.2184028350523513 43:1.0 302:1.0 338:1.0 339:1.0 340:1.0 341:1.0 342:1.0 343:1.0 
0.7981000302901009 1.2535879030268748 79:1.0 329:1.0 356:1.0 357:1.0 358:1.0 359:1.0 360:1.0 361:1.0 362:1.0 
3.5467674646164498 3.228640621691763 89:1.0 377:1.0 378:1.0 
1.1199643024261974 2.5993269289394436 39:1.0 43:1.0 86:1.0 88:1.0 380:1.0 381:1.0 382:1.0 
1.9635970178651734 4.247572345280038 40:1.0 249:1.0 394:1.0 395:1.0 396:1.0 397:1.0 
3.3031962321568793 0.0 69:1.0 96:1.0 352:1.0 408:1.0 409:1.0 410:1.0 411:1.0 
1.0445952790617734 1.564718301822557 86:1.0 87:1.0 145:1.0 198:1.0 253:1.0 352:1.0 412:1.0 413:1.0 414:1.0 
0.6360940005371543 1.1016044110658738 96:1.0 153:1.0 257:1.0 415:1.0 416:1.0 417:1.0 418:1.0 419:1.0 420:1.0 421:1.0 
0.22474134722115202 0.0 11:1.0 40:1.0 75:1.0 81:1.0 90:1.0 422:1.0 423:1.0 424:1.0 425:1.0 426:1.0 427:1.0 
0.16585292370609284 0.9448987236228844 43:1.0 81:1.0 86:1.0 225:1.0 261:1.0 428:1.0 429:1.0 430:1.0 431:1.0 
1.3216966763941531 4.522437593063346 43:1.0 86:1.0 306:1.0 442:1.0 443:1.0 444:1.0 
5.255475641259098 5.333244358297367 445:1.0 446:1.0 
8.0 6.726717470404796 96:1.0 316:1.0 448:1.0 
4.969331810920523 3.2030290121128284 43:1.0 57:1.0 204:1.0 450:1.0 
2.601519173115212 3.428073556797399 4:1.0 77:1.0 78:1.0 112:1.0 144:1.0 306:1.0 455:1.0 456:1.0 457:1.0 458:1.0 459:1.0 460:1.0 461:1.0 
0.8663276753029036 0.34463481836570514 43:1.0 97:1.0 178:1.0 206:1.0 210:1.0 316:1.0 319:1.0 427:1.0 439:1.0 468:1.0 469:1.0 470:1.0 471:1.0 472:1.0 473:1.0 
0.0 0.39484130751565644 315:1.0 316:1.0 319:1.0 477:1.0 
1.4884192782822347 1.674073477892664 86:1.0 117:1.0 222:1.0 394:1.0 426:1.0 478:1.0 479:1.0 480:1.0 481:1.0 
0.882593375957421 0.3843245905599542 31:1.0 125:1.0 482:1.0 483:1.0 484:1.0 485:1.0 486:1.0 487:1.0 488:1.0 489:1.0 490:1.0 491:1.0 
3.9398531058432544 5.148206537558973 5:1.0 131:1.0 222:1.0 245:1.0 497:1.0 498:1.0 
0.37935889589023525 3.512572511007981 195:1.0 499:1.0 500:1.0 501:1.0 502:1.0 
0.13809808331339427 1.033163955019215 25:1.0 43:1.0 88:1.0 149:1.0 225:1.0 516:1.0 517:1.0 
0.47384948711926084 1.6724770998747265 43:1.0 221:1.0 253:1.0 518:1.0 529:1.0 
1.1987752923405803 3.5814281571579945 151:1.0 532:1.0 533:1.0 534:1.0 535:1.0 536:1.0 
2.681845507604495 0.0 10:1.0 433:1.0 549:1.0 550:1.0 551:1.0 
0.0 0.6517631775003031 247:1.0 315:1.0 316:1.0 319:1.0 552:1.0 553:1.0 554:1.0 555:1.0 556:1.0 557:1.0 
4.576917499422985 2.0881998510070785 10:1.0 11:1.0 588:1.0 589:1.0 590:1.0 591:1.0 
1.0774685467600835 0.0 40:1.0 101:1.0 102:1.0 186:1.0 270:1.0 352:1.0 390:1.0 588:1.0 592:1.0 593:1.0 594:1.0 
1.5554630102132077 2.563077160790022 98:1.0 597:1.0 598:1.0 599:1.0 600:1.0 601:1.0 
0.0 0.43928804017886763 89:1.0 98:1.0 532:1.0 602:1.0 603:1.0 604:1.0 605:1.0 606:1.0 607:1.0 608:1.0 609:1.0 
0.1394041385715578 0.5826112911973287 10:1.0 98:1.0 602:1.0 605:1.0 610:1.0 611:1.0 612:1.0 613:1.0 
0.8983942809843054 1.655319224086782 98:1.0 614:1.0 615:1.0 616:1.0 617:1.0 618:1.0 619:1.0 620:1.0 621:1.0 622:1.0 623:1.0 
0.524622900429062 1.2152122407942196 76:1.0 98:1.0 591:1.0 610:1.0 624:1.0 625:1.0 626:1.0 627:1.0 628:1.0 629:1.0 630:1.0 631:1.0 
1.0635203263786868 1.501829103841806 98:1.0 187:1.0 317:1.0 559:1.0 632:1.0 633:1.0 634:1.0 635:1.0 
2.5282670396000166 2.2110523394207 98:1.0 651:1.0 652:1.0 653:1.0 654:1.0 655:1.0 656:1.0 
3.2040405339905216 3.504156862328524 125:1.0 657:1.0 658:1.0 659:1.0 
8.0 8.0 
1.000606408187566 0.229137100651243 69:1.0 159:1.0 675:1.0 676:1.0 677:1.0 678:1.0 679:1.0 680:1.0 681:1.0 682:1.0 683:1.0 
0.39670242881299034 1.817517123312825 25:1.0 270:1.0 574:1.0 712:1.0 713:1.0 714:1.0 
8.0 4.2604330743929255 79:1.0 189:1.0 225:1.0 720:1.0 721:1.0 
0.4478673049236578 1.61402715592389 602:1.0 725:1.0 726:1.0 727:1.0 728:1.0 
5.070643751714071 3.4520445091966825 88:1.0 233:1.0 735:1.0 736:1.0 737:1.0 
8.0 6.457192857557954 69:1.0 222:1.0 754:1.0 
2.3954142774677507 1.5253953881732798 84:1.0 371:1.0 549:1.0 772:1.0 773:1.0 774:1.0 775:1.0 776:1.0 777:1.0 778:1.0 779:1.0 
0.0 1.2880748500697219 25:1.0 43:1.0 81:1.0 117:1.0 149:1.0 151:1.0 159:1.0 238:1.0 283:1.0 328:1.0 783:1.0 784:1.0 785:1.0 786:1.0 787:1.0 788:1.0 
5.1668944896522415 1.566931136740798 84:1.0 186:1.0 498:1.0 609:1.0 789:1.0 790:1.0 
1.2319713562845624 0.5403454147228096 11:1.0 119:1.0 144:1.0 276:1.0 464:1.0 791:1.0 792:1.0 793:1.0 794:1.0 795:1.0 796:1.0 797:1.0 798:1.0 
1.9604241672590679 2.644050978346783 52:1.0 150:1.0 799:1.0 800:1.0 801:1.0 802:1.0 803:1.0 
8.0 8.0 804:1.0 
1.895753790315824 2.1748266311590045 485:1.0 814:1.0 815:1.0 816:1.0 
1.0858260663410177 1.2124720503954711 15:1.0 821:1.0 822:1.0 823:1.0 824:1.0 825:1.0 826:1.0 827:1.0 
1.7398453436389238 0.0 90:1.0 120:1.0 844:1.0 845:1.0 
1.9200684938621089 0.5572797561728255 404:1.0 847:1.0 848:1.0 849:1.0 
5.32836648569028 7.657339378434811 169:1.0 856:1.0 857:1.0 
3.2730725732229726 4.930901265780278 11:1.0 38:1.0 405:1.0 669:1.0 862:1.0 863:1.0 864:1.0 
2.337131270438349 0.7693595775760941 80:1.0 90:1.0 144:1.0 186:1.0 750:1.0 819:1.0 875:1.0 876:1.0 
8.0 1.478380504554247 69:1.0 895:1.0 
8.0 3.20848142016742 38:1.0 57:1.0 896:1.0 897:1.0 
0.0 2.525448785044861 90:1.0 139:1.0 673:1.0 
3.4816486904216744 3.697123413696414 903:1.0 904:1.0 905:1.0 
0.0 0.6624416763775417 128:1.0 906:1.0 907:1.0 908:1.0 909:1.0 910:1.0 911:1.0 912:1.0 913:1.0 
0.7987483524243795 0.0 1:1.0 196:1.0 351:1.0 642:1.0 921:1.0 922:1.0 923:1.0 924:1.0 925:1.0 926:1.0 
1.2696396548052398 0.0 38:1.0 69:1.0 75:1.0 171:1.0 281:1.0 763:1.0 934:1.0 935:1.0 936:1.0 937:1.0 938:1.0 939:1.0 
0.04064237385188647 0.0 30:1.0 31:1.0 32:1.0 43:1.0 156:1.0 343:1.0 377:1.0 411:1.0 518:1.0 940:1.0 941:1.0 942:1.0 
0.0 0.14349267772848112 43:1.0 125:1.0 156:1.0 168:1.0 172:1.0 518:1.0 943:1.0 944:1.0 945:1.0 946:1.0 947:1.0 948:1.0 
8.0 7.296924194307622 38:1.0 953:1.0 
2.1059205005170907 1.345050772800131 47:1.0 396:1.0 561:1.0 562:1.0 841:1.0 954:1.0 955:1.0 956:1.0 
1.1294592112284354 2.479980024799657 40:1.0 122:1.0 168:1.0 283:1.0 417:1.0 418:1.0 559:1.0 945:1.0 977:1.0 978:1.0 979:1.0 
5.204016237253568 1.8738106946365434 1:1.0 38:1.0 40:1.0 97:1.0 122:1.0 987:1.0 
2.3549381766611592 2.4891718900381274 40:1.0 81:1.0 122:1.0 214:1.0 989:1.0 990:1.0 991:1.0 992:1.0 
5.483567050976402 6.286394698897242 1:1.0 40:1.0 122:1.0 144:1.0 
1.2096487881987559 1.225794688189923 31:1.0 40:1.0 78:1.0 171:1.0 210:1.0 280:1.0 356:1.0 360:1.0 383:1.0 384:1.0 966:1.0 994:1.0 995:1.0 996:1.0 997:1.0 998:1.0 
3.6176577871566673 2.391846406895538 38:1.0 40:1.0 999:1.0 1000:1.0 1001:1.0 1002:1.0 1003:1.0 
8.0 4.704591649240781 40:1.0 81:1.0 213:1.0 534:1.0 1004:1.0 
4.81727400696524 3.807579844581544 40:1.0 169:1.0 170:1.0 171:1.0 1010:1.0 
4.5885374793859075 5.957462431468271 40:1.0 131:1.0 159:1.0 1013:1.0 1014:1.0 
4.340560235532955 3.8961515713763872 40:1.0 329:1.0 1044:1.0 1045:1.0 
1.8370896099565035 0.11058071133511804 31:1.0 40:1.0 96:1.0 233:1.0 377:1.0 390:1.0 804:1.0 1047:1.0 
0.5454529468366814 0.6743065223866745 40:1.0 197:1.0 233:1.0 383:1.0 384:1.0 1048:1.0 1049:1.0 1050:1.0 
2.51586925242035 3.4470026705871635 40:1.0 233:1.0 362:1.0 543:1.0 1051:1.0 
2.368977667934782 0.0 25:1.0 31:1.0 40:1.0 72:1.0 171:1.0 233:1.0 282:1.0 942:1.0 1052:1.0 1053:1.0 
7.969991862385635 4.133121398910652 38:1.0 40:1.0 1058:1.0 1059:1.0 1060:1.0 
2.191596463463753 0.06248084615079671 40:1.0 117:1.0 210:1.0 280:1.0 282:1.0 352:1.0 1064:1.0 1065:1.0 
7.513502282918661 5.449164027555396 40:1.0 178:1.0 188:1.0 281:1.0 282:1.0 1076:1.0 1077:1.0 
0.5773695435140227 1.3097500166168974 40:1.0 168:1.0 434:1.0 465:1.0 684:1.0 1078:1.0 1079:1.0 
0.5074802404628691 0.8641895780730232 40:1.0 195:1.0 295:1.0 554:1.0 718:1.0 1082:1.0 1083:1.0 1084:1.0 1085:1.0 1086:1.0 1087:1.0 1088:1.0 1089:1.0 
2.3559066595741998 0.9395967495032105 75:1.0 94:1.0 289:1.0 377:1.0 441:1.0 1006:1.0 1098:1.0 1099:1.0 1100:1.0 1101:1.0 
0.2595260572046496 3.752714901753878 96:1.0 112:1.0 316:1.0 1102:1.0 
0.0 0.025649925786171292 96:1.0 97:1.0 316:1.0 319:1.0 448:1.0 1108:1.0 1109:1.0 1110:1.0 1111:1.0 1112:1.0 1113:1.0 1114:1.0 
0.32780635157741567 0.0 1:1.0 158:1.0 281:1.0 289:1.0 290:1.0 1118:1.0 
5.910413309530638 2.647158323528186 40:1.0 289:1.0 290:1.0 1119:1.0 1120:1.0 1121:1.0 
2.876822671158989 1.7557622847359182 169:1.0 289:1.0 473:1.0 1015:1.0 1126:1.0 1127:1.0 
2.1326536332021253 2.9812100351741626 24:1.0 75:1.0 106:1.0 125:1.0 172:1.0 289:1.0 791:1.0 1129:1.0 1130:1.0 1131:1.0 
2.816531603773554 2.414222288554222 88:1.0 321:1.0 1133:1.0 1134:1.0 1135:1.0 1136:1.0 1137:1.0 1138:1.0 
6.465624948637762 5.044508374936336 75:1.0 77:1.0 143:1.0 1039:1.0 
1.9797410542256992 0.9140698579110926 31:1.0 88:1.0 358:1.0 593:1.0 809:1.0 1144:1.0 1145:1.0 1146:1.0 1147:1.0 1148:1.0 1149:1.0 
0.0 2.287935035708177 1144:1.0 1150:1.0 
6.244949930221912 8.0 1144:1.0 
2.2966800846711473 1.661200044879291 532:1.0 1151:1.0 1152:1.0 1153:1.0 1154:1.0 
2.591500323612895 2.8804342261762432 1155:1.0 1156:1.0 1157:1.0 1158:1.0 
4.601539496556941 1.2936394556401727 28:1.0 31:1.0 232:1.0 400:1.0 422:1.0 1159:1.0 
2.0034934548881815 2.1435372206024987 487:1.0 507:1.0 602:1.0 1160:1.0 1161:1.0 1162:1.0 
8.0 8.0 738:1.0 
4.2655798017227715 3.69782027393815 438:1.0 1163:1.0 1164:1.0 
0.0 8.0 43:1.0 1166:1.0 
8.0 5.333251603648146 401:1.0 1174:1.0 
1.5493553921425198 3.91967628031999 783:1.0 819:1.0 1194:1.0 1195:1.0 1196:1.0 
0.7866928124617582 0.020226072287526063 316:1.0 1203:1.0 1208:1.0 
0.6223214820493108 1.796102990266376 75:1.0 233:1.0 336:1.0 669:1.0 1214:1.0 1215:1.0 1216:1.0 1217:1.0 1218:1.0 
0.8002310856288267 1.9050535860499285 233:1.0 887:1.0 1219:1.0 1220:1.0 1221:1.0 1222:1.0 
2.0113429862971643 4.879401576084024 233:1.0 596:1.0 1219:1.0 
8.0 5.7924466550696145 147:1.0 196:1.0 233:1.0 558:1.0 
3.655778371621452 1.9621559720976327 8:1.0 101:1.0 102:1.0 233:1.0 1223:1.0 1224:1.0 1225:1.0 1226:1.0 
2.803424830753433 1.0481163841801957 31:1.0 233:1.0 280:1.0 707:1.0 1227:1.0 1228:1.0 1229:1.0 
8.0 8.0 54:1.0 105:1.0 233:1.0 700:1.0 1233:1.0 
0.8268051607293732 0.49790296108015025 10:1.0 31:1.0 75:1.0 145:1.0 165:1.0 168:1.0 346:1.0 1238:1.0 1239:1.0 1240:1.0 1241:1.0 
3.721433212397028 1.883298480930385 40:1.0 46:1.0 106:1.0 117:1.0 125:1.0 128:1.0 151:1.0 288:1.0 1248:1.0 1249:1.0 
6.703428189613753 3.0719942339924526 38:1.0 183:1.0 288:1.0 318:1.0 571:1.0 
3.2475639922407358 0.0 57:1.0 97:1.0 101:1.0 102:1.0 346:1.0 347:1.0 356:1.0 442:1.0 1260:1.0 
0.8266153347406573 0.0 97:1.0 316:1.0 1090:1.0 1114:1.0 1261:1.0 1262:1.0 
3.6190504848849026 0.0 57:1.0 97:1.0 316:1.0 319:1.0 576:1.0 
0.12848578240743416 1.2972901465126034 171:1.0 1006:1.0 1275:1.0 1276:1.0 1277:1.0 1278:1.0 
2.625128750933323 2.3247735352563863 75:1.0 278:1.0 669:1.0 1279:1.0 1280:1.0 
6.757899417763832 1.4090570628647472 40:1.0 87:1.0 349:1.0 1080:1.0 1281:1.0 1282:1.0 
0.618578597242355 2.7828879842011727 78:1.0 233:1.0 473:1.0 1204:1.0 1281:1.0 1283:1.0 
0.03510546974734804 2.0571237504144673 31:1.0 32:1.0 40:1.0 78:1.0 90:1.0 186:1.0 282:1.0 283:1.0 413:1.0 1281:1.0 1284:1.0 1285:1.0 
0.47940385954051457 1.9447348960510127 75:1.0 89:1.0 293:1.0 1292:1.0 1293:1.0 1294:1.0 
0.7010327552091333 0.0 90:1.0 247:1.0 422:1.0 1295:1.0 1296:1.0 1297:1.0 1298:1.0 
8.0 3.8582177280118417 38:1.0 1307:1.0 1308:1.0 
1.6511993274329555 0.0 10:1.0 29:1.0 460:1.0 1325:1.0 1326:1.0 
0.0 0.07695652560253131 183:1.0 196:1.0 317:1.0 407:1.0 434:1.0 1339:1.0 1340:1.0 1341:1.0 
0.3620149711765813 3.8815560203367907 92:1.0 112:1.0 183:1.0 278:1.0 407:1.0 1001:1.0 1342:1.0 
2.1373009675387946 1.8295619471927351 77:1.0 145:1.0 159:1.0 178:1.0 271:1.0 328:1.0 718:1.0 1144:1.0 1354:1.0 1355:1.0 1356:1.0 1357:1.0 1358:1.0 1359:1.0 
3.6238710372819227 0.0 534:1.0 1004:1.0 1361:1.0 1362:1.0 
4.82483375824301 0.7689832037013663 38:1.0 171:1.0 361:1.0 1386:1.0 
2.3409298545621624 0.6420482708136689 40:1.0 42:1.0 78:1.0 90:1.0 253:1.0 270:1.0 306:1.0 406:1.0 407:1.0 900:1.0 1188:1.0 1228:1.0 1387:1.0 1388:1.0 
3.690321124029264 4.301621974247561 101:1.0 102:1.0 940:1.0 1389:1.0 
2.6412824567350075 0.0 10:1.0 27:1.0 38:1.0 75:1.0 266:1.0 1059:1.0 1390:1.0 
1.6557318889090187 1.7184451340241291 421:1.0 851:1.0 950:1.0 977:1.0 1399:1.0 1400:1.0 1401:1.0 1402:1.0 1403:1.0 
0.8004984031955917 1.2401359868995394 302:1.0 312:1.0 997:1.0 1138:1.0 1335:1.0 1404:1.0 1405:1.0 1406:1.0 
8.0 5.272407967401757 38:1.0 257:1.0 892:1.0 1407:1.0 
2.726184324695692 0.0 29:1.0 602:1.0 728:1.0 
0.0 0.22196398551576998 25:1.0 77:1.0 168:1.0 171:1.0 523:1.0 696:1.0 763:1.0 790:1.0 915:1.0 1071:1.0 1402:1.0 1414:1.0 1420:1.0 1421:1.0 1422:1.0 
0.9874637576370048 2.2279431743424145 400:1.0 707:1.0 1420:1.0 1421:1.0 1423:1.0 
0.2572990172108225 2.840007158024256 40:1.0 43:1.0 87:1.0 359:1.0 422:1.0 762:1.0 763:1.0 1424:1.0 
0.7523080934369818 0.5298269042678994 10:1.0 64:1.0 90:1.0 105:1.0 295:1.0 1133:1.0 1425:1.0 1426:1.0 1427:1.0 1428:1.0 1429:1.0 
1.558076849060688 2.7301185820079943 31:1.0 40:1.0 857:1.0 945:1.0 1017:1.0 1431:1.0 1432:1.0 1433:1.0 1434:1.0 1435:1.0 1436:1.0 
4.348581760195703 2.3960439005426295 125:1.0 186:1.0 559:1.0 1439:1.0 
3.0107425761133477 0.0 168:1.0 186:1.0 559:1.0 1440:1.0 
1.219967544676383 0.7412327722320717 399:1.0 989:1.0 990:1.0 1447:1.0 1448:1.0 1449:1.0 1450:1.0 1451:1.0 1452:1.0 
0.9937183141839537 1.0042590044025614 42:1.0 89:1.0 549:1.0 1182:1.0 1453:1.0 1454:1.0 1455:1.0 
8.0 8.0 2:1.0 
2.600589453746452 0.17436165157926908 1:1.0 38:1.0 1460:1.0 1461:1.0 1462:1.0 
0.6779188890033349 0.1495803467393679 1:1.0 135:1.0 241:1.0 317:1.0 629:1.0 916:1.0 1250:1.0 1473:1.0 1474:1.0 
1.727206541258908 3.118765268315891 265:1.0 1480:1.0 1481:1.0 1482:1.0 1483:1.0 
0.0 0.2639705967700442 171:1.0 302:1.0 324:1.0 1254:1.0 1388:1.0 1487:1.0 1488:1.0 
7.086767799799117 5.162893163706493 40:1.0 79:1.0 295:1.0 1085:1.0 1490:1.0 1491:1.0 
2.8429293717751873 2.4024752771655074 40:1.0 79:1.0 81:1.0 90:1.0 243:1.0 404:1.0 538:1.0 1492:1.0 1493:1.0 
5.38815105285826 4.738112904582694 40:1.0 283:1.0 302:1.0 304:1.0 306:1.0 363:1.0 1500:1.0 1501:1.0 
1.622031417001685 0.0 10:1.0 31:1.0 72:1.0 175:1.0 465:1.0 768:1.0 863:1.0 1327:1.0 1502:1.0 1503:1.0 1504:1.0 
1.844690039795612 1.1528902136267511 127:1.0 452:1.0 1123:1.0 1505:1.0 1506:1.0 1507:1.0 1508:1.0 
6.983493279863579 0.0 10:1.0 234:1.0 473:1.0 1079:1.0 
1.8972538002423498 1.0443700727583676 29:1.0 422:1.0 486:1.0 1511:1.0 1512:1.0 1513:1.0 1514:1.0 
2.9082157245089206 3.3448818833313827 75:1.0 398:1.0 669:1.0 1518:1.0 1519:1.0 
3.530399590608564 4.600602564435808 375:1.0 1093:1.0 1298:1.0 1361:1.0 
4.243339845879183 8.0 86:1.0 257:1.0 593:1.0 1525:1.0 
0.9980023512084569 1.5649976133536645 2:1.0 494:1.0 808:1.0 1354:1.0 1533:1.0 1534:1.0 
2.591051792446621 2.8815444452197205 1535:1.0 1536:1.0 1537:1.0 1538:1.0 
3.132244801577801 1.2301664861246568 31:1.0 89:1.0 472:1.0 1542:1.0 1543:1.0 
4.50744028656894 0.0 11:1.0 38:1.0 156:1.0 233:1.0 290:1.0 385:1.0 422:1.0 423:1.0 426:1.0 427:1.0 1545:1.0 
2.5913912840334175 4.755457694107678 1025:1.0 1167:1.0 1561:1.0 1562:1.0 
7.989886715095941 5.477089593342587 3:1.0 45:1.0 152:1.0 352:1.0 1563:1.0 
3.430584557626539 1.0550452797596164 30:1.0 32:1.0 907:1.0 1361:1.0 1580:1.0 
4.9118377502066535 1.252999081607355 349:1.0 1581:1.0 1582:1.0 1583:1.0 
8.0 2.0903268620802473 349:1.0 1581:1.0 1584:1.0 
3.0843661026807454 2.4327699687687723 101:1.0 102:1.0 1585:1.0 1586:1.0 
8.0 3.759986680028202 96:1.0 97:1.0 427:1.0 434:1.0 
5.252175963969066 5.550870454202 1313:1.0 1587:1.0 
2.267917327563746 4.6177529856845805 11:1.0 806:1.0 1590:1.0 
8.0 8.0 1591:1.0 
2.068018631295714 0.4624966755238827 383:1.0 384:1.0 1592:1.0 1593:1.0 1594:1.0 
0.27814742668437586 3.3962276877147146 25:1.0 88:1.0 171:1.0 204:1.0 1052:1.0 1242:1.0 1327:1.0 1595:1.0 
0.4918989336163704 0.9009765700686102 75:1.0 476:1.0 543:1.0 1327:1.0 1545:1.0 1599:1.0 1600:1.0 1601:1.0 1602:1.0 
1.8344886386456318 1.3851021793112843 312:1.0 879:1.0 1277:1.0 1616:1.0 1617:1.0 1618:1.0 
1.7280665400497373 5.114617098569622 423:1.0 1621:1.0 
3.553534144493515 8.0 315:1.0 1622:1.0 1623:1.0 
1.1912520719255864 0.9039847999742386 224:1.0 225:1.0 250:1.0 251:1.0 390:1.0 398:1.0 1356:1.0 1495:1.0 1592:1.0 1622:1.0 1624:1.0 
2.01925273178182 0.0 11:1.0 31:1.0 75:1.0 77:1.0 345:1.0 346:1.0 
6.018372221225879 3.396984848924542 135:1.0 580:1.0 840:1.0 1231:1.0 
0.8552864088931369 0.37360231511730896 54:1.0 422:1.0 423:1.0 427:1.0 468:1.0 1637:1.0 1638:1.0 1639:1.0 1640:1.0 1641:1.0 
2.3602012161615225 3.580395736413595 596:1.0 1642:1.0 1643:1.0 
0.12835991803264185 0.9655840029895095 455:1.0 989:1.0 990:1.0 1650:1.0 
0.049032464092440935 2.510824320153232 127:1.0 131:1.0 300:1.0 707:1.0 1651:1.0 
2.857340503685932 0.0 30:1.0 31:1.0 32:1.0 43:1.0 168:1.0 352:1.0 455:1.0 593:1.0 839:1.0 
0.0 4.234271059388862 43:1.0 86:1.0 212:1.0 352:1.0 593:1.0 839:1.0 
0.0 1.154647276776296 40:1.0 43:1.0 75:1.0 87:1.0 536:1.0 763:1.0 1204:1.0 1281:1.0 1347:1.0 1494:1.0 1631:1.0 1656:1.0 1657:1.0 1658:1.0 1659:1.0 
0.0 0.002811665361704024 40:1.0 43:1.0 117:1.0 561:1.0 562:1.0 579:1.0 773:1.0 1660:1.0 1661:1.0 
2.0634489631454414 1.8662123444437264 561:1.0 562:1.0 581:1.0 582:1.0 1663:1.0 1664:1.0 
2.9363482298705166 0.893922375128003 561:1.0 562:1.0 940:1.0 1665:1.0 1666:1.0 
1.3991090944947033 3.77875870577573 149:1.0 1165:1.0 1674:1.0 1675:1.0 1676:1.0 
7.41489012118468 2.9157460694422865 121:1.0 528:1.0 1677:1.0 
6.265381288380398 2.7405499165637788 351:1.0 383:1.0 384:1.0 528:1.0 760:1.0 819:1.0 
2.575324294793756 1.4195421517148885 5:1.0 282:1.0 1388:1.0 1694:1.0 1695:1.0 
5.401340639169889 4.1047251886928455 38:1.0 78:1.0 849:1.0 1696:1.0 1697:1.0 1698:1.0 
0.08948873015618723 0.43407816764847473 168:1.0 707:1.0 777:1.0 827:1.0 1699:1.0 1700:1.0 1701:1.0 1702:1.0 1703:1.0 
1.1928580098722612 1.6061488238119501 487:1.0 507:1.0 728:1.0 1160:1.0 1704:1.0 1705:1.0 1706:1.0 1707:1.0 
1.3266264965492807 0.36138489935739654 10:1.0 274:1.0 532:1.0 915:1.0 1402:1.0 1403:1.0 1708:1.0 1709:1.0 
5.927370413139062 0.3913937197006748 32:1.0 225:1.0 429:1.0 430:1.0 1168:1.0 1234:1.0 1713:1.0 1714:1.0 
2.3106654393959203 5.359005333040422 533:1.0 1723:1.0 1724:1.0 1725:1.0 
0.0 2.48602331625345 43:1.0 149:1.0 284:1.0 292:1.0 377:1.0 518:1.0 1726:1.0 1727:1.0 1728:1.0 
0.0 0.566258031576289 43:1.0 230:1.0 283:1.0 383:1.0 384:1.0 518:1.0 1126:1.0 1729:1.0 
0.42195473412967627 1.7192546409685172 819:1.0 1446:1.0 1733:1.0 1734:1.0 1735:1.0 1736:1.0 1737:1.0 
2.417008833789887 1.709516247301739 40:1.0 128:1.0 186:1.0 352:1.0 921:1.0 
1.8030493474883125 1.6561749377121169 707:1.0 849:1.0 1748:1.0 1749:1.0 1750:1.0 1751:1.0 
2.5358052248514147 0.09016239019242263 5:1.0 11:1.0 43:1.0 117:1.0 156:1.0 221:1.0 518:1.0 743:1.0 791:1.0 1758:1.0 
4.069246197068466 4.1446795848594995 404:1.0 1118:1.0 
0.0 1.7001991702816537 106:1.0 125:1.0 270:1.0 318:1.0 763:1.0 1759:1.0 1760:1.0 1761:1.0 1762:1.0 1763:1.0 
0.8713815178105649 2.2928275924926202 385:1.0 879:1.0 999:1.0 1764:1.0 1765:1.0 
5.193923711866673 3.9682579324754848 31:1.0 75:1.0 345:1.0 500:1.0 715:1.0 1446:1.0 
0.6464028367684954 3.193987830644468 186:1.0 498:1.0 1319:1.0 1396:1.0 1768:1.0 
2.969408099097328 7.322884640541388 90:1.0 257:1.0 263:1.0 
0.0 0.9671654317172492 1:1.0 40:1.0 122:1.0 257:1.0 266:1.0 282:1.0 501:1.0 732:1.0 852:1.0 995:1.0 1314:1.0 1740:1.0 1775:1.0 1776:1.0 1777:1.0 1778:1.0 
8.0 5.805658387337766 168:1.0 1785:1.0 
1.1014986324593472 0.7845576156886841 30:1.0 32:1.0 43:1.0 81:1.0 86:1.0 230:1.0 464:1.0 
0.0 1.0536063518639953 302:1.0 478:1.0 796:1.0 809:1.0 1450:1.0 1451:1.0 1488:1.0 1790:1.0 1791:1.0 1792:1.0 1793:1.0 1794:1.0 1795:1.0 1796:1.0 
1.079334764406941 1.821587082847292 559:1.0 852:1.0 1797:1.0 1798:1.0 1799:1.0 1800:1.0 1801:1.0 1802:1.0 1803:1.0 
8.0 8.0 
8.0 8.0 
8.0 8.0 
1.059820022122126 2.855642937379392 38:1.0 86:1.0 96:1.0 97:1.0 149:1.0 257:1.0 266:1.0 386:1.0 1248:1.0 1826:1.0 
3.516217117434213 3.715661268603017 10:1.0 75:1.0 96:1.0 105:1.0 1008:1.0 1394:1.0 1828:1.0 1829:1.0 
1.9965062191782117 0.16398717205630556 11:1.0 112:1.0 199:1.0 534:1.0 1004:1.0 1481:1.0 1793:1.0 
0.0 2.9699679009667928 26:1.0 86:1.0 257:1.0 386:1.0 594:1.0 1248:1.0 1835:1.0 
3.213374854190621 1.9023471551841002 77:1.0 806:1.0 1836:1.0 1837:1.0 
5.25412413824615 5.332810127124658 1839:1.0 1840:1.0 
0.0 2.2805398368635648 1144:1.0 1841:1.0 
1.9849871473150646 0.5844214271709792 40:1.0 72:1.0 75:1.0 79:1.0 117:1.0 346:1.0 362:1.0 550:1.0 1144:1.0 1842:1.0 1843:1.0 
0.7120665728030259 1.7229611745584927 75:1.0 247:1.0 1189:1.0 1674:1.0 1855:1.0 1856:1.0 1857:1.0 1858:1.0 
2.1277894258150107 2.37802131425519 105:1.0 149:1.0 156:1.0 245:1.0 394:1.0 518:1.0 1674:1.0 1859:1.0 
0.2376732160291857 1.363199830169997 233:1.0 945:1.0 1165:1.0 1449:1.0 1869:1.0 1870:1.0 1871:1.0 1872:1.0 
0.6944009185764735 0.0 75:1.0 233:1.0 278:1.0 398:1.0 669:1.0 1130:1.0 1138:1.0 1873:1.0 
2.3008558480122203 2.727068913527857 233:1.0 485:1.0 1875:1.0 
2.3658672347004703 2.637041232748288 707:1.0 1220:1.0 1703:1.0 1877:1.0 
2.037729598615467 2.513320950529114 47:1.0 97:1.0 125:1.0 186:1.0 204:1.0 245:1.0 516:1.0 1021:1.0 1800:1.0 1878:1.0 
0.9527857466314054 5.550290041465427 75:1.0 168:1.0 222:1.0 1743:1.0 1879:1.0 1880:1.0 1881:1.0 
8.0 2.1463620010271285 38:1.0 70:1.0 1862:1.0 1884:1.0 1885:1.0 
3.4076191076811275 7.427535075825102 112:1.0 262:1.0 270:1.0 593:1.0 1509:1.0 
2.481201971352995 2.6035685088666556 31:1.0 199:1.0 963:1.0 1234:1.0 1564:1.0 1898:1.0 1899:1.0 1900:1.0 1901:1.0 1902:1.0 
0.03826223632546176 2.322133210233692 78:1.0 112:1.0 302:1.0 433:1.0 825:1.0 1903:1.0 1904:1.0 1905:1.0 1906:1.0 
8.0 8.0 433:1.0 
1.0313686995581337 0.718467253588116 31:1.0 271:1.0 945:1.0 1149:1.0 1491:1.0 1913:1.0 
3.257711175937991 0.09658032021425711 31:1.0 77:1.0 197:1.0 421:1.0 499:1.0 852:1.0 1173:1.0 1914:1.0 
0.2808772590653157 0.0 126:1.0 168:1.0 427:1.0 496:1.0 538:1.0 825:1.0 1917:1.0 1918:1.0 
0.2701742628407202 1.1950704492945847 168:1.0 302:1.0 1092:1.0 1130:1.0 1379:1.0 1920:1.0 
1.9518595241005219 1.377634112148789 31:1.0 102:1.0 246:1.0 427:1.0 496:1.0 1089:1.0 1921:1.0 1922:1.0 1923:1.0 1924:1.0 
0.6861968885175984 1.3051685324807325 75:1.0 270:1.0 908:1.0 1927:1.0 1928:1.0 1929:1.0 1930:1.0 
1.5175318577806267 0.0 30:1.0 31:1.0 89:1.0 185:1.0 186:1.0 231:1.0 232:1.0 398:1.0 1292:1.0 1931:1.0 
5.368559438298627 8.0 465:1.0 1340:1.0 
2.136082037684619 2.0213194166683377 29:1.0 69:1.0 75:1.0 78:1.0 86:1.0 96:1.0 124:1.0 154:1.0 234:1.0 872:1.0 1913:1.0 
2.9595302164452937 0.0 10:1.0 11:1.0 152:1.0 375:1.0 422:1.0 423:1.0 426:1.0 427:1.0 1646:1.0 
0.0 3.914048135900627 750:1.0 937:1.0 1313:1.0 1946:1.0 1947:1.0 
4.385006323246206 8.0 10:1.0 54:1.0 105:1.0 209:1.0 346:1.0 1721:1.0 
2.9110464143402512 5.02588672110403 174:1.0 750:1.0 1952:1.0 1953:1.0 
1.7627198328868112 1.2232365410281045 40:1.0 75:1.0 79:1.0 88:1.0 89:1.0 156:1.0 192:1.0 543:1.0 841:1.0 927:1.0 1083:1.0 1356:1.0 1724:1.0 1957:1.0 1958:1.0 1959:1.0 1960:1.0 1961:1.0 
2.2436378014776257 0.7067653186733994 30:1.0 32:1.0 189:1.0 231:1.0 1382:1.0 1592:1.0 1811:1.0 1964:1.0 1965:1.0 
3.751261657722613 2.880448298605768 75:1.0 88:1.0 89:1.0 98:1.0 422:1.0 1327:1.0 1966:1.0 
8.0 0.1755668133760223 38:1.0 199:1.0 423:1.0 635:1.0 673:1.0 
5.597675559762807 1.4321420632593935 349:1.0 910:1.0 1983:1.0 1984:1.0 1985:1.0 
1.62532032957154 3.34741318740937 1642:1.0 1793:1.0 1987:1.0 1988:1.0 
0.0796943656984753 0.0 316:1.0 630:1.0 1406:1.0 1990:1.0 1991:1.0 1992:1.0 
-3.8826667318382566 0.9455395330427713 5:1.0 30:1.0 31:1.0 32:1.0 33:1.0 34:1.0 
-2.8850536328392713 0.0 38:1.0 56:1.0 57:1.0 58:1.0 
-1.0706978151444662 0.0 38:1.0 68:1.0 69:1.0 70:1.0 
-2.301205440034917 0.0 38:1.0 71:1.0 72:1.0 
-0.22624361880531063 2.3376143157760643 73:1.0 74:1.0 75:1.0 76:1.0 77:1.0 78:1.0 79:1.0 80:1.0 81:1.0 82:1.0 
-2.687603785898231 1.3126977372366657 83:1.0 84:1.0 85:1.0 86:1.0 87:1.0 88:1.0 89:1.0 90:1.0 91:1.0 92:1.0 93:1.0 
-1.7860603227371177 0.11564687191029935 38:1.0 84:1.0 94:1.0 95:1.0 
-8.0 4.931709759073961 96:1.0 100:1.0 101:1.0 102:1.0 
-2.5358714785768504 3.4924628869538483 8:1.0 57:1.0 75:1.0 111:1.0 112:1.0 113:1.0 114:1.0 115:1.0 116:1.0 
-2.5010039739666827 2.127514087441947 4:1.0 80:1.0 121:1.0 
-1.4758752188579842 7.016434152114526 8:1.0 40:1.0 122:1.0 123:1.0 
-1.5589554864518687 0.7651064432609912 145:1.0 199:1.0 200:1.0 201:1.0 202:1.0 
-0.0 0.6633587297967964 4:1.0 57:1.0 78:1.0 195:1.0 203:1.0 204:1.0 205:1.0 206:1.0 
-7.910588557546351 8.0 40:1.0 152:1.0 221:1.0 222:1.0 223:1.0 
-3.7761377285881763 0.6535357401202909 101:1.0 102:1.0 224:1.0 225:1.0 226:1.0 227:1.0 228:1.0 
-1.631582289753874 0.5056336960208476 4:1.0 30:1.0 45:1.0 46:1.0 47:1.0 77:1.0 78:1.0 138:1.0 231:1.0 232:1.0 233:1.0 234:1.0 
-7.409381078630234 4.939830842771721 30:1.0 77:1.0 235:1.0 236:1.0 
-4.9468983775446596 2.7381362632380264 40:1.0 135:1.0 237:1.0 238:1.0 239:1.0 240:1.0 241:1.0 
-0.4911480304393594 0.40643249309172647 40:1.0 57:1.0 75:1.0 79:1.0 96:1.0 100:1.0 154:1.0 213:1.0 248:1.0 249:1.0 250:1.0 251:1.0 252:1.0 253:1.0 
-2.5362306077684256 2.7520575780574874 31:1.0 40:1.0 78:1.0 87:1.0 101:1.0 153:1.0 178:1.0 254:1.0 255:1.0 256:1.0 257:1.0 258:1.0 
-0.0 2.1449046124912035 178:1.0 271:1.0 272:1.0 
-4.045677922019825 2.0811596108414996 31:1.0 75:1.0 81:1.0 257:1.0 270:1.0 276:1.0 277:1.0 278:1.0 279:1.0 280:1.0 281:1.0 
-2.542187577555716 0.44723448061365667 40:1.0 310:1.0 311:1.0 312:1.0 
-0.0 0.055163727880811676 180:1.0 271:1.0 296:1.0 313:1.0 314:1.0 
-4.085765154996665 0.18896820710092088 10:1.0 77:1.0 290:1.0 344:1.0 345:1.0 346:1.0 347:1.0 348:1.0 349:1.0 
-0.4517865639659322 0.0 31:1.0 40:1.0 171:1.0 207:1.0 230:1.0 272:1.0 351:1.0 352:1.0 353:1.0 354:1.0 355:1.0 
-4.391251684963784 1.7096907457585944 1:1.0 147:1.0 186:1.0 289:1.0 290:1.0 372:1.0 373:1.0 374:1.0 375:1.0 376:1.0 
-2.4354533873527364 0.4575915950369138 40:1.0 84:1.0 159:1.0 272:1.0 383:1.0 384:1.0 385:1.0 386:1.0 387:1.0 
-0.7097423392948948 0.04933233979121884 92:1.0 388:1.0 389:1.0 390:1.0 391:1.0 392:1.0 
-0.6497436819916597 0.0 80:1.0 115:1.0 179:1.0 307:1.0 393:1.0 
-5.7121956503483275 7.210129787892026 57:1.0 105:1.0 313:1.0 
-7.341351050587508 1.7061017507423433 28:1.0 29:1.0 170:1.0 171:1.0 233:1.0 296:1.0 402:1.0 
-2.4091155702427853 1.549129947631241 40:1.0 178:1.0 230:1.0 306:1.0 403:1.0 404:1.0 405:1.0 406:1.0 407:1.0 
-0.5232177950484198 1.9424683516498331 40:1.0 100:1.0 122:1.0 248:1.0 363:1.0 
-3.328532927721248 0.751559695213875 28:1.0 56:1.0 75:1.0 152:1.0 432:1.0 433:1.0 434:1.0 435:1.0 436:1.0 437:1.0 438:1.0 439:1.0 
-4.191881057277615 3.1407381849571454 40:1.0 221:1.0 440:1.0 441:1.0 
-7.2134780376356025 2.8327387986771115 38:1.0 199:1.0 449:1.0 
-0.9953801424508048 0.9247323738787345 28:1.0 351:1.0 411:1.0 451:1.0 452:1.0 453:1.0 454:1.0 
-3.030293873269434 1.8062371739866425 40:1.0 45:1.0 78:1.0 86:1.0 109:1.0 117:1.0 196:1.0 289:1.0 406:1.0 433:1.0 462:1.0 463:1.0 464:1.0 465:1.0 466:1.0 467:1.0 
-8.0 7.695651830090587 35:1.0 38:1.0 
-7.646844338687683 3.8015275505586685 169:1.0 225:1.0 474:1.0 475:1.0 476:1.0 
-0.539043392282027 0.0 57:1.0 77:1.0 79:1.0 90:1.0 138:1.0 156:1.0 166:1.0 195:1.0 207:1.0 233:1.0 257:1.0 290:1.0 398:1.0 405:1.0 503:1.0 
-0.38004940427312395 3.5981833057644157 277:1.0 283:1.0 504:1.0 505:1.0 506:1.0 507:1.0 
-0.7134389903539147 2.8672546323803925 9:1.0 88:1.0 393:1.0 508:1.0 
-1.0709527086378121 4.535966546448327 54:1.0 108:1.0 513:1.0 
-0.4277365350892912 3.016728363099172 108:1.0 325:1.0 514:1.0 
-0.0 0.05506940824635695 46:1.0 47:1.0 147:1.0 491:1.0 515:1.0 
-1.8152505313806118 0.0 296:1.0 317:1.0 328:1.0 352:1.0 383:1.0 384:1.0 542:1.0 543:1.0 544:1.0 545:1.0 546:1.0 547:1.0 
-8.0 0.9391693575303569 388:1.0 558:1.0 559:1.0 
-2.0999782575427703 1.4415037140775153 53:1.0 57:1.0 147:1.0 156:1.0 222:1.0 566:1.0 567:1.0 568:1.0 569:1.0 570:1.0 571:1.0 572:1.0 573:1.0 574:1.0 
-3.11800288113574 2.3692985610098254 92:1.0 147:1.0 204:1.0 575:1.0 576:1.0 577:1.0 
-2.461924277384321 2.624246788959006 84:1.0 86:1.0 117:1.0 165:1.0 641:1.0 642:1.0 643:1.0 644:1.0 645:1.0 646:1.0 647:1.0 
-3.8382991232268506 0.0 10:1.0 38:1.0 108:1.0 170:1.0 171:1.0 434:1.0 452:1.0 672:1.0 
-3.9955131644978534 2.1042165896358895 11:1.0 27:1.0 28:1.0 117:1.0 168:1.0 172:1.0 206:1.0 270:1.0 274:1.0 696:1.0 697:1.0 698:1.0 
-7.222320484172667 2.0449671292046596 38:1.0 40:1.0 206:1.0 282:1.0 593:1.0 
-4.462642114252243 2.106510008857948 29:1.0 46:1.0 86:1.0 89:1.0 172:1.0 414:1.0 706:1.0 707:1.0 708:1.0 709:1.0 710:1.0 
-8.0 8.0 715:1.0 716:1.0 717:1.0 
-1.9480047527066309 2.1602789989363544 45:1.0 56:1.0 79:1.0 302:1.0 722:1.0 723:1.0 724:1.0 
-3.685957404263252 0.0 38:1.0 84:1.0 159:1.0 271:1.0 313:1.0 738:1.0 
-2.949168448770551 1.7860360638659312 4:1.0 11:1.0 31:1.0 45:1.0 47:1.0 276:1.0 498:1.0 767:1.0 768:1.0 769:1.0 770:1.0 
-3.755576507777599 0.0 38:1.0 349:1.0 771:1.0 
-8.0 6.723401686775474 24:1.0 352:1.0 433:1.0 782:1.0 
-3.8709717717901757 4.30985990168176 201:1.0 807:1.0 808:1.0 809:1.0 
-0.5071329240495063 0.8061694051286286 5:1.0 6:1.0 8:1.0 9:1.0 810:1.0 811:1.0 812:1.0 813:1.0 
-5.887995165174817 4.597051363947192 186:1.0 288:1.0 817:1.0 818:1.0 819:1.0 820:1.0 
-0.07611260968425816 0.9628163813380562 169:1.0 263:1.0 289:1.0 290:1.0 296:1.0 478:1.0 567:1.0 732:1.0 850:1.0 851:1.0 852:1.0 
-5.516329293167288 3.5758959975195403 38:1.0 169:1.0 851:1.0 853:1.0 854:1.0 
-4.893124316900279 2.588224942735796 28:1.0 36:1.0 38:1.0 86:1.0 169:1.0 851:1.0 858:1.0 859:1.0 860:1.0 
-8.0 6.389444774068448 42:1.0 669:1.0 791:1.0 861:1.0 
-0.029917194640836402 0.6937521994884513 79:1.0 81:1.0 127:1.0 156:1.0 178:1.0 278:1.0 300:1.0 393:1.0 398:1.0 879:1.0 880:1.0 881:1.0 
-0.2713884850756189 1.1414850130955718 40:1.0 121:1.0 171:1.0 206:1.0 207:1.0 425:1.0 501:1.0 729:1.0 882:1.0 883:1.0 884:1.0 885:1.0 
-4.333341088461613 0.0 31:1.0 388:1.0 892:1.0 
-5.232672395825869 6.6380708699759685 105:1.0 349:1.0 894:1.0 
-1.79543513473179 2.8229854432057366 40:1.0 81:1.0 84:1.0 145:1.0 165:1.0 648:1.0 898:1.0 899:1.0 900:1.0 
-8.0 8.0 97:1.0 108:1.0 
-4.7991710948250725 3.4649085522703493 189:1.0 257:1.0 296:1.0 422:1.0 426:1.0 479:1.0 
-0.0 1.8819084382194233 296:1.0 359:1.0 834:1.0 914:1.0 915:1.0 
-0.0 0.02880787081631656 11:1.0 38:1.0 296:1.0 
-2.5169485444159037 0.718892105427514 325:1.0 349:1.0 917:1.0 918:1.0 919:1.0 920:1.0 
-5.464930098982318 3.7185968308521686 233:1.0 294:1.0 927:1.0 928:1.0 929:1.0 930:1.0 931:1.0 
-2.8505075909732893 4.8952614985109255 75:1.0 201:1.0 283:1.0 328:1.0 952:1.0 
-4.19967937033404 6.487392909119682 44:1.0 275:1.0 957:1.0 958:1.0 959:1.0 960:1.0 961:1.0 
-1.1408070067341674 2.7136398584851213 350:1.0 388:1.0 964:1.0 965:1.0 
-0.0 0.803055209184615 40:1.0 351:1.0 454:1.0 
-1.7582258659432268 3.298083039170053 40:1.0 78:1.0 106:1.0 107:1.0 178:1.0 222:1.0 306:1.0 363:1.0 383:1.0 384:1.0 594:1.0 966:1.0 967:1.0 968:1.0 969:1.0 970:1.0 
-8.0 7.034071687476362 40:1.0 122:1.0 985:1.0 986:1.0 
-5.96764446791752 3.7448348925359953 31:1.0 40:1.0 78:1.0 112:1.0 122:1.0 168:1.0 280:1.0 316:1.0 817:1.0 988:1.0 
-0.5926458577305793 1.0778918069417383 40:1.0 168:1.0 210:1.0 296:1.0 507:1.0 851:1.0 1015:1.0 1018:1.0 1019:1.0 1020:1.0 1021:1.0 1022:1.0 1023:1.0 1024:1.0 
-1.9014044047385965 1.5247535891232227 11:1.0 40:1.0 81:1.0 186:1.0 196:1.0 296:1.0 707:1.0 709:1.0 732:1.0 1042:1.0 
-8.0 8.0 40:1.0 454:1.0 
-6.365650024296412 0.8671559273823894 40:1.0 188:1.0 351:1.0 454:1.0 
-0.0 1.6514014350270254 38:1.0 40:1.0 75:1.0 79:1.0 105:1.0 206:1.0 233:1.0 377:1.0 1046:1.0 
-0.0 1.6039160262691519 40:1.0 86:1.0 310:1.0 441:1.0 
-0.0 3.9351770642063033 40:1.0 178:1.0 306:1.0 
-6.675404766254846 5.111490712750239 40:1.0 54:1.0 839:1.0 1090:1.0 1091:1.0 
-4.42438675210053 2.6530769736326247 5:1.0 31:1.0 32:1.0 401:1.0 857:1.0 940:1.0 1062:1.0 1095:1.0 1096:1.0 1097:1.0 
-2.9821963293732776 1.184863138262635 10:1.0 76:1.0 96:1.0 123:1.0 156:1.0 283:1.0 791:1.0 1103:1.0 1104:1.0 
-6.919159756597526 4.413296864284282 96:1.0 1105:1.0 1106:1.0 1107:1.0 
-2.1334917232263453 3.3768538547670595 40:1.0 45:1.0 47:1.0 96:1.0 125:1.0 359:1.0 808:1.0 1115:1.0 1116:1.0 
-7.660856098913173 0.0 52:1.0 75:1.0 96:1.0 534:1.0 1004:1.0 1117:1.0 
-1.0689277603083192 1.1519493899984137 3:1.0 40:1.0 77:1.0 78:1.0 81:1.0 90:1.0 168:1.0 289:1.0 290:1.0 296:1.0 441:1.0 732:1.0 863:1.0 1062:1.0 1122:1.0 1123:1.0 
-2.760134665352959 0.0 77:1.0 289:1.0 290:1.0 296:1.0 383:1.0 384:1.0 
-0.30385789082272757 0.32705685228124104 4:1.0 5:1.0 77:1.0 90:1.0 207:1.0 283:1.0 289:1.0 290:1.0 852:1.0 
-4.357731707877965 1.004152025424224 57:1.0 168:1.0 196:1.0 245:1.0 434:1.0 532:1.0 1140:1.0 1141:1.0 1142:1.0 1143:1.0 
-6.521890046771015 2.9871779323078314 79:1.0 81:1.0 272:1.0 
-0.0 2.774129816763376 147:1.0 277:1.0 
-7.193925023042661 3.8632024828016496 226:1.0 227:1.0 429:1.0 430:1.0 1168:1.0 
-8.0 4.18371724619514 349:1.0 1169:1.0 
-8.0 8.0 1172:1.0 1173:1.0 
-1.2522450009605315 0.0 5:1.0 8:1.0 40:1.0 77:1.0 122:1.0 189:1.0 258:1.0 
-5.591198110292274 5.480126818189539 88:1.0 1175:1.0 
-0.7962904214110156 0.0 388:1.0 514:1.0 
-8.0 5.149976473692558 80:1.0 144:1.0 
-2.949659710489063 0.8945425991782846 38:1.0 306:1.0 805:1.0 1184:1.0 1185:1.0 
-1.66441739737203 1.53179210078041 207:1.0 283:1.0 393:1.0 427:1.0 496:1.0 1186:1.0 1187:1.0 1188:1.0 1189:1.0 1190:1.0 1191:1.0 
-5.240974022467402 2.024861862012089 79:1.0 325:1.0 393:1.0 
-0.01992395541837259 0.0 8:1.0 10:1.0 97:1.0 105:1.0 206:1.0 233:1.0 1209:1.0 
-2.037413934544353 2.525461548197135 196:1.0 233:1.0 262:1.0 296:1.0 618:1.0 1140:1.0 
-3.5555748764159776 2.6528378227710623 233:1.0 277:1.0 1230:1.0 1231:1.0 1232:1.0 
-6.683494120182762 4.9725483169900775 96:1.0 100:1.0 233:1.0 234:1.0 248:1.0 
-8.0 3.181014298026145 199:1.0 233:1.0 461:1.0 635:1.0 1234:1.0 1235:1.0 1236:1.0 
-3.1919747123752438 1.1462253990974973 31:1.0 124:1.0 253:1.0 277:1.0 
-1.6731955077662732 0.5189397929738889 5:1.0 8:1.0 38:1.0 131:1.0 189:1.0 422:1.0 1250:1.0 1251:1.0 
-2.326964208667451 2.1789427986470926 179:1.0 724:1.0 1252:1.0 1253:1.0 1254:1.0 1255:1.0 
-1.9128238983970647 0.4278063239247095 204:1.0 310:1.0 880:1.0 1126:1.0 1268:1.0 
-8.0 8.0 75:1.0 310:1.0 
-0.02209635866267079 0.8845160585300802 202:1.0 310:1.0 572:1.0 1271:1.0 
-6.895862801967338 2.303565277123372 54:1.0 534:1.0 1004:1.0 1117:1.0 
-0.0 0.46574373355291127 79:1.0 503:1.0 1117:1.0 
-3.1924107964441264 4.670763465260393 31:1.0 204:1.0 336:1.0 1093:1.0 1117:1.0 
-1.4598131275984485 2.5877657898341115 40:1.0 208:1.0 345:1.0 1062:1.0 1117:1.0 1272:1.0 1273:1.0 
-4.597335911760197 3.44933232087813 72:1.0 1286:1.0 1287:1.0 
-8.0 8.0 72:1.0 
-0.6428792139707366 0.0 1:1.0 207:1.0 277:1.0 940:1.0 1289:1.0 
-0.0 1.0169086210985088 147:1.0 388:1.0 405:1.0 422:1.0 1299:1.0 1300:1.0 
-2.550328937745981 0.0 45:1.0 69:1.0 125:1.0 168:1.0 817:1.0 1305:1.0 1306:1.0 
-2.09738559625753 0.0 10:1.0 31:1.0 97:1.0 277:1.0 1321:1.0 1322:1.0 1323:1.0 1324:1.0 
-6.849449415173251 0.0 10:1.0 11:1.0 38:1.0 349:1.0 422:1.0 1333:1.0 
-3.6250592664020482 2.6346735104889225 10:1.0 147:1.0 1253:1.0 1334:1.0 
-3.431543299104896 2.1387838402880672 69:1.0 70:1.0 1138:1.0 1335:1.0 1336:1.0 1337:1.0 
-1.9629283523144792 1.800811328994791 9:1.0 272:1.0 295:1.0 932:1.0 1338:1.0 
-0.0 1.7961194717016384 178:1.0 206:1.0 278:1.0 534:1.0 567:1.0 914:1.0 1316:1.0 1360:1.0 
-0.1330470528879453 0.0 117:1.0 183:1.0 210:1.0 325:1.0 349:1.0 388:1.0 451:1.0 892:1.0 1235:1.0 1365:1.0 1366:1.0 1367:1.0 1368:1.0 
-2.7319741464459577 1.3997491709709837 40:1.0 75:1.0 79:1.0 81:1.0 152:1.0 318:1.0 491:1.0 1093:1.0 1374:1.0 1375:1.0 1376:1.0 1377:1.0 1378:1.0 
-1.701819501192885 0.5299297181022683 30:1.0 31:1.0 32:1.0 449:1.0 
-0.0 0.24533867824342354 30:1.0 32:1.0 89:1.0 108:1.0 178:1.0 1380:1.0 1381:1.0 1382:1.0 1383:1.0 1384:1.0 1385:1.0 
-4.130589495169403 0.0 30:1.0 72:1.0 
-0.5200748264238735 1.1229165643735712 32:1.0 206:1.0 207:1.0 417:1.0 418:1.0 729:1.0 873:1.0 1391:1.0 1392:1.0 1393:1.0 1394:1.0 
-5.199527912370316 2.0109795714415144 35:1.0 38:1.0 742:1.0 1089:1.0 1395:1.0 
-1.7272423929514364 7.377316527398132 4:1.0 207:1.0 1398:1.0 
-0.9843281997045262 0.9314069896364598 38:1.0 207:1.0 1408:1.0 1409:1.0 1410:1.0 
-0.0 3.215796137636639 105:1.0 207:1.0 272:1.0 
-6.359608868913145 7.733363698472134 207:1.0 1193:1.0 
-0.0 0.7558214513583351 24:1.0 25:1.0 94:1.0 201:1.0 202:1.0 388:1.0 706:1.0 1416:1.0 1417:1.0 1418:1.0 1419:1.0 
-4.541350007236382 0.0 31:1.0 72:1.0 1430:1.0 
-0.5496543472507602 1.958740623208057 31:1.0 72:1.0 78:1.0 377:1.0 1437:1.0 1438:1.0 
-4.315795354349526 3.6399838463734304 178:1.0 363:1.0 724:1.0 
-5.8697027475694785 2.654017402196754 178:1.0 306:1.0 561:1.0 562:1.0 
-8.0 4.987266117068666 46:1.0 1444:1.0 
-6.139959533076428 2.714876097430035 38:1.0 349:1.0 398:1.0 399:1.0 448:1.0 
-1.7815764319870087 2.367039652414907 79:1.0 85:1.0 237:1.0 503:1.0 1445:1.0 
-0.8957044328719375 0.0 8:1.0 57:1.0 128:1.0 206:1.0 473:1.0 498:1.0 634:1.0 1456:1.0 1457:1.0 1458:1.0 1459:1.0 
-7.977416504468147 0.0 38:1.0 233:1.0 277:1.0 
-8.0 8.0 467:1.0 655:1.0 
-3.223302722019675 2.789726705077257 39:1.0 296:1.0 473:1.0 1477:1.0 
-2.521008308274851 3.0309736010481036 7:1.0 77:1.0 1130:1.0 1484:1.0 1485:1.0 1486:1.0 
-5.497777943986872 2.4812437879327813 156:1.0 290:1.0 441:1.0 525:1.0 
-5.130290440437987 3.7844062369606353 8:1.0 9:1.0 11:1.0 1489:1.0 
-0.0 7.73977978514679 79:1.0 206:1.0 
-1.504642450579342 0.45115399500365694 40:1.0 310:1.0 1496:1.0 1497:1.0 
-2.510398932522712 0.10099076875832817 38:1.0 306:1.0 569:1.0 1498:1.0 1499:1.0 
-2.2915390239839333 3.5709678981142154 78:1.0 112:1.0 152:1.0 328:1.0 356:1.0 593:1.0 817:1.0 1043:1.0 1509:1.0 1510:1.0 
-8.0 8.0 88:1.0 1175:1.0 
-8.0 8.0 105:1.0 1415:1.0 
-3.2294789594035986 0.0 38:1.0 75:1.0 234:1.0 451:1.0 528:1.0 763:1.0 817:1.0 1520:1.0 
-8.0 7.670832975887537 7:1.0 1521:1.0 
-0.0 1.9045038425105596 8:1.0 54:1.0 105:1.0 887:1.0 1253:1.0 1498:1.0 1522:1.0 
-8.0 0.8699068342276285 31:1.0 69:1.0 70:1.0 1059:1.0 
-0.5570236346760407 2.316982319348708 105:1.0 388:1.0 551:1.0 1526:1.0 1531:1.0 1532:1.0 
-0.0 0.11021031468649133 54:1.0 105:1.0 207:1.0 388:1.0 700:1.0 1539:1.0 
-3.1306555610306726 8.0 54:1.0 108:1.0 
-2.342115813336636 1.8258171975707358 10:1.0 38:1.0 84:1.0 89:1.0 146:1.0 165:1.0 222:1.0 1540:1.0 1541:1.0 
-3.226973613613843 3.1243627781714376 201:1.0 202:1.0 580:1.0 932:1.0 1544:1.0 
-0.24165331195523296 0.0 10:1.0 57:1.0 78:1.0 159:1.0 199:1.0 201:1.0 202:1.0 669:1.0 
-0.0 0.2571211474793392 38:1.0 79:1.0 105:1.0 262:1.0 272:1.0 1419:1.0 1549:1.0 1550:1.0 
-7.059769182388402 8.0 40:1.0 88:1.0 125:1.0 306:1.0 
-7.096728121022821 1.9794025138699898 10:1.0 97:1.0 121:1.0 670:1.0 1253:1.0 1553:1.0 
-5.555602782475628 7.292930037951269 131:1.0 207:1.0 760:1.0 1560:1.0 
-8.0 3.602672303451822 69:1.0 70:1.0 174:1.0 
-1.070464671812692 0.0 38:1.0 69:1.0 70:1.0 1567:1.0 
-8.0 2.867790613654122 388:1.0 849:1.0 
-0.819566897464496 1.8764161043300351 10:1.0 27:1.0 86:1.0 296:1.0 393:1.0 507:1.0 567:1.0 1571:1.0 1572:1.0 1573:1.0 1574:1.0 1575:1.0 
-1.9363098541668684 1.4203744236391285 38:1.0 54:1.0 105:1.0 262:1.0 310:1.0 700:1.0 1592:1.0 
-3.0134524936414278 1.646231477375314 56:1.0 281:1.0 349:1.0 1099:1.0 1608:1.0 1609:1.0 1610:1.0 
-0.9973297477799974 2.7115253820016267 10:1.0 108:1.0 202:1.0 1322:1.0 1611:1.0 
-7.988341158767043 0.39408715502687863 84:1.0 90:1.0 347:1.0 422:1.0 423:1.0 426:1.0 427:1.0 1620:1.0 
-0.0 0.3290477448363128 77:1.0 96:1.0 178:1.0 258:1.0 851:1.0 1625:1.0 1626:1.0 
-0.0 0.13599267742372942 8:1.0 168:1.0 666:1.0 667:1.0 817:1.0 1374:1.0 
-0.10846552767340509 3.1860417645614505 8:1.0 52:1.0 86:1.0 105:1.0 271:1.0 1415:1.0 1628:1.0 
-1.3284326075892463 1.3462461760567235 46:1.0 47:1.0 54:1.0 146:1.0 442:1.0 1362:1.0 1649:1.0 
-1.4384540693117245 2.7225653585028837 45:1.0 46:1.0 174:1.0 369:1.0 760:1.0 962:1.0 
-0.0 0.8509642743017946 38:1.0 238:1.0 296:1.0 593:1.0 
-0.6618381176246624 0.0 38:1.0 76:1.0 201:1.0 593:1.0 
-2.839041611035283 4.234584573528884 108:1.0 1670:1.0 1671:1.0 
-2.3963795770256144 2.879085626343724 79:1.0 96:1.0 123:1.0 1686:1.0 
-0.6382759288966384 1.7545637389907471 277:1.0 1686:1.0 1688:1.0 
-2.983059183715346 0.0 38:1.0 201:1.0 1689:1.0 
-2.9078989468867835 2.7209797276935332 38:1.0 86:1.0 206:1.0 257:1.0 377:1.0 575:1.0 1692:1.0 1693:1.0 
-2.3122885459947864 1.3319993044280591 75:1.0 156:1.0 351:1.0 454:1.0 1716:1.0 1717:1.0 
-3.653565662197681 1.4637079142778808 8:1.0 40:1.0 97:1.0 196:1.0 210:1.0 549:1.0 593:1.0 1745:1.0 1746:1.0 1747:1.0 
-6.533923047851767 0.8387333473995092 206:1.0 304:1.0 401:1.0 914:1.0 
-2.9508309872701584 1.366835730339248 310:1.0 1773:1.0 1774:1.0 
-1.2149316856255157 2.3414834226907164 274:1.0 310:1.0 375:1.0 1786:1.0 1787:1.0 
-0.0 0.24646541620926135 47:1.0 296:1.0 422:1.0 851:1.0 1788:1.0 
-2.2423603090190642 2.3037606816342944 40:1.0 75:1.0 88:1.0 89:1.0 99:1.0 105:1.0 117:1.0 178:1.0 263:1.0 437:1.0 887:1.0 1394:1.0 1622:1.0 1807:1.0 1808:1.0 1809:1.0 
-4.09686181810985 5.527607069703601 5:1.0 40:1.0 75:1.0 306:1.0 674:1.0 1819:1.0 
-1.4008571841772388 1.450251322341047 40:1.0 84:1.0 88:1.0 94:1.0 329:1.0 375:1.0 534:1.0 755:1.0 1316:1.0 1362:1.0 1820:1.0 1821:1.0 1822:1.0 1823:1.0 1824:1.0 1825:1.0 
-0.25543040439818904 3.502726793083741 96:1.0 105:1.0 817:1.0 1812:1.0 
-8.0 8.0 284:1.0 1830:1.0 1831:1.0 
-8.0 5.298614172789565 79:1.0 143:1.0 588:1.0 1838:1.0 
-6.769131119408056 1.4060663839030134 80:1.0 288:1.0 295:1.0 528:1.0 1778:1.0 
-1.1941237885964937 0.0 1:1.0 31:1.0 57:1.0 84:1.0 178:1.0 186:1.0 1126:1.0 1446:1.0 1844:1.0 1845:1.0 1846:1.0 1847:1.0 1848:1.0 1849:1.0 
-3.53127222113856 3.322814692107467 57:1.0 156:1.0 375:1.0 880:1.0 1800:1.0 1861:1.0 
-0.856447530789461 0.5339067656682395 38:1.0 147:1.0 186:1.0 201:1.0 202:1.0 222:1.0 267:1.0 351:1.0 588:1.0 994:1.0 1092:1.0 1122:1.0 1176:1.0 1862:1.0 1863:1.0 1864:1.0 1865:1.0 1866:1.0 
-2.512685078316501 0.7929412403189045 8:1.0 11:1.0 80:1.0 170:1.0 171:1.0 233:1.0 950:1.0 1381:1.0 1867:1.0 1868:1.0 
-8.0 5.505471869937404 40:1.0 98:1.0 178:1.0 352:1.0 1876:1.0 
-8.0 6.4999055822939305 147:1.0 590:1.0 1882:1.0 
-8.0 4.870474960637971 427:1.0 507:1.0 1411:1.0 1886:1.0 
-3.977551614494862 0.0 30:1.0 31:1.0 32:1.0 72:1.0 125:1.0 231:1.0 
-0.0 0.42665565796566146 77:1.0 178:1.0 206:1.0 427:1.0 496:1.0 1223:1.0 
-1.0312744545444668 2.888577734716577 7:1.0 178:1.0 1725:1.0 1919:1.0 
-1.202271645202739 0.0 57:1.0 79:1.0 503:1.0 
-6.094733247142593 0.0 57:1.0 328:1.0 473:1.0 1944:1.0 
-4.743945315329159 1.2505536779002244 10:1.0 31:1.0 449:1.0 698:1.0 1231:1.0 
-0.0 2.6460479947924824 80:1.0 119:1.0 147:1.0 
-0.18668601135695687 0.3709796110173985 28:1.0 296:1.0 362:1.0 851:1.0 1608:1.0 1898:1.0 1954:1.0 1955:1.0 
-0.1800913903193718 0.0 31:1.0 72:1.0 75:1.0 349:1.0 371:1.0 809:1.0 1954:1.0 1956:1.0 
-0.0 2.8309176656741952 38:1.0 84:1.0 165:1.0 648:1.0 808:1.0 
-1.0912930352482701 1.9542565469390791 40:1.0 79:1.0 288:1.0 503:1.0 593:1.0 1105:1.0 1592:1.0 1963:1.0 
-1.5498293838612835 3.0932341348173247 45:1.0 47:1.0 79:1.0 92:1.0 112:1.0 125:1.0 1972:1.0 1973:1.0 1974:1.0 1975:1.0 1976:1.0 
-8.0 8.0 38:1.0 1977:1.0 
-1.5985542008591245 2.504619576772916 8:1.0 40:1.0 213:1.0 249:1.0 272:1.0 386:1.0 1978:1.0 1979:1.0 
-2.447581016646658 2.905618032224143 46:1.0 47:1.0 149:1.0 230:1.0 245:1.0 289:1.0 442:1.0 670:1.0 760:1.0 
-8.0 5.242372166738045 186:1.0 225:1.0 1437:1.0 1486:1.0 
-1.8754252983021995 0.0 31:1.0 40:1.0 46:1.0 377:1.0 491:1.0 852:1.0 1686:1.0 2003:1.0 
-1.72330111182751 0.0 38:1.0 69:1.0 70:1.0 
-0.0 8.0 79:1.0 86:1.0 388:1.0 
-1.1542650598900048 -0.779476078134497 103:1.0 104:1.0 105:1.0 
-4.667100833379793 -7.3865091807965095 97:1.0 106:1.0 107:1.0 108:1.0 109:1.0 110:1.0 
-1.2021747827548233 -0.0 131:1.0 132:1.0 133:1.0 134:1.0 135:1.0 136:1.0 137:1.0 138:1.0 139:1.0 140:1.0 141:1.0 
-0.0 -1.232677894918813 79:1.0 86:1.0 145:1.0 146:1.0 147:1.0 148:1.0 149:1.0 150:1.0 151:1.0 152:1.0 
-0.274267957907974 -0.09947613928127459 105:1.0 145:1.0 164:1.0 165:1.0 166:1.0 167:1.0 168:1.0 
-0.0029109574033392913 -2.1399217739422114 54:1.0 79:1.0 148:1.0 207:1.0 208:1.0 209:1.0 210:1.0 211:1.0 212:1.0 213:1.0 214:1.0 215:1.0 
-1.7461993982968484 -2.3410906785547754 8:1.0 25:1.0 88:1.0 132:1.0 216:1.0 217:1.0 218:1.0 219:1.0 220:1.0 
-4.753942986704658 -2.06430070335706 77:1.0 78:1.0 96:1.0 149:1.0 242:1.0 243:1.0 244:1.0 245:1.0 246:1.0 247:1.0 
-3.386560956145164 -1.411238555706111 40:1.0 75:1.0 153:1.0 259:1.0 260:1.0 261:1.0 262:1.0 263:1.0 264:1.0 265:1.0 266:1.0 267:1.0 268:1.0 269:1.0 270:1.0 
-2.9407971936091117 -2.6500258744678544 25:1.0 40:1.0 125:1.0 156:1.0 282:1.0 283:1.0 284:1.0 285:1.0 286:1.0 287:1.0 288:1.0 
-8.0 -8.0 105:1.0 322:1.0 
-4.8548221251541746 -6.469647425168256 54:1.0 275:1.0 350:1.0 
-1.225101204566425 -0.7611879105521979 40:1.0 183:1.0 364:1.0 365:1.0 366:1.0 367:1.0 368:1.0 369:1.0 370:1.0 371:1.0 
-4.532048531556011 -8.0 40:1.0 105:1.0 123:1.0 379:1.0 
-8.0 -8.0 447:1.0 
-4.174049862604862 -6.33431020891916 178:1.0 377:1.0 492:1.0 493:1.0 
-4.523052365052249 -5.471514981008399 40:1.0 221:1.0 222:1.0 494:1.0 495:1.0 496:1.0 
-1.3927996004732286 -0.0 148:1.0 509:1.0 510:1.0 511:1.0 
-0.404300061115694 -5.180954231901594 105:1.0 108:1.0 112:1.0 530:1.0 531:1.0 
-0.17722115050771686 -0.0 10:1.0 40:1.0 43:1.0 86:1.0 105:1.0 112:1.0 117:1.0 420:1.0 533:1.0 537:1.0 538:1.0 539:1.0 540:1.0 541:1.0 
-4.847640058469918 -4.157481608124958 54:1.0 275:1.0 548:1.0 
-8.0 -7.297540344231428 38:1.0 273:1.0 595:1.0 596:1.0 
-2.865127230805581 -1.1024149704331683 636:1.0 637:1.0 638:1.0 639:1.0 640:1.0 
-8.0 -8.0 78:1.0 662:1.0 
-0.9618426773728551 -0.8992733396109454 57:1.0 78:1.0 86:1.0 148:1.0 663:1.0 664:1.0 665:1.0 
-3.91275824557577 -3.2811287130700375 78:1.0 108:1.0 112:1.0 233:1.0 257:1.0 375:1.0 407:1.0 
-1.6556786162225379 -0.467164747264379 78:1.0 273:1.0 614:1.0 666:1.0 667:1.0 
-7.884770347361546 -4.7633214118028535 45:1.0 75:1.0 315:1.0 668:1.0 669:1.0 670:1.0 
-3.5524382978908675 -2.9427281983387994 96:1.0 186:1.0 283:1.0 292:1.0 293:1.0 501:1.0 565:1.0 673:1.0 674:1.0 
-2.704476885022129 -2.226429733210935 130:1.0 271:1.0 684:1.0 685:1.0 
-8.0 -7.741501343059525 686:1.0 687:1.0 
-3.340138562765656 -1.3263809030087148 40:1.0 86:1.0 92:1.0 125:1.0 688:1.0 
-2.6508487618795056 -3.9406880085025793 178:1.0 447:1.0 690:1.0 691:1.0 
-2.383982072894634 -1.2733405303286154 54:1.0 87:1.0 90:1.0 152:1.0 265:1.0 275:1.0 588:1.0 699:1.0 700:1.0 701:1.0 702:1.0 703:1.0 704:1.0 705:1.0 
-5.244139075148289 -4.053574953291356 4:1.0 106:1.0 131:1.0 204:1.0 257:1.0 711:1.0 
-5.912489293653985 -8.0 77:1.0 207:1.0 715:1.0 718:1.0 719:1.0 
-0.0 -0.35527479923688365 368:1.0 504:1.0 729:1.0 
-8.0 -8.0 86:1.0 729:1.0 
-2.11609286124584 -0.05455805885673781 75:1.0 78:1.0 739:1.0 740:1.0 741:1.0 742:1.0 743:1.0 744:1.0 
-1.2834020844581606 -0.1475740323464721 40:1.0 81:1.0 171:1.0 257:1.0 263:1.0 368:1.0 731:1.0 745:1.0 746:1.0 747:1.0 748:1.0 749:1.0 750:1.0 751:1.0 752:1.0 753:1.0 
-6.160349609572436 -4.399247471504036 755:1.0 756:1.0 757:1.0 758:1.0 
-1.4009556467809008 -2.5387505436195 7:1.0 368:1.0 759:1.0 760:1.0 761:1.0 762:1.0 763:1.0 764:1.0 765:1.0 766:1.0 
-8.0 -8.0 88:1.0 781:1.0 
-8.0 -8.0 86:1.0 828:1.0 
-1.745048095584611 -0.8850573647082816 130:1.0 829:1.0 830:1.0 
-0.0 -0.4000030665008969 28:1.0 86:1.0 105:1.0 671:1.0 831:1.0 832:1.0 833:1.0 834:1.0 835:1.0 
-8.0 -3.0638811859635875 86:1.0 831:1.0 
-2.0879479410537516 -0.5779533286986418 28:1.0 86:1.0 196:1.0 256:1.0 257:1.0 346:1.0 750:1.0 831:1.0 836:1.0 837:1.0 838:1.0 839:1.0 840:1.0 841:1.0 842:1.0 843:1.0 
-8.0 -8.0 169:1.0 302:1.0 855:1.0 
-4.038081923261143 -2.568201415083866 96:1.0 105:1.0 186:1.0 233:1.0 422:1.0 865:1.0 866:1.0 867:1.0 
-0.0 -0.664087990421665 105:1.0 178:1.0 868:1.0 869:1.0 
-0.6423026083484069 -1.9413830328825354 28:1.0 86:1.0 732:1.0 831:1.0 870:1.0 
-3.7915727059779476 -4.857530050728433 75:1.0 79:1.0 88:1.0 131:1.0 213:1.0 248:1.0 398:1.0 871:1.0 872:1.0 
-2.3004773105983647 -0.6778299512713621 222:1.0 318:1.0 637:1.0 638:1.0 819:1.0 873:1.0 874:1.0 
-8.0 -3.1389405956577177 750:1.0 819:1.0 857:1.0 877:1.0 878:1.0 
-3.4924888965634313 -2.514042208941911 136:1.0 886:1.0 887:1.0 888:1.0 889:1.0 890:1.0 891:1.0 
-3.8718938969273387 -1.7378708342517442 40:1.0 688:1.0 892:1.0 893:1.0 
-5.843685301694841 -5.257054852137635 129:1.0 510:1.0 932:1.0 933:1.0 
-6.378853907184078 -5.079298392090469 31:1.0 101:1.0 102:1.0 184:1.0 697:1.0 949:1.0 950:1.0 951:1.0 
-8.0 -8.0 38:1.0 962:1.0 963:1.0 
-2.063496483641321 -5.372939379630694 40:1.0 147:1.0 207:1.0 315:1.0 405:1.0 971:1.0 972:1.0 973:1.0 
-1.1964231752021957 -1.4013620503477546 40:1.0 147:1.0 866:1.0 971:1.0 974:1.0 975:1.0 976:1.0 
-2.576335121853066 -2.970530352618257 40:1.0 75:1.0 122:1.0 262:1.0 636:1.0 637:1.0 638:1.0 980:1.0 
-0.28173574778335364 -0.607247637820006 40:1.0 75:1.0 122:1.0 637:1.0 638:1.0 981:1.0 982:1.0 983:1.0 984:1.0 
-2.564032698539174 -1.5172718780548216 10:1.0 40:1.0 105:1.0 148:1.0 183:1.0 306:1.0 700:1.0 1005:1.0 1006:1.0 1007:1.0 1008:1.0 
-8.0 -8.0 40:1.0 1009:1.0 
-5.255615774931947 -4.699455245391726 40:1.0 348:1.0 790:1.0 1011:1.0 1012:1.0 
-0.43138613643666357 -0.6356584218113456 11:1.0 40:1.0 47:1.0 125:1.0 130:1.0 424:1.0 1015:1.0 1016:1.0 1017:1.0 
-5.632025165649237 -8.0 38:1.0 40:1.0 688:1.0 1026:1.0 
-2.616987539922393 -1.6556767533708767 40:1.0 75:1.0 81:1.0 368:1.0 550:1.0 551:1.0 940:1.0 1038:1.0 1039:1.0 1040:1.0 1041:1.0 
-0.8198884642755314 -2.813475830142172 40:1.0 148:1.0 1061:1.0 1062:1.0 1063:1.0 
-2.9049998154377423 -2.902030367307928 40:1.0 119:1.0 688:1.0 1072:1.0 
-0.8148989935985651 -0.7004952558577052 38:1.0 40:1.0 43:1.0 78:1.0 105:1.0 148:1.0 288:1.0 424:1.0 594:1.0 839:1.0 1093:1.0 1094:1.0 
-8.0 -8.0 96:1.0 866:1.0 
-0.17519104073997038 -0.0 112:1.0 130:1.0 145:1.0 289:1.0 315:1.0 348:1.0 972:1.0 1124:1.0 1125:1.0 
-8.0 -8.0 1027:1.0 1132:1.0 
-4.136122225489166 -2.302155277001019 4:1.0 493:1.0 498:1.0 897:1.0 1139:1.0 
-4.7742491548368715 -0.0 43:1.0 148:1.0 178:1.0 222:1.0 233:1.0 257:1.0 1001:1.0 1165:1.0 
-8.0 -8.0 233:1.0 283:1.0 1167:1.0 
-5.271902081283538 -5.81783855479865 4:1.0 863:1.0 1170:1.0 1171:1.0 
-1.688819729092374 -0.3093047712417632 156:1.0 168:1.0 213:1.0 233:1.0 249:1.0 664:1.0 830:1.0 831:1.0 956:1.0 1176:1.0 1177:1.0 1178:1.0 
-5.7276777299067065 -5.911018214452718 132:1.0 202:1.0 1179:1.0 
-3.072545084380547 -0.6582376767185427 130:1.0 559:1.0 582:1.0 1180:1.0 1181:1.0 1182:1.0 
-4.019689464273611 -1.8323924786524495 130:1.0 1183:1.0 
-6.693932266264945 -4.050291066565004 1197:1.0 1198:1.0 
-8.0 -8.0 869:1.0 
-5.366924999177536 -1.980511695916291 124:1.0 204:1.0 493:1.0 1242:1.0 1243:1.0 
-4.955163389644942 -2.9154312902064357 98:1.0 603:1.0 1244:1.0 1245:1.0 1246:1.0 1247:1.0 
-1.746504275163531 -2.2760106933374082 97:1.0 147:1.0 148:1.0 151:1.0 306:1.0 362:1.0 876:1.0 1062:1.0 1264:1.0 1265:1.0 1266:1.0 1267:1.0 
-7.875855454407281 -5.529148340223612 730:1.0 1269:1.0 
-7.8712396438661445 -5.529148340223613 730:1.0 1270:1.0 
-1.9868607991433191 -3.3195556582591763 78:1.0 179:1.0 296:1.0 529:1.0 741:1.0 742:1.0 808:1.0 820:1.0 849:1.0 1288:1.0 
-1.690545790043305 -4.90180248086952 178:1.0 186:1.0 674:1.0 820:1.0 1290:1.0 1291:1.0 
-1.232778283574407 -0.11227945667507142 125:1.0 165:1.0 167:1.0 210:1.0 338:1.0 448:1.0 876:1.0 907:1.0 1301:1.0 1302:1.0 1303:1.0 1304:1.0 
-4.099328881857535 -0.5614138705607943 75:1.0 104:1.0 105:1.0 
-0.0 -7.279147444070905 75:1.0 79:1.0 105:1.0 869:1.0 
-4.846775563728686 -1.338677724910959 168:1.0 949:1.0 1284:1.0 1309:1.0 1310:1.0 1311:1.0 1312:1.0 1313:1.0 
-8.0 -8.0 104:1.0 
-2.954544548973446 -4.1528288782731835 38:1.0 40:1.0 75:1.0 288:1.0 386:1.0 961:1.0 1309:1.0 1343:1.0 1344:1.0 1345:1.0 1346:1.0 
-0.5256860790567178 -0.0 105:1.0 866:1.0 
-1.0411998409525707 -0.0 38:1.0 78:1.0 112:1.0 138:1.0 536:1.0 1198:1.0 1347:1.0 
-0.7842843258490676 -0.0 112:1.0 148:1.0 405:1.0 565:1.0 802:1.0 1348:1.0 
-6.381939693688016 -2.855537127929628 125:1.0 209:1.0 283:1.0 674:1.0 
-1.7428737847885827 -3.5944704434453825 88:1.0 156:1.0 165:1.0 167:1.0 196:1.0 289:1.0 399:1.0 648:1.0 809:1.0 1351:1.0 1352:1.0 1353:1.0 
-5.226721317379839 -2.4557747468575255 750:1.0 962:1.0 1369:1.0 
-0.8867976174834876 -0.36188579624574324 130:1.0 131:1.0 156:1.0 186:1.0 348:1.0 1370:1.0 1371:1.0 1372:1.0 1373:1.0 
-8.0 -7.8628357049263755 10:1.0 24:1.0 507:1.0 1396:1.0 1397:1.0 
-3.490824275349971 -1.9799347960396332 167:1.0 919:1.0 1412:1.0 1413:1.0 1414:1.0 
-0.4666219830785533 -2.0799806463636625 178:1.0 493:1.0 1242:1.0 1442:1.0 1443:1.0 
-0.0 -1.102483709233936 178:1.0 222:1.0 866:1.0 
-0.7599164219241993 -1.1844907318937012 54:1.0 105:1.0 148:1.0 1079:1.0 1230:1.0 1475:1.0 1476:1.0 
-5.759069470830876 -8.0 40:1.0 79:1.0 81:1.0 88:1.0 281:1.0 1494:1.0 1495:1.0 
-0.07610879203100658 -0.0142908070616922 273:1.0 962:1.0 1515:1.0 1516:1.0 1517:1.0 
-2.6037285671463732 -2.1126390329372144 38:1.0 275:1.0 700:1.0 732:1.0 887:1.0 1126:1.0 
-0.0 -0.8456049002095924 79:1.0 132:1.0 537:1.0 1523:1.0 1524:1.0 
-0.9870094552642739 -0.9824588649668944 81:1.0 105:1.0 133:1.0 136:1.0 650:1.0 1007:1.0 1526:1.0 1527:1.0 1528:1.0 1529:1.0 1530:1.0 
-0.6607512866317854 -3.346937652364346 54:1.0 108:1.0 112:1.0 966:1.0 1546:1.0 1547:1.0 1548:1.0 
-0.3131049776822466 -1.6544363521371341 74:1.0 78:1.0 105:1.0 178:1.0 245:1.0 539:1.0 1338:1.0 1554:1.0 1555:1.0 1556:1.0 
-0.1397423164069731 -1.6898433586624189 104:1.0 105:1.0 1169:1.0 1552:1.0 1557:1.0 
-4.469047518294329 -3.8374481058509153 178:1.0 270:1.0 442:1.0 779:1.0 802:1.0 853:1.0 1558:1.0 1559:1.0 
-6.201497910723705 -3.855883439049596 284:1.0 707:1.0 862:1.0 1564:1.0 1565:1.0 1566:1.0 
-8.0 -4.1351203107274515 233:1.0 368:1.0 1568:1.0 
-2.3547172217747754 -0.7848077899930981 11:1.0 130:1.0 1569:1.0 1570:1.0 
-3.4530520863860037 -0.9869626284853168 130:1.0 1133:1.0 1576:1.0 
-1.1712491466909745 -1.4593490973003018 40:1.0 94:1.0 165:1.0 167:1.0 405:1.0 648:1.0 808:1.0 839:1.0 945:1.0 1021:1.0 1577:1.0 1578:1.0 1579:1.0 
-0.2253272840356894 -0.5397129575922979 40:1.0 116:1.0 434:1.0 688:1.0 
-4.405901924398203 -3.047459080991906 131:1.0 132:1.0 760:1.0 1196:1.0 1588:1.0 
-4.233162425706515 -2.492317682179728 133:1.0 539:1.0 1053:1.0 1606:1.0 1607:1.0 
-5.829216018690754 -2.833012227493462 1340:1.0 1612:1.0 1613:1.0 1614:1.0 1615:1.0 
-8.0 -8.0 1619:1.0 
-5.960399838750466 -6.789145691431464 8:1.0 116:1.0 168:1.0 1629:1.0 1630:1.0 1631:1.0 
-3.0284317422936793 -2.3278687891799517 593:1.0 831:1.0 1222:1.0 1632:1.0 
-3.6761770392678943 -2.5437832628573926 5:1.0 32:1.0 112:1.0 760:1.0 1288:1.0 1389:1.0 1633:1.0 1634:1.0 1635:1.0 
-8.0 -1.4745466228166644 11:1.0 75:1.0 112:1.0 233:1.0 1144:1.0 1233:1.0 1622:1.0 1636:1.0 
-2.2597029163814284 -3.193044526003325 5:1.0 11:1.0 130:1.0 740:1.0 
-7.493928716478341 -0.0 593:1.0 869:1.0 1655:1.0 
-8.0 -1.8990957050387292 43:1.0 151:1.0 352:1.0 533:1.0 1662:1.0 
-3.1035322832782675 -3.4351448346392477 79:1.0 125:1.0 359:1.0 422:1.0 944:1.0 1613:1.0 1667:1.0 1668:1.0 1669:1.0 
-5.735798789886563 -1.4659238916147341 38:1.0 43:1.0 386:1.0 537:1.0 1672:1.0 1673:1.0 
-2.850030354838082 -3.590895302872106 79:1.0 147:1.0 148:1.0 278:1.0 533:1.0 1674:1.0 
-1.1595139541324078 -0.3287871171236946 40:1.0 103:1.0 165:1.0 167:1.0 202:1.0 222:1.0 300:1.0 318:1.0 342:1.0 394:1.0 414:1.0 945:1.0 994:1.0 1678:1.0 1679:1.0 1680:1.0 1681:1.0 
-0.33585616553615333 -0.4088484466839057 165:1.0 167:1.0 538:1.0 539:1.0 648:1.0 1682:1.0 1683:1.0 1684:1.0 
-2.8738326398890024 -2.0718385498282794 165:1.0 167:1.0 801:1.0 1685:1.0 
-3.4297070501034086 -2.737049137938704 38:1.0 86:1.0 368:1.0 1690:1.0 1691:1.0 
-3.7513302279758136 -3.1750618152132204 27:1.0 40:1.0 117:1.0 149:1.0 169:1.0 274:1.0 306:1.0 385:1.0 781:1.0 966:1.0 1015:1.0 1715:1.0 
-8.0 -8.0 222:1.0 1486:1.0 1718:1.0 
-3.8242293238381113 -0.5588051798361646 222:1.0 257:1.0 729:1.0 1719:1.0 1720:1.0 1721:1.0 1722:1.0 
-7.888987883101594 -2.578082627872082 31:1.0 43:1.0 249:1.0 1730:1.0 1731:1.0 1732:1.0 
-1.956693723151675 -3.8252458320363845 11:1.0 75:1.0 165:1.0 207:1.0 857:1.0 1738:1.0 1739:1.0 1740:1.0 1741:1.0 
-6.2867354134442595 -4.578478057723152 47:1.0 668:1.0 1742:1.0 1743:1.0 
-0.0 -0.9897222278390027 40:1.0 89:1.0 122:1.0 636:1.0 637:1.0 760:1.0 819:1.0 962:1.0 1744:1.0 
-2.466552217953857 -2.689630249532573 78:1.0 81:1.0 114:1.0 133:1.0 152:1.0 1752:1.0 1753:1.0 1754:1.0 1755:1.0 
-0.8261790173868899 -1.7317346254685821 78:1.0 79:1.0 89:1.0 866:1.0 1756:1.0 1757:1.0 
-8.0 -5.516697516485176 500:1.0 1766:1.0 1767:1.0 
-4.358610961879223 -3.9109751852591246 40:1.0 263:1.0 296:1.0 1166:1.0 1291:1.0 1770:1.0 
-1.5399652259465224 -1.7442171372542 145:1.0 165:1.0 167:1.0 172:1.0 809:1.0 1771:1.0 1772:1.0 
-4.46942521574319 -1.5415536495786801 159:1.0 257:1.0 284:1.0 831:1.0 1327:1.0 1784:1.0 
-8.0 -8.0 31:1.0 336:1.0 981:1.0 1744:1.0 
-8.0 -5.3669406128210815 448:1.0 1546:1.0 1789:1.0 
-0.14014406128035709 -0.0 869:1.0 1546:1.0 
-6.404891639023541 -5.025955790975452 40:1.0 112:1.0 122:1.0 1804:1.0 1805:1.0 
-8.0 -8.0 40:1.0 122:1.0 1806:1.0 
-2.4412173883530506 -0.0 40:1.0 75:1.0 86:1.0 89:1.0 90:1.0 315:1.0 537:1.0 732:1.0 763:1.0 1340:1.0 1810:1.0 1811:1.0 1812:1.0 1813:1.0 1814:1.0 1815:1.0 
-1.6160738104972503 -1.7402101613755394 40:1.0 688:1.0 1817:1.0 1818:1.0 
-4.561789763953597 -3.746090223432033 25:1.0 96:1.0 100:1.0 112:1.0 248:1.0 1431:1.0 1432:1.0 1827:1.0 
-0.27304877096442076 -0.0 493:1.0 750:1.0 1636:1.0 1832:1.0 1833:1.0 1834:1.0 
-7.718089183961854 -4.763691076163256 98:1.0 1852:1.0 1853:1.0 1854:1.0 
-2.3238768682854363 -0.01108920443681835 149:1.0 718:1.0 863:1.0 1037:1.0 1062:1.0 1096:1.0 1632:1.0 1860:1.0 
-0.0 -4.833493171006179 40:1.0 47:1.0 125:1.0 130:1.0 375:1.0 808:1.0 1116:1.0 
-8.0 -8.0 206:1.0 567:1.0 1166:1.0 1879:1.0 
-0.446377563717217 -0.0 105:1.0 112:1.0 123:1.0 131:1.0 567:1.0 669:1.0 1887:1.0 1888:1.0 1889:1.0 
-1.9525814534586028 -0.0 90:1.0 97:1.0 104:1.0 105:1.0 112:1.0 318:1.0 375:1.0 1890:1.0 1891:1.0 
-3.56007636979043 -1.2203045875661664 43:1.0 79:1.0 86:1.0 155:1.0 1130:1.0 1488:1.0 1892:1.0 1893:1.0 1894:1.0 1895:1.0 
-1.9696629690769125 -1.2031796646463517 75:1.0 111:1.0 257:1.0 364:1.0 537:1.0 1771:1.0 1896:1.0 1897:1.0 
-2.2756322569836933 -1.2178539931847274 28:1.0 266:1.0 270:1.0 368:1.0 504:1.0 1907:1.0 1908:1.0 1909:1.0 1910:1.0 1911:1.0 
-0.0 -1.2661387030215447 7:1.0 78:1.0 537:1.0 742:1.0 796:1.0 944:1.0 1925:1.0 1926:1.0 
-2.5634361366216294 -1.6032210098120625 38:1.0 86:1.0 233:1.0 537:1.0 1649:1.0 1932:1.0 1933:1.0 1934:1.0 1935:1.0 
-3.8575829526295524 -5.346453699811751 79:1.0 249:1.0 1936:1.0 1937:1.0 1938:1.0 
-0.0 -0.9692938682373308 104:1.0 105:1.0 202:1.0 1939:1.0 1940:1.0 
-4.219482945148131 -1.650237625575024 209:1.0 273:1.0 1374:1.0 1945:1.0 
-1.0475444441537027 -3.780478531353573 105:1.0 108:1.0 147:1.0 495:1.0 669:1.0 1948:1.0 1949:1.0 1950:1.0 1951:1.0 
-8.0 -6.809753320101413 1198:1.0 1800:1.0 
-1.5062547476751316 -1.8803035398321482 588:1.0 740:1.0 1198:1.0 1967:1.0 
-4.003914071676381 -1.203388350471874 3:1.0 87:1.0 89:1.0 144:1.0 257:1.0 434:1.0 537:1.0 660:1.0 707:1.0 945:1.0 997:1.0 1835:1.0 1968:1.0 1969:1.0 1970:1.0 1971:1.0 
-5.609229222477978 -8.0 275:1.0 306:1.0 1986:1.0 
-3.4941162503011842 -3.491329891188701 40:1.0 54:1.0 138:1.0 159:1.0 171:1.0 207:1.0 369:1.0 375:1.0 700:1.0 1793:1.0 1993:1.0 1994:1.0 
-8.0 -8.0 593:1.0 1995:1.0 
-1.422034323298362 -0.9659814183767292 25:1.0 38:1.0 54:1.0 78:1.0 105:1.0 145:1.0 148:1.0 152:1.0 189:1.0 442:1.0 593:1.0 712:1.0 
-0.6768258639132073 -2.4528263739009804 43:1.0 45:1.0 79:1.0 352:1.0 533:1.0 537:1.0 1107:1.0 1996:1.0 1997:1.0 1998:1.0 
-4.617952200907281 -1.1991005832338881 38:1.0 43:1.0 75:1.0 328:1.0 533:1.0 686:1.0 1987:1.0 1999:1.0 2000:1.0 
-5.366804978428834 -4.587931838442078 24:1.0 149:1.0 467:1.0 2001:1.0 2002:1.0 
-0.8384323620513444 -4.499044695063879 8:1.0 9:1.0 178:1.0 222:1.0 1166:1.0 1316:1.0 2004:1.0 2005:1.0 
-2.539522306512032 -1.6114359132117657 86:1.0 537:1.0 1287:1.0 2006:1.0 
