svm_type c_svc
kernel_type rbf
gamma 3.0517578125E-5
nr_class 3
total_sv 683
rho -9.61797720394847 -0.2564848140759814 6.048936000323947
label 0 3 1
probA -3.0889195028659606 -2.6962590007486433 -3.8435445271236732
probB -0.2153280582653423 -0.05679070735998896 0.3331681486100327
nr_sv 279 222 182
SV
201.93245301421936 349.4981095533294 10:1.0 11:1.0 12:1.0 13:1.0 14:1.0 15:1.0 16:1.0 17:1.0 
342.5267369587814 539.5845965954992 10:1.0 11:1.0 14:1.0 15:1.0 16:1.0 18:1.0 19:1.0 
287.5693977488366 483.9395219149824 10:1.0 11:1.0 14:1.0 15:1.0 20:1.0 21:1.0 22:1.0 23:1.0 
4246.15186510494 4102.452246328765 24:1.0 25:1.0 26:1.0 27:1.0 28:1.0 29:1.0 
8192.0 2430.0138521678996 35:1.0 36:1.0 37:1.0 38:1.0 
0.0 2682.8112975112167 39:1.0 40:1.0 41:1.0 42:1.0 43:1.0 
3534.6347269968483 856.4816892390394 50:1.0 51:1.0 52:1.0 53:1.0 54:1.0 55:1.0 
1021.8041979777244 1148.4742785235007 59:1.0 60:1.0 61:1.0 62:1.0 63:1.0 64:1.0 65:1.0 66:1.0 67:1.0 
514.6519251077018 0.0 42:1.0 75:1.0 90:1.0 96:1.0 97:1.0 98:1.0 99:1.0 
0.0 2627.287396521805 75:1.0 86:1.0 117:1.0 118:1.0 119:1.0 120:1.0 
2215.225894365076 3122.309836055196 40:1.0 122:1.0 124:1.0 125:1.0 126:1.0 127:1.0 128:1.0 
3018.249617513948 0.0 31:1.0 42:1.0 90:1.0 142:1.0 143:1.0 144:1.0 
1832.9292341052164 1430.14785339314 31:1.0 88:1.0 138:1.0 153:1.0 154:1.0 155:1.0 156:1.0 157:1.0 158:1.0 159:1.0 160:1.0 161:1.0 162:1.0 163:1.0 
6642.329115154346 0.0 10:1.0 28:1.0 169:1.0 170:1.0 171:1.0 172:1.0 
7178.995073086586 1394.8376807024208 31:1.0 72:1.0 112:1.0 173:1.0 174:1.0 175:1.0 176:1.0 
1482.015122034026 1750.0528870225583 31:1.0 81:1.0 86:1.0 112:1.0 117:1.0 177:1.0 178:1.0 179:1.0 180:1.0 181:1.0 182:1.0 183:1.0 184:1.0 
2129.9289484844376 0.0 72:1.0 186:1.0 190:1.0 191:1.0 192:1.0 193:1.0 194:1.0 195:1.0 196:1.0 197:1.0 198:1.0 
3955.8188048322313 1467.340857673928 30:1.0 138:1.0 229:1.0 230:1.0 231:1.0 232:1.0 
0.0 1270.8585782547254 75:1.0 120:1.0 159:1.0 197:1.0 
4300.721187380404 429.8456998674303 31:1.0 96:1.0 270:1.0 299:1.0 300:1.0 301:1.0 
3796.208231636233 416.5886161915752 302:1.0 303:1.0 304:1.0 305:1.0 306:1.0 
2945.570730758687 3345.4949077472957 40:1.0 56:1.0 86:1.0 103:1.0 233:1.0 307:1.0 308:1.0 309:1.0 
3287.7122109680768 2920.9010483985485 53:1.0 86:1.0 323:1.0 324:1.0 325:1.0 
1457.3240351661038 3532.2024464418037 78:1.0 249:1.0 284:1.0 329:1.0 330:1.0 331:1.0 332:1.0 333:1.0 334:1.0 335:1.0 336:1.0 337:1.0 
0.0 888.293774913144 43:1.0 302:1.0 338:1.0 339:1.0 340:1.0 341:1.0 342:1.0 343:1.0 
604.6641243021411 702.7992645372203 79:1.0 329:1.0 356:1.0 357:1.0 358:1.0 359:1.0 360:1.0 361:1.0 362:1.0 
2408.00256571962 3281.592700517846 89:1.0 377:1.0 378:1.0 
809.3425751686161 2342.5272719000086 39:1.0 43:1.0 86:1.0 88:1.0 380:1.0 381:1.0 382:1.0 
1511.9752356862066 4015.7606090955383 40:1.0 249:1.0 394:1.0 395:1.0 396:1.0 397:1.0 
3216.393878963592 0.0 69:1.0 96:1.0 352:1.0 408:1.0 409:1.0 410:1.0 411:1.0 
540.6625115242167 1271.9211736402776 86:1.0 87:1.0 145:1.0 198:1.0 253:1.0 352:1.0 412:1.0 413:1.0 414:1.0 
356.9468907412246 719.3466626568957 96:1.0 153:1.0 257:1.0 415:1.0 416:1.0 417:1.0 418:1.0 419:1.0 420:1.0 421:1.0 
0.0 773.0215203379589 43:1.0 81:1.0 86:1.0 225:1.0 261:1.0 428:1.0 429:1.0 430:1.0 431:1.0 
1316.1988220024723 4746.605890117795 43:1.0 86:1.0 306:1.0 442:1.0 443:1.0 444:1.0 
4813.9455985838185 5180.127683894815 445:1.0 446:1.0 
8192.0 7300.389155363476 96:1.0 316:1.0 448:1.0 
4774.634828118977 3283.3712474157837 43:1.0 57:1.0 204:1.0 450:1.0 
2805.382030739091 3367.8253781608173 4:1.0 77:1.0 78:1.0 112:1.0 144:1.0 306:1.0 455:1.0 456:1.0 457:1.0 458:1.0 459:1.0 460:1.0 461:1.0 
983.3176069949423 0.0 43:1.0 97:1.0 178:1.0 206:1.0 210:1.0 316:1.0 319:1.0 427:1.0 439:1.0 468:1.0 469:1.0 470:1.0 471:1.0 472:1.0 473:1.0 
0.0 557.6179262054974 315:1.0 316:1.0 319:1.0 474:1.0 
1279.7820360587784 1190.2959662966084 86:1.0 117:1.0 222:1.0 394:1.0 426:1.0 475:1.0 476:1.0 477:1.0 478:1.0 
823.9512429714791 0.0 31:1.0 125:1.0 479:1.0 480:1.0 481:1.0 482:1.0 483:1.0 484:1.0 485:1.0 486:1.0 487:1.0 488:1.0 
4191.51010133237 5266.927165148357 5:1.0 131:1.0 222:1.0 245:1.0 494:1.0 495:1.0 
0.0 550.6184475475458 25:1.0 43:1.0 88:1.0 149:1.0 225:1.0 509:1.0 510:1.0 
168.23892810860752 1847.2285300284277 43:1.0 221:1.0 253:1.0 511:1.0 522:1.0 
1038.804427467973 3437.6790688142737 151:1.0 525:1.0 526:1.0 527:1.0 528:1.0 529:1.0 
2427.258118461893 0.0 10:1.0 433:1.0 542:1.0 543:1.0 544:1.0 
0.0 455.1164331708225 247:1.0 315:1.0 316:1.0 319:1.0 545:1.0 546:1.0 547:1.0 548:1.0 549:1.0 550:1.0 
4646.052433941944 1889.6034393056025 10:1.0 11:1.0 581:1.0 582:1.0 583:1.0 584:1.0 
1222.929088741931 0.0 40:1.0 101:1.0 102:1.0 186:1.0 270:1.0 352:1.0 390:1.0 581:1.0 585:1.0 586:1.0 587:1.0 
1406.2352820776696 2204.476878018689 98:1.0 590:1.0 591:1.0 592:1.0 593:1.0 594:1.0 
0.0 19.786649699025936 89:1.0 98:1.0 525:1.0 595:1.0 596:1.0 597:1.0 598:1.0 599:1.0 600:1.0 601:1.0 602:1.0 
0.0 272.46641537775974 10:1.0 98:1.0 595:1.0 598:1.0 603:1.0 604:1.0 605:1.0 606:1.0 
776.64913443101 1200.1952661876162 98:1.0 607:1.0 608:1.0 609:1.0 610:1.0 611:1.0 612:1.0 613:1.0 614:1.0 615:1.0 616:1.0 
470.17531945799635 807.8783651117737 76:1.0 98:1.0 584:1.0 603:1.0 617:1.0 618:1.0 619:1.0 620:1.0 621:1.0 622:1.0 623:1.0 624:1.0 
890.3224148273521 1098.716321327279 98:1.0 187:1.0 317:1.0 552:1.0 625:1.0 626:1.0 627:1.0 628:1.0 
2547.0247477683406 1844.4397344431698 98:1.0 644:1.0 645:1.0 646:1.0 647:1.0 648:1.0 649:1.0 
2868.6412167435938 3247.0170444224586 125:1.0 650:1.0 651:1.0 652:1.0 
8192.0 8192.0 
860.5696025566418 0.0 69:1.0 159:1.0 669:1.0 670:1.0 671:1.0 672:1.0 673:1.0 674:1.0 675:1.0 676:1.0 677:1.0 
0.0 1636.7123253214907 25:1.0 270:1.0 567:1.0 706:1.0 707:1.0 708:1.0 
7535.852509574226 4233.179471020117 79:1.0 189:1.0 225:1.0 714:1.0 715:1.0 
279.84747879517516 1308.5261255211349 595:1.0 719:1.0 720:1.0 721:1.0 722:1.0 
4725.530737701559 3432.2291749016977 88:1.0 233:1.0 729:1.0 730:1.0 731:1.0 
8192.0 6255.143279718972 69:1.0 222:1.0 748:1.0 
2582.786519250606 1186.8693112844362 84:1.0 371:1.0 542:1.0 766:1.0 767:1.0 768:1.0 769:1.0 770:1.0 771:1.0 772:1.0 773:1.0 
0.0 1180.7546022592717 25:1.0 43:1.0 81:1.0 117:1.0 149:1.0 151:1.0 159:1.0 238:1.0 283:1.0 328:1.0 777:1.0 778:1.0 779:1.0 780:1.0 781:1.0 782:1.0 
5211.422054343615 1227.8899682077713 84:1.0 186:1.0 495:1.0 602:1.0 783:1.0 784:1.0 
1516.1269926863592 0.0 11:1.0 119:1.0 144:1.0 276:1.0 464:1.0 785:1.0 786:1.0 787:1.0 788:1.0 789:1.0 790:1.0 791:1.0 792:1.0 
2048.755676276914 2415.4875958585785 52:1.0 150:1.0 793:1.0 794:1.0 795:1.0 796:1.0 797:1.0 
8192.0 8192.0 798:1.0 
1788.0729238412446 1818.6978596692613 482:1.0 808:1.0 809:1.0 810:1.0 
1097.7672811397588 897.5032524241532 15:1.0 815:1.0 816:1.0 817:1.0 818:1.0 819:1.0 820:1.0 821:1.0 
1387.4028245931768 0.0 90:1.0 120:1.0 838:1.0 839:1.0 
1680.2838478116214 21.082618499794556 404:1.0 840:1.0 841:1.0 842:1.0 
3896.6360314359167 7951.6235662816225 169:1.0 849:1.0 850:1.0 
2979.391197666746 5126.021377822918 11:1.0 38:1.0 405:1.0 662:1.0 855:1.0 856:1.0 857:1.0 
1914.3343718614192 342.7209429612077 80:1.0 90:1.0 144:1.0 186:1.0 744:1.0 813:1.0 868:1.0 869:1.0 
8192.0 1271.8883603346962 69:1.0 888:1.0 
8192.0 2743.990462191955 38:1.0 57:1.0 889:1.0 890:1.0 
0.0 2581.566320808797 90:1.0 139:1.0 666:1.0 
3192.633273214345 3448.8306385980904 896:1.0 897:1.0 898:1.0 
0.0 209.18913857754734 128:1.0 899:1.0 900:1.0 901:1.0 902:1.0 903:1.0 904:1.0 905:1.0 906:1.0 
686.3976242048348 0.0 1:1.0 196:1.0 351:1.0 635:1.0 914:1.0 915:1.0 916:1.0 917:1.0 918:1.0 919:1.0 
839.7756708065112 0.0 38:1.0 69:1.0 75:1.0 171:1.0 281:1.0 757:1.0 927:1.0 928:1.0 929:1.0 930:1.0 931:1.0 932:1.0 
8192.0 7322.5347052203 38:1.0 943:1.0 
1960.0769690121324 787.359010303498 47:1.0 396:1.0 554:1.0 555:1.0 835:1.0 944:1.0 945:1.0 946:1.0 
1103.9226528129668 2672.7587034358626 40:1.0 122:1.0 168:1.0 283:1.0 417:1.0 418:1.0 552:1.0 938:1.0 967:1.0 968:1.0 969:1.0 
6485.362239372878 422.41774207065663 1:1.0 38:1.0 40:1.0 97:1.0 122:1.0 977:1.0 
2368.545256168801 2245.3317583936737 40:1.0 81:1.0 122:1.0 214:1.0 979:1.0 980:1.0 981:1.0 982:1.0 
3668.368189168144 7132.951634604487 1:1.0 40:1.0 122:1.0 144:1.0 
1284.3349633382888 874.4516616474003 31:1.0 40:1.0 78:1.0 171:1.0 210:1.0 280:1.0 356:1.0 360:1.0 383:1.0 384:1.0 956:1.0 984:1.0 985:1.0 986:1.0 987:1.0 988:1.0 
3540.553402572682 2127.289355884328 38:1.0 40:1.0 989:1.0 990:1.0 991:1.0 992:1.0 993:1.0 
8192.0 4189.415255703609 40:1.0 81:1.0 213:1.0 527:1.0 994:1.0 
3529.5320410378035 3688.78778313331 40:1.0 169:1.0 170:1.0 171:1.0 1000:1.0 
3962.7953159808267 5733.814976304877 40:1.0 131:1.0 159:1.0 1003:1.0 1004:1.0 
3449.957794046104 3368.4032412645297 40:1.0 329:1.0 1034:1.0 1035:1.0 
1068.5562672043684 0.0 31:1.0 40:1.0 96:1.0 233:1.0 377:1.0 390:1.0 798:1.0 1037:1.0 
0.0 410.72271885466137 40:1.0 197:1.0 233:1.0 383:1.0 384:1.0 1038:1.0 1039:1.0 1040:1.0 
1398.8121268194948 3900.5794290067097 40:1.0 233:1.0 362:1.0 536:1.0 1041:1.0 
2758.5940909820533 0.0 25:1.0 31:1.0 40:1.0 72:1.0 171:1.0 233:1.0 282:1.0 935:1.0 1042:1.0 1043:1.0 
7993.612049389264 3768.149522418299 38:1.0 40:1.0 1048:1.0 1049:1.0 1050:1.0 
2336.84729577036 0.0 40:1.0 117:1.0 210:1.0 280:1.0 282:1.0 352:1.0 1054:1.0 1055:1.0 
8192.0 5890.502273638449 40:1.0 178:1.0 188:1.0 281:1.0 282:1.0 1066:1.0 1067:1.0 
175.7092548143712 680.86596552466 40:1.0 168:1.0 434:1.0 465:1.0 678:1.0 1068:1.0 1069:1.0 
0.0 660.057844551918 40:1.0 195:1.0 295:1.0 547:1.0 712:1.0 1072:1.0 1073:1.0 1074:1.0 1075:1.0 1076:1.0 1077:1.0 1078:1.0 1079:1.0 
2655.2867712251737 496.4715404816958 75:1.0 94:1.0 289:1.0 377:1.0 441:1.0 996:1.0 1088:1.0 1089:1.0 1090:1.0 1091:1.0 
0.0 2896.198915657656 96:1.0 112:1.0 316:1.0 1092:1.0 
5850.243734817641 2144.8610720012052 40:1.0 289:1.0 290:1.0 1109:1.0 1110:1.0 1111:1.0 
1625.2936756883464 1286.0507106564876 169:1.0 289:1.0 473:1.0 1005:1.0 1116:1.0 1117:1.0 
2199.7419688505497 3211.1890067019394 24:1.0 75:1.0 106:1.0 125:1.0 172:1.0 289:1.0 785:1.0 1119:1.0 1120:1.0 1121:1.0 
2755.2814891529397 2120.8235458226727 88:1.0 321:1.0 1123:1.0 1124:1.0 1125:1.0 1126:1.0 1127:1.0 1128:1.0 
6032.773257021702 4994.233330590087 75:1.0 77:1.0 143:1.0 1029:1.0 
2179.2969038687033 371.95182354945695 31:1.0 88:1.0 358:1.0 586:1.0 803:1.0 1134:1.0 1135:1.0 1136:1.0 1137:1.0 1138:1.0 1139:1.0 
0.0 2762.499629049288 1134:1.0 1140:1.0 
2617.661365806853 8192.0 1134:1.0 
2249.8975631654407 1300.0812637381255 525:1.0 1141:1.0 1142:1.0 1143:1.0 1144:1.0 
2385.9716241225588 2583.2360329246976 1145:1.0 1146:1.0 1147:1.0 1148:1.0 
4637.312977592862 417.1857246618187 28:1.0 31:1.0 232:1.0 400:1.0 422:1.0 1149:1.0 
1804.7420413438888 2154.6834138789404 484:1.0 500:1.0 595:1.0 1150:1.0 1151:1.0 1152:1.0 
8192.0 8192.0 732:1.0 
3997.6709613436906 3448.3993388025606 438:1.0 1153:1.0 1154:1.0 
0.0 8192.0 43:1.0 1156:1.0 
8192.0 5180.737714930848 401:1.0 1164:1.0 
1168.1137763062497 3787.71990057657 777:1.0 813:1.0 1184:1.0 1185:1.0 1186:1.0 
723.5151689465459 0.0 316:1.0 1193:1.0 1198:1.0 
363.6365445021847 1464.983347330511 75:1.0 233:1.0 336:1.0 662:1.0 1204:1.0 1205:1.0 1206:1.0 1207:1.0 1208:1.0 
798.2559786260986 1190.555097294318 233:1.0 880:1.0 1209:1.0 1210:1.0 1211:1.0 1212:1.0 
1270.5273560200105 5963.641862641488 233:1.0 589:1.0 1209:1.0 
8192.0 5854.044301793615 147:1.0 196:1.0 233:1.0 551:1.0 
4118.48050699945 1085.5785962944278 8:1.0 101:1.0 102:1.0 233:1.0 1213:1.0 1214:1.0 1215:1.0 1216:1.0 
2903.6861049197614 952.1814572505967 31:1.0 233:1.0 280:1.0 701:1.0 1217:1.0 1218:1.0 1219:1.0 
7935.814213675713 8192.0 54:1.0 105:1.0 233:1.0 694:1.0 1223:1.0 
690.0576947834559 0.0 10:1.0 31:1.0 75:1.0 145:1.0 165:1.0 168:1.0 346:1.0 1228:1.0 1229:1.0 1230:1.0 1231:1.0 
3638.366804041306 1599.3222084480244 40:1.0 46:1.0 106:1.0 117:1.0 125:1.0 128:1.0 151:1.0 288:1.0 1238:1.0 1239:1.0 
6587.068529682329 2308.8345645735326 38:1.0 183:1.0 288:1.0 318:1.0 564:1.0 
1234.5229198472057 0.0 97:1.0 316:1.0 1080:1.0 1104:1.0 1250:1.0 1251:1.0 
4654.59853525396 0.0 57:1.0 97:1.0 316:1.0 319:1.0 569:1.0 
0.0 1144.5222730967432 171:1.0 996:1.0 1264:1.0 1265:1.0 1266:1.0 1267:1.0 
2647.484838102134 1544.3270357924025 75:1.0 278:1.0 662:1.0 1268:1.0 1269:1.0 
7252.364078983356 1421.9212112986493 40:1.0 87:1.0 349:1.0 1070:1.0 1270:1.0 1271:1.0 
0.0 2820.7494911260383 78:1.0 233:1.0 473:1.0 1194:1.0 1270:1.0 1272:1.0 
19.439408901980094 1779.1494464526202 75:1.0 89:1.0 293:1.0 1279:1.0 1280:1.0 1281:1.0 
451.11416805802617 0.0 90:1.0 247:1.0 422:1.0 1282:1.0 1283:1.0 1284:1.0 1285:1.0 
7480.209284871247 3652.250510753295 38:1.0 1294:1.0 1295:1.0 
1028.4013271279953 0.0 10:1.0 29:1.0 460:1.0 1314:1.0 1315:1.0 
0.0 4471.540867689793 92:1.0 112:1.0 183:1.0 278:1.0 407:1.0 991:1.0 1331:1.0 
2448.725996950693 1690.2770837317748 77:1.0 145:1.0 159:1.0 178:1.0 271:1.0 328:1.0 712:1.0 1134:1.0 1343:1.0 1344:1.0 1345:1.0 1346:1.0 1347:1.0 1348:1.0 
2424.8052369657094 0.0 527:1.0 994:1.0 1350:1.0 1351:1.0 
3893.7998302552146 451.70248649955954 38:1.0 171:1.0 361:1.0 1375:1.0 
2901.1453307195625 71.63473214191599 40:1.0 42:1.0 78:1.0 90:1.0 253:1.0 270:1.0 306:1.0 406:1.0 407:1.0 893:1.0 1178:1.0 1218:1.0 1376:1.0 1377:1.0 
4347.741913710352 2483.2535062695642 101:1.0 102:1.0 933:1.0 1378:1.0 
1825.109236771758 0.0 10:1.0 27:1.0 38:1.0 75:1.0 266:1.0 1049:1.0 1379:1.0 
1746.888195962833 671.8024979593703 421:1.0 844:1.0 967:1.0 1387:1.0 1388:1.0 1389:1.0 1390:1.0 1391:1.0 1392:1.0 
207.23841388538125 1070.7834517913095 302:1.0 312:1.0 987:1.0 1128:1.0 1324:1.0 1393:1.0 1394:1.0 1395:1.0 
8192.0 5708.165558768895 38:1.0 257:1.0 885:1.0 1396:1.0 
2647.676875978642 0.0 29:1.0 595:1.0 722:1.0 
601.7672387547254 2410.2746921131147 400:1.0 701:1.0 1409:1.0 1410:1.0 1412:1.0 
0.0 3085.2091406446316 40:1.0 43:1.0 87:1.0 359:1.0 422:1.0 756:1.0 757:1.0 1413:1.0 
351.82760344851783 0.0 10:1.0 64:1.0 90:1.0 105:1.0 295:1.0 1123:1.0 1414:1.0 1415:1.0 1416:1.0 1417:1.0 1418:1.0 
1680.393792294195 2531.9514891706567 31:1.0 40:1.0 850:1.0 938:1.0 1007:1.0 1420:1.0 1421:1.0 1422:1.0 1423:1.0 1424:1.0 1425:1.0 
3794.4996297242074 2088.5113987733275 125:1.0 186:1.0 552:1.0 1428:1.0 
3248.589790692205 0.0 168:1.0 186:1.0 552:1.0 1429:1.0 
1256.31902247447 373.5028368893955 399:1.0 979:1.0 980:1.0 1436:1.0 1437:1.0 1438:1.0 1439:1.0 1440:1.0 1441:1.0 
1043.2362810002019 734.214944379077 42:1.0 89:1.0 542:1.0 1172:1.0 1442:1.0 1443:1.0 1444:1.0 
8192.0 8192.0 2:1.0 
1965.0133942531634 0.0 1:1.0 38:1.0 1449:1.0 1450:1.0 1451:1.0 
406.88823998153333 0.0 1:1.0 135:1.0 241:1.0 317:1.0 622:1.0 909:1.0 1240:1.0 1462:1.0 1463:1.0 
1387.7572048777297 3074.270118550082 265:1.0 1469:1.0 1470:1.0 1471:1.0 1472:1.0 
0.0 233.7606788888829 171:1.0 302:1.0 324:1.0 1244:1.0 1377:1.0 1476:1.0 1477:1.0 
7574.122780615392 5215.087642804649 40:1.0 79:1.0 295:1.0 1075:1.0 1479:1.0 1480:1.0 
2895.848825196836 2417.719297246273 40:1.0 79:1.0 81:1.0 90:1.0 243:1.0 404:1.0 531:1.0 1481:1.0 1482:1.0 
5761.579950869842 5143.88185846426 40:1.0 283:1.0 302:1.0 304:1.0 306:1.0 363:1.0 1489:1.0 1490:1.0 
1339.2860309982973 0.0 10:1.0 31:1.0 72:1.0 175:1.0 465:1.0 762:1.0 856:1.0 1316:1.0 1491:1.0 1492:1.0 1493:1.0 
1514.3785296572723 713.2005798546527 127:1.0 452:1.0 1113:1.0 1494:1.0 1495:1.0 1496:1.0 1497:1.0 
7039.003842803596 0.0 10:1.0 234:1.0 473:1.0 1069:1.0 
2090.08645090848 573.4943569361704 29:1.0 422:1.0 483:1.0 1500:1.0 1501:1.0 1502:1.0 1503:1.0 
3000.10091273562 3057.96036892095 75:1.0 398:1.0 662:1.0 1507:1.0 1508:1.0 
3314.059781684815 4537.70915307621 375:1.0 1083:1.0 1285:1.0 1350:1.0 
3985.026505359424 8192.0 86:1.0 257:1.0 586:1.0 1514:1.0 
642.8102315050132 1153.5642859864308 2:1.0 491:1.0 802:1.0 1343:1.0 1522:1.0 1523:1.0 
2384.5771283865743 2581.80825985609 1524:1.0 1525:1.0 1526:1.0 1527:1.0 
2659.361795391132 857.8354826909092 31:1.0 89:1.0 472:1.0 1531:1.0 1532:1.0 
6109.346941538942 0.0 11:1.0 38:1.0 156:1.0 233:1.0 290:1.0 385:1.0 422:1.0 423:1.0 426:1.0 427:1.0 1534:1.0 
2385.7464662483535 4628.835347021164 1015:1.0 1157:1.0 1550:1.0 1551:1.0 
7850.958310723294 5930.952601071021 3:1.0 45:1.0 152:1.0 352:1.0 1552:1.0 
3493.378059453327 867.3821160781071 30:1.0 32:1.0 900:1.0 1350:1.0 1569:1.0 
4821.709759936708 964.2197188022305 349:1.0 1570:1.0 1571:1.0 1572:1.0 
8192.0 1947.509923746591 349:1.0 1570:1.0 1573:1.0 
3617.6218955355007 599.4902608351288 101:1.0 102:1.0 1574:1.0 1575:1.0 
8192.0 4395.619877991753 96:1.0 97:1.0 427:1.0 434:1.0 
4813.72304415345 5722.467810052031 1302:1.0 1576:1.0 
1982.8562012366233 4572.260097726255 11:1.0 800:1.0 1579:1.0 
8192.0 8192.0 1580:1.0 
1531.4152524130827 41.50259123873388 383:1.0 384:1.0 1581:1.0 1582:1.0 1583:1.0 
0.0 3185.6737124483693 25:1.0 88:1.0 171:1.0 204:1.0 1042:1.0 1232:1.0 1316:1.0 1584:1.0 
0.0 293.2610544363966 75:1.0 536:1.0 1316:1.0 1534:1.0 1588:1.0 1589:1.0 1590:1.0 1591:1.0 1592:1.0 
1980.7943204067449 1006.6561291436257 312:1.0 872:1.0 1266:1.0 1606:1.0 1607:1.0 1608:1.0 
267.66666968556575 5180.733450243205 423:1.0 1611:1.0 
3627.228605737646 8192.0 315:1.0 1612:1.0 1613:1.0 
220.78265692020108 745.2595237425899 224:1.0 225:1.0 250:1.0 251:1.0 390:1.0 398:1.0 1345:1.0 1484:1.0 1581:1.0 1612:1.0 1614:1.0 
5987.103424030571 3126.320732465904 135:1.0 573:1.0 834:1.0 1221:1.0 
448.6422143199716 0.0 54:1.0 422:1.0 423:1.0 427:1.0 468:1.0 1627:1.0 1628:1.0 1629:1.0 1630:1.0 1631:1.0 
2393.9568269176934 3006.8083434378254 589:1.0 1632:1.0 1633:1.0 
0.0 431.86922040725767 455:1.0 979:1.0 980:1.0 1640:1.0 
0.0 2297.7969781554953 127:1.0 131:1.0 300:1.0 701:1.0 1641:1.0 
3375.2056615726174 0.0 30:1.0 31:1.0 32:1.0 43:1.0 168:1.0 352:1.0 455:1.0 586:1.0 833:1.0 
0.0 3746.3311705965634 43:1.0 86:1.0 212:1.0 352:1.0 586:1.0 833:1.0 
0.0 892.5501796485725 40:1.0 43:1.0 75:1.0 87:1.0 529:1.0 757:1.0 1194:1.0 1270:1.0 1336:1.0 1483:1.0 1621:1.0 1646:1.0 1647:1.0 1648:1.0 1649:1.0 
2132.150014785664 1589.2927141152736 554:1.0 555:1.0 574:1.0 575:1.0 1653:1.0 1654:1.0 
2794.8155769749806 1011.7249379543978 554:1.0 555:1.0 933:1.0 1655:1.0 1656:1.0 
1334.7670248391587 4160.672256743549 149:1.0 1155:1.0 1664:1.0 1665:1.0 1666:1.0 
7002.804812920451 2488.1068088305888 121:1.0 521:1.0 1667:1.0 
7295.6311599064275 2890.242418686529 351:1.0 383:1.0 384:1.0 521:1.0 754:1.0 813:1.0 
5028.412281702463 3749.731900823419 38:1.0 78:1.0 842:1.0 1684:1.0 1685:1.0 1686:1.0 
0.0 61.931669936754886 168:1.0 701:1.0 771:1.0 821:1.0 1687:1.0 1688:1.0 1689:1.0 1690:1.0 1691:1.0 
1079.5068242210932 1350.1391000296521 484:1.0 500:1.0 722:1.0 1150:1.0 1692:1.0 1693:1.0 1694:1.0 1695:1.0 
1089.7156670825227 378.2497624178626 10:1.0 274:1.0 525:1.0 908:1.0 1390:1.0 1391:1.0 1696:1.0 1697:1.0 
5237.696001479312 69.80937849547686 32:1.0 225:1.0 429:1.0 430:1.0 1158:1.0 1224:1.0 1701:1.0 1702:1.0 
1751.4024287651653 5327.538213100645 526:1.0 1711:1.0 1712:1.0 1713:1.0 
0.0 2507.4084912633402 43:1.0 149:1.0 284:1.0 292:1.0 377:1.0 511:1.0 1714:1.0 1715:1.0 1716:1.0 
0.0 236.1127536084538 43:1.0 230:1.0 283:1.0 383:1.0 384:1.0 511:1.0 1116:1.0 1717:1.0 
0.0 1200.839154856006 813:1.0 1435:1.0 1721:1.0 1722:1.0 1723:1.0 1724:1.0 1725:1.0 
369.100371739824 1146.6422905782197 40:1.0 128:1.0 186:1.0 352:1.0 914:1.0 
1716.8162174306856 1550.6348221111891 701:1.0 842:1.0 1736:1.0 1737:1.0 1738:1.0 1739:1.0 
2822.796531870356 0.0 5:1.0 11:1.0 43:1.0 117:1.0 156:1.0 221:1.0 511:1.0 737:1.0 785:1.0 1746:1.0 
3671.7333152546466 3959.4176536452796 404:1.0 1108:1.0 
0.0 1383.4656919968174 106:1.0 125:1.0 270:1.0 318:1.0 757:1.0 1747:1.0 1748:1.0 1749:1.0 1750:1.0 1751:1.0 
17.09995324492005 2131.4504754073746 385:1.0 872:1.0 989:1.0 1752:1.0 1753:1.0 
5159.817058239368 4757.108351211577 31:1.0 75:1.0 345:1.0 709:1.0 1435:1.0 1754:1.0 
0.0 3128.074415221372 186:1.0 495:1.0 1308:1.0 1384:1.0 1757:1.0 
2178.4992537038 8192.0 90:1.0 257:1.0 263:1.0 
0.0 864.2437502996996 1:1.0 40:1.0 122:1.0 257:1.0 266:1.0 282:1.0 668:1.0 726:1.0 845:1.0 985:1.0 1303:1.0 1728:1.0 1764:1.0 1765:1.0 1766:1.0 1767:1.0 
8144.205906787598 5759.03504188351 168:1.0 1774:1.0 
159.3987558076734 980.2809200811192 30:1.0 32:1.0 43:1.0 81:1.0 86:1.0 230:1.0 464:1.0 
0.0 819.9231179157179 302:1.0 475:1.0 790:1.0 803:1.0 1439:1.0 1440:1.0 1477:1.0 1779:1.0 1780:1.0 1781:1.0 1782:1.0 1783:1.0 1784:1.0 1785:1.0 
981.0506352907433 1318.9224133879684 552:1.0 845:1.0 1786:1.0 1787:1.0 1788:1.0 1789:1.0 1790:1.0 1791:1.0 1792:1.0 
8192.0 8192.0 
8192.0 8192.0 
8192.0 8192.0 
1055.1658291644917 3286.69576035752 38:1.0 86:1.0 96:1.0 97:1.0 149:1.0 257:1.0 266:1.0 386:1.0 1238:1.0 1815:1.0 
3278.7432896064456 3706.5963912429147 10:1.0 75:1.0 96:1.0 105:1.0 998:1.0 1383:1.0 1817:1.0 1818:1.0 
2639.171967193295 0.0 11:1.0 112:1.0 199:1.0 527:1.0 994:1.0 1470:1.0 1782:1.0 
0.0 2535.666483485618 26:1.0 86:1.0 257:1.0 386:1.0 587:1.0 1238:1.0 1824:1.0 
2758.1235140854537 1496.9625761139966 77:1.0 800:1.0 1825:1.0 1826:1.0 
4817.06348183552 5182.781105664602 1828:1.0 1829:1.0 
0.0 2764.6709268419427 1134:1.0 1830:1.0 
2382.2963627301756 0.0 40:1.0 72:1.0 75:1.0 79:1.0 117:1.0 346:1.0 362:1.0 543:1.0 1134:1.0 1831:1.0 1832:1.0 
588.3151897638263 1541.652809111525 75:1.0 247:1.0 1179:1.0 1664:1.0 1844:1.0 1845:1.0 1846:1.0 1847:1.0 
1143.6208929010515 1311.4866511555445 105:1.0 149:1.0 156:1.0 245:1.0 394:1.0 511:1.0 1664:1.0 1848:1.0 
56.958538584316614 1326.9186901694034 233:1.0 938:1.0 1155:1.0 1438:1.0 1858:1.0 1859:1.0 1860:1.0 1861:1.0 
412.4055939712384 0.0 75:1.0 233:1.0 278:1.0 398:1.0 662:1.0 1120:1.0 1128:1.0 1862:1.0 
1565.1377498877282 3057.245586117641 233:1.0 482:1.0 1864:1.0 
2070.687268136485 2928.970701832767 701:1.0 1210:1.0 1691:1.0 1866:1.0 
1745.1987822530107 2539.285124011499 47:1.0 97:1.0 125:1.0 186:1.0 204:1.0 245:1.0 509:1.0 1011:1.0 1789:1.0 1867:1.0 
795.1109832716536 5953.443099932223 75:1.0 168:1.0 222:1.0 1731:1.0 1868:1.0 1869:1.0 1870:1.0 
8192.0 1824.4302789835547 38:1.0 70:1.0 1851:1.0 1873:1.0 1874:1.0 
2002.7199302076583 8074.499896583233 112:1.0 262:1.0 270:1.0 586:1.0 1498:1.0 
2545.3704490374244 2387.210590986365 31:1.0 199:1.0 953:1.0 1224:1.0 1553:1.0 1887:1.0 1888:1.0 1889:1.0 1890:1.0 1891:1.0 
0.0 1762.2003840904824 78:1.0 112:1.0 302:1.0 433:1.0 819:1.0 1892:1.0 1893:1.0 1894:1.0 1895:1.0 
8192.0 8192.0 433:1.0 
3080.6962780145063 153.30359871171783 31:1.0 77:1.0 197:1.0 421:1.0 845:1.0 1163:1.0 1903:1.0 1904:1.0 
0.0 706.1096210623208 168:1.0 302:1.0 1082:1.0 1120:1.0 1368:1.0 1910:1.0 
1265.6961198071315 795.4430672917932 31:1.0 102:1.0 246:1.0 427:1.0 493:1.0 1079:1.0 1911:1.0 1912:1.0 1913:1.0 1914:1.0 
472.24530050816674 1095.7807102892316 75:1.0 270:1.0 901:1.0 1917:1.0 1918:1.0 1919:1.0 1920:1.0 
1917.7495812478041 0.0 30:1.0 31:1.0 89:1.0 185:1.0 186:1.0 231:1.0 232:1.0 398:1.0 1279:1.0 1921:1.0 
5308.59522066763 8192.0 465:1.0 1329:1.0 
2477.289326778295 1557.3271300189167 29:1.0 69:1.0 75:1.0 78:1.0 86:1.0 96:1.0 124:1.0 154:1.0 234:1.0 865:1.0 1902:1.0 
2523.537604959876 0.0 10:1.0 11:1.0 152:1.0 375:1.0 422:1.0 423:1.0 426:1.0 427:1.0 1636:1.0 
0.0 3768.3034794217715 744:1.0 930:1.0 1302:1.0 1936:1.0 1937:1.0 
4827.499612554612 8192.0 10:1.0 54:1.0 105:1.0 209:1.0 346:1.0 1709:1.0 
2463.2041222428734 4843.810555239285 174:1.0 744:1.0 1942:1.0 1943:1.0 
1779.1068231168979 659.3221087806036 40:1.0 75:1.0 79:1.0 88:1.0 89:1.0 156:1.0 192:1.0 536:1.0 835:1.0 920:1.0 1073:1.0 1345:1.0 1712:1.0 1947:1.0 1948:1.0 1949:1.0 1950:1.0 1951:1.0 
2300.592202492255 557.8419285395945 30:1.0 32:1.0 189:1.0 231:1.0 1371:1.0 1581:1.0 1800:1.0 1954:1.0 1955:1.0 
4186.709812591068 3527.1841778021358 75:1.0 88:1.0 89:1.0 98:1.0 422:1.0 1316:1.0 1956:1.0 
8192.0 0.0 38:1.0 199:1.0 423:1.0 628:1.0 666:1.0 
5673.738423675225 1159.4037615113764 349:1.0 903:1.0 1973:1.0 1974:1.0 1975:1.0 
1126.6334157292056 3557.3148860438037 1632:1.0 1782:1.0 1977:1.0 1978:1.0 
164.23665417425562 0.0 316:1.0 623:1.0 1395:1.0 1980:1.0 1981:1.0 1982:1.0 
-3450.1803872322885 337.98207741502785 5:1.0 30:1.0 31:1.0 32:1.0 33:1.0 34:1.0 
-2541.3073028450494 0.0 38:1.0 56:1.0 57:1.0 58:1.0 
-33.68074184127372 0.0 38:1.0 68:1.0 69:1.0 70:1.0 
-2943.1684648858936 0.0 38:1.0 71:1.0 72:1.0 
-0.0 2043.8575457649529 73:1.0 74:1.0 75:1.0 76:1.0 77:1.0 78:1.0 79:1.0 80:1.0 81:1.0 82:1.0 
-2036.2351374846996 498.25518091139696 83:1.0 84:1.0 85:1.0 86:1.0 87:1.0 88:1.0 89:1.0 90:1.0 91:1.0 92:1.0 93:1.0 
-2348.4498101814 0.0 38:1.0 84:1.0 94:1.0 95:1.0 
-8192.0 1846.030261041354 96:1.0 100:1.0 101:1.0 102:1.0 
-1826.8347077701644 3139.0345043888424 8:1.0 57:1.0 75:1.0 111:1.0 112:1.0 113:1.0 114:1.0 115:1.0 116:1.0 
-1061.607932059256 1988.4447671263501 4:1.0 80:1.0 121:1.0 
-930.3686310585853 7939.6560658439785 8:1.0 40:1.0 122:1.0 123:1.0 
-1175.6530391964216 0.0 145:1.0 199:1.0 200:1.0 201:1.0 202:1.0 
-8192.0 8192.0 40:1.0 152:1.0 221:1.0 222:1.0 223:1.0 
-3538.419810482412 0.0 101:1.0 102:1.0 224:1.0 225:1.0 226:1.0 227:1.0 228:1.0 
-2075.2484643775233 0.0 4:1.0 30:1.0 45:1.0 46:1.0 47:1.0 77:1.0 78:1.0 138:1.0 231:1.0 232:1.0 233:1.0 234:1.0 
-7109.207425905905 5211.176286635552 30:1.0 77:1.0 235:1.0 236:1.0 
-4358.465877835715 2104.4674978964395 40:1.0 135:1.0 237:1.0 238:1.0 239:1.0 240:1.0 241:1.0 
-2106.743383521704 2085.654872140148 31:1.0 40:1.0 78:1.0 87:1.0 101:1.0 153:1.0 178:1.0 254:1.0 255:1.0 256:1.0 257:1.0 258:1.0 
-0.0 101.66737687718913 178:1.0 271:1.0 272:1.0 
-3356.901602221576 1599.8905389395557 31:1.0 75:1.0 81:1.0 257:1.0 270:1.0 276:1.0 277:1.0 278:1.0 279:1.0 280:1.0 281:1.0 
-2478.8264232402526 91.43280301947446 40:1.0 310:1.0 311:1.0 312:1.0 
-2232.3812105409197 0.0 10:1.0 77:1.0 290:1.0 344:1.0 345:1.0 346:1.0 347:1.0 348:1.0 349:1.0 
-4123.115528866087 1054.625197049609 1:1.0 147:1.0 186:1.0 289:1.0 290:1.0 372:1.0 373:1.0 374:1.0 375:1.0 376:1.0 
-2140.6676509502686 0.0 40:1.0 84:1.0 159:1.0 272:1.0 383:1.0 384:1.0 385:1.0 386:1.0 387:1.0 
-16.384030666013132 0.0 80:1.0 115:1.0 179:1.0 307:1.0 393:1.0 
-5447.847393925065 7100.674121067963 57:1.0 105:1.0 313:1.0 
-7690.204695475325 1626.8458262820325 28:1.0 29:1.0 170:1.0 171:1.0 233:1.0 296:1.0 402:1.0 
-2292.201928348349 687.4330905485103 40:1.0 178:1.0 230:1.0 306:1.0 403:1.0 404:1.0 405:1.0 406:1.0 407:1.0 
-0.0 642.4874636253423 40:1.0 100:1.0 122:1.0 248:1.0 363:1.0 
-2416.5497945458255 0.0 28:1.0 56:1.0 75:1.0 152:1.0 432:1.0 433:1.0 434:1.0 435:1.0 436:1.0 437:1.0 438:1.0 439:1.0 
-3674.271627199518 2446.488549173469 40:1.0 221:1.0 440:1.0 441:1.0 
-8192.0 3245.400462306841 38:1.0 199:1.0 449:1.0 
-2507.3809312418425 1306.9545662112498 40:1.0 45:1.0 78:1.0 86:1.0 109:1.0 117:1.0 196:1.0 289:1.0 406:1.0 433:1.0 462:1.0 463:1.0 464:1.0 465:1.0 466:1.0 467:1.0 
-8192.0 8192.0 35:1.0 38:1.0 
-579.0181272478691 0.0 38:1.0 277:1.0 483:1.0 
-0.0 3065.2407156177937 277:1.0 283:1.0 497:1.0 498:1.0 499:1.0 500:1.0 
-40.240525803157865 3418.9844115457927 9:1.0 88:1.0 393:1.0 501:1.0 
-39.44186540706505 5340.951772564555 54:1.0 108:1.0 506:1.0 
-0.0 3023.604166152551 108:1.0 325:1.0 507:1.0 
-563.4277123587657 0.0 296:1.0 317:1.0 328:1.0 352:1.0 383:1.0 384:1.0 535:1.0 536:1.0 537:1.0 538:1.0 539:1.0 540:1.0 
-8192.0 425.0690048116791 388:1.0 551:1.0 552:1.0 
-1258.5178568415377 545.6059689222682 53:1.0 57:1.0 147:1.0 156:1.0 222:1.0 559:1.0 560:1.0 561:1.0 562:1.0 563:1.0 564:1.0 565:1.0 566:1.0 567:1.0 
-2965.5447575365206 1611.698732996034 92:1.0 147:1.0 204:1.0 568:1.0 569:1.0 570:1.0 
-1599.3591845529138 1912.8138570085644 84:1.0 86:1.0 117:1.0 165:1.0 634:1.0 635:1.0 636:1.0 637:1.0 638:1.0 639:1.0 640:1.0 
-3132.978926968367 0.0 10:1.0 38:1.0 108:1.0 170:1.0 171:1.0 434:1.0 452:1.0 665:1.0 
-3594.3279204172513 1255.9371087600014 11:1.0 27:1.0 28:1.0 117:1.0 168:1.0 172:1.0 206:1.0 270:1.0 274:1.0 690:1.0 691:1.0 692:1.0 
-8192.0 2140.4996897437586 38:1.0 40:1.0 206:1.0 282:1.0 586:1.0 
-3965.651304506156 1389.5727737505808 29:1.0 46:1.0 86:1.0 89:1.0 172:1.0 414:1.0 700:1.0 701:1.0 702:1.0 703:1.0 704:1.0 
-8192.0 8192.0 709:1.0 710:1.0 711:1.0 
-1262.3794133446238 1668.1576361548691 45:1.0 56:1.0 79:1.0 302:1.0 716:1.0 717:1.0 718:1.0 
-3584.6208230588263 0.0 38:1.0 84:1.0 159:1.0 271:1.0 313:1.0 732:1.0 
-2773.978184796395 907.9924991700772 4:1.0 11:1.0 31:1.0 45:1.0 47:1.0 276:1.0 495:1.0 761:1.0 762:1.0 763:1.0 764:1.0 
-4686.241846849501 0.0 38:1.0 349:1.0 765:1.0 
-8192.0 6565.742652488006 24:1.0 352:1.0 433:1.0 776:1.0 
-3330.155913577611 4361.493021882789 201:1.0 801:1.0 802:1.0 803:1.0 
-0.0 52.75178624106168 5:1.0 6:1.0 8:1.0 9:1.0 804:1.0 805:1.0 806:1.0 807:1.0 
-5464.271368556575 4594.379761506869 186:1.0 288:1.0 811:1.0 812:1.0 813:1.0 814:1.0 
-0.0 184.90074495974017 169:1.0 263:1.0 289:1.0 290:1.0 296:1.0 475:1.0 560:1.0 726:1.0 843:1.0 844:1.0 845:1.0 
-6295.464554710915 4619.503828093848 38:1.0 169:1.0 844:1.0 846:1.0 847:1.0 
-5026.016832028804 2405.9517410779326 28:1.0 36:1.0 38:1.0 86:1.0 169:1.0 844:1.0 851:1.0 852:1.0 853:1.0 
-8192.0 6225.398025689738 42:1.0 662:1.0 785:1.0 854:1.0 
-0.0 483.3202634293498 40:1.0 121:1.0 171:1.0 206:1.0 207:1.0 425:1.0 668:1.0 723:1.0 875:1.0 876:1.0 877:1.0 878:1.0 
-5216.726342901399 0.0 31:1.0 388:1.0 885:1.0 
-5445.99114481538 6431.767471506208 105:1.0 349:1.0 887:1.0 
-1116.983555420714 2195.470216169636 40:1.0 81:1.0 84:1.0 145:1.0 165:1.0 641:1.0 891:1.0 892:1.0 893:1.0 
-8192.0 8192.0 97:1.0 108:1.0 
-5048.756312912188 3273.141579039938 189:1.0 257:1.0 296:1.0 422:1.0 426:1.0 476:1.0 
-0.0 1190.1996207040106 296:1.0 359:1.0 828:1.0 907:1.0 908:1.0 
-0.0 1048.361112187064 11:1.0 38:1.0 296:1.0 
-1248.8645946035374 0.0 325:1.0 349:1.0 910:1.0 911:1.0 912:1.0 913:1.0 
-4783.190243808833 2988.8292681382245 233:1.0 294:1.0 920:1.0 921:1.0 922:1.0 923:1.0 924:1.0 
-3288.3977404423167 5302.700101629401 75:1.0 201:1.0 283:1.0 328:1.0 942:1.0 
-3298.8601126070866 5988.979501519557 44:1.0 275:1.0 947:1.0 948:1.0 949:1.0 950:1.0 951:1.0 
-244.4219928304568 2183.572796788441 350:1.0 388:1.0 954:1.0 955:1.0 
-258.12863056574463 2518.198425944114 40:1.0 351:1.0 454:1.0 
-1114.887353159521 3046.1040485472745 40:1.0 78:1.0 106:1.0 107:1.0 178:1.0 222:1.0 306:1.0 363:1.0 383:1.0 384:1.0 587:1.0 956:1.0 957:1.0 958:1.0 959:1.0 960:1.0 
-8192.0 6571.537887638993 40:1.0 122:1.0 975:1.0 976:1.0 
-7815.897516076546 3590.493896162536 31:1.0 40:1.0 78:1.0 112:1.0 122:1.0 168:1.0 280:1.0 316:1.0 811:1.0 978:1.0 
-0.0 222.3680783770538 40:1.0 168:1.0 210:1.0 296:1.0 500:1.0 844:1.0 1005:1.0 1008:1.0 1009:1.0 1010:1.0 1011:1.0 1012:1.0 1013:1.0 1014:1.0 
-793.7233511600705 883.5512843095149 11:1.0 40:1.0 81:1.0 186:1.0 196:1.0 296:1.0 701:1.0 703:1.0 726:1.0 1032:1.0 
-8192.0 8192.0 40:1.0 454:1.0 
-8192.0 20.702385182623402 40:1.0 188:1.0 351:1.0 454:1.0 
-0.0 532.0774230705448 38:1.0 40:1.0 75:1.0 79:1.0 105:1.0 206:1.0 233:1.0 377:1.0 1036:1.0 
-0.0 828.7056745682444 40:1.0 86:1.0 310:1.0 441:1.0 
-0.0 8161.5129236084085 40:1.0 178:1.0 306:1.0 
-7075.007356193104 4703.397413305736 40:1.0 54:1.0 833:1.0 1080:1.0 1081:1.0 
-4255.273590205174 2264.5844516138104 5:1.0 31:1.0 32:1.0 401:1.0 850:1.0 933:1.0 1052:1.0 1085:1.0 1086:1.0 1087:1.0 
-3036.6362707889753 385.1078400167801 10:1.0 76:1.0 96:1.0 123:1.0 156:1.0 283:1.0 785:1.0 1093:1.0 1094:1.0 
-6548.133172009731 4556.340030731952 96:1.0 1095:1.0 1096:1.0 1097:1.0 
-1541.0477623728912 3570.8339770665802 40:1.0 45:1.0 47:1.0 96:1.0 125:1.0 359:1.0 802:1.0 1105:1.0 1106:1.0 
-8192.0 0.0 52:1.0 75:1.0 96:1.0 527:1.0 994:1.0 1107:1.0 
-0.0 856.4637735298157 3:1.0 40:1.0 77:1.0 78:1.0 81:1.0 90:1.0 168:1.0 289:1.0 290:1.0 296:1.0 441:1.0 726:1.0 856:1.0 1052:1.0 1112:1.0 1113:1.0 
-4280.672662565001 0.0 77:1.0 289:1.0 290:1.0 296:1.0 383:1.0 384:1.0 
-0.0 368.1985810876465 4:1.0 5:1.0 77:1.0 90:1.0 207:1.0 283:1.0 289:1.0 290:1.0 845:1.0 
-3805.916888234713 158.6772848159893 57:1.0 168:1.0 196:1.0 245:1.0 434:1.0 525:1.0 1130:1.0 1131:1.0 1132:1.0 1133:1.0 
-8192.0 4787.325887572512 79:1.0 81:1.0 272:1.0 
-0.0 5491.60536882881 147:1.0 277:1.0 
-6365.6765329847185 3480.985065454784 226:1.0 227:1.0 429:1.0 430:1.0 1158:1.0 
-8192.0 4119.663013967904 349:1.0 1159:1.0 
-8192.0 8192.0 1162:1.0 1163:1.0 
-475.01011361506374 0.0 5:1.0 8:1.0 40:1.0 77:1.0 122:1.0 189:1.0 258:1.0 
-6752.3939084871345 6749.789106735785 88:1.0 1165:1.0 
-646.6763120847656 0.0 388:1.0 507:1.0 
-8192.0 5428.336382594171 80:1.0 144:1.0 
-2585.4002178097053 0.0 38:1.0 306:1.0 799:1.0 1174:1.0 1175:1.0 
-813.1746703517732 796.2372645233944 207:1.0 283:1.0 393:1.0 427:1.0 493:1.0 1176:1.0 1177:1.0 1178:1.0 1179:1.0 1180:1.0 1181:1.0 
-7073.976553014381 2125.3254281687423 79:1.0 325:1.0 393:1.0 
-759.4794276115972 2900.498721497831 196:1.0 233:1.0 262:1.0 296:1.0 611:1.0 1130:1.0 
-2769.675469141578 1721.6633320429994 233:1.0 277:1.0 1220:1.0 1221:1.0 1222:1.0 
-6749.707217358603 6837.754021699767 96:1.0 100:1.0 233:1.0 234:1.0 248:1.0 
-8192.0 2448.5255206215083 199:1.0 233:1.0 461:1.0 628:1.0 1224:1.0 1225:1.0 1226:1.0 
-3867.94287564479 0.0 31:1.0 124:1.0 253:1.0 277:1.0 
-863.6750787493589 0.0 5:1.0 8:1.0 38:1.0 131:1.0 189:1.0 422:1.0 1240:1.0 1241:1.0 
-1206.6414825367278 1594.0393418117114 179:1.0 718:1.0 1242:1.0 1243:1.0 1244:1.0 1245:1.0 
-1165.3701690601997 0.0 204:1.0 310:1.0 873:1.0 1116:1.0 1257:1.0 
-8192.0 8192.0 75:1.0 310:1.0 
-0.0 772.4351833531507 202:1.0 310:1.0 565:1.0 1260:1.0 
-6418.62115502283 1626.6977459968246 54:1.0 527:1.0 994:1.0 1107:1.0 
-0.0 621.9866360677248 79:1.0 496:1.0 1107:1.0 
-2505.486243280831 4627.361950602774 31:1.0 204:1.0 336:1.0 1083:1.0 1107:1.0 
-324.47742474147765 1939.6065411419336 40:1.0 208:1.0 345:1.0 1052:1.0 1107:1.0 1261:1.0 1262:1.0 
-4166.5953219228 3337.6843158483393 72:1.0 1273:1.0 1274:1.0 
-8192.0 8192.0 72:1.0 
-0.0 920.4174087282504 147:1.0 388:1.0 405:1.0 422:1.0 1286:1.0 1287:1.0 
-839.4222704051485 0.0 45:1.0 69:1.0 125:1.0 168:1.0 811:1.0 1292:1.0 1293:1.0 
-1369.5784072505717 0.0 10:1.0 31:1.0 97:1.0 277:1.0 1310:1.0 1311:1.0 1312:1.0 1313:1.0 
-8192.0 0.0 10:1.0 11:1.0 38:1.0 349:1.0 422:1.0 1322:1.0 
-2988.6195707882107 2999.1773705636438 10:1.0 147:1.0 1243:1.0 1323:1.0 
-2231.9030428658093 1501.1652701040705 69:1.0 70:1.0 1128:1.0 1324:1.0 1325:1.0 1326:1.0 
-516.9917849258436 1071.733020281934 9:1.0 272:1.0 295:1.0 925:1.0 1327:1.0 
-0.0 1670.9827237409233 178:1.0 206:1.0 278:1.0 527:1.0 560:1.0 907:1.0 1305:1.0 1349:1.0 
-2112.414163001728 357.89234385536037 40:1.0 75:1.0 79:1.0 81:1.0 152:1.0 318:1.0 488:1.0 1083:1.0 1363:1.0 1364:1.0 1365:1.0 1366:1.0 1367:1.0 
-172.01610509213234 214.1200219870823 30:1.0 31:1.0 32:1.0 449:1.0 
-5632.757321360458 0.0 30:1.0 72:1.0 
-0.0 448.58727257598645 32:1.0 206:1.0 207:1.0 417:1.0 418:1.0 723:1.0 866:1.0 1380:1.0 1381:1.0 1382:1.0 1383:1.0 
-1871.3944119787263 8192.0 4:1.0 207:1.0 1386:1.0 
-485.2186241757906 407.80289649802387 38:1.0 207:1.0 1397:1.0 1398:1.0 1399:1.0 
-0.0 4173.4751447411845 105:1.0 207:1.0 272:1.0 
-6794.339305084374 8192.0 207:1.0 1183:1.0 
-4659.744398970583 0.0 31:1.0 72:1.0 1419:1.0 
-0.0 601.4871350921022 31:1.0 72:1.0 78:1.0 377:1.0 1426:1.0 1427:1.0 
-5542.553593256673 3589.557760722039 178:1.0 363:1.0 718:1.0 
-6339.332942536445 1169.9877818827335 178:1.0 306:1.0 554:1.0 555:1.0 
-8192.0 5266.166179227446 46:1.0 1433:1.0 
-6554.673931402601 3058.037978979372 38:1.0 349:1.0 398:1.0 399:1.0 448:1.0 
-1043.681479153116 2068.0506632513006 79:1.0 85:1.0 237:1.0 496:1.0 1434:1.0 
-8192.0 0.0 38:1.0 233:1.0 277:1.0 
-8192.0 8192.0 467:1.0 648:1.0 
-2035.3598344922088 2387.177965451003 39:1.0 296:1.0 473:1.0 1466:1.0 
-1675.0108071265347 2283.473179184149 7:1.0 77:1.0 1120:1.0 1473:1.0 1474:1.0 1475:1.0 
-6946.965068886583 2856.0768698916863 156:1.0 290:1.0 441:1.0 518:1.0 
-6259.164541341848 4097.263977634383 8:1.0 9:1.0 11:1.0 1478:1.0 
-0.0 8192.0 79:1.0 206:1.0 
-1385.6701686426666 91.93113329461457 40:1.0 310:1.0 1485:1.0 1486:1.0 
-2167.769386685882 0.0 38:1.0 306:1.0 562:1.0 1487:1.0 1488:1.0 
-668.3784870847356 2573.70057448607 78:1.0 112:1.0 152:1.0 328:1.0 356:1.0 586:1.0 811:1.0 1033:1.0 1498:1.0 1499:1.0 
-7967.678056838922 8192.0 88:1.0 1165:1.0 
-8192.0 8192.0 105:1.0 1404:1.0 
-2425.118826050381 0.0 38:1.0 75:1.0 234:1.0 451:1.0 521:1.0 757:1.0 811:1.0 1509:1.0 
-8192.0 7917.412020798702 7:1.0 1510:1.0 
-0.0 1035.5946375247677 8:1.0 54:1.0 105:1.0 880:1.0 1243:1.0 1487:1.0 1511:1.0 
-8192.0 0.0 31:1.0 69:1.0 70:1.0 1049:1.0 
-0.0 1535.7282112398314 105:1.0 388:1.0 544:1.0 1515:1.0 1520:1.0 1521:1.0 
-5490.020846448515 8192.0 54:1.0 108:1.0 
-2225.58873786526 1206.9716114772812 10:1.0 38:1.0 84:1.0 89:1.0 146:1.0 165:1.0 222:1.0 1529:1.0 1530:1.0 
-3146.52770456476 2768.057248857388 201:1.0 202:1.0 573:1.0 925:1.0 1533:1.0 
-8192.0 8192.0 40:1.0 88:1.0 125:1.0 306:1.0 
-7576.03968193676 1713.694631242403 10:1.0 97:1.0 121:1.0 663:1.0 1243:1.0 1542:1.0 
-6384.610594607238 7936.3185562064145 131:1.0 207:1.0 754:1.0 1549:1.0 
-8192.0 4200.665616593073 69:1.0 70:1.0 174:1.0 
-34.464529900233025 0.0 38:1.0 69:1.0 70:1.0 1556:1.0 
-8192.0 3647.4707625223427 388:1.0 842:1.0 
-0.0 1258.0320828745294 10:1.0 27:1.0 86:1.0 296:1.0 393:1.0 500:1.0 560:1.0 1560:1.0 1561:1.0 1562:1.0 1563:1.0 1564:1.0 
-1558.7957647854541 1077.4099130335624 38:1.0 54:1.0 105:1.0 262:1.0 310:1.0 694:1.0 1581:1.0 
-2505.2627584629154 1242.4118977027654 56:1.0 281:1.0 349:1.0 1089:1.0 1598:1.0 1599:1.0 1600:1.0 
-379.11291466174936 2745.202415408793 10:1.0 108:1.0 202:1.0 1311:1.0 1601:1.0 
-8192.0 0.0 84:1.0 90:1.0 347:1.0 422:1.0 423:1.0 426:1.0 427:1.0 1610:1.0 
-0.0 2880.4907784019097 8:1.0 52:1.0 86:1.0 105:1.0 271:1.0 1404:1.0 1618:1.0 
-94.59505386604717 684.1509698850339 46:1.0 47:1.0 54:1.0 146:1.0 442:1.0 1351:1.0 1639:1.0 
-1217.0981826511372 1800.0440946610058 45:1.0 46:1.0 174:1.0 369:1.0 754:1.0 952:1.0 
-0.0 351.4595386567201 38:1.0 238:1.0 296:1.0 586:1.0 
-290.87860822930196 0.0 38:1.0 76:1.0 201:1.0 586:1.0 
-1984.7188788807675 4089.8243732546416 108:1.0 1660:1.0 1661:1.0 
-1975.5347665294678 3320.398662318753 79:1.0 96:1.0 123:1.0 1676:1.0 
-0.0 736.786224486181 277:1.0 1676:1.0 1678:1.0 
-3287.5300468301148 0.0 38:1.0 201:1.0 1679:1.0 
-1722.6037357176046 2527.8468109273094 38:1.0 86:1.0 206:1.0 257:1.0 377:1.0 568:1.0 1682:1.0 1683:1.0 
-1683.4321662900302 905.9050231768261 75:1.0 156:1.0 351:1.0 454:1.0 1704:1.0 1705:1.0 
-4082.1612993980057 1286.5569963868975 8:1.0 40:1.0 97:1.0 196:1.0 210:1.0 542:1.0 586:1.0 1733:1.0 1734:1.0 1735:1.0 
-6049.400168323099 532.4214981222109 206:1.0 304:1.0 401:1.0 907:1.0 
-2717.7676388805185 1246.2070855398406 310:1.0 1762:1.0 1763:1.0 
-256.3931323068871 2613.465800389817 274:1.0 310:1.0 375:1.0 1775:1.0 1776:1.0 
-0.0 125.09567716815381 47:1.0 296:1.0 422:1.0 844:1.0 1777:1.0 
-1523.2298352586574 1830.8503553093112 40:1.0 75:1.0 88:1.0 89:1.0 99:1.0 105:1.0 117:1.0 178:1.0 263:1.0 437:1.0 880:1.0 1383:1.0 1612:1.0 1796:1.0 1797:1.0 1798:1.0 
-3929.6552110506723 5819.620645583272 5:1.0 40:1.0 75:1.0 306:1.0 667:1.0 1808:1.0 
-173.36956443976462 834.6806605969831 40:1.0 84:1.0 88:1.0 94:1.0 329:1.0 375:1.0 527:1.0 749:1.0 1305:1.0 1351:1.0 1809:1.0 1810:1.0 1811:1.0 1812:1.0 1813:1.0 1814:1.0 
-0.0 2636.0929143288718 96:1.0 105:1.0 811:1.0 1801:1.0 
-8192.0 8178.0711744641 284:1.0 1819:1.0 1820:1.0 
-8192.0 5070.423175408642 79:1.0 143:1.0 581:1.0 1827:1.0 
-7657.599567486335 1158.4107052208612 80:1.0 288:1.0 295:1.0 521:1.0 1767:1.0 
-3447.095387985463 3934.616227665356 57:1.0 156:1.0 375:1.0 873:1.0 1789:1.0 1850:1.0 
-1581.3362645269426 0.0 8:1.0 11:1.0 80:1.0 170:1.0 171:1.0 233:1.0 1370:1.0 1392:1.0 1856:1.0 1857:1.0 
-8192.0 5540.084023579575 40:1.0 98:1.0 178:1.0 352:1.0 1865:1.0 
-8192.0 6314.944368645421 147:1.0 583:1.0 1871:1.0 
-8192.0 4768.759323140501 427:1.0 500:1.0 1400:1.0 1875:1.0 
-5047.71183448915 0.0 30:1.0 31:1.0 32:1.0 72:1.0 125:1.0 231:1.0 
-0.0 279.2793262157505 77:1.0 178:1.0 206:1.0 427:1.0 493:1.0 1213:1.0 
-279.098486545052 2328.411066633851 7:1.0 178:1.0 1713:1.0 1909:1.0 
-2406.518472782448 0.0 57:1.0 79:1.0 496:1.0 
-6414.780527661993 0.0 57:1.0 328:1.0 473:1.0 1934:1.0 
-4549.146664588206 769.6021049731131 10:1.0 31:1.0 449:1.0 692:1.0 1221:1.0 
-0.0 2347.73772223815 80:1.0 119:1.0 147:1.0 
-0.0 3642.1549357598537 38:1.0 84:1.0 165:1.0 641:1.0 802:1.0 
-0.0 1245.4336450833903 40:1.0 79:1.0 288:1.0 496:1.0 586:1.0 1095:1.0 1581:1.0 1953:1.0 
-722.6634393628186 2654.212559425759 45:1.0 47:1.0 79:1.0 92:1.0 112:1.0 125:1.0 1962:1.0 1963:1.0 1964:1.0 1965:1.0 1966:1.0 
-8192.0 8192.0 38:1.0 1967:1.0 
-1112.1546429332639 2453.720967779438 8:1.0 40:1.0 213:1.0 249:1.0 272:1.0 386:1.0 1968:1.0 1969:1.0 
-1077.5847341246308 2984.000248990786 46:1.0 47:1.0 149:1.0 230:1.0 245:1.0 289:1.0 442:1.0 663:1.0 754:1.0 
-8192.0 6634.411544771223 186:1.0 225:1.0 1426:1.0 1475:1.0 
-1501.9390895862443 0.0 31:1.0 40:1.0 46:1.0 377:1.0 488:1.0 845:1.0 1676:1.0 1993:1.0 
-5782.565905201572 0.0 38:1.0 69:1.0 70:1.0 
-0.0 8192.0 79:1.0 86:1.0 388:1.0 
-1921.9628699546302 -600.0381602771229 103:1.0 104:1.0 105:1.0 
-4415.72222355833 -7358.26447530966 97:1.0 106:1.0 107:1.0 108:1.0 109:1.0 110:1.0 
-587.1256707327018 -0.0 131:1.0 132:1.0 133:1.0 134:1.0 135:1.0 136:1.0 137:1.0 138:1.0 139:1.0 140:1.0 141:1.0 
-0.0 -695.3181212114021 79:1.0 86:1.0 145:1.0 146:1.0 147:1.0 148:1.0 149:1.0 150:1.0 151:1.0 152:1.0 
-0.0 -1928.189125757213 54:1.0 79:1.0 148:1.0 207:1.0 208:1.0 209:1.0 210:1.0 211:1.0 212:1.0 213:1.0 214:1.0 215:1.0 
-970.5837503553101 -1924.3751462048067 8:1.0 25:1.0 88:1.0 132:1.0 216:1.0 217:1.0 218:1.0 219:1.0 220:1.0 
-4788.440750497537 -1635.9266268682907 77:1.0 78:1.0 96:1.0 149:1.0 242:1.0 243:1.0 244:1.0 245:1.0 246:1.0 247:1.0 
-3235.0503513250787 -1076.136357419907 40:1.0 75:1.0 153:1.0 259:1.0 260:1.0 261:1.0 262:1.0 263:1.0 264:1.0 265:1.0 266:1.0 267:1.0 268:1.0 269:1.0 270:1.0 
-2156.783245995251 -2424.4484614644934 25:1.0 40:1.0 125:1.0 156:1.0 282:1.0 283:1.0 284:1.0 285:1.0 286:1.0 287:1.0 288:1.0 
-8192.0 -8192.0 105:1.0 322:1.0 
-4892.347219767324 -6049.094027422217 54:1.0 275:1.0 350:1.0 
-556.1963182644797 -334.0736926053799 40:1.0 183:1.0 364:1.0 365:1.0 366:1.0 367:1.0 368:1.0 369:1.0 370:1.0 371:1.0 
-4891.0796159072215 -8192.0 40:1.0 105:1.0 123:1.0 379:1.0 
-8192.0 -8192.0 447:1.0 
-4035.0460182724705 -5693.254531226269 178:1.0 377:1.0 489:1.0 490:1.0 
-4172.698493869257 -4970.319852038911 40:1.0 221:1.0 222:1.0 491:1.0 492:1.0 493:1.0 
-556.026823814043 -0.0 148:1.0 502:1.0 503:1.0 504:1.0 
-234.7097896373347 -5259.826647588043 105:1.0 108:1.0 112:1.0 523:1.0 524:1.0 
-4887.457739587022 -3860.44752205885 54:1.0 275:1.0 541:1.0 
-8192.0 -7233.748274874598 38:1.0 273:1.0 588:1.0 589:1.0 
-2250.2125202157617 -648.4048474781918 629:1.0 630:1.0 631:1.0 632:1.0 633:1.0 
-8192.0 -8192.0 78:1.0 655:1.0 
-522.7669659617625 -696.0126480819738 57:1.0 78:1.0 86:1.0 148:1.0 656:1.0 657:1.0 658:1.0 
-3814.742822981935 -2953.400469802448 78:1.0 108:1.0 112:1.0 233:1.0 257:1.0 375:1.0 407:1.0 
-999.5497535397866 -32.49138190400572 78:1.0 273:1.0 607:1.0 659:1.0 660:1.0 
-7908.260106043745 -4116.011275569748 45:1.0 75:1.0 315:1.0 661:1.0 662:1.0 663:1.0 
-2594.418773714505 -2790.2920468729203 96:1.0 186:1.0 283:1.0 292:1.0 293:1.0 558:1.0 666:1.0 667:1.0 668:1.0 
-2213.6653722511087 -1433.1872807326731 130:1.0 271:1.0 678:1.0 679:1.0 
-8192.0 -7273.681169988089 680:1.0 681:1.0 
-4534.627573401252 -730.344230235576 40:1.0 86:1.0 92:1.0 125:1.0 682:1.0 
-2186.265646716741 -3482.475652904865 178:1.0 447:1.0 684:1.0 685:1.0 
-1801.7943095331414 -1050.4252517351108 54:1.0 87:1.0 90:1.0 152:1.0 265:1.0 275:1.0 581:1.0 693:1.0 694:1.0 695:1.0 696:1.0 697:1.0 698:1.0 699:1.0 
-5392.9695554453665 -3834.2576444556125 4:1.0 106:1.0 131:1.0 204:1.0 257:1.0 705:1.0 
-5656.127473414245 -8192.0 77:1.0 207:1.0 709:1.0 712:1.0 713:1.0 
-8192.0 -8192.0 86:1.0 723:1.0 
-1647.532792817445 -0.0 75:1.0 78:1.0 733:1.0 734:1.0 735:1.0 736:1.0 737:1.0 738:1.0 
-471.98863356353525 -0.0 40:1.0 81:1.0 171:1.0 257:1.0 263:1.0 368:1.0 725:1.0 739:1.0 740:1.0 741:1.0 742:1.0 743:1.0 744:1.0 745:1.0 746:1.0 747:1.0 
-5609.433486637279 -4050.035359260256 749:1.0 750:1.0 751:1.0 752:1.0 
-853.25664744874 -2602.5431640886377 7:1.0 368:1.0 753:1.0 754:1.0 755:1.0 756:1.0 757:1.0 758:1.0 759:1.0 760:1.0 
-8192.0 -8192.0 88:1.0 775:1.0 
-8192.0 -8192.0 86:1.0 822:1.0 
-1734.2506814914543 -661.4366229107803 130:1.0 823:1.0 824:1.0 
-8192.0 -3383.65403339622 86:1.0 825:1.0 
-1586.880406794255 -377.2483561317029 28:1.0 86:1.0 196:1.0 256:1.0 257:1.0 346:1.0 744:1.0 825:1.0 830:1.0 831:1.0 832:1.0 833:1.0 834:1.0 835:1.0 836:1.0 837:1.0 
-8192.0 -7063.405479871939 169:1.0 302:1.0 848:1.0 
-3757.915745131629 -2336.6725205987686 96:1.0 105:1.0 186:1.0 233:1.0 422:1.0 858:1.0 859:1.0 860:1.0 
-0.0 -375.92392416932546 105:1.0 178:1.0 861:1.0 862:1.0 
-343.5467446677702 -1614.9815629039563 28:1.0 86:1.0 726:1.0 825:1.0 863:1.0 
-3393.801273959596 -5012.240573013142 75:1.0 79:1.0 88:1.0 131:1.0 213:1.0 248:1.0 398:1.0 864:1.0 865:1.0 
-1579.2436636697464 -478.6128510942444 222:1.0 318:1.0 630:1.0 631:1.0 813:1.0 866:1.0 867:1.0 
-8192.0 -3101.8528213310383 744:1.0 813:1.0 850:1.0 870:1.0 871:1.0 
-3017.6046909249876 -2368.5578862839275 136:1.0 879:1.0 880:1.0 881:1.0 882:1.0 883:1.0 884:1.0 
-3808.092845508528 -1513.5604826066049 40:1.0 682:1.0 885:1.0 886:1.0 
-5469.906370756893 -4799.467248087513 129:1.0 503:1.0 925:1.0 926:1.0 
-8192.0 -8192.0 38:1.0 952:1.0 953:1.0 
-1676.4555713831458 -5315.653255705656 40:1.0 147:1.0 207:1.0 315:1.0 405:1.0 961:1.0 962:1.0 963:1.0 
-516.6448730607518 -1064.9071843141164 40:1.0 147:1.0 859:1.0 961:1.0 964:1.0 965:1.0 966:1.0 
-2678.0203479056213 -3355.3244176243225 40:1.0 75:1.0 122:1.0 262:1.0 629:1.0 630:1.0 631:1.0 970:1.0 
-0.0 -30.51145716125861 40:1.0 75:1.0 122:1.0 630:1.0 631:1.0 971:1.0 972:1.0 973:1.0 974:1.0 
-2523.518521644427 -1490.6207127123753 10:1.0 40:1.0 105:1.0 148:1.0 183:1.0 306:1.0 694:1.0 995:1.0 996:1.0 997:1.0 998:1.0 
-8192.0 -8192.0 40:1.0 999:1.0 
-4870.189037333632 -4412.391316698075 40:1.0 348:1.0 784:1.0 1001:1.0 1002:1.0 
-0.0 -156.19952651976917 11:1.0 40:1.0 47:1.0 125:1.0 130:1.0 424:1.0 1005:1.0 1006:1.0 1007:1.0 
-4950.63947485795 -8192.0 38:1.0 40:1.0 682:1.0 1016:1.0 
-1958.4939238291372 -1253.6724739127292 40:1.0 75:1.0 81:1.0 368:1.0 543:1.0 544:1.0 933:1.0 1028:1.0 1029:1.0 1030:1.0 1031:1.0 
-0.0 -2127.31961778658 40:1.0 148:1.0 1051:1.0 1052:1.0 1053:1.0 
-2266.534747414306 -2688.3453776951033 40:1.0 119:1.0 682:1.0 1062:1.0 
-84.99880017549602 -445.4751090366126 38:1.0 40:1.0 43:1.0 78:1.0 105:1.0 148:1.0 288:1.0 424:1.0 587:1.0 833:1.0 1083:1.0 1084:1.0 
-8192.0 -8192.0 96:1.0 859:1.0 
-8192.0 -7690.688966798373 1017:1.0 1122:1.0 
-3705.7884663178284 -1874.7730758099635 4:1.0 490:1.0 495:1.0 890:1.0 1129:1.0 
-5867.186458837338 -0.0 43:1.0 148:1.0 178:1.0 222:1.0 233:1.0 257:1.0 991:1.0 1155:1.0 
-8192.0 -8192.0 233:1.0 283:1.0 1157:1.0 
-4985.04815378042 -5493.704627951981 4:1.0 856:1.0 1160:1.0 1161:1.0 
-782.3794359633719 -0.0 156:1.0 168:1.0 213:1.0 233:1.0 249:1.0 657:1.0 824:1.0 825:1.0 946:1.0 1166:1.0 1167:1.0 1168:1.0 
-5333.919003819428 -5365.068818817734 132:1.0 202:1.0 1169:1.0 
-2745.1355040140616 -350.81776316128634 130:1.0 552:1.0 575:1.0 1170:1.0 1171:1.0 1172:1.0 
-4238.453024903688 -1337.9698078185372 130:1.0 1173:1.0 
-6390.02014028674 -3344.380160813619 1187:1.0 1188:1.0 
-8192.0 -8192.0 862:1.0 
-5236.63676728359 -1167.9370872711231 124:1.0 204:1.0 490:1.0 1232:1.0 1233:1.0 
-4353.2724303589375 -2728.2436513062858 98:1.0 596:1.0 1234:1.0 1235:1.0 1236:1.0 1237:1.0 
-1413.4495492539374 -2544.9416328121274 97:1.0 147:1.0 148:1.0 151:1.0 306:1.0 362:1.0 869:1.0 1052:1.0 1253:1.0 1254:1.0 1255:1.0 1256:1.0 
-7468.2980387706075 -5126.5662069341815 724:1.0 1258:1.0 
-7470.76222749392 -5126.566206929969 724:1.0 1259:1.0 
-1427.4877877402257 -3164.7092140471646 78:1.0 179:1.0 296:1.0 522:1.0 735:1.0 736:1.0 802:1.0 814:1.0 842:1.0 1275:1.0 
-731.7455612634748 -5225.260577746702 178:1.0 186:1.0 667:1.0 814:1.0 1277:1.0 1278:1.0 
-538.6450135795061 -0.0 125:1.0 165:1.0 167:1.0 210:1.0 338:1.0 448:1.0 869:1.0 900:1.0 1288:1.0 1289:1.0 1290:1.0 1291:1.0 
-3332.6749215388872 -0.0 75:1.0 104:1.0 105:1.0 
-0.0 -5830.149362372784 75:1.0 79:1.0 105:1.0 862:1.0 
-4857.1308621489825 -1329.8164592222465 168:1.0 1296:1.0 1297:1.0 1298:1.0 1299:1.0 1300:1.0 1301:1.0 1302:1.0 
-8192.0 -8192.0 104:1.0 
-2481.595726092476 -4229.044655121153 38:1.0 40:1.0 75:1.0 288:1.0 386:1.0 951:1.0 1296:1.0 1332:1.0 1333:1.0 1334:1.0 1335:1.0 
-1316.1407281524364 -0.0 105:1.0 859:1.0 
-448.58631186340807 -0.0 38:1.0 78:1.0 112:1.0 138:1.0 529:1.0 1188:1.0 1336:1.0 
-259.07875553766644 -0.0 112:1.0 148:1.0 405:1.0 558:1.0 796:1.0 1337:1.0 
-6843.123513182514 -2127.8961335531094 125:1.0 209:1.0 283:1.0 667:1.0 
-1343.4388869847821 -3957.939373083861 88:1.0 156:1.0 165:1.0 167:1.0 196:1.0 289:1.0 399:1.0 641:1.0 803:1.0 1340:1.0 1341:1.0 1342:1.0 
-4310.655050936757 -1657.9453867104717 744:1.0 952:1.0 1358:1.0 
-169.91567011006563 -0.0 130:1.0 131:1.0 156:1.0 186:1.0 348:1.0 1359:1.0 1360:1.0 1361:1.0 1362:1.0 
-8192.0 -7295.557929909019 10:1.0 24:1.0 500:1.0 1384:1.0 1385:1.0 
-3004.8521737271503 -1478.6221262140446 167:1.0 912:1.0 1401:1.0 1402:1.0 1403:1.0 
-0.0 -2184.5702577558927 178:1.0 490:1.0 1232:1.0 1431:1.0 1432:1.0 
-0.0 -130.29835864807984 178:1.0 222:1.0 859:1.0 
-0.0 -571.6879447567743 54:1.0 105:1.0 148:1.0 1069:1.0 1220:1.0 1464:1.0 1465:1.0 
-6076.509239574699 -8192.0 40:1.0 79:1.0 81:1.0 88:1.0 281:1.0 1483:1.0 1484:1.0 
-1443.370671989113 -1177.364018141474 38:1.0 275:1.0 694:1.0 726:1.0 880:1.0 1116:1.0 
-0.0 -261.06865217369966 79:1.0 132:1.0 530:1.0 1512:1.0 1513:1.0 
-399.7237464197008 -508.05493002508973 81:1.0 105:1.0 133:1.0 136:1.0 643:1.0 997:1.0 1515:1.0 1516:1.0 1517:1.0 1518:1.0 1519:1.0 
-0.0 -3023.421448779333 54:1.0 108:1.0 112:1.0 956:1.0 1535:1.0 1536:1.0 1537:1.0 
-0.0 -1466.60380223839 74:1.0 78:1.0 105:1.0 178:1.0 245:1.0 532:1.0 1327:1.0 1543:1.0 1544:1.0 1545:1.0 
-0.0 -1582.1965702483765 104:1.0 105:1.0 1159:1.0 1541:1.0 1546:1.0 
-4163.936361458576 -3962.8926824221267 178:1.0 270:1.0 442:1.0 773:1.0 796:1.0 846:1.0 1547:1.0 1548:1.0 
-5952.8188387052305 -3534.2745101855708 284:1.0 701:1.0 855:1.0 1553:1.0 1554:1.0 1555:1.0 
-8116.518704873628 -3661.740407882419 233:1.0 368:1.0 1557:1.0 
-1993.0753377953163 -495.9570649367244 11:1.0 130:1.0 1558:1.0 1559:1.0 
-3186.994351004851 -661.2973288240485 130:1.0 1123:1.0 1565:1.0 
-824.1973163842935 -1008.3530304847749 40:1.0 94:1.0 165:1.0 167:1.0 405:1.0 641:1.0 802:1.0 833:1.0 938:1.0 1011:1.0 1566:1.0 1567:1.0 1568:1.0 
-4461.260131174677 -2858.0198188371664 131:1.0 132:1.0 754:1.0 1186:1.0 1577:1.0 
-3865.287428030953 -2140.4937399582423 133:1.0 532:1.0 1043:1.0 1596:1.0 1597:1.0 
-5206.487480651016 -2398.634937387233 1329:1.0 1602:1.0 1603:1.0 1604:1.0 1605:1.0 
-8192.0 -8192.0 1609:1.0 
-5595.965713891301 -6587.177722898185 8:1.0 116:1.0 168:1.0 1619:1.0 1620:1.0 1621:1.0 
-2426.6493437924946 -2010.2406450777537 586:1.0 825:1.0 1212:1.0 1622:1.0 
-2820.8204000287587 -2216.2570760724493 5:1.0 32:1.0 112:1.0 754:1.0 1275:1.0 1378:1.0 1623:1.0 1624:1.0 1625:1.0 
-8192.0 -1077.1232011579245 11:1.0 75:1.0 112:1.0 233:1.0 1134:1.0 1223:1.0 1612:1.0 1626:1.0 
-1890.7234521890953 -3097.3627212440083 5:1.0 11:1.0 130:1.0 734:1.0 
-7499.06612117425 -0.0 586:1.0 862:1.0 1645:1.0 
-8192.0 -1320.3952888084013 43:1.0 151:1.0 352:1.0 526:1.0 1652:1.0 
-2522.375225161911 -3378.07597727045 79:1.0 125:1.0 359:1.0 422:1.0 937:1.0 1603:1.0 1657:1.0 1658:1.0 1659:1.0 
-5267.872826412243 -839.1089977890662 38:1.0 43:1.0 386:1.0 530:1.0 1662:1.0 1663:1.0 
-2579.3352874045595 -3121.585742362337 79:1.0 147:1.0 148:1.0 278:1.0 526:1.0 1664:1.0 
-403.16525114865476 -0.0 40:1.0 103:1.0 165:1.0 167:1.0 202:1.0 222:1.0 300:1.0 318:1.0 342:1.0 394:1.0 414:1.0 938:1.0 984:1.0 1668:1.0 1669:1.0 1670:1.0 1671:1.0 
-0.0 -76.96383105879215 165:1.0 167:1.0 531:1.0 532:1.0 641:1.0 1672:1.0 1673:1.0 1674:1.0 
-2930.4539948898905 -1603.0749631923838 165:1.0 167:1.0 795:1.0 1675:1.0 
-3155.249736101654 -2459.2887747482127 38:1.0 86:1.0 368:1.0 1680:1.0 1681:1.0 
-3455.5004833257194 -3055.502462338538 27:1.0 40:1.0 117:1.0 149:1.0 169:1.0 274:1.0 306:1.0 385:1.0 775:1.0 956:1.0 1005:1.0 1703:1.0 
-8192.0 -8192.0 222:1.0 1475:1.0 1706:1.0 
-3410.6996550252716 -262.10311431485775 222:1.0 257:1.0 723:1.0 1707:1.0 1708:1.0 1709:1.0 1710:1.0 
-7970.273404098299 -2430.424114412116 31:1.0 43:1.0 249:1.0 1718:1.0 1719:1.0 1720:1.0 
-1170.4175349629572 -3687.5611254602086 11:1.0 75:1.0 165:1.0 207:1.0 850:1.0 1726:1.0 1727:1.0 1728:1.0 1729:1.0 
-5955.522243395092 -4041.395706163758 47:1.0 661:1.0 1730:1.0 1731:1.0 
-0.0 -519.2763779399412 40:1.0 89:1.0 122:1.0 629:1.0 630:1.0 754:1.0 813:1.0 952:1.0 1732:1.0 
-2128.2976117552957 -2614.359244303327 78:1.0 81:1.0 114:1.0 133:1.0 152:1.0 1740:1.0 1741:1.0 1742:1.0 1743:1.0 
-0.0 -1192.5647549188348 78:1.0 79:1.0 89:1.0 859:1.0 1744:1.0 1745:1.0 
-8192.0 -5120.748060031766 1754:1.0 1755:1.0 1756:1.0 
-4157.037802374946 -2892.566083042477 40:1.0 263:1.0 296:1.0 1156:1.0 1278:1.0 1759:1.0 
-1374.5854917503104 -1330.2840402681413 145:1.0 165:1.0 167:1.0 172:1.0 803:1.0 1760:1.0 1761:1.0 
-4307.738683988851 -1182.4598709071436 159:1.0 257:1.0 284:1.0 825:1.0 1316:1.0 1773:1.0 
-8192.0 -8192.0 31:1.0 336:1.0 971:1.0 1732:1.0 
-8192.0 -5134.88431782084 448:1.0 1535:1.0 1778:1.0 
-6546.9992452839 -4693.190184158977 40:1.0 112:1.0 122:1.0 1793:1.0 1794:1.0 
-8192.0 -8192.0 40:1.0 122:1.0 1795:1.0 
-2078.296069291397 -0.0 40:1.0 75:1.0 86:1.0 89:1.0 90:1.0 315:1.0 530:1.0 726:1.0 757:1.0 1329:1.0 1799:1.0 1800:1.0 1801:1.0 1802:1.0 1803:1.0 1804:1.0 
-954.8397191031445 -1516.2294914435004 40:1.0 682:1.0 1806:1.0 1807:1.0 
-4386.9964561409215 -2948.162707510877 25:1.0 96:1.0 100:1.0 112:1.0 248:1.0 1420:1.0 1421:1.0 1816:1.0 
-7265.491718578403 -4543.590081536868 98:1.0 1841:1.0 1842:1.0 1843:1.0 
-1906.7188348301204 -0.0 149:1.0 712:1.0 856:1.0 1027:1.0 1052:1.0 1086:1.0 1622:1.0 1849:1.0 
-0.0 -5854.407911279455 40:1.0 47:1.0 125:1.0 130:1.0 375:1.0 802:1.0 1106:1.0 
-8100.739399156036 -7374.495594900692 206:1.0 560:1.0 1156:1.0 1868:1.0 
-1365.8479970593849 -0.0 90:1.0 97:1.0 104:1.0 105:1.0 112:1.0 318:1.0 375:1.0 1879:1.0 1880:1.0 
-3101.5769627427594 -856.7533668819028 43:1.0 79:1.0 86:1.0 155:1.0 1120:1.0 1477:1.0 1881:1.0 1882:1.0 1883:1.0 1884:1.0 
-1011.445622069149 -975.9146861813482 75:1.0 111:1.0 257:1.0 364:1.0 530:1.0 1760:1.0 1885:1.0 1886:1.0 
-1611.8897219897449 -814.1761261446248 28:1.0 266:1.0 270:1.0 368:1.0 497:1.0 1896:1.0 1897:1.0 1898:1.0 1899:1.0 1900:1.0 
-0.0 -457.59059349453656 7:1.0 78:1.0 530:1.0 736:1.0 790:1.0 937:1.0 1915:1.0 1916:1.0 
-1860.4119163905714 -1405.6144798107728 38:1.0 86:1.0 233:1.0 530:1.0 1639:1.0 1922:1.0 1923:1.0 1924:1.0 1925:1.0 
-3357.9652017045555 -5010.899882995115 79:1.0 249:1.0 1926:1.0 1927:1.0 1928:1.0 
-0.0 -514.0393312752242 104:1.0 105:1.0 202:1.0 1929:1.0 1930:1.0 
-3647.5559904967336 -1100.4286697754908 209:1.0 273:1.0 1363:1.0 1935:1.0 
-514.267599894048 -3772.61053094388 105:1.0 108:1.0 147:1.0 492:1.0 662:1.0 1938:1.0 1939:1.0 1940:1.0 1941:1.0 
-8192.0 -7276.0405415512605 1188:1.0 1789:1.0 
-989.3270699571095 -1415.5738307659065 581:1.0 734:1.0 1188:1.0 1957:1.0 
-3962.0066212222587 -1006.9602441410301 3:1.0 87:1.0 89:1.0 144:1.0 257:1.0 434:1.0 530:1.0 653:1.0 701:1.0 938:1.0 987:1.0 1824:1.0 1958:1.0 1959:1.0 1960:1.0 1961:1.0 
-5251.818362168349 -8192.0 275:1.0 306:1.0 1976:1.0 
-3419.139465662044 -3179.257735154192 40:1.0 54:1.0 138:1.0 159:1.0 171:1.0 207:1.0 369:1.0 375:1.0 694:1.0 1782:1.0 1983:1.0 1984:1.0 
-8192.0 -8192.0 586:1.0 1985:1.0 
-1494.0452818264548 -162.62920519244526 25:1.0 38:1.0 54:1.0 78:1.0 105:1.0 145:1.0 148:1.0 152:1.0 189:1.0 442:1.0 586:1.0 706:1.0 
-0.0 -2753.455868893551 43:1.0 45:1.0 79:1.0 352:1.0 526:1.0 530:1.0 1097:1.0 1986:1.0 1987:1.0 1988:1.0 
-4311.625805201904 -834.1659134053497 38:1.0 43:1.0 75:1.0 328:1.0 526:1.0 680:1.0 1977:1.0 1989:1.0 1990:1.0 
-4882.651960396714 -4347.392481094407 24:1.0 149:1.0 467:1.0 1991:1.0 1992:1.0 
-28.400590349588704 -4693.918672570105 8:1.0 9:1.0 178:1.0 222:1.0 1156:1.0 1305:1.0 1994:1.0 1995:1.0 
-1941.9432394133655 -1399.9632696710094 86:1.0 530:1.0 1274:1.0 1996:1.0 
