svm_type c_svc
kernel_type rbf
gamma 1.220703125E-4
nr_class 3
total_sv 695
rho -8.586770261896426 1.3585985718970752 6.2385568398659474
label 0 3 1
probA -3.00103691610952 -2.7808481235147666 -3.920696176991742
probB -0.11992916357901147 0.08778735372123035 0.2411000294448117
nr_sv 290 221 184
SV
60.04533110392709 90.60426495947873 10:1.0 11:1.0 12:1.0 13:1.0 14:1.0 15:1.0 16:1.0 17:1.0 
91.61353797852013 135.99175323546314 10:1.0 11:1.0 14:1.0 15:1.0 16:1.0 18:1.0 19:1.0 
83.13429510941783 124.51666352671002 10:1.0 11:1.0 14:1.0 15:1.0 20:1.0 21:1.0 22:1.0 23:1.0 
1061.9244482403583 1198.6671733182695 24:1.0 25:1.0 26:1.0 27:1.0 28:1.0 29:1.0 
2048.0 585.6003517151831 35:1.0 36:1.0 37:1.0 38:1.0 
52.861415311039686 634.479580162094 39:1.0 40:1.0 41:1.0 42:1.0 43:1.0 
842.1350042066548 195.76886388177994 50:1.0 51:1.0 52:1.0 53:1.0 54:1.0 55:1.0 
239.0651445209141 269.36965632214685 59:1.0 60:1.0 61:1.0 62:1.0 63:1.0 64:1.0 65:1.0 66:1.0 67:1.0 
143.03771920406214 0.0 42:1.0 75:1.0 90:1.0 96:1.0 97:1.0 98:1.0 99:1.0 
0.0 502.92573264832254 75:1.0 86:1.0 117:1.0 118:1.0 119:1.0 120:1.0 
570.815345797298 959.3071687579774 40:1.0 122:1.0 124:1.0 125:1.0 126:1.0 127:1.0 128:1.0 
768.3992579155808 0.0 31:1.0 42:1.0 90:1.0 142:1.0 143:1.0 144:1.0 
369.31694159845523 326.05209903753945 31:1.0 88:1.0 138:1.0 153:1.0 154:1.0 155:1.0 156:1.0 157:1.0 158:1.0 159:1.0 160:1.0 161:1.0 162:1.0 163:1.0 
2048.0 0.0 10:1.0 28:1.0 169:1.0 170:1.0 171:1.0 172:1.0 
1802.113508303634 357.502653102854 31:1.0 72:1.0 112:1.0 173:1.0 174:1.0 175:1.0 176:1.0 
407.10034479985507 719.8052596405869 31:1.0 81:1.0 86:1.0 112:1.0 117:1.0 177:1.0 178:1.0 179:1.0 180:1.0 181:1.0 182:1.0 183:1.0 184:1.0 
548.6413919325685 0.0 72:1.0 186:1.0 190:1.0 191:1.0 192:1.0 193:1.0 194:1.0 195:1.0 196:1.0 197:1.0 198:1.0 
996.9698004618513 410.3755250730563 30:1.0 138:1.0 229:1.0 230:1.0 231:1.0 232:1.0 
0.0 448.4069158080642 75:1.0 120:1.0 159:1.0 197:1.0 
1081.91904133129 217.5753898613693 31:1.0 96:1.0 270:1.0 299:1.0 300:1.0 301:1.0 
908.0447202162945 240.35803206077713 302:1.0 303:1.0 304:1.0 305:1.0 306:1.0 
720.6801329094299 773.8815377449108 40:1.0 56:1.0 86:1.0 103:1.0 233:1.0 307:1.0 308:1.0 309:1.0 
761.1557318233153 623.4422916699889 53:1.0 86:1.0 323:1.0 324:1.0 325:1.0 
379.2455019487353 716.7496769912933 78:1.0 249:1.0 284:1.0 329:1.0 330:1.0 331:1.0 332:1.0 333:1.0 334:1.0 335:1.0 336:1.0 337:1.0 
0.0 211.07822434134522 43:1.0 302:1.0 338:1.0 339:1.0 340:1.0 341:1.0 342:1.0 343:1.0 
0.0 180.5746173398391 79:1.0 329:1.0 356:1.0 357:1.0 358:1.0 359:1.0 360:1.0 361:1.0 362:1.0 
643.6045368773146 766.0174059929061 89:1.0 377:1.0 378:1.0 
77.55531214318697 400.19493771252354 39:1.0 43:1.0 86:1.0 88:1.0 380:1.0 381:1.0 382:1.0 
340.0272175159085 1011.1630697522118 40:1.0 249:1.0 394:1.0 395:1.0 396:1.0 397:1.0 
840.9632158163728 0.0 69:1.0 96:1.0 352:1.0 408:1.0 409:1.0 410:1.0 411:1.0 
159.38932157663206 244.35704899823642 86:1.0 87:1.0 145:1.0 198:1.0 253:1.0 352:1.0 412:1.0 413:1.0 414:1.0 
143.7750566146086 236.46413347596243 96:1.0 153:1.0 257:1.0 415:1.0 416:1.0 417:1.0 418:1.0 419:1.0 420:1.0 421:1.0 
0.0 136.85978844613427 43:1.0 81:1.0 86:1.0 225:1.0 261:1.0 428:1.0 429:1.0 430:1.0 431:1.0 
0.0 909.0402860837956 43:1.0 86:1.0 306:1.0 442:1.0 443:1.0 444:1.0 
1157.763565032708 1207.0278477839981 445:1.0 446:1.0 
2048.0 1883.183638839302 96:1.0 316:1.0 448:1.0 
927.5289898192323 537.3812157188802 43:1.0 57:1.0 204:1.0 450:1.0 
665.5989912428496 842.6507722040479 4:1.0 77:1.0 78:1.0 112:1.0 144:1.0 306:1.0 455:1.0 456:1.0 457:1.0 458:1.0 459:1.0 460:1.0 461:1.0 
274.70805505608024 0.0 43:1.0 97:1.0 178:1.0 206:1.0 210:1.0 316:1.0 319:1.0 427:1.0 439:1.0 468:1.0 469:1.0 470:1.0 471:1.0 472:1.0 473:1.0 
0.0 53.81879316172448 315:1.0 316:1.0 319:1.0 477:1.0 
344.82627183607804 245.54421390557346 86:1.0 117:1.0 222:1.0 394:1.0 426:1.0 478:1.0 479:1.0 480:1.0 481:1.0 
169.84312503805958 0.0 31:1.0 125:1.0 482:1.0 483:1.0 484:1.0 485:1.0 486:1.0 487:1.0 488:1.0 489:1.0 490:1.0 491:1.0 
1082.7069677957188 1347.5810863026416 5:1.0 131:1.0 222:1.0 245:1.0 497:1.0 498:1.0 
0.0 921.5050692746382 195:1.0 499:1.0 500:1.0 501:1.0 502:1.0 
0.0 121.03542812866068 25:1.0 43:1.0 88:1.0 149:1.0 225:1.0 516:1.0 517:1.0 
113.77056047750273 447.4391824758034 43:1.0 221:1.0 253:1.0 518:1.0 529:1.0 
211.51864435942412 861.502285236285 151:1.0 532:1.0 533:1.0 534:1.0 535:1.0 536:1.0 
642.6835693533859 0.0 10:1.0 433:1.0 549:1.0 550:1.0 551:1.0 
0.0 112.76082347638592 247:1.0 315:1.0 316:1.0 319:1.0 552:1.0 553:1.0 554:1.0 555:1.0 556:1.0 557:1.0 
1227.6412298208322 484.5993061912321 10:1.0 11:1.0 588:1.0 589:1.0 590:1.0 591:1.0 
127.17753023982392 0.0 40:1.0 101:1.0 102:1.0 186:1.0 270:1.0 352:1.0 390:1.0 588:1.0 592:1.0 593:1.0 594:1.0 
348.54967057875433 536.9653254732639 98:1.0 597:1.0 598:1.0 599:1.0 600:1.0 601:1.0 
0.0 40.90893390547829 89:1.0 98:1.0 532:1.0 602:1.0 603:1.0 604:1.0 605:1.0 606:1.0 607:1.0 608:1.0 609:1.0 
0.0 65.29964327912677 10:1.0 98:1.0 602:1.0 605:1.0 610:1.0 611:1.0 612:1.0 613:1.0 
195.8601076760563 298.86530116943766 98:1.0 614:1.0 615:1.0 616:1.0 617:1.0 618:1.0 619:1.0 620:1.0 621:1.0 622:1.0 623:1.0 
123.25691679620432 194.68101195107604 76:1.0 98:1.0 591:1.0 610:1.0 624:1.0 625:1.0 626:1.0 627:1.0 628:1.0 629:1.0 630:1.0 631:1.0 
167.81556988070724 254.46135149386637 98:1.0 187:1.0 317:1.0 559:1.0 632:1.0 633:1.0 634:1.0 635:1.0 
631.0192413401286 447.55729025675987 98:1.0 651:1.0 652:1.0 653:1.0 654:1.0 655:1.0 656:1.0 
1683.7008110640675 875.5933082527566 31:1.0 88:1.0 204:1.0 657:1.0 658:1.0 659:1.0 
684.6420359464062 835.2014615469099 125:1.0 660:1.0 661:1.0 662:1.0 
2048.0 2048.0 
204.64257728118767 0.0 69:1.0 159:1.0 678:1.0 679:1.0 680:1.0 681:1.0 682:1.0 683:1.0 684:1.0 685:1.0 686:1.0 
24.17100186656606 389.4732046680731 25:1.0 270:1.0 574:1.0 715:1.0 716:1.0 717:1.0 
2048.0 1012.8751857884492 79:1.0 189:1.0 225:1.0 723:1.0 724:1.0 
43.72760767922157 294.36147656263455 602:1.0 728:1.0 729:1.0 730:1.0 731:1.0 
1081.5595003851536 767.195419832437 88:1.0 233:1.0 738:1.0 739:1.0 740:1.0 
2048.0 1648.0328820370112 69:1.0 222:1.0 757:1.0 
639.7478452914557 288.7704043325284 84:1.0 371:1.0 549:1.0 775:1.0 776:1.0 777:1.0 778:1.0 779:1.0 780:1.0 781:1.0 782:1.0 
0.0 135.03119780588585 25:1.0 43:1.0 81:1.0 117:1.0 149:1.0 151:1.0 159:1.0 238:1.0 283:1.0 328:1.0 786:1.0 787:1.0 788:1.0 789:1.0 790:1.0 791:1.0 
1331.663361200057 276.88710161801174 84:1.0 186:1.0 498:1.0 609:1.0 792:1.0 793:1.0 
357.89092590696043 0.0 11:1.0 119:1.0 144:1.0 276:1.0 464:1.0 794:1.0 795:1.0 796:1.0 797:1.0 798:1.0 799:1.0 800:1.0 801:1.0 
480.1103304400081 602.7330956730087 52:1.0 150:1.0 802:1.0 803:1.0 804:1.0 805:1.0 806:1.0 
2027.8848693168688 2048.0 807:1.0 
416.8286423082933 415.15190177974733 485:1.0 817:1.0 818:1.0 819:1.0 
257.3192988749658 194.26562151166445 15:1.0 824:1.0 825:1.0 826:1.0 827:1.0 828:1.0 829:1.0 830:1.0 
333.0024948801089 0.0 90:1.0 120:1.0 847:1.0 848:1.0 
406.2603682032802 6.3995615208749985 404:1.0 850:1.0 851:1.0 852:1.0 
773.3390874740389 1694.1758264216494 169:1.0 659:1.0 859:1.0 
735.4293667192501 1310.7584805630236 11:1.0 38:1.0 405:1.0 672:1.0 864:1.0 865:1.0 866:1.0 
537.0814379601153 25.200747102588256 80:1.0 90:1.0 144:1.0 186:1.0 753:1.0 822:1.0 877:1.0 878:1.0 
2048.0 352.61098538810666 69:1.0 897:1.0 
2048.0 768.1070569043432 38:1.0 57:1.0 898:1.0 899:1.0 
0.0 795.7442241435015 90:1.0 139:1.0 676:1.0 
770.1304809226203 804.7391080616088 905:1.0 906:1.0 907:1.0 
0.0 12.997777118445967 128:1.0 908:1.0 909:1.0 910:1.0 911:1.0 912:1.0 913:1.0 914:1.0 915:1.0 
186.14451481218634 0.0 1:1.0 196:1.0 351:1.0 642:1.0 923:1.0 924:1.0 925:1.0 926:1.0 927:1.0 928:1.0 
258.3336216834145 0.0 38:1.0 69:1.0 75:1.0 171:1.0 281:1.0 766:1.0 936:1.0 937:1.0 938:1.0 939:1.0 940:1.0 941:1.0 
2048.0 1754.5772918295097 38:1.0 955:1.0 
554.3977851409983 228.5087214255435 47:1.0 396:1.0 561:1.0 562:1.0 844:1.0 956:1.0 957:1.0 958:1.0 
147.6565225522215 353.88368161306903 40:1.0 122:1.0 168:1.0 283:1.0 417:1.0 418:1.0 559:1.0 947:1.0 979:1.0 980:1.0 981:1.0 
1364.5747171547423 109.83994691274007 1:1.0 38:1.0 40:1.0 97:1.0 122:1.0 989:1.0 
547.5709017073326 594.1348749560062 40:1.0 81:1.0 122:1.0 214:1.0 991:1.0 992:1.0 993:1.0 994:1.0 
437.3856659368866 161.30653102891068 1:1.0 40:1.0 77:1.0 122:1.0 199:1.0 276:1.0 356:1.0 635:1.0 721:1.0 995:1.0 996:1.0 997:1.0 998:1.0 
720.1800533757876 1630.1136716398898 1:1.0 40:1.0 122:1.0 144:1.0 
213.4766748307996 213.88819887756293 31:1.0 40:1.0 78:1.0 171:1.0 210:1.0 280:1.0 356:1.0 360:1.0 383:1.0 384:1.0 968:1.0 1000:1.0 1001:1.0 1002:1.0 1003:1.0 1004:1.0 
888.7627916090128 537.8777477535846 38:1.0 40:1.0 1005:1.0 1006:1.0 1007:1.0 1008:1.0 1009:1.0 
2048.0 1007.4297615313092 40:1.0 81:1.0 213:1.0 534:1.0 1010:1.0 
1262.1623231950045 956.0552724833091 40:1.0 169:1.0 170:1.0 171:1.0 1016:1.0 
934.3634505056234 1398.1862149476287 40:1.0 131:1.0 159:1.0 1019:1.0 1020:1.0 
879.2904613746241 822.276847525884 40:1.0 329:1.0 1050:1.0 1051:1.0 
293.077545259895 0.0 31:1.0 40:1.0 96:1.0 233:1.0 377:1.0 390:1.0 807:1.0 1053:1.0 
432.4687881792945 937.2525777652789 40:1.0 233:1.0 362:1.0 543:1.0 1057:1.0 
592.7601265920676 0.0 25:1.0 31:1.0 40:1.0 72:1.0 171:1.0 233:1.0 282:1.0 944:1.0 1058:1.0 1059:1.0 
1953.7272167037472 901.8723872062766 38:1.0 40:1.0 1064:1.0 1065:1.0 1066:1.0 
512.073130500615 0.0 40:1.0 117:1.0 210:1.0 280:1.0 282:1.0 352:1.0 1070:1.0 1071:1.0 
755.2180854262755 2048.0 40:1.0 86:1.0 293:1.0 336:1.0 951:1.0 1078:1.0 
2048.0 1390.8543700554005 40:1.0 178:1.0 188:1.0 281:1.0 282:1.0 1083:1.0 1084:1.0 
234.78396623014967 206.52589103950137 40:1.0 168:1.0 434:1.0 465:1.0 687:1.0 1085:1.0 1086:1.0 
0.0 53.011258689128375 40:1.0 195:1.0 295:1.0 554:1.0 721:1.0 1089:1.0 1090:1.0 1091:1.0 1092:1.0 1093:1.0 1094:1.0 1095:1.0 1096:1.0 
2043.7119078692492 951.3485954306228 116:1.0 306:1.0 452:1.0 1102:1.0 1103:1.0 
688.7344182849222 142.31645119480365 75:1.0 94:1.0 289:1.0 377:1.0 441:1.0 1012:1.0 1106:1.0 1107:1.0 1108:1.0 1109:1.0 
85.68468702463194 772.6544828349291 96:1.0 112:1.0 316:1.0 1110:1.0 
1444.8063838323094 493.18856928307537 40:1.0 289:1.0 290:1.0 1127:1.0 1128:1.0 1129:1.0 
633.6132974762551 361.6053879400848 169:1.0 289:1.0 473:1.0 1021:1.0 1134:1.0 1135:1.0 
520.2026736618919 865.5504613133197 24:1.0 75:1.0 106:1.0 125:1.0 172:1.0 289:1.0 794:1.0 1137:1.0 1138:1.0 1139:1.0 
602.7435995333753 473.13155386729954 88:1.0 321:1.0 1141:1.0 1142:1.0 1143:1.0 1144:1.0 1145:1.0 1146:1.0 
1549.5489892165285 1228.79186346326 75:1.0 77:1.0 143:1.0 1045:1.0 
505.3570059561462 106.25134204711237 31:1.0 88:1.0 358:1.0 593:1.0 812:1.0 1152:1.0 1153:1.0 1154:1.0 1155:1.0 1156:1.0 1157:1.0 
0.0 628.8338900993806 1152:1.0 1158:1.0 
607.4805864663258 2048.0 1152:1.0 
533.012224771749 301.3370981111392 532:1.0 1159:1.0 1160:1.0 1161:1.0 1162:1.0 
577.2578217958829 603.9795002342152 1163:1.0 1164:1.0 1165:1.0 1166:1.0 
1090.9096796146762 116.57549965407128 28:1.0 31:1.0 232:1.0 400:1.0 422:1.0 1167:1.0 
443.96495550076475 512.9197248247473 487:1.0 507:1.0 602:1.0 1168:1.0 1169:1.0 1170:1.0 
2048.0 2048.0 741:1.0 
953.8256876380156 804.8314823338877 438:1.0 1171:1.0 1172:1.0 
0.0 2048.0 43:1.0 1174:1.0 
2048.0 1207.513017529932 401:1.0 1182:1.0 
254.5715438390414 939.1692598843754 786:1.0 822:1.0 1202:1.0 1203:1.0 1204:1.0 
42.77924326878897 0.0 316:1.0 710:1.0 1100:1.0 1211:1.0 1212:1.0 1213:1.0 1214:1.0 1215:1.0 
114.72153670251852 0.0 316:1.0 1211:1.0 1216:1.0 
118.46643640178428 88.20881286307898 75:1.0 233:1.0 336:1.0 672:1.0 1222:1.0 1223:1.0 1224:1.0 1225:1.0 1226:1.0 
203.62317075016145 282.0265997453903 233:1.0 889:1.0 1227:1.0 1228:1.0 1229:1.0 1230:1.0 
395.3156886588181 1490.5303312267235 233:1.0 596:1.0 1227:1.0 
2048.0 1498.3168952584656 147:1.0 196:1.0 233:1.0 558:1.0 
932.9832831676648 513.6645774689958 8:1.0 101:1.0 102:1.0 233:1.0 1231:1.0 1232:1.0 1233:1.0 1234:1.0 
757.944305290953 279.3459185471131 31:1.0 233:1.0 280:1.0 710:1.0 1235:1.0 1236:1.0 1237:1.0 
2030.7360603607765 2048.0 54:1.0 105:1.0 233:1.0 703:1.0 1241:1.0 
36.354630292627284 0.0 10:1.0 31:1.0 75:1.0 145:1.0 165:1.0 168:1.0 346:1.0 1246:1.0 1247:1.0 1248:1.0 1249:1.0 
961.9497858835143 464.2482194159312 40:1.0 46:1.0 106:1.0 117:1.0 125:1.0 128:1.0 151:1.0 288:1.0 1256:1.0 1257:1.0 
1647.105372981703 625.535633439468 38:1.0 183:1.0 288:1.0 318:1.0 571:1.0 
875.5261418595858 0.0 57:1.0 97:1.0 101:1.0 102:1.0 346:1.0 347:1.0 356:1.0 442:1.0 1268:1.0 
248.20396996304382 0.0 97:1.0 316:1.0 1097:1.0 1122:1.0 1269:1.0 1270:1.0 
1018.6852728791848 0.0 57:1.0 97:1.0 316:1.0 319:1.0 576:1.0 
0.0 284.357017491738 171:1.0 1012:1.0 1283:1.0 1284:1.0 1285:1.0 1286:1.0 
668.3091727078679 429.3740919776018 75:1.0 278:1.0 672:1.0 1287:1.0 1288:1.0 
1795.616869374847 273.4722869308682 40:1.0 87:1.0 349:1.0 1087:1.0 1289:1.0 1290:1.0 
0.0 607.3068671633451 78:1.0 233:1.0 473:1.0 1212:1.0 1289:1.0 1291:1.0 
0.0 369.7509140980152 31:1.0 32:1.0 40:1.0 78:1.0 90:1.0 186:1.0 282:1.0 283:1.0 413:1.0 1289:1.0 1292:1.0 1293:1.0 
0.0 151.62680703655406 75:1.0 89:1.0 293:1.0 1300:1.0 1301:1.0 1302:1.0 
38.91370591010089 0.0 90:1.0 247:1.0 422:1.0 1303:1.0 1304:1.0 1305:1.0 1306:1.0 
1914.3516895941368 877.3446872970208 38:1.0 1315:1.0 1316:1.0 
345.02689361295785 0.0 10:1.0 29:1.0 460:1.0 1333:1.0 1334:1.0 
0.0 1061.640421620828 92:1.0 112:1.0 183:1.0 278:1.0 407:1.0 1007:1.0 1350:1.0 
610.644063138271 406.9223255587076 77:1.0 145:1.0 159:1.0 178:1.0 271:1.0 328:1.0 721:1.0 1152:1.0 1362:1.0 1363:1.0 1364:1.0 1365:1.0 1366:1.0 1367:1.0 
480.48239016370604 0.0 534:1.0 1010:1.0 1369:1.0 1370:1.0 
1058.8091556197444 104.12797156315202 38:1.0 171:1.0 361:1.0 1394:1.0 
658.7734517885444 0.0 40:1.0 42:1.0 78:1.0 90:1.0 253:1.0 270:1.0 306:1.0 406:1.0 407:1.0 902:1.0 1196:1.0 1236:1.0 1395:1.0 1396:1.0 
870.8690571175575 1249.2982166342774 101:1.0 102:1.0 942:1.0 1397:1.0 
642.401385575503 0.0 10:1.0 27:1.0 38:1.0 75:1.0 266:1.0 1065:1.0 1398:1.0 
389.19056359784827 410.60363846551996 421:1.0 854:1.0 952:1.0 979:1.0 1407:1.0 1408:1.0 1409:1.0 1410:1.0 1411:1.0 
130.39068193769677 267.4944919193856 302:1.0 312:1.0 1003:1.0 1146:1.0 1343:1.0 1412:1.0 1413:1.0 1414:1.0 
2048.0 1355.127811553277 38:1.0 257:1.0 894:1.0 1415:1.0 
690.1797044696599 0.0 29:1.0 602:1.0 731:1.0 
148.93918687815358 554.1222390561529 400:1.0 710:1.0 1428:1.0 1429:1.0 1431:1.0 
0.0 676.217467117043 40:1.0 43:1.0 87:1.0 359:1.0 422:1.0 765:1.0 766:1.0 1432:1.0 
140.66164185006522 0.0 10:1.0 64:1.0 90:1.0 105:1.0 295:1.0 1141:1.0 1433:1.0 1434:1.0 1435:1.0 1436:1.0 1437:1.0 
303.77825919270737 576.1095039020842 31:1.0 40:1.0 659:1.0 947:1.0 1023:1.0 1439:1.0 1440:1.0 1441:1.0 1442:1.0 1443:1.0 1444:1.0 
1006.2161070689025 733.0238448724901 125:1.0 186:1.0 559:1.0 1447:1.0 
850.5592322994676 0.0 168:1.0 186:1.0 559:1.0 1448:1.0 
308.68414220075084 83.57592207206459 399:1.0 991:1.0 992:1.0 1455:1.0 1456:1.0 1457:1.0 1458:1.0 1459:1.0 1460:1.0 
262.4782273427106 187.36322332700846 42:1.0 89:1.0 549:1.0 1190:1.0 1461:1.0 1462:1.0 1463:1.0 
2048.0 2048.0 2:1.0 
515.8301630567121 0.0 1:1.0 38:1.0 1468:1.0 1469:1.0 1470:1.0 
91.48059806542256 0.0 1:1.0 135:1.0 241:1.0 317:1.0 629:1.0 918:1.0 1258:1.0 1481:1.0 1482:1.0 
358.53276541330064 741.6983405112436 265:1.0 1488:1.0 1489:1.0 1490:1.0 1491:1.0 
0.0 49.17567145085114 171:1.0 302:1.0 324:1.0 1262:1.0 1396:1.0 1495:1.0 1496:1.0 
1848.9757393523691 1298.4979094158775 40:1.0 79:1.0 295:1.0 1092:1.0 1498:1.0 1499:1.0 
706.4928791749999 571.7021033705536 40:1.0 79:1.0 81:1.0 90:1.0 243:1.0 404:1.0 538:1.0 1500:1.0 1501:1.0 
1112.3055498003396 822.6432385739644 40:1.0 283:1.0 302:1.0 304:1.0 306:1.0 363:1.0 1508:1.0 1509:1.0 
368.03737085076955 0.0 10:1.0 31:1.0 72:1.0 175:1.0 465:1.0 771:1.0 865:1.0 1335:1.0 1510:1.0 1511:1.0 1512:1.0 
177.19876897601637 0.0 127:1.0 452:1.0 1131:1.0 1513:1.0 1514:1.0 1515:1.0 1516:1.0 
1172.5060832046915 0.0 10:1.0 234:1.0 473:1.0 1086:1.0 
1574.4955430779396 1696.685181205772 234:1.0 283:1.0 1517:1.0 
486.43431081104075 127.28356036894934 29:1.0 422:1.0 486:1.0 1520:1.0 1521:1.0 1522:1.0 1523:1.0 
714.6757218006082 775.8747300312449 75:1.0 398:1.0 672:1.0 1527:1.0 1528:1.0 
1041.4798391731472 1098.6497425553805 375:1.0 1100:1.0 1306:1.0 1369:1.0 
1006.5150675892203 1256.2990674071712 156:1.0 165:1.0 1532:1.0 1533:1.0 1534:1.0 
919.639292995533 2048.0 86:1.0 257:1.0 593:1.0 1537:1.0 
135.33218536869504 280.8228789589416 2:1.0 494:1.0 811:1.0 1362:1.0 1545:1.0 1546:1.0 
577.2916307086355 604.1108862228464 1547:1.0 1548:1.0 1549:1.0 1550:1.0 
671.7302096039265 285.3254828701481 31:1.0 89:1.0 472:1.0 1554:1.0 1555:1.0 
1551.6551182462665 0.0 11:1.0 38:1.0 156:1.0 233:1.0 290:1.0 385:1.0 422:1.0 423:1.0 426:1.0 427:1.0 1557:1.0 
576.9492793564962 1115.8165605943645 1031:1.0 1175:1.0 1573:1.0 1574:1.0 
1956.0930038555587 1422.4724332739684 3:1.0 45:1.0 152:1.0 352:1.0 1575:1.0 
851.717685774365 224.85317609534675 30:1.0 32:1.0 909:1.0 1369:1.0 1592:1.0 
1200.8521894901644 232.43642197891532 349:1.0 1593:1.0 1594:1.0 1595:1.0 
2048.0 463.40056819109304 349:1.0 1593:1.0 1596:1.0 
560.966460592748 591.8264380462083 101:1.0 102:1.0 1597:1.0 1598:1.0 
2048.0 1104.0500207229124 96:1.0 97:1.0 427:1.0 434:1.0 
1157.9794355461652 1373.7839501300653 1321:1.0 1599:1.0 
437.43307953269357 1152.1663737866916 11:1.0 809:1.0 1602:1.0 
2048.0 2048.0 1603:1.0 
336.1145010964006 26.615976633237658 383:1.0 384:1.0 1604:1.0 1605:1.0 1606:1.0 
0.0 696.6444216804161 25:1.0 88:1.0 171:1.0 204:1.0 1058:1.0 1250:1.0 1335:1.0 1607:1.0 
0.0 82.91597672334245 75:1.0 476:1.0 543:1.0 1335:1.0 1557:1.0 1611:1.0 1612:1.0 1613:1.0 1614:1.0 
468.1564290381056 227.05409882455473 312:1.0 881:1.0 1285:1.0 1626:1.0 1627:1.0 1628:1.0 
58.363136642623125 1206.8034154325396 423:1.0 1631:1.0 
845.1411937297719 2048.0 315:1.0 1632:1.0 1633:1.0 
163.1829626387518 185.25046000284735 224:1.0 225:1.0 250:1.0 251:1.0 390:1.0 398:1.0 1364:1.0 1503:1.0 1604:1.0 1632:1.0 1634:1.0 
1456.6712186163484 742.9225433845352 135:1.0 580:1.0 843:1.0 1239:1.0 
74.44312688614605 0.0 54:1.0 422:1.0 423:1.0 427:1.0 468:1.0 1647:1.0 1648:1.0 1649:1.0 1650:1.0 1651:1.0 
533.9373243324329 712.7498233554772 596:1.0 1652:1.0 1653:1.0 
0.0 55.00111267042558 455:1.0 991:1.0 992:1.0 1660:1.0 
0.0 528.288069063446 127:1.0 131:1.0 300:1.0 710:1.0 1661:1.0 
1023.1548039163752 0.0 30:1.0 31:1.0 32:1.0 43:1.0 168:1.0 352:1.0 455:1.0 593:1.0 842:1.0 
0.0 824.7401143475269 43:1.0 86:1.0 212:1.0 352:1.0 593:1.0 842:1.0 
0.0 239.189536019656 40:1.0 43:1.0 75:1.0 87:1.0 536:1.0 766:1.0 1212:1.0 1289:1.0 1355:1.0 1502:1.0 1641:1.0 1666:1.0 1667:1.0 1668:1.0 1669:1.0 
553.8781146997208 412.0754356354126 561:1.0 562:1.0 581:1.0 582:1.0 1673:1.0 1674:1.0 
983.4240565786592 82.4496732969266 561:1.0 562:1.0 942:1.0 1675:1.0 1676:1.0 
0.0 2048.0 43:1.0 283:1.0 1056:1.0 1682:1.0 
349.9445022937012 1052.6674894451282 149:1.0 1173:1.0 1684:1.0 1685:1.0 1686:1.0 
1736.5517007124656 541.9141785813952 121:1.0 528:1.0 1687:1.0 
1860.8002006134432 789.1662315129413 351:1.0 383:1.0 384:1.0 528:1.0 763:1.0 822:1.0 
526.2577525596105 291.67727336605 5:1.0 282:1.0 1396:1.0 1704:1.0 1705:1.0 
1333.102636012167 942.792889619898 38:1.0 78:1.0 852:1.0 1706:1.0 1707:1.0 1708:1.0 
0.0 42.14077094114203 168:1.0 710:1.0 780:1.0 830:1.0 1709:1.0 1710:1.0 1711:1.0 1712:1.0 1713:1.0 
264.6525404744125 329.6221341222433 487:1.0 507:1.0 731:1.0 1168:1.0 1714:1.0 1715:1.0 1716:1.0 1717:1.0 
325.66401806376734 9.114664561573234 10:1.0 274:1.0 532:1.0 917:1.0 1410:1.0 1411:1.0 1718:1.0 1719:1.0 
1639.4037276303648 24.035806681777963 32:1.0 225:1.0 429:1.0 430:1.0 1176:1.0 1242:1.0 1723:1.0 1724:1.0 
439.78380210959097 1279.3725388706866 533:1.0 1733:1.0 1734:1.0 1735:1.0 
0.0 825.1329659927119 43:1.0 149:1.0 284:1.0 292:1.0 377:1.0 518:1.0 1736:1.0 1737:1.0 1738:1.0 
0.0 304.169123621858 822:1.0 1454:1.0 1743:1.0 1744:1.0 1745:1.0 1746:1.0 1747:1.0 
54.80442220371029 237.91346179656065 40:1.0 128:1.0 186:1.0 352:1.0 923:1.0 
397.8473775651425 356.455955171838 710:1.0 852:1.0 1758:1.0 1759:1.0 1760:1.0 1761:1.0 
743.9443467026558 0.0 5:1.0 11:1.0 43:1.0 117:1.0 156:1.0 221:1.0 518:1.0 746:1.0 794:1.0 1768:1.0 
907.7307964127835 917.9800224364543 404:1.0 1126:1.0 
0.0 384.729596599067 106:1.0 125:1.0 270:1.0 318:1.0 766:1.0 1769:1.0 1770:1.0 1771:1.0 1772:1.0 1773:1.0 
0.0 506.5592106846673 385:1.0 881:1.0 1005:1.0 1774:1.0 1775:1.0 
1349.0251405119684 1000.8601641223377 31:1.0 75:1.0 345:1.0 500:1.0 718:1.0 1454:1.0 
5.420043292346071 743.0341184870659 186:1.0 498:1.0 1327:1.0 1404:1.0 1778:1.0 
599.8176585346197 2048.0 90:1.0 257:1.0 263:1.0 
0.0 186.0380592608608 1:1.0 40:1.0 122:1.0 257:1.0 266:1.0 282:1.0 501:1.0 735:1.0 855:1.0 1001:1.0 1322:1.0 1750:1.0 1785:1.0 1786:1.0 1787:1.0 1788:1.0 
1904.55599260234 1521.1725468846482 168:1.0 1795:1.0 
156.22832880914842 105.07987208053454 30:1.0 32:1.0 43:1.0 81:1.0 86:1.0 230:1.0 464:1.0 
0.0 242.0841416881959 302:1.0 478:1.0 799:1.0 812:1.0 1458:1.0 1459:1.0 1496:1.0 1800:1.0 1801:1.0 1802:1.0 1803:1.0 1804:1.0 1805:1.0 1806:1.0 
275.14301249249917 331.9484655381327 559:1.0 855:1.0 1807:1.0 1808:1.0 1809:1.0 1810:1.0 1811:1.0 1812:1.0 1813:1.0 
2048.0 2048.0 
2048.0 2048.0 
2048.0 2048.0 
209.45452319175203 983.0560730817358 38:1.0 86:1.0 96:1.0 97:1.0 149:1.0 257:1.0 266:1.0 386:1.0 1256:1.0 1836:1.0 
939.0637120875538 1040.643224091878 10:1.0 75:1.0 96:1.0 105:1.0 1014:1.0 1402:1.0 1838:1.0 1839:1.0 
514.5357644802966 0.0 11:1.0 112:1.0 199:1.0 534:1.0 1010:1.0 1489:1.0 1803:1.0 
0.0 489.4795206014741 26:1.0 86:1.0 257:1.0 386:1.0 594:1.0 1256:1.0 1845:1.0 
672.0880291243659 295.22058016010715 77:1.0 809:1.0 1846:1.0 1847:1.0 
1158.283567393625 1207.2662791294078 1849:1.0 1850:1.0 
0.0 628.8155765897709 1152:1.0 1851:1.0 
599.8550245862498 13.63308488043178 40:1.0 72:1.0 75:1.0 79:1.0 117:1.0 346:1.0 362:1.0 550:1.0 1152:1.0 1852:1.0 1853:1.0 
192.00576861206474 394.80517974925226 75:1.0 247:1.0 1197:1.0 1684:1.0 1865:1.0 1866:1.0 1867:1.0 1868:1.0 
223.5160221680939 190.1643734781443 105:1.0 149:1.0 156:1.0 245:1.0 394:1.0 518:1.0 1684:1.0 1869:1.0 
57.30547542390799 355.14792884025013 233:1.0 947:1.0 1173:1.0 1457:1.0 1879:1.0 1880:1.0 1881:1.0 1882:1.0 
164.14216357852834 0.0 75:1.0 233:1.0 278:1.0 398:1.0 672:1.0 1138:1.0 1146:1.0 1883:1.0 
470.45123224613764 756.0017200673909 233:1.0 485:1.0 1885:1.0 
493.78370417696937 669.077090054103 710:1.0 1228:1.0 1713:1.0 1887:1.0 
357.36104997603957 633.8210942343284 47:1.0 97:1.0 125:1.0 186:1.0 204:1.0 245:1.0 516:1.0 1027:1.0 1810:1.0 1888:1.0 
202.9553636098864 1587.4799666108709 75:1.0 168:1.0 222:1.0 1753:1.0 1889:1.0 1890:1.0 1891:1.0 
2048.0 439.6245208993038 38:1.0 70:1.0 1872:1.0 1894:1.0 1895:1.0 
714.1993655153294 1923.5257529713047 112:1.0 262:1.0 270:1.0 593:1.0 1518:1.0 
561.7020774951284 581.9944824414982 31:1.0 199:1.0 965:1.0 1242:1.0 1576:1.0 1908:1.0 1909:1.0 1910:1.0 1911:1.0 1912:1.0 
0.0 473.4008858353943 78:1.0 112:1.0 302:1.0 433:1.0 828:1.0 1913:1.0 1914:1.0 1915:1.0 1916:1.0 
2048.0 1939.307889939673 433:1.0 
0.0 105.1921287325236 31:1.0 271:1.0 947:1.0 1157:1.0 1499:1.0 1923:1.0 
737.9181521743849 0.0 31:1.0 77:1.0 197:1.0 421:1.0 499:1.0 855:1.0 1181:1.0 1924:1.0 
0.0 253.35824529950554 168:1.0 302:1.0 1099:1.0 1138:1.0 1387:1.0 1930:1.0 
423.3055423932219 284.2650594792292 31:1.0 102:1.0 246:1.0 427:1.0 496:1.0 1096:1.0 1931:1.0 1932:1.0 1933:1.0 1934:1.0 
157.00896770064745 281.5168817328836 75:1.0 270:1.0 910:1.0 1937:1.0 1938:1.0 1939:1.0 1940:1.0 
489.4340308112426 0.0 30:1.0 31:1.0 89:1.0 185:1.0 186:1.0 231:1.0 232:1.0 398:1.0 1300:1.0 1941:1.0 
1182.7697673844411 2023.0590130684438 465:1.0 1348:1.0 
553.8605011890882 61.480690687835974 29:1.0 69:1.0 75:1.0 78:1.0 86:1.0 96:1.0 124:1.0 154:1.0 234:1.0 874:1.0 1923:1.0 
660.9273186041538 0.0 10:1.0 11:1.0 152:1.0 375:1.0 422:1.0 423:1.0 426:1.0 427:1.0 1656:1.0 
0.0 958.3825280211172 753:1.0 939:1.0 1321:1.0 1956:1.0 1957:1.0 
1083.3195326455652 2048.0 10:1.0 54:1.0 105:1.0 209:1.0 346:1.0 1731:1.0 
572.5240962235632 1185.0723601796965 174:1.0 753:1.0 1962:1.0 1963:1.0 
370.8581181058506 141.89472403752873 40:1.0 75:1.0 79:1.0 88:1.0 89:1.0 156:1.0 192:1.0 543:1.0 844:1.0 929:1.0 1090:1.0 1364:1.0 1734:1.0 1967:1.0 1968:1.0 1969:1.0 1970:1.0 1971:1.0 
554.1889799146736 94.99630771663203 30:1.0 32:1.0 189:1.0 231:1.0 1390:1.0 1604:1.0 1821:1.0 1974:1.0 1975:1.0 
998.1889172982096 845.6624224707342 75:1.0 88:1.0 89:1.0 98:1.0 422:1.0 1335:1.0 1976:1.0 
1962.2545600253097 0.0 38:1.0 199:1.0 423:1.0 635:1.0 676:1.0 
1412.1564348243714 287.2242975416633 349:1.0 912:1.0 1993:1.0 1994:1.0 1995:1.0 
314.9865320308678 832.6916846795431 1652:1.0 1803:1.0 1997:1.0 1998:1.0 
2.142112755235544 0.0 316:1.0 630:1.0 1414:1.0 2000:1.0 2001:1.0 2002:1.0 
-842.3374745484797 110.91706239917455 5:1.0 30:1.0 31:1.0 32:1.0 33:1.0 34:1.0 
-527.9622793688366 0.0 38:1.0 56:1.0 57:1.0 58:1.0 
-1.7090232703776564 0.0 38:1.0 68:1.0 69:1.0 70:1.0 
-586.5761023883739 0.0 38:1.0 71:1.0 72:1.0 
-0.0 504.60175921463394 73:1.0 74:1.0 75:1.0 76:1.0 77:1.0 78:1.0 79:1.0 80:1.0 81:1.0 82:1.0 
-568.8590162510769 109.63137979418266 83:1.0 84:1.0 85:1.0 86:1.0 87:1.0 88:1.0 89:1.0 90:1.0 91:1.0 92:1.0 93:1.0 
-495.62844471950103 0.0 38:1.0 84:1.0 94:1.0 95:1.0 
-2048.0 1358.4069301126399 96:1.0 100:1.0 101:1.0 102:1.0 
-786.7796664753398 800.4677347798622 8:1.0 57:1.0 75:1.0 111:1.0 112:1.0 113:1.0 114:1.0 115:1.0 116:1.0 
-266.92596063923617 475.8245299908779 4:1.0 80:1.0 121:1.0 
-59.02718145467196 2048.0 8:1.0 40:1.0 122:1.0 123:1.0 
-297.7428036678819 0.0 145:1.0 199:1.0 200:1.0 201:1.0 202:1.0 
-2048.0 2048.0 40:1.0 152:1.0 221:1.0 222:1.0 223:1.0 
-686.7740008639662 0.0 101:1.0 102:1.0 224:1.0 225:1.0 226:1.0 227:1.0 228:1.0 
-512.0061729140518 0.0 4:1.0 30:1.0 45:1.0 46:1.0 47:1.0 77:1.0 78:1.0 138:1.0 231:1.0 232:1.0 233:1.0 234:1.0 
-1822.3392989987476 1258.414600460932 30:1.0 77:1.0 235:1.0 236:1.0 
-1113.6785459309506 524.2783548677029 40:1.0 135:1.0 237:1.0 238:1.0 239:1.0 240:1.0 241:1.0 
-502.17010142544564 614.9098751848559 31:1.0 40:1.0 78:1.0 87:1.0 101:1.0 153:1.0 178:1.0 254:1.0 255:1.0 256:1.0 257:1.0 258:1.0 
-847.4629507757878 415.3595686832652 31:1.0 75:1.0 81:1.0 257:1.0 270:1.0 276:1.0 277:1.0 278:1.0 279:1.0 280:1.0 281:1.0 
-638.0863894106154 23.895319949118587 40:1.0 310:1.0 311:1.0 312:1.0 
-800.444763979064 0.0 10:1.0 77:1.0 290:1.0 344:1.0 345:1.0 346:1.0 347:1.0 348:1.0 349:1.0 
-1037.1199427972892 291.8662916685599 1:1.0 147:1.0 186:1.0 289:1.0 290:1.0 372:1.0 373:1.0 374:1.0 375:1.0 376:1.0 
-534.73897534242 0.0 40:1.0 84:1.0 159:1.0 272:1.0 383:1.0 384:1.0 385:1.0 386:1.0 387:1.0 
-1501.4909676232367 1792.8815548635218 57:1.0 105:1.0 313:1.0 
-1995.026766328816 421.39262106625233 28:1.0 29:1.0 170:1.0 171:1.0 233:1.0 296:1.0 402:1.0 
-612.5678631569657 175.9216850980567 40:1.0 178:1.0 230:1.0 306:1.0 403:1.0 404:1.0 405:1.0 406:1.0 407:1.0 
-0.0 18.54572730391263 40:1.0 100:1.0 122:1.0 248:1.0 363:1.0 
-550.6052423101108 0.0 28:1.0 56:1.0 75:1.0 152:1.0 432:1.0 433:1.0 434:1.0 435:1.0 436:1.0 437:1.0 438:1.0 439:1.0 
-979.4429642717635 607.6536373825426 40:1.0 221:1.0 440:1.0 441:1.0 
-2048.0 742.2277085655988 38:1.0 199:1.0 449:1.0 
-226.95275449684988 0.0 28:1.0 351:1.0 411:1.0 451:1.0 452:1.0 453:1.0 454:1.0 
-653.1289669781975 314.96204163470776 40:1.0 45:1.0 78:1.0 86:1.0 109:1.0 117:1.0 196:1.0 289:1.0 406:1.0 433:1.0 462:1.0 463:1.0 464:1.0 465:1.0 466:1.0 467:1.0 
-2048.0 2048.0 35:1.0 38:1.0 
-1845.7301990241174 849.0633621298628 169:1.0 225:1.0 474:1.0 475:1.0 476:1.0 
-12.209297290937739 771.2015483267168 277:1.0 283:1.0 504:1.0 505:1.0 506:1.0 507:1.0 
-227.37986991019164 840.856637752792 9:1.0 88:1.0 393:1.0 508:1.0 
-6.102249370198685 1331.1890014441622 54:1.0 108:1.0 513:1.0 
-0.0 746.3698109698289 108:1.0 325:1.0 514:1.0 
-113.22875167989112 0.0 296:1.0 317:1.0 328:1.0 352:1.0 383:1.0 384:1.0 542:1.0 543:1.0 544:1.0 545:1.0 546:1.0 547:1.0 
-2048.0 96.39820490179257 388:1.0 558:1.0 559:1.0 
-350.89070005142685 147.22171786546136 53:1.0 57:1.0 147:1.0 156:1.0 222:1.0 566:1.0 567:1.0 568:1.0 569:1.0 570:1.0 571:1.0 572:1.0 573:1.0 574:1.0 
-828.2387824849312 405.45448754649067 92:1.0 147:1.0 204:1.0 575:1.0 576:1.0 577:1.0 
-491.7250054272817 472.2477045137944 84:1.0 86:1.0 117:1.0 165:1.0 641:1.0 642:1.0 643:1.0 644:1.0 645:1.0 646:1.0 647:1.0 
-1331.1828888926732 0.0 10:1.0 38:1.0 108:1.0 170:1.0 171:1.0 434:1.0 452:1.0 675:1.0 
-1037.7959776881562 485.20051799833243 11:1.0 27:1.0 28:1.0 117:1.0 168:1.0 172:1.0 206:1.0 270:1.0 274:1.0 699:1.0 700:1.0 701:1.0 
-2048.0 498.99702030756725 38:1.0 40:1.0 206:1.0 282:1.0 593:1.0 
-1008.8532975786092 320.0182244463285 29:1.0 46:1.0 86:1.0 89:1.0 172:1.0 414:1.0 709:1.0 710:1.0 711:1.0 712:1.0 713:1.0 
-2048.0 2048.0 718:1.0 719:1.0 720:1.0 
-302.6139736929309 456.5674103029436 45:1.0 56:1.0 79:1.0 302:1.0 725:1.0 726:1.0 727:1.0 
-782.1660392684026 0.0 38:1.0 84:1.0 159:1.0 271:1.0 313:1.0 741:1.0 
-775.8856474595569 258.52517043915606 4:1.0 11:1.0 31:1.0 45:1.0 47:1.0 276:1.0 498:1.0 770:1.0 771:1.0 772:1.0 773:1.0 
-1022.9375415613023 0.0 38:1.0 349:1.0 774:1.0 
-2048.0 1647.2498559163753 24:1.0 352:1.0 433:1.0 785:1.0 
-839.1899224685221 1114.4308911836938 201:1.0 810:1.0 811:1.0 812:1.0 
-0.0 15.399378627066925 5:1.0 6:1.0 8:1.0 9:1.0 813:1.0 814:1.0 815:1.0 816:1.0 
-1362.964424430002 1208.367287917376 186:1.0 288:1.0 820:1.0 821:1.0 822:1.0 823:1.0 
-0.0 10.00286707669679 169:1.0 263:1.0 289:1.0 290:1.0 296:1.0 478:1.0 567:1.0 735:1.0 853:1.0 854:1.0 855:1.0 
-1323.6264425338804 1056.686174829006 38:1.0 169:1.0 854:1.0 856:1.0 857:1.0 
-1167.6573476183726 538.3210037236273 28:1.0 36:1.0 38:1.0 86:1.0 169:1.0 854:1.0 860:1.0 861:1.0 862:1.0 
-2048.0 1561.333569527523 42:1.0 672:1.0 794:1.0 863:1.0 
-0.0 124.7672331487133 40:1.0 121:1.0 171:1.0 206:1.0 207:1.0 425:1.0 501:1.0 732:1.0 884:1.0 885:1.0 886:1.0 887:1.0 
-1354.3808998599286 0.0 31:1.0 388:1.0 894:1.0 
-1304.4881607356479 1625.7427889047465 105:1.0 349:1.0 896:1.0 
-390.64695925566065 538.588424466864 40:1.0 81:1.0 84:1.0 145:1.0 165:1.0 648:1.0 900:1.0 901:1.0 902:1.0 
-2048.0 2048.0 97:1.0 108:1.0 
-1338.7049950906562 802.7598846327945 189:1.0 257:1.0 296:1.0 422:1.0 426:1.0 479:1.0 
-0.0 332.5948760432956 296:1.0 359:1.0 837:1.0 916:1.0 917:1.0 
-0.0 134.31974041835372 11:1.0 38:1.0 296:1.0 
-337.61350471258 0.0 325:1.0 349:1.0 919:1.0 920:1.0 921:1.0 922:1.0 
-1175.6708890762727 760.3777160965477 233:1.0 294:1.0 929:1.0 930:1.0 931:1.0 932:1.0 933:1.0 
-1047.4070866681507 1312.215229026288 75:1.0 201:1.0 283:1.0 328:1.0 954:1.0 
-843.1467302074566 1502.2451478780417 44:1.0 275:1.0 959:1.0 960:1.0 961:1.0 962:1.0 963:1.0 
-64.24008747521023 540.9976094161913 350:1.0 388:1.0 966:1.0 967:1.0 
-0.0 645.2650613392814 40:1.0 351:1.0 454:1.0 
-268.97092416910004 787.2429021558376 40:1.0 78:1.0 106:1.0 107:1.0 178:1.0 222:1.0 306:1.0 363:1.0 383:1.0 384:1.0 594:1.0 968:1.0 969:1.0 970:1.0 971:1.0 972:1.0 
-2048.0 1656.8850911778538 40:1.0 122:1.0 987:1.0 988:1.0 
-1796.5886649998995 924.2848797783321 31:1.0 40:1.0 78:1.0 112:1.0 122:1.0 168:1.0 280:1.0 316:1.0 820:1.0 990:1.0 
-0.0 61.47795218797211 40:1.0 168:1.0 210:1.0 296:1.0 507:1.0 854:1.0 1021:1.0 1024:1.0 1025:1.0 1026:1.0 1027:1.0 1028:1.0 1029:1.0 1030:1.0 
-211.3697936740405 284.500761372888 11:1.0 40:1.0 81:1.0 186:1.0 196:1.0 296:1.0 710:1.0 712:1.0 735:1.0 1048:1.0 
-2048.0 2048.0 40:1.0 454:1.0 
-1981.154495724839 0.8572805096735953 40:1.0 188:1.0 351:1.0 454:1.0 
-0.0 119.07251453537265 38:1.0 40:1.0 75:1.0 79:1.0 105:1.0 206:1.0 233:1.0 377:1.0 1052:1.0 
-0.0 259.7644500675455 40:1.0 86:1.0 310:1.0 441:1.0 
-0.0 2048.0 40:1.0 178:1.0 306:1.0 
-1877.6369187464288 1193.4214516896932 40:1.0 54:1.0 842:1.0 1097:1.0 1098:1.0 
-1603.358812436169 601.3138260966724 5:1.0 31:1.0 32:1.0 401:1.0 659:1.0 942:1.0 1068:1.0 1102:1.0 1104:1.0 1105:1.0 
-959.1517661158903 78.01151537506215 10:1.0 76:1.0 96:1.0 123:1.0 156:1.0 283:1.0 794:1.0 1111:1.0 1112:1.0 
-1648.3244060321047 1069.105476947619 96:1.0 1113:1.0 1114:1.0 1115:1.0 
-329.6216431751213 792.7627253415756 40:1.0 45:1.0 47:1.0 96:1.0 125:1.0 359:1.0 811:1.0 1123:1.0 1124:1.0 
-1907.9420765454872 0.0 52:1.0 75:1.0 96:1.0 534:1.0 1010:1.0 1125:1.0 
-0.0 174.11926376065023 3:1.0 40:1.0 77:1.0 78:1.0 81:1.0 90:1.0 168:1.0 289:1.0 290:1.0 296:1.0 441:1.0 735:1.0 865:1.0 1068:1.0 1130:1.0 1131:1.0 
-997.4726009913691 0.0 77:1.0 289:1.0 290:1.0 296:1.0 383:1.0 384:1.0 
-0.0 131.95421178908865 4:1.0 5:1.0 77:1.0 90:1.0 207:1.0 283:1.0 289:1.0 290:1.0 855:1.0 
-895.1037734614075 1.0825632898493036 57:1.0 168:1.0 196:1.0 245:1.0 434:1.0 532:1.0 1148:1.0 1149:1.0 1150:1.0 1151:1.0 
-2048.0 1206.9294742909362 79:1.0 81:1.0 272:1.0 
-0.0 1207.969484005198 147:1.0 277:1.0 
-1886.5423660242434 870.1702317294564 226:1.0 227:1.0 429:1.0 430:1.0 1176:1.0 
-2048.0 1029.211124643006 349:1.0 1177:1.0 
-2048.0 2048.0 1180:1.0 1181:1.0 
-225.105337438611 0.0 5:1.0 8:1.0 40:1.0 77:1.0 122:1.0 189:1.0 258:1.0 
-2048.0 1651.728554017485 88:1.0 1183:1.0 
-182.4060048680724 0.0 388:1.0 514:1.0 
-2048.0 1350.078392783509 80:1.0 144:1.0 
-756.7060415107983 0.0 38:1.0 306:1.0 808:1.0 1192:1.0 1193:1.0 
-294.38092969732185 203.89263275565602 207:1.0 283:1.0 393:1.0 427:1.0 496:1.0 1194:1.0 1195:1.0 1196:1.0 1197:1.0 1198:1.0 1199:1.0 
-1627.5102033878575 540.3480080518677 79:1.0 325:1.0 393:1.0 
-235.14888143845553 762.8357963269975 196:1.0 233:1.0 262:1.0 296:1.0 618:1.0 1148:1.0 
-706.6250764971568 437.9517504930265 233:1.0 277:1.0 1238:1.0 1239:1.0 1240:1.0 
-1947.1474241298745 1488.6971799762518 96:1.0 100:1.0 233:1.0 234:1.0 248:1.0 
-2048.0 636.7600933325964 199:1.0 233:1.0 461:1.0 635:1.0 1242:1.0 1243:1.0 1244:1.0 
-1015.7893609701348 98.23026329277916 31:1.0 124:1.0 253:1.0 277:1.0 
-125.40733928129575 0.0 5:1.0 8:1.0 38:1.0 131:1.0 189:1.0 422:1.0 1258:1.0 1259:1.0 
-386.04400156267025 396.63516520607055 179:1.0 727:1.0 1260:1.0 1261:1.0 1262:1.0 1263:1.0 
-443.4777555556905 0.0 204:1.0 310:1.0 882:1.0 1134:1.0 1276:1.0 
-2048.0 2048.0 75:1.0 310:1.0 
-0.0 187.84865756409476 202:1.0 310:1.0 572:1.0 1279:1.0 
-1389.458690049755 393.2215658038931 54:1.0 534:1.0 1010:1.0 1125:1.0 
-0.0 73.80975248613984 79:1.0 503:1.0 1125:1.0 
-1321.2054820609471 1284.830227772439 31:1.0 204:1.0 336:1.0 1100:1.0 1125:1.0 
-0.0 486.50002068554295 40:1.0 208:1.0 345:1.0 1068:1.0 1125:1.0 1280:1.0 1281:1.0 
-1052.1540292664565 758.73744536705 72:1.0 1294:1.0 1295:1.0 
-2048.0 2048.0 72:1.0 
-0.0 210.06477390110794 147:1.0 388:1.0 405:1.0 422:1.0 1307:1.0 1308:1.0 
-262.82414381659765 0.0 45:1.0 69:1.0 125:1.0 168:1.0 820:1.0 1313:1.0 1314:1.0 
-402.441654928278 0.0 10:1.0 31:1.0 97:1.0 277:1.0 1329:1.0 1330:1.0 1331:1.0 1332:1.0 
-1828.3497088526824 0.0 10:1.0 11:1.0 38:1.0 349:1.0 422:1.0 1341:1.0 
-617.5804542108499 752.5785934847247 10:1.0 147:1.0 1261:1.0 1342:1.0 
-638.7493947754615 363.1579491841664 69:1.0 70:1.0 1146:1.0 1343:1.0 1344:1.0 1345:1.0 
-116.90578007409289 282.02442845541407 9:1.0 272:1.0 295:1.0 934:1.0 1346:1.0 
-0.0 416.0473408073839 178:1.0 206:1.0 278:1.0 534:1.0 567:1.0 916:1.0 1324:1.0 1368:1.0 
-460.3062181849552 77.06272818098618 40:1.0 75:1.0 79:1.0 81:1.0 152:1.0 318:1.0 491:1.0 1100:1.0 1382:1.0 1383:1.0 1384:1.0 1385:1.0 1386:1.0 
-210.7045827450283 159.91963780994018 30:1.0 31:1.0 32:1.0 449:1.0 
-1538.0188813275265 0.0 30:1.0 72:1.0 
-0.0 93.3486127928125 32:1.0 206:1.0 207:1.0 417:1.0 418:1.0 732:1.0 875:1.0 1399:1.0 1400:1.0 1401:1.0 1402:1.0 
-1198.432656315206 371.7141239846749 35:1.0 38:1.0 745:1.0 1096:1.0 1403:1.0 
-424.61136403907557 2048.0 4:1.0 207:1.0 1406:1.0 
-75.5549374791469 104.74478416042987 38:1.0 207:1.0 1416:1.0 1417:1.0 1418:1.0 
-0.0 1066.8561476298296 105:1.0 207:1.0 272:1.0 
-1729.9510087958956 2048.0 207:1.0 1201:1.0 
-1223.1069791472387 0.0 31:1.0 72:1.0 1438:1.0 
-0.0 337.20691610882665 31:1.0 72:1.0 78:1.0 377:1.0 1445:1.0 1446:1.0 
-1159.945229847584 924.3508807412513 178:1.0 363:1.0 727:1.0 
-2048.0 295.62239971899544 178:1.0 306:1.0 561:1.0 562:1.0 
-2048.0 1309.2712259671894 46:1.0 1452:1.0 
-1637.9999375304274 743.5898347539701 38:1.0 349:1.0 398:1.0 399:1.0 448:1.0 
-229.30704711097727 536.4070830500592 79:1.0 85:1.0 237:1.0 503:1.0 1453:1.0 
-2048.0 0.0 38:1.0 233:1.0 277:1.0 
-2048.0 2048.0 467:1.0 655:1.0 
-447.2939071981799 603.2278995193313 39:1.0 296:1.0 473:1.0 1485:1.0 
-461.21635487372964 658.9968829623425 7:1.0 77:1.0 1138:1.0 1492:1.0 1493:1.0 1494:1.0 
-1817.5669667976076 713.6268958802166 156:1.0 290:1.0 441:1.0 525:1.0 
-1447.5296524333908 1003.1791054276325 8:1.0 9:1.0 11:1.0 1497:1.0 
-0.0 2048.0 79:1.0 206:1.0 
-338.7721320199171 23.995985367952194 40:1.0 310:1.0 1504:1.0 1505:1.0 
-639.8099247035616 0.0 38:1.0 306:1.0 569:1.0 1506:1.0 1507:1.0 
-344.25307433907784 641.4003391751415 78:1.0 112:1.0 152:1.0 328:1.0 356:1.0 593:1.0 820:1.0 1049:1.0 1518:1.0 1519:1.0 
-2048.0 2048.0 88:1.0 1183:1.0 
-2048.0 2048.0 105:1.0 1423:1.0 
-627.5558472801005 0.0 38:1.0 75:1.0 234:1.0 451:1.0 528:1.0 766:1.0 820:1.0 1529:1.0 
-2048.0 1974.125582593098 7:1.0 1530:1.0 
-0.0 265.9362620525758 8:1.0 54:1.0 105:1.0 889:1.0 1261:1.0 1506:1.0 1531:1.0 
-2048.0 135.1376368804593 31:1.0 69:1.0 70:1.0 1065:1.0 
-0.0 387.24771941029184 105:1.0 388:1.0 551:1.0 1538:1.0 1543:1.0 1544:1.0 
-1150.711006844076 2048.0 54:1.0 108:1.0 
-570.5726333925301 313.60639057116316 10:1.0 38:1.0 84:1.0 89:1.0 146:1.0 165:1.0 222:1.0 1552:1.0 1553:1.0 
-812.6672102986904 687.2840279288667 201:1.0 202:1.0 580:1.0 934:1.0 1556:1.0 
-2048.0 2048.0 40:1.0 88:1.0 125:1.0 306:1.0 
-1907.2240034539739 426.93669930585827 10:1.0 97:1.0 121:1.0 673:1.0 1261:1.0 1565:1.0 
-1623.1325892121836 1957.8624178144673 131:1.0 207:1.0 763:1.0 1572:1.0 
-2048.0 952.4212183313572 69:1.0 70:1.0 174:1.0 
-1.7090232703849324 0.0 38:1.0 69:1.0 70:1.0 1579:1.0 
-2048.0 953.9561469682427 388:1.0 852:1.0 
-0.0 315.3655360031511 10:1.0 27:1.0 86:1.0 296:1.0 393:1.0 507:1.0 567:1.0 1583:1.0 1584:1.0 1585:1.0 1586:1.0 1587:1.0 
-410.9949098863355 264.66043586795536 38:1.0 54:1.0 105:1.0 262:1.0 310:1.0 703:1.0 1604:1.0 
-819.8639388959997 305.40120200946444 56:1.0 281:1.0 349:1.0 995:1.0 996:1.0 1107:1.0 1620:1.0 
-0.0 681.2228422524595 10:1.0 108:1.0 202:1.0 1330:1.0 1621:1.0 
-2048.0 0.0 84:1.0 90:1.0 347:1.0 422:1.0 423:1.0 426:1.0 427:1.0 1630:1.0 
-0.0 733.4409357916554 8:1.0 52:1.0 86:1.0 105:1.0 271:1.0 1423:1.0 1638:1.0 
-89.44272622808386 142.5102680071191 46:1.0 47:1.0 54:1.0 146:1.0 442:1.0 1370:1.0 1659:1.0 
-273.35840036341824 490.98073788937126 45:1.0 46:1.0 174:1.0 369:1.0 763:1.0 964:1.0 
-0.0 109.89692965787397 38:1.0 238:1.0 296:1.0 593:1.0 
-449.52687859748846 1015.8662412761673 108:1.0 1680:1.0 1681:1.0 
-490.46900256107983 702.1846287959495 79:1.0 96:1.0 123:1.0 1696:1.0 
-0.0 237.84637821243768 277:1.0 1696:1.0 1698:1.0 
-684.3467694787969 0.0 38:1.0 201:1.0 1699:1.0 
-441.8727852191075 602.0695645625135 38:1.0 86:1.0 206:1.0 257:1.0 377:1.0 575:1.0 1702:1.0 1703:1.0 
-452.0936263560573 218.69725543306072 75:1.0 156:1.0 351:1.0 454:1.0 1726:1.0 1727:1.0 
-1034.839035692236 314.68214817662806 8:1.0 40:1.0 97:1.0 196:1.0 210:1.0 549:1.0 593:1.0 1755:1.0 1756:1.0 1757:1.0 
-1275.7991888136405 102.28890521241834 206:1.0 304:1.0 401:1.0 916:1.0 
-652.4581003381785 307.87579674412456 310:1.0 1783:1.0 1784:1.0 
-49.38315380436273 615.1456198938748 274:1.0 310:1.0 375:1.0 1796:1.0 1797:1.0 
-0.0 87.73730189508625 47:1.0 296:1.0 422:1.0 854:1.0 1798:1.0 
-389.0301725495116 457.44071521270297 40:1.0 75:1.0 88:1.0 89:1.0 99:1.0 105:1.0 117:1.0 178:1.0 263:1.0 437:1.0 889:1.0 1402:1.0 1632:1.0 1817:1.0 1818:1.0 1819:1.0 
-1116.279741442919 1461.4573225241415 5:1.0 40:1.0 75:1.0 306:1.0 677:1.0 1829:1.0 
-79.52136157226404 209.50121948469754 40:1.0 84:1.0 88:1.0 94:1.0 329:1.0 375:1.0 534:1.0 758:1.0 1324:1.0 1370:1.0 1830:1.0 1831:1.0 1832:1.0 1833:1.0 1834:1.0 1835:1.0 
-0.0 545.5713340385303 96:1.0 105:1.0 820:1.0 1822:1.0 
-2048.0 2039.3700586175257 284:1.0 1840:1.0 1841:1.0 
-2048.0 1262.059842328952 79:1.0 143:1.0 588:1.0 1848:1.0 
-1959.6094611207222 275.18054666002723 80:1.0 288:1.0 295:1.0 528:1.0 1788:1.0 
-988.4815155994861 979.6614310660217 57:1.0 156:1.0 375:1.0 882:1.0 1810:1.0 1871:1.0 
-399.22735376638184 8.364070299157957 8:1.0 11:1.0 80:1.0 170:1.0 171:1.0 233:1.0 952:1.0 1389:1.0 1877:1.0 1878:1.0 
-2048.0 1378.6677783560528 40:1.0 98:1.0 178:1.0 352:1.0 1886:1.0 
-2048.0 1586.2101233196352 147:1.0 590:1.0 1892:1.0 
-2048.0 1194.793852037199 427:1.0 507:1.0 1419:1.0 1896:1.0 
-1241.3806381874174 0.0 30:1.0 31:1.0 32:1.0 72:1.0 125:1.0 231:1.0 
-0.0 52.788304704165924 77:1.0 178:1.0 206:1.0 427:1.0 496:1.0 1231:1.0 
-32.80926558016192 572.371783736521 7:1.0 178:1.0 1735:1.0 1929:1.0 
-761.8133397825352 0.0 57:1.0 79:1.0 503:1.0 
-1420.9945396809446 0.0 57:1.0 328:1.0 473:1.0 1954:1.0 
-978.7872820211528 210.9449606479085 10:1.0 31:1.0 449:1.0 701:1.0 1239:1.0 
-0.0 625.617476911673 80:1.0 119:1.0 147:1.0 
-0.0 942.4514408253714 38:1.0 84:1.0 165:1.0 648:1.0 811:1.0 
-0.0 341.1793416650092 40:1.0 79:1.0 288:1.0 503:1.0 593:1.0 1113:1.0 1604:1.0 1973:1.0 
-135.22774375683161 659.7413959058831 45:1.0 47:1.0 79:1.0 92:1.0 112:1.0 125:1.0 1982:1.0 1983:1.0 1984:1.0 1985:1.0 1986:1.0 
-2048.0 2048.0 38:1.0 1987:1.0 
-268.0692945636884 589.1963573252267 8:1.0 40:1.0 213:1.0 249:1.0 272:1.0 386:1.0 1988:1.0 1989:1.0 
-347.87270540401613 769.1931722325184 46:1.0 47:1.0 149:1.0 230:1.0 245:1.0 289:1.0 442:1.0 673:1.0 763:1.0 
-2048.0 1327.668107787023 186:1.0 225:1.0 1445:1.0 1494:1.0 
-415.9325032855375 0.0 31:1.0 40:1.0 46:1.0 377:1.0 491:1.0 855:1.0 1696:1.0 2013:1.0 
-1314.373025853833 0.0 38:1.0 69:1.0 70:1.0 
-0.0 2048.0 79:1.0 86:1.0 388:1.0 
-591.3870295967333 -151.65550177995965 103:1.0 104:1.0 105:1.0 
-1142.502129169476 -1839.3654880694155 97:1.0 106:1.0 107:1.0 108:1.0 109:1.0 110:1.0 
-153.67571604700376 -0.0 131:1.0 132:1.0 133:1.0 134:1.0 135:1.0 136:1.0 137:1.0 138:1.0 139:1.0 140:1.0 141:1.0 
-0.0 -142.03158363028714 79:1.0 86:1.0 145:1.0 146:1.0 147:1.0 148:1.0 149:1.0 150:1.0 151:1.0 152:1.0 
-0.0 -486.76244873981284 54:1.0 79:1.0 148:1.0 207:1.0 208:1.0 209:1.0 210:1.0 211:1.0 212:1.0 213:1.0 214:1.0 215:1.0 
-257.5160954882943 -477.71219917876755 8:1.0 25:1.0 88:1.0 132:1.0 216:1.0 217:1.0 218:1.0 219:1.0 220:1.0 
-1174.8988078120497 -431.5603752025066 77:1.0 78:1.0 96:1.0 149:1.0 242:1.0 243:1.0 244:1.0 245:1.0 246:1.0 247:1.0 
-808.3702746583476 -284.36600891406243 40:1.0 75:1.0 153:1.0 259:1.0 260:1.0 261:1.0 262:1.0 263:1.0 264:1.0 265:1.0 266:1.0 267:1.0 268:1.0 269:1.0 270:1.0 
-989.6605569288085 -588.9245218581545 25:1.0 40:1.0 125:1.0 156:1.0 282:1.0 283:1.0 284:1.0 285:1.0 286:1.0 287:1.0 288:1.0 
-2048.0 -2048.0 105:1.0 322:1.0 
-1282.4103538742372 -1511.268719879928 54:1.0 275:1.0 350:1.0 
-186.1595385106967 -88.66868092111038 40:1.0 183:1.0 364:1.0 365:1.0 366:1.0 367:1.0 368:1.0 369:1.0 370:1.0 371:1.0 
-1304.5543333147455 -2048.0 40:1.0 105:1.0 123:1.0 379:1.0 
-2048.0 -2048.0 447:1.0 
-1130.7884615958205 -1476.4940999944577 178:1.0 377:1.0 492:1.0 493:1.0 
-1106.982430686049 -1238.1596617824127 40:1.0 221:1.0 222:1.0 494:1.0 495:1.0 496:1.0 
-175.63472958863466 -0.0 148:1.0 509:1.0 510:1.0 511:1.0 
-108.14746840305831 -1302.9447098652142 105:1.0 108:1.0 112:1.0 530:1.0 531:1.0 
-1282.8376665083038 -972.0197850754494 54:1.0 275:1.0 548:1.0 
-2048.0 -1805.1057897332291 38:1.0 273:1.0 595:1.0 596:1.0 
-633.8995235776474 -163.3192138514697 636:1.0 637:1.0 638:1.0 639:1.0 640:1.0 
-2048.0 -2048.0 78:1.0 665:1.0 
-184.22412414957378 -183.57464158488713 57:1.0 78:1.0 86:1.0 148:1.0 666:1.0 667:1.0 668:1.0 
-891.2436412117722 -750.0260626629757 78:1.0 108:1.0 112:1.0 233:1.0 257:1.0 375:1.0 407:1.0 
-298.4130902513198 -23.82766966503241 78:1.0 273:1.0 614:1.0 669:1.0 670:1.0 
-1893.7820363160113 -1039.9955582322768 45:1.0 75:1.0 315:1.0 671:1.0 672:1.0 673:1.0 
-1380.9564655935076 -703.5743224250393 96:1.0 186:1.0 283:1.0 292:1.0 293:1.0 501:1.0 565:1.0 676:1.0 677:1.0 
-605.7206974294759 -354.26697122762073 130:1.0 271:1.0 687:1.0 688:1.0 
-2048.0 -1823.0257878767857 689:1.0 690:1.0 
-1188.7794103063625 -163.75577062576767 40:1.0 86:1.0 92:1.0 125:1.0 691:1.0 
-617.4245176614315 -878.9472239394154 178:1.0 447:1.0 693:1.0 694:1.0 
-482.19055001229515 -269.5539246281256 54:1.0 87:1.0 90:1.0 152:1.0 265:1.0 275:1.0 588:1.0 702:1.0 703:1.0 704:1.0 705:1.0 706:1.0 707:1.0 708:1.0 
-1522.3797948095764 -1006.6774113323075 4:1.0 106:1.0 131:1.0 204:1.0 257:1.0 714:1.0 
-1380.2306600099787 -2048.0 77:1.0 207:1.0 718:1.0 721:1.0 722:1.0 
-2048.0 -2048.0 86:1.0 732:1.0 
-388.6309492752534 -0.0 75:1.0 78:1.0 742:1.0 743:1.0 744:1.0 745:1.0 746:1.0 747:1.0 
-98.5476697783999 -0.0 40:1.0 81:1.0 171:1.0 257:1.0 263:1.0 368:1.0 734:1.0 748:1.0 749:1.0 750:1.0 751:1.0 752:1.0 753:1.0 754:1.0 755:1.0 756:1.0 
-1444.9006725294953 -1014.292509283176 758:1.0 759:1.0 760:1.0 761:1.0 
-200.2370356226659 -651.3959992503604 7:1.0 368:1.0 762:1.0 763:1.0 764:1.0 765:1.0 766:1.0 767:1.0 768:1.0 769:1.0 
-2048.0 -2048.0 88:1.0 784:1.0 
-2048.0 -2048.0 86:1.0 831:1.0 
-452.3641683814299 -165.70340122131262 130:1.0 832:1.0 833:1.0 
-0.0 -0.9495578440315788 28:1.0 86:1.0 105:1.0 674:1.0 834:1.0 835:1.0 836:1.0 837:1.0 838:1.0 
-2048.0 -812.3545506002049 86:1.0 834:1.0 
-404.31515951039114 -104.37429458087706 28:1.0 86:1.0 196:1.0 256:1.0 257:1.0 346:1.0 753:1.0 834:1.0 839:1.0 840:1.0 841:1.0 842:1.0 843:1.0 844:1.0 845:1.0 846:1.0 
-2048.0 -1966.8625088632048 169:1.0 302:1.0 858:1.0 
-776.7355665744777 -568.4582166836565 96:1.0 105:1.0 186:1.0 233:1.0 422:1.0 867:1.0 868:1.0 869:1.0 
-0.0 -99.16723092749888 105:1.0 178:1.0 870:1.0 871:1.0 
-299.3427345901156 -428.9559364703529 28:1.0 86:1.0 735:1.0 834:1.0 872:1.0 
-787.8365875555779 -1163.1237760749887 75:1.0 79:1.0 88:1.0 131:1.0 213:1.0 248:1.0 398:1.0 873:1.0 874:1.0 
-415.7515601134982 -118.40625670674483 222:1.0 318:1.0 637:1.0 638:1.0 822:1.0 875:1.0 876:1.0 
-2048.0 -787.3835019259793 659:1.0 753:1.0 822:1.0 879:1.0 880:1.0 
-799.9261480195763 -593.8861016796233 136:1.0 888:1.0 889:1.0 890:1.0 891:1.0 892:1.0 893:1.0 
-946.8110278297848 -378.3711415278602 40:1.0 691:1.0 894:1.0 895:1.0 
-1401.1887974214708 -1203.9275553073392 129:1.0 510:1.0 934:1.0 935:1.0 
-1881.361026725983 -1255.9684339907794 31:1.0 101:1.0 102:1.0 184:1.0 700:1.0 951:1.0 952:1.0 953:1.0 
-2048.0 -2048.0 38:1.0 964:1.0 965:1.0 
-452.48091075095886 -1322.0541890803709 40:1.0 147:1.0 207:1.0 315:1.0 405:1.0 973:1.0 974:1.0 975:1.0 
-153.82492026673393 -250.99833950465103 40:1.0 147:1.0 868:1.0 973:1.0 976:1.0 977:1.0 978:1.0 
-593.0017166986247 -837.023923550096 40:1.0 75:1.0 122:1.0 262:1.0 636:1.0 637:1.0 638:1.0 982:1.0 
-0.0 -4.968541715038958 40:1.0 75:1.0 122:1.0 637:1.0 638:1.0 983:1.0 984:1.0 985:1.0 986:1.0 
-738.9050789224193 -362.39206715071504 10:1.0 40:1.0 105:1.0 148:1.0 183:1.0 306:1.0 703:1.0 1011:1.0 1012:1.0 1013:1.0 1014:1.0 
-2048.0 -2048.0 40:1.0 1015:1.0 
-1254.4224300368169 -1103.8253141278103 40:1.0 348:1.0 793:1.0 1017:1.0 1018:1.0 
-0.0 -24.231603470271793 11:1.0 40:1.0 47:1.0 125:1.0 130:1.0 424:1.0 1021:1.0 1022:1.0 1023:1.0 
-1197.1536228466048 -2048.0 38:1.0 40:1.0 691:1.0 1032:1.0 
-523.7075744364836 -319.3198682642376 40:1.0 75:1.0 81:1.0 368:1.0 550:1.0 551:1.0 942:1.0 1044:1.0 1045:1.0 1046:1.0 1047:1.0 
-40.24950987456951 -538.1704687872892 40:1.0 148:1.0 1067:1.0 1068:1.0 1069:1.0 
-520.9851479894414 -691.4323981200017 40:1.0 119:1.0 691:1.0 1079:1.0 
-0.0 -153.7896534243983 38:1.0 40:1.0 43:1.0 78:1.0 105:1.0 148:1.0 288:1.0 424:1.0 594:1.0 842:1.0 1100:1.0 1101:1.0 
-2048.0 -2048.0 96:1.0 868:1.0 
-2048.0 -1926.8441911998912 1033:1.0 1140:1.0 
-902.9594889372565 -463.930444873585 4:1.0 493:1.0 498:1.0 899:1.0 1147:1.0 
-1550.4455002826294 -0.0 43:1.0 148:1.0 178:1.0 222:1.0 233:1.0 257:1.0 1007:1.0 1173:1.0 
-2048.0 -2048.0 233:1.0 283:1.0 1175:1.0 
-1251.1397423336443 -1365.9425666381553 4:1.0 865:1.0 1178:1.0 1179:1.0 
-196.0607562115856 -0.0 156:1.0 168:1.0 213:1.0 233:1.0 249:1.0 667:1.0 833:1.0 834:1.0 958:1.0 1184:1.0 1185:1.0 1186:1.0 
-1407.4094349640175 -1339.094780051865 132:1.0 202:1.0 1187:1.0 
-674.1034547375189 -84.37090260274866 130:1.0 559:1.0 582:1.0 1188:1.0 1189:1.0 1190:1.0 
-1098.9547790673626 -336.494391054928 130:1.0 1191:1.0 
-1677.7024166757085 -849.789805932258 1205:1.0 1206:1.0 
-2048.0 -2048.0 871:1.0 
-1336.4443258287176 -328.97914964081116 124:1.0 204:1.0 493:1.0 1250:1.0 1251:1.0 
-1110.4275349200943 -680.9728594966076 98:1.0 603:1.0 1252:1.0 1253:1.0 1254:1.0 1255:1.0 
-352.7306712859523 -628.351649078297 97:1.0 147:1.0 148:1.0 151:1.0 306:1.0 362:1.0 878:1.0 1068:1.0 1272:1.0 1273:1.0 1274:1.0 1275:1.0 
-1926.1527633390008 -1284.117147751235 733:1.0 1277:1.0 
-1927.0899745879003 -1284.7690290389528 733:1.0 1278:1.0 
-397.095019005319 -849.5212185872781 78:1.0 179:1.0 296:1.0 529:1.0 744:1.0 745:1.0 811:1.0 823:1.0 852:1.0 1296:1.0 
-0.0 -1273.034928587246 178:1.0 186:1.0 677:1.0 823:1.0 1298:1.0 1299:1.0 
-146.83616623983852 -0.0 125:1.0 165:1.0 167:1.0 210:1.0 338:1.0 448:1.0 878:1.0 909:1.0 1309:1.0 1310:1.0 1311:1.0 1312:1.0 
-544.8855248541176 -0.0 75:1.0 104:1.0 105:1.0 
-0.0 -1453.6704719740565 75:1.0 79:1.0 105:1.0 871:1.0 
-1292.8482004302587 -180.62864705045763 168:1.0 951:1.0 1292:1.0 1317:1.0 1318:1.0 1319:1.0 1320:1.0 1321:1.0 
-2048.0 -2048.0 104:1.0 
-487.6320738087513 -1077.60186213531 38:1.0 40:1.0 75:1.0 288:1.0 386:1.0 963:1.0 1317:1.0 1351:1.0 1352:1.0 1353:1.0 1354:1.0 
-582.1059548695774 -0.0 105:1.0 868:1.0 
-119.49626396344581 -0.0 38:1.0 78:1.0 112:1.0 138:1.0 536:1.0 1206:1.0 1355:1.0 
-2048.0 -560.9957251416444 125:1.0 209:1.0 283:1.0 677:1.0 
-465.387739751672 -990.8117105070021 88:1.0 156:1.0 165:1.0 167:1.0 196:1.0 289:1.0 399:1.0 648:1.0 812:1.0 1359:1.0 1360:1.0 1361:1.0 
-1117.2691373835617 -422.14110222449455 753:1.0 964:1.0 1377:1.0 
-89.27562424545246 -0.0 130:1.0 131:1.0 156:1.0 186:1.0 348:1.0 1378:1.0 1379:1.0 1380:1.0 1381:1.0 
-2048.0 -1835.2853673947627 10:1.0 24:1.0 507:1.0 1404:1.0 1405:1.0 
-691.9584162098073 -366.9449726543429 167:1.0 921:1.0 1420:1.0 1421:1.0 1422:1.0 
-0.0 -521.5315781691378 178:1.0 493:1.0 1250:1.0 1450:1.0 1451:1.0 
-0.0 -93.96518706072003 178:1.0 222:1.0 868:1.0 
-31.9899796678489 -139.2576433761122 54:1.0 105:1.0 148:1.0 1086:1.0 1238:1.0 1483:1.0 1484:1.0 
-1565.4652419478005 -2048.0 40:1.0 79:1.0 81:1.0 88:1.0 281:1.0 1502:1.0 1503:1.0 
-237.14923294146064 -279.083876305569 38:1.0 275:1.0 703:1.0 735:1.0 889:1.0 1134:1.0 
-0.0 -65.89338274149952 79:1.0 132:1.0 537:1.0 1535:1.0 1536:1.0 
-70.27371118612962 -124.22878127846035 81:1.0 105:1.0 133:1.0 136:1.0 650:1.0 1013:1.0 1538:1.0 1539:1.0 1540:1.0 1541:1.0 1542:1.0 
-0.0 -731.8861585931313 54:1.0 108:1.0 112:1.0 968:1.0 1558:1.0 1559:1.0 1560:1.0 
-0.0 -367.17884271778746 74:1.0 78:1.0 105:1.0 178:1.0 245:1.0 539:1.0 1346:1.0 1566:1.0 1567:1.0 1568:1.0 
-0.0 -391.8122346160002 104:1.0 105:1.0 1177:1.0 1564:1.0 1569:1.0 
-1072.612588895852 -1000.1757814899775 178:1.0 270:1.0 442:1.0 782:1.0 805:1.0 856:1.0 1570:1.0 1571:1.0 
-1469.1456686817376 -892.516838221108 284:1.0 710:1.0 864:1.0 1576:1.0 1577:1.0 1578:1.0 
-1966.7432884613165 -874.0025032600065 233:1.0 368:1.0 1580:1.0 
-457.4481146377778 -140.87570813258407 11:1.0 130:1.0 1581:1.0 1582:1.0 
-786.953789998221 -165.85177370634352 130:1.0 1141:1.0 1588:1.0 
-217.52183562918657 -242.88957295626233 40:1.0 94:1.0 165:1.0 167:1.0 405:1.0 648:1.0 811:1.0 842:1.0 947:1.0 1027:1.0 1589:1.0 1590:1.0 1591:1.0 
-170.402669534083 -0.0 40:1.0 116:1.0 434:1.0 691:1.0 
-1067.016902786537 -722.7205664647138 131:1.0 132:1.0 763:1.0 1204:1.0 1600:1.0 
-997.223220106081 -533.8489809643146 133:1.0 539:1.0 1059:1.0 1618:1.0 1619:1.0 
-1342.717946497418 -603.6432188736611 1348:1.0 1622:1.0 1623:1.0 1624:1.0 1625:1.0 
-2048.0 -2048.0 1629:1.0 
-1583.455571760624 -1705.1496877704144 8:1.0 116:1.0 168:1.0 1639:1.0 1640:1.0 1641:1.0 
-600.8151829018267 -509.6822275311816 593:1.0 834:1.0 1230:1.0 1642:1.0 
-875.830259850417 -570.141931694424 5:1.0 32:1.0 112:1.0 763:1.0 1296:1.0 1397:1.0 1643:1.0 1644:1.0 1645:1.0 
-2048.0 -265.59882603354407 11:1.0 75:1.0 112:1.0 233:1.0 1152:1.0 1241:1.0 1632:1.0 1646:1.0 
-516.2300750017974 -853.2611730362746 5:1.0 11:1.0 130:1.0 743:1.0 
-1942.406669129022 -0.0 593:1.0 871:1.0 1665:1.0 
-2048.0 -356.441925095291 43:1.0 151:1.0 352:1.0 533:1.0 1672:1.0 
-592.8576490778668 -827.9253768408337 79:1.0 125:1.0 359:1.0 422:1.0 946:1.0 1623:1.0 1677:1.0 1678:1.0 1679:1.0 
-1966.9463950454722 -198.46927732902608 38:1.0 43:1.0 386:1.0 537:1.0 1682:1.0 1683:1.0 
-624.6952563555491 -777.4032755688131 79:1.0 147:1.0 148:1.0 278:1.0 533:1.0 1684:1.0 
-80.4537540182023 -0.0 40:1.0 103:1.0 165:1.0 167:1.0 202:1.0 222:1.0 300:1.0 318:1.0 342:1.0 394:1.0 414:1.0 947:1.0 1000:1.0 1688:1.0 1689:1.0 1690:1.0 1691:1.0 
-22.40285446890389 -20.35029407637669 165:1.0 167:1.0 538:1.0 539:1.0 648:1.0 1692:1.0 1693:1.0 1694:1.0 
-922.5073399112775 -393.29087176959746 165:1.0 167:1.0 804:1.0 1695:1.0 
-908.9981304702914 -610.1984463619084 38:1.0 86:1.0 368:1.0 1700:1.0 1701:1.0 
-879.412919170049 -859.3249119122114 27:1.0 40:1.0 117:1.0 149:1.0 169:1.0 274:1.0 306:1.0 385:1.0 784:1.0 968:1.0 1021:1.0 1725:1.0 
-2048.0 -2048.0 222:1.0 1494:1.0 1728:1.0 
-894.6659162783767 -59.68814487220013 222:1.0 257:1.0 732:1.0 1729:1.0 1730:1.0 1731:1.0 1732:1.0 
-1967.0676085469051 -532.9921760641803 31:1.0 43:1.0 249:1.0 1740:1.0 1741:1.0 1742:1.0 
-463.016952644934 -936.376579923504 11:1.0 75:1.0 165:1.0 207:1.0 659:1.0 1748:1.0 1749:1.0 1750:1.0 1751:1.0 
-1583.8395500679105 -1024.0964638249952 47:1.0 671:1.0 1752:1.0 1753:1.0 
-0.0 -136.1913296868385 40:1.0 89:1.0 122:1.0 636:1.0 637:1.0 763:1.0 822:1.0 964:1.0 1754:1.0 
-546.5510364284934 -666.2706277691084 78:1.0 81:1.0 114:1.0 133:1.0 152:1.0 1762:1.0 1763:1.0 1764:1.0 1765:1.0 
-0.0 -292.1957089718956 78:1.0 79:1.0 89:1.0 868:1.0 1766:1.0 1767:1.0 
-2048.0 -1283.3087055056096 500:1.0 1776:1.0 1777:1.0 
-1109.293629570608 -710.5302880056705 40:1.0 263:1.0 296:1.0 1174:1.0 1299:1.0 1780:1.0 
-465.5303229563599 -366.470974803754 145:1.0 165:1.0 167:1.0 172:1.0 812:1.0 1781:1.0 1782:1.0 
-961.1373497757786 -293.62997555407327 159:1.0 257:1.0 284:1.0 834:1.0 1335:1.0 1794:1.0 
-2048.0 -2048.0 31:1.0 336:1.0 983:1.0 1754:1.0 
-2048.0 -1287.0075043786017 448:1.0 1558:1.0 1799:1.0 
-1699.8105509965367 -1157.8409565480135 40:1.0 112:1.0 122:1.0 1814:1.0 1815:1.0 
-2048.0 -2048.0 40:1.0 122:1.0 1816:1.0 
-496.2355322146946 -0.0 40:1.0 75:1.0 86:1.0 89:1.0 90:1.0 315:1.0 537:1.0 735:1.0 766:1.0 1348:1.0 1820:1.0 1821:1.0 1822:1.0 1823:1.0 1824:1.0 1825:1.0 
-269.4494107513224 -378.33613940051026 40:1.0 691:1.0 1827:1.0 1828:1.0 
-1016.215723172257 -810.8047147166309 25:1.0 96:1.0 100:1.0 112:1.0 248:1.0 1439:1.0 1440:1.0 1837:1.0 
-1838.1373365405327 -1136.0934864564724 98:1.0 1862:1.0 1863:1.0 1864:1.0 
-503.8687231427164 -0.0 149:1.0 721:1.0 865:1.0 1043:1.0 1068:1.0 1104:1.0 1642:1.0 1870:1.0 
-0.0 -1394.531355406239 40:1.0 47:1.0 125:1.0 130:1.0 375:1.0 811:1.0 1124:1.0 
-2048.0 -1848.0752110516153 206:1.0 567:1.0 1174:1.0 1889:1.0 
-476.74682190756545 -0.0 90:1.0 97:1.0 104:1.0 105:1.0 112:1.0 318:1.0 375:1.0 1900:1.0 1901:1.0 
-860.9459001414349 -228.04737345883441 43:1.0 79:1.0 86:1.0 155:1.0 1138:1.0 1496:1.0 1902:1.0 1903:1.0 1904:1.0 1905:1.0 
-156.58319659842158 -244.59768332159263 75:1.0 111:1.0 257:1.0 364:1.0 537:1.0 1781:1.0 1906:1.0 1907:1.0 
-418.33919184148056 -230.40374197802862 28:1.0 266:1.0 270:1.0 368:1.0 504:1.0 1917:1.0 1918:1.0 1919:1.0 1920:1.0 1921:1.0 
-0.0 -189.47483006726264 7:1.0 78:1.0 537:1.0 745:1.0 799:1.0 946:1.0 1935:1.0 1936:1.0 
-433.2593174440003 -331.30811782348826 38:1.0 86:1.0 233:1.0 537:1.0 1659:1.0 1942:1.0 1943:1.0 1944:1.0 1945:1.0 
-826.5801180213518 -1264.3443008650008 79:1.0 249:1.0 1946:1.0 1947:1.0 1948:1.0 
-0.0 -121.38059034448946 104:1.0 105:1.0 202:1.0 1949:1.0 1950:1.0 
-858.8259115658173 -262.0482032573784 209:1.0 273:1.0 1382:1.0 1955:1.0 
-116.90241048747761 -935.621787892599 105:1.0 108:1.0 147:1.0 495:1.0 672:1.0 1958:1.0 1959:1.0 1960:1.0 1961:1.0 
-2048.0 -1828.2447983485497 1206:1.0 1810:1.0 
-258.2075556797451 -326.8689702940366 588:1.0 743:1.0 1206:1.0 1977:1.0 
-877.0402549605956 -249.66328852631884 3:1.0 87:1.0 89:1.0 144:1.0 257:1.0 434:1.0 537:1.0 663:1.0 710:1.0 947:1.0 1003:1.0 1845:1.0 1978:1.0 1979:1.0 1980:1.0 1981:1.0 
-1430.4109146819683 -2048.0 275:1.0 306:1.0 1996:1.0 
-838.077882834409 -804.8481548456829 40:1.0 54:1.0 138:1.0 159:1.0 171:1.0 207:1.0 369:1.0 375:1.0 703:1.0 1803:1.0 2003:1.0 2004:1.0 
-2048.0 -2048.0 593:1.0 2005:1.0 
-157.55927214275204 -25.578628202722214 25:1.0 38:1.0 54:1.0 78:1.0 105:1.0 145:1.0 148:1.0 152:1.0 189:1.0 442:1.0 593:1.0 715:1.0 
-0.0 -671.7744341413164 43:1.0 45:1.0 79:1.0 352:1.0 533:1.0 537:1.0 1115:1.0 2006:1.0 2007:1.0 2008:1.0 
-1033.3837492920272 -207.86886464035805 38:1.0 43:1.0 75:1.0 328:1.0 533:1.0 689:1.0 1997:1.0 2009:1.0 2010:1.0 
-1308.4885533103004 -1071.5443574226097 24:1.0 149:1.0 467:1.0 2011:1.0 2012:1.0 
-28.152160258798524 -1173.1249658384847 8:1.0 9:1.0 178:1.0 222:1.0 1174:1.0 1324:1.0 2014:1.0 2015:1.0 
-511.87327209213527 -316.13997850458225 86:1.0 537:1.0 1295:1.0 2016:1.0 
