svm_type c_svc
kernel_type rbf
gamma 3.0517578125E-5
nr_class 3
total_sv 632
rho -5.121745470826684 3.7942853593587063 6.34442603180828
label 0 3 1
probA -2.662286445429346 -2.8737554241317316 -3.9621651040672408
probB -0.22982903526730117 -0.027580644644246012 0.25158565817815576
nr_sv 261 202 169
SV
306.9764281142032 793.9869593783164 10:1.0 11:1.0 12:1.0 13:1.0 14:1.0 15:1.0 16:1.0 17:1.0 
500.9503953668399 1183.8498454123285 10:1.0 11:1.0 14:1.0 15:1.0 16:1.0 18:1.0 19:1.0 
433.958920289528 1091.3967193592057 10:1.0 11:1.0 14:1.0 15:1.0 20:1.0 21:1.0 22:1.0 23:1.0 
6768.532768433317 3400.295702537209 24:1.0 25:1.0 26:1.0 27:1.0 28:1.0 29:1.0 
17826.390015223973 2673.2479680156966 35:1.0 36:1.0 37:1.0 38:1.0 
479.22055873606706 2197.4092436404712 39:1.0 40:1.0 41:1.0 42:1.0 43:1.0 
3176.6348439903686 0.0 50:1.0 51:1.0 52:1.0 53:1.0 54:1.0 55:1.0 
836.3408296719743 1055.715824391046 59:1.0 60:1.0 61:1.0 62:1.0 63:1.0 64:1.0 65:1.0 66:1.0 67:1.0 
1034.9166012642138 0.0 42:1.0 75:1.0 90:1.0 96:1.0 97:1.0 98:1.0 99:1.0 
0.0 2688.1385769983335 75:1.0 86:1.0 117:1.0 118:1.0 119:1.0 120:1.0 
1371.8800902163944 2643.568903187876 40:1.0 122:1.0 124:1.0 125:1.0 126:1.0 127:1.0 128:1.0 
4914.282918168324 0.0 31:1.0 42:1.0 90:1.0 142:1.0 143:1.0 144:1.0 
1981.053729079079 1811.532258086302 31:1.0 88:1.0 138:1.0 153:1.0 154:1.0 155:1.0 156:1.0 157:1.0 158:1.0 159:1.0 160:1.0 161:1.0 162:1.0 163:1.0 
7150.156344220089 0.0 10:1.0 28:1.0 169:1.0 170:1.0 171:1.0 172:1.0 
8961.693437926999 1949.6104976663976 31:1.0 72:1.0 112:1.0 173:1.0 174:1.0 175:1.0 176:1.0 
942.0665253686282 1913.1246667243997 31:1.0 81:1.0 86:1.0 112:1.0 117:1.0 177:1.0 178:1.0 179:1.0 180:1.0 181:1.0 182:1.0 183:1.0 184:1.0 
1348.4943631915783 0.0 72:1.0 186:1.0 190:1.0 191:1.0 192:1.0 193:1.0 194:1.0 195:1.0 196:1.0 197:1.0 198:1.0 
3861.4681966409626 1720.5482081366754 30:1.0 138:1.0 229:1.0 230:1.0 231:1.0 232:1.0 
0.0 2103.0967814246505 75:1.0 120:1.0 159:1.0 197:1.0 
3007.7707381176074 1052.9904342417071 31:1.0 96:1.0 270:1.0 299:1.0 300:1.0 301:1.0 
3684.341565770259 179.10212447041252 302:1.0 303:1.0 304:1.0 305:1.0 306:1.0 
3118.3245430173774 3876.8582871700646 40:1.0 56:1.0 86:1.0 103:1.0 233:1.0 307:1.0 308:1.0 309:1.0 
3206.6525252390466 3620.944632163842 53:1.0 86:1.0 323:1.0 324:1.0 325:1.0 
1525.4171368045752 3815.420037996538 78:1.0 249:1.0 284:1.0 329:1.0 330:1.0 331:1.0 332:1.0 333:1.0 334:1.0 335:1.0 336:1.0 337:1.0 
0.0 1026.010414692808 43:1.0 302:1.0 338:1.0 339:1.0 340:1.0 341:1.0 342:1.0 343:1.0 
751.0099901376491 435.1800416120839 79:1.0 329:1.0 356:1.0 357:1.0 358:1.0 359:1.0 360:1.0 361:1.0 362:1.0 
1110.8052211370548 2755.7018706575323 89:1.0 377:1.0 378:1.0 
1115.4082664755642 2786.0799909302914 39:1.0 43:1.0 86:1.0 88:1.0 380:1.0 381:1.0 382:1.0 
1725.4250316830814 4723.124870305059 40:1.0 249:1.0 394:1.0 395:1.0 396:1.0 397:1.0 
3589.769396546076 0.0 69:1.0 96:1.0 352:1.0 408:1.0 409:1.0 410:1.0 411:1.0 
905.0532059840864 2487.323135352619 86:1.0 87:1.0 145:1.0 198:1.0 253:1.0 352:1.0 412:1.0 413:1.0 414:1.0 
0.0 269.86033697136816 96:1.0 153:1.0 257:1.0 415:1.0 416:1.0 417:1.0 418:1.0 419:1.0 420:1.0 421:1.0 
0.0 342.3471214280673 43:1.0 81:1.0 86:1.0 225:1.0 261:1.0 428:1.0 429:1.0 430:1.0 431:1.0 
1352.2946814722948 4138.800104025834 43:1.0 86:1.0 306:1.0 442:1.0 443:1.0 444:1.0 
4152.397513503036 4997.635777588349 445:1.0 446:1.0 
8634.69852036326 9414.253848127426 96:1.0 316:1.0 448:1.0 
3573.8431077204777 2065.975646696541 43:1.0 57:1.0 204:1.0 450:1.0 
3680.6650007718836 3297.2731931160683 4:1.0 77:1.0 78:1.0 112:1.0 144:1.0 306:1.0 455:1.0 456:1.0 457:1.0 458:1.0 459:1.0 460:1.0 461:1.0 
1131.5211831372533 0.0 43:1.0 97:1.0 178:1.0 206:1.0 210:1.0 316:1.0 319:1.0 427:1.0 439:1.0 468:1.0 469:1.0 470:1.0 471:1.0 472:1.0 473:1.0 
936.8914696629244 1246.3491770644441 86:1.0 117:1.0 222:1.0 394:1.0 426:1.0 475:1.0 476:1.0 477:1.0 478:1.0 
583.2529165758611 0.0 31:1.0 125:1.0 479:1.0 480:1.0 481:1.0 482:1.0 483:1.0 484:1.0 485:1.0 486:1.0 487:1.0 488:1.0 
3827.1480916344926 5065.084576395813 5:1.0 131:1.0 222:1.0 245:1.0 494:1.0 495:1.0 
0.0 529.1719269436107 43:1.0 221:1.0 253:1.0 511:1.0 522:1.0 
1316.4049955118178 5283.72491969534 151:1.0 525:1.0 526:1.0 527:1.0 528:1.0 529:1.0 
4112.688506379123 0.0 40:1.0 101:1.0 102:1.0 186:1.0 270:1.0 352:1.0 390:1.0 581:1.0 582:1.0 583:1.0 584:1.0 
970.2055078242525 2091.7716660555407 98:1.0 587:1.0 588:1.0 589:1.0 590:1.0 591:1.0 
0.0 524.1962213430271 10:1.0 98:1.0 592:1.0 595:1.0 600:1.0 601:1.0 602:1.0 603:1.0 
746.8953587999074 1080.121841524627 98:1.0 604:1.0 605:1.0 606:1.0 607:1.0 608:1.0 609:1.0 610:1.0 611:1.0 612:1.0 613:1.0 
798.0320867029275 912.0586854167043 76:1.0 98:1.0 600:1.0 614:1.0 615:1.0 616:1.0 617:1.0 618:1.0 619:1.0 620:1.0 621:1.0 622:1.0 
1395.512378971994 1099.0251673034318 98:1.0 187:1.0 317:1.0 552:1.0 623:1.0 624:1.0 625:1.0 626:1.0 
2773.7593730854837 1760.3514636768427 98:1.0 642:1.0 643:1.0 644:1.0 645:1.0 646:1.0 647:1.0 
2366.32412771851 2825.7534802406667 125:1.0 648:1.0 649:1.0 650:1.0 
32768.0 32768.0 
922.84122292312 0.0 69:1.0 159:1.0 667:1.0 668:1.0 669:1.0 670:1.0 671:1.0 672:1.0 673:1.0 674:1.0 675:1.0 
0.0 1425.2172379920185 25:1.0 270:1.0 567:1.0 704:1.0 705:1.0 706:1.0 
8946.26392992559 4247.670102985996 79:1.0 189:1.0 225:1.0 712:1.0 713:1.0 
224.63352454752456 1180.6796122405367 592:1.0 717:1.0 718:1.0 719:1.0 720:1.0 
4753.363231793057 3960.0730201761326 88:1.0 233:1.0 727:1.0 728:1.0 729:1.0 
9412.672820486741 6230.498113668012 69:1.0 222:1.0 746:1.0 
2859.8862108325006 1117.4240162114584 84:1.0 371:1.0 542:1.0 764:1.0 765:1.0 766:1.0 767:1.0 768:1.0 769:1.0 770:1.0 771:1.0 
0.0 1314.4307878102618 25:1.0 43:1.0 81:1.0 117:1.0 149:1.0 151:1.0 159:1.0 238:1.0 283:1.0 328:1.0 775:1.0 776:1.0 777:1.0 778:1.0 779:1.0 780:1.0 
5219.226506526317 939.6787720080547 84:1.0 186:1.0 495:1.0 599:1.0 781:1.0 782:1.0 
2381.4777391194925 249.82208133099763 11:1.0 119:1.0 144:1.0 276:1.0 464:1.0 783:1.0 784:1.0 785:1.0 786:1.0 787:1.0 788:1.0 789:1.0 790:1.0 
1802.2946473797815 2418.4237272003243 52:1.0 150:1.0 791:1.0 792:1.0 793:1.0 794:1.0 795:1.0 
8298.29302260046 9920.270134049624 796:1.0 
1767.1929740379603 1681.2772167839066 482:1.0 806:1.0 807:1.0 808:1.0 
885.5914704267448 534.70155802436 15:1.0 813:1.0 814:1.0 815:1.0 816:1.0 817:1.0 818:1.0 819:1.0 
578.8938907122345 0.0 90:1.0 120:1.0 836:1.0 837:1.0 
702.368388548425 0.0 404:1.0 838:1.0 839:1.0 840:1.0 
3830.5934240663373 6666.255533241379 11:1.0 38:1.0 405:1.0 660:1.0 851:1.0 852:1.0 853:1.0 
5451.53289583515 0.0 80:1.0 90:1.0 144:1.0 186:1.0 742:1.0 811:1.0 864:1.0 865:1.0 
10624.320450151208 611.6659296796482 69:1.0 882:1.0 
11612.51047838798 3194.999895574405 38:1.0 57:1.0 883:1.0 884:1.0 
0.0 1745.569625746135 90:1.0 139:1.0 664:1.0 
2750.8298092503856 3330.990238445426 890:1.0 891:1.0 892:1.0 
0.0 53.81186258638168 128:1.0 893:1.0 894:1.0 895:1.0 896:1.0 897:1.0 898:1.0 899:1.0 900:1.0 
1059.8476999295017 0.0 38:1.0 69:1.0 75:1.0 171:1.0 281:1.0 755:1.0 921:1.0 922:1.0 923:1.0 924:1.0 925:1.0 926:1.0 
14605.423451717446 8073.3541869813125 38:1.0 937:1.0 
1725.3793701975626 628.4243490437963 47:1.0 396:1.0 554:1.0 555:1.0 833:1.0 938:1.0 939:1.0 940:1.0 
1744.6370137278425 3638.7663145317692 40:1.0 122:1.0 168:1.0 283:1.0 417:1.0 418:1.0 552:1.0 932:1.0 961:1.0 962:1.0 963:1.0 
5465.714363916101 322.7571492049007 1:1.0 38:1.0 40:1.0 97:1.0 122:1.0 971:1.0 
1736.254317930824 2152.5392282709236 40:1.0 81:1.0 122:1.0 214:1.0 973:1.0 974:1.0 975:1.0 976:1.0 
12330.912206342222 8157.730811105771 1:1.0 40:1.0 122:1.0 144:1.0 
1108.185927278913 943.6323971325677 31:1.0 40:1.0 78:1.0 171:1.0 210:1.0 280:1.0 356:1.0 360:1.0 383:1.0 384:1.0 950:1.0 978:1.0 979:1.0 980:1.0 981:1.0 982:1.0 
3713.1565692789336 3040.1827579560427 38:1.0 40:1.0 983:1.0 984:1.0 985:1.0 986:1.0 987:1.0 
14101.822677921451 2946.5746341533186 40:1.0 81:1.0 213:1.0 527:1.0 988:1.0 
3885.566517085113 7744.540321731063 40:1.0 169:1.0 170:1.0 171:1.0 994:1.0 
4199.483819293132 6780.072168995897 40:1.0 131:1.0 159:1.0 997:1.0 998:1.0 
3264.3789478956924 3803.8846059294015 40:1.0 329:1.0 1028:1.0 1029:1.0 
0.0 100.30980063739631 31:1.0 40:1.0 96:1.0 233:1.0 377:1.0 390:1.0 796:1.0 1031:1.0 
0.0 706.7136907526846 40:1.0 197:1.0 233:1.0 383:1.0 384:1.0 1032:1.0 1033:1.0 1034:1.0 
0.0 4424.231476295694 40:1.0 233:1.0 362:1.0 536:1.0 1035:1.0 
2487.212843222097 0.0 25:1.0 31:1.0 40:1.0 72:1.0 171:1.0 233:1.0 282:1.0 929:1.0 1036:1.0 1037:1.0 
9652.867011713279 4582.522907727847 38:1.0 40:1.0 1042:1.0 1043:1.0 1044:1.0 
3348.808181863002 0.0 40:1.0 117:1.0 210:1.0 280:1.0 282:1.0 352:1.0 1048:1.0 1049:1.0 
7866.4816129307155 5001.618152205013 40:1.0 178:1.0 188:1.0 281:1.0 282:1.0 1060:1.0 1061:1.0 
0.0 1528.793950349282 40:1.0 168:1.0 434:1.0 465:1.0 676:1.0 1062:1.0 1063:1.0 
2698.7744303004465 699.0053726385484 75:1.0 94:1.0 289:1.0 377:1.0 441:1.0 990:1.0 1071:1.0 1072:1.0 1073:1.0 1074:1.0 
0.0 3559.965588474303 96:1.0 112:1.0 316:1.0 1075:1.0 
6145.598074630561 2132.2334231387485 40:1.0 289:1.0 290:1.0 1092:1.0 1093:1.0 1094:1.0 
2025.969388702898 2509.344376424999 169:1.0 289:1.0 473:1.0 999:1.0 1099:1.0 1100:1.0 
4215.26401152024 3123.4016103126423 24:1.0 75:1.0 106:1.0 125:1.0 172:1.0 289:1.0 783:1.0 1102:1.0 1103:1.0 1104:1.0 
2868.8444749314162 2233.9500355583755 88:1.0 321:1.0 1106:1.0 1107:1.0 1108:1.0 1109:1.0 1110:1.0 1111:1.0 
5595.567207213384 5289.81801086482 75:1.0 77:1.0 143:1.0 1023:1.0 
1890.7102042600027 161.47542435566535 31:1.0 88:1.0 358:1.0 583:1.0 801:1.0 1117:1.0 1118:1.0 1119:1.0 1120:1.0 1121:1.0 1122:1.0 
0.0 29336.870520186938 1117:1.0 
2245.9687957893616 907.26062269044 525:1.0 1124:1.0 1125:1.0 1126:1.0 1127:1.0 
2050.5493512059766 2485.9278821046914 1128:1.0 1129:1.0 1130:1.0 1131:1.0 
4905.0781051024205 220.42530587083218 28:1.0 31:1.0 232:1.0 400:1.0 422:1.0 1132:1.0 
2138.5026513369057 2118.0389321432735 484:1.0 500:1.0 592:1.0 1133:1.0 1134:1.0 1135:1.0 
15187.353968189089 10013.716567854466 730:1.0 
4115.858208065101 3332.662169041043 438:1.0 1136:1.0 1137:1.0 
0.0 23637.70387028689 43:1.0 1139:1.0 
8011.319330792191 4996.032213564072 401:1.0 1147:1.0 
1098.8051708641499 2729.9618464541 775:1.0 811:1.0 1167:1.0 1168:1.0 1169:1.0 
632.4083007017484 2002.2763128652844 75:1.0 233:1.0 336:1.0 660:1.0 1187:1.0 1188:1.0 1189:1.0 1190:1.0 1191:1.0 
228.20584545716036 1259.9147283789898 233:1.0 874:1.0 1192:1.0 1193:1.0 1194:1.0 1195:1.0 
501.63642503729915 7029.938149791658 233:1.0 586:1.0 1192:1.0 
23035.63029520492 5613.4286852475925 147:1.0 196:1.0 233:1.0 551:1.0 
4740.296889739969 1419.4363592802956 8:1.0 101:1.0 102:1.0 233:1.0 1196:1.0 1197:1.0 1198:1.0 1199:1.0 
2300.383873232993 1316.4628283884686 31:1.0 233:1.0 280:1.0 699:1.0 1200:1.0 1201:1.0 1202:1.0 
6855.684380185655 22908.290313410973 54:1.0 105:1.0 233:1.0 692:1.0 1206:1.0 
529.3649152026088 595.8522282263565 10:1.0 31:1.0 75:1.0 145:1.0 165:1.0 168:1.0 346:1.0 1211:1.0 1212:1.0 1213:1.0 1214:1.0 
2396.9071049582935 1732.9416181853148 40:1.0 46:1.0 106:1.0 117:1.0 125:1.0 128:1.0 151:1.0 288:1.0 1221:1.0 1222:1.0 
5945.390921278372 2760.773218980872 38:1.0 183:1.0 288:1.0 318:1.0 564:1.0 
1494.1106945176075 0.0 97:1.0 316:1.0 1066:1.0 1087:1.0 1233:1.0 1234:1.0 
5541.466688501847 0.0 57:1.0 97:1.0 316:1.0 319:1.0 569:1.0 
0.0 1154.067488192759 171:1.0 990:1.0 1247:1.0 1248:1.0 1249:1.0 1250:1.0 
3749.4229176889758 1338.6059727659874 75:1.0 278:1.0 660:1.0 1251:1.0 1252:1.0 
6976.659239683245 2173.991509425712 40:1.0 87:1.0 349:1.0 1064:1.0 1253:1.0 1254:1.0 
0.0 3034.889698966933 78:1.0 233:1.0 473:1.0 1177:1.0 1253:1.0 1255:1.0 
308.26685639013374 1734.850141507666 75:1.0 89:1.0 293:1.0 1262:1.0 1263:1.0 1264:1.0 
7283.489312248844 4031.9922144581965 38:1.0 1277:1.0 1278:1.0 
662.4175818839176 0.0 10:1.0 29:1.0 460:1.0 1297:1.0 1298:1.0 
0.0 3887.5794429150246 92:1.0 112:1.0 183:1.0 278:1.0 407:1.0 985:1.0 1314:1.0 
2564.757677786488 1571.8562618122317 77:1.0 145:1.0 159:1.0 178:1.0 271:1.0 328:1.0 710:1.0 1117:1.0 1327:1.0 1328:1.0 1329:1.0 1330:1.0 1331:1.0 1332:1.0 
887.5611813513447 0.0 527:1.0 988:1.0 1334:1.0 1335:1.0 
3317.303362099707 151.27408362021848 38:1.0 171:1.0 361:1.0 1359:1.0 
3423.2980460531935 0.0 40:1.0 42:1.0 78:1.0 90:1.0 253:1.0 270:1.0 306:1.0 406:1.0 407:1.0 887:1.0 1161:1.0 1201:1.0 1360:1.0 1361:1.0 
4223.867893758517 2303.5320084772065 101:1.0 102:1.0 927:1.0 1362:1.0 
2887.303721175761 0.0 10:1.0 27:1.0 38:1.0 75:1.0 266:1.0 1043:1.0 1363:1.0 
1165.7174830407594 637.2551592480837 421:1.0 842:1.0 961:1.0 1371:1.0 1372:1.0 1373:1.0 1374:1.0 1375:1.0 1376:1.0 
0.0 1565.0375062789735 302:1.0 312:1.0 981:1.0 1111:1.0 1307:1.0 1377:1.0 1378:1.0 1379:1.0 
7015.3617897140975 4667.00817642267 38:1.0 257:1.0 879:1.0 1380:1.0 
1849.786725157965 0.0 29:1.0 592:1.0 720:1.0 
628.5531725709193 2503.930837525233 400:1.0 699:1.0 1393:1.0 1394:1.0 1396:1.0 
0.0 2902.0539334014557 40:1.0 43:1.0 87:1.0 359:1.0 422:1.0 754:1.0 755:1.0 1397:1.0 
682.0370237206183 450.2656176822818 10:1.0 64:1.0 90:1.0 105:1.0 295:1.0 1106:1.0 1398:1.0 1399:1.0 1400:1.0 1401:1.0 1402:1.0 
5663.191649560639 388.8649189593569 125:1.0 186:1.0 552:1.0 1406:1.0 
5871.140737266899 0.0 168:1.0 186:1.0 552:1.0 1407:1.0 
1263.192501860015 218.30473141603727 399:1.0 973:1.0 974:1.0 1414:1.0 1415:1.0 1416:1.0 1417:1.0 1418:1.0 1419:1.0 
1545.7566135157854 726.2803624566576 42:1.0 89:1.0 542:1.0 1155:1.0 1420:1.0 1421:1.0 1422:1.0 
7754.663137194403 9398.950718873408 2:1.0 
1007.2463641451415 0.0 1:1.0 38:1.0 1427:1.0 1428:1.0 1429:1.0 
1332.137555409764 2943.0547658385103 265:1.0 1447:1.0 1448:1.0 1449:1.0 1450:1.0 
0.0 471.89491128286625 171:1.0 302:1.0 324:1.0 1227:1.0 1361:1.0 1454:1.0 1455:1.0 
3026.932223754671 1894.9853866109786 40:1.0 79:1.0 81:1.0 90:1.0 243:1.0 404:1.0 531:1.0 1457:1.0 1458:1.0 
6454.0612811090205 6617.065290608428 40:1.0 283:1.0 302:1.0 304:1.0 306:1.0 363:1.0 1463:1.0 1464:1.0 
1638.089136894108 0.0 10:1.0 31:1.0 72:1.0 175:1.0 465:1.0 760:1.0 852:1.0 1299:1.0 1465:1.0 1466:1.0 1467:1.0 
1495.1878587620492 752.0508261521642 127:1.0 452:1.0 1096:1.0 1468:1.0 1469:1.0 1470:1.0 1471:1.0 
6806.426760814756 0.0 10:1.0 234:1.0 473:1.0 1063:1.0 
1707.6736245863233 233.4800239729807 29:1.0 422:1.0 483:1.0 1474:1.0 1475:1.0 1476:1.0 1477:1.0 
4610.507790820612 3371.1906816554533 75:1.0 398:1.0 660:1.0 1481:1.0 1482:1.0 
3732.488187553657 4503.261574064939 375:1.0 1069:1.0 1268:1.0 1334:1.0 
3512.6508535619128 12985.555460075453 86:1.0 257:1.0 583:1.0 1488:1.0 
546.1132394473123 616.5622778516039 2:1.0 491:1.0 800:1.0 1327:1.0 1496:1.0 1497:1.0 
2051.200940796445 2487.1794058086025 1498:1.0 1499:1.0 1500:1.0 1501:1.0 
1628.3347661891246 817.3602906701354 31:1.0 89:1.0 472:1.0 1505:1.0 1506:1.0 
5203.3128241174445 0.0 11:1.0 38:1.0 156:1.0 233:1.0 290:1.0 385:1.0 422:1.0 423:1.0 426:1.0 427:1.0 1508:1.0 
2051.8300457295654 6990.619537175951 1009:1.0 1140:1.0 1524:1.0 1525:1.0 
8860.900210873138 7041.86085965929 3:1.0 45:1.0 152:1.0 352:1.0 1526:1.0 
3472.635335501445 1103.5121574460945 30:1.0 32:1.0 894:1.0 1334:1.0 1543:1.0 
4341.316877877508 828.8255551604482 349:1.0 1544:1.0 1545:1.0 1546:1.0 
8732.04396892705 1710.8795114818286 349:1.0 1544:1.0 1547:1.0 
4633.1420287004175 454.65948818274546 101:1.0 102:1.0 1548:1.0 1549:1.0 
16724.694462108037 4216.0242068748785 96:1.0 97:1.0 427:1.0 434:1.0 
4151.3974888552975 6162.974235397811 1285:1.0 1550:1.0 
2400.5496213707975 6791.808625246701 11:1.0 798:1.0 1553:1.0 
8300.042593030115 10013.565004850792 1554:1.0 
707.1724947196534 0.0 383:1.0 384:1.0 1555:1.0 1556:1.0 1557:1.0 
0.0 3477.4894827040393 25:1.0 88:1.0 171:1.0 204:1.0 1036:1.0 1215:1.0 1299:1.0 1558:1.0 
0.0 330.28277058744675 75:1.0 536:1.0 1299:1.0 1508:1.0 1562:1.0 1563:1.0 1564:1.0 1565:1.0 1566:1.0 
0.0 390.9191143339806 10:1.0 75:1.0 89:1.0 361:1.0 1159:1.0 1567:1.0 
1385.0333859164148 972.779658436566 312:1.0 866:1.0 1249:1.0 1580:1.0 1581:1.0 1582:1.0 
163.162539967231 4896.48427841824 423:1.0 1585:1.0 
2905.075193772542 14562.55578906328 315:1.0 1586:1.0 1587:1.0 
0.0 777.1228034215411 224:1.0 225:1.0 250:1.0 251:1.0 390:1.0 398:1.0 1329:1.0 1555:1.0 1586:1.0 1588:1.0 1589:1.0 
5399.807204823502 3034.9198543672583 135:1.0 573:1.0 832:1.0 1204:1.0 
2217.9304086002558 3293.474441609021 586:1.0 1607:1.0 1608:1.0 
0.0 477.69503083790283 455:1.0 973:1.0 974:1.0 1616:1.0 
54.90998386253849 2212.2783568628734 127:1.0 131:1.0 300:1.0 699:1.0 1617:1.0 
3766.2831509468188 0.0 30:1.0 31:1.0 32:1.0 43:1.0 168:1.0 352:1.0 455:1.0 583:1.0 831:1.0 
0.0 5359.18510392786 43:1.0 86:1.0 212:1.0 352:1.0 583:1.0 831:1.0 
0.0 11.31233098841684 40:1.0 43:1.0 75:1.0 87:1.0 529:1.0 755:1.0 1177:1.0 1253:1.0 1319:1.0 1596:1.0 1622:1.0 1623:1.0 1624:1.0 1625:1.0 1626:1.0 
1945.6740857903565 1576.8064017864822 554:1.0 555:1.0 574:1.0 575:1.0 1630:1.0 1631:1.0 
1343.2332628457732 1037.5533052446738 554:1.0 555:1.0 927:1.0 1632:1.0 1633:1.0 
768.0682636536492 3907.289250208684 149:1.0 1138:1.0 1641:1.0 1642:1.0 1643:1.0 
4755.938129463543 2886.635624026167 121:1.0 521:1.0 1644:1.0 
4129.428721477393 1333.6122066663154 351:1.0 383:1.0 384:1.0 521:1.0 752:1.0 811:1.0 
4801.78681693506 4072.9338610977243 38:1.0 78:1.0 840:1.0 1661:1.0 1662:1.0 1663:1.0 
53.87540554918578 0.0 168:1.0 699:1.0 769:1.0 819:1.0 1664:1.0 1665:1.0 1666:1.0 1667:1.0 1668:1.0 
1299.9680981830763 1396.6181446850005 484:1.0 500:1.0 720:1.0 1133:1.0 1669:1.0 1670:1.0 1671:1.0 1672:1.0 
1559.205638795068 120.00063401658842 10:1.0 274:1.0 525:1.0 902:1.0 1374:1.0 1375:1.0 1673:1.0 1674:1.0 
6275.521325343411 303.8488692719725 32:1.0 225:1.0 429:1.0 430:1.0 1141:1.0 1207:1.0 1678:1.0 1679:1.0 
1095.4117350524277 5734.9360018235475 526:1.0 1688:1.0 1689:1.0 1690:1.0 
0.0 2173.385911665669 43:1.0 149:1.0 284:1.0 292:1.0 377:1.0 511:1.0 1691:1.0 1692:1.0 1693:1.0 
0.0 1488.1030445476906 43:1.0 230:1.0 283:1.0 383:1.0 384:1.0 511:1.0 1099:1.0 1694:1.0 
0.0 477.1584064196365 811:1.0 1413:1.0 1698:1.0 1699:1.0 1700:1.0 1701:1.0 1702:1.0 
2771.5403761797375 2371.794397235187 40:1.0 128:1.0 186:1.0 352:1.0 908:1.0 
1415.8810681594894 1429.4374662652356 699:1.0 840:1.0 1709:1.0 1710:1.0 1711:1.0 1712:1.0 
3122.5610175033635 0.0 5:1.0 11:1.0 43:1.0 117:1.0 156:1.0 221:1.0 511:1.0 735:1.0 783:1.0 1719:1.0 
3301.3488153101757 4049.40313783844 404:1.0 1091:1.0 
0.0 1227.3926160545686 106:1.0 125:1.0 270:1.0 318:1.0 755:1.0 1720:1.0 1721:1.0 1722:1.0 1723:1.0 1724:1.0 
0.0 1467.2777281192477 385:1.0 866:1.0 983:1.0 1725:1.0 1726:1.0 
5789.32757020829 5512.695252634139 31:1.0 75:1.0 345:1.0 707:1.0 1413:1.0 1727:1.0 
0.0 3009.7392058892397 186:1.0 495:1.0 1291:1.0 1368:1.0 1730:1.0 
0.0 9132.750548917043 90:1.0 257:1.0 263:1.0 
0.0 593.3511439867534 1:1.0 40:1.0 122:1.0 257:1.0 266:1.0 282:1.0 666:1.0 724:1.0 843:1.0 979:1.0 1286:1.0 1737:1.0 1738:1.0 1739:1.0 1740:1.0 1741:1.0 
7410.894056726462 4384.5385082248395 168:1.0 1748:1.0 
0.0 1170.8889679761476 302:1.0 475:1.0 788:1.0 801:1.0 1417:1.0 1418:1.0 1455:1.0 1753:1.0 1754:1.0 1755:1.0 1756:1.0 1757:1.0 1758:1.0 1759:1.0 
1403.4078745547001 1620.2027426050583 552:1.0 843:1.0 1760:1.0 1761:1.0 1762:1.0 1763:1.0 1764:1.0 1765:1.0 1766:1.0 
32768.0 32768.0 
32768.0 32768.0 
32768.0 32768.0 
1378.2190304268286 3398.9057248511926 38:1.0 86:1.0 96:1.0 97:1.0 149:1.0 257:1.0 266:1.0 386:1.0 1221:1.0 1787:1.0 
3677.882332731012 4491.012903845076 10:1.0 75:1.0 96:1.0 105:1.0 992:1.0 1367:1.0 1791:1.0 1792:1.0 
1599.5309963043023 737.0189911207701 11:1.0 112:1.0 199:1.0 527:1.0 988:1.0 1448:1.0 1756:1.0 
0.0 2884.345670875065 26:1.0 86:1.0 257:1.0 386:1.0 584:1.0 1221:1.0 1798:1.0 
2075.5283163313115 545.9943438920996 77:1.0 798:1.0 1799:1.0 1800:1.0 
4150.61015064296 4997.1739327173755 1802:1.0 1803:1.0 
4859.333176985831 0.0 40:1.0 72:1.0 75:1.0 79:1.0 117:1.0 346:1.0 362:1.0 543:1.0 1117:1.0 1805:1.0 1806:1.0 
869.4195546800282 1573.071164494687 75:1.0 247:1.0 1162:1.0 1641:1.0 1818:1.0 1819:1.0 1820:1.0 1821:1.0 
1606.842735482772 0.0 105:1.0 149:1.0 156:1.0 245:1.0 394:1.0 511:1.0 1641:1.0 1822:1.0 
0.0 1643.7186357451953 233:1.0 932:1.0 1138:1.0 1416:1.0 1832:1.0 1833:1.0 1834:1.0 1835:1.0 
548.6220959710964 3214.2014389415513 233:1.0 482:1.0 1838:1.0 
2360.437253280522 2992.7397427817964 699:1.0 1193:1.0 1668:1.0 1840:1.0 
2528.0958428845956 2704.682258111008 47:1.0 97:1.0 125:1.0 186:1.0 204:1.0 245:1.0 509:1.0 1005:1.0 1763:1.0 1841:1.0 
1260.9665714943403 6914.048212549428 75:1.0 168:1.0 222:1.0 1704:1.0 1842:1.0 1843:1.0 1844:1.0 
11110.755040270025 2004.1893009627586 38:1.0 70:1.0 1825:1.0 1848:1.0 1849:1.0 
849.2337221313409 7847.916119038781 112:1.0 262:1.0 270:1.0 583:1.0 1472:1.0 
2192.733931468335 2687.2839017681654 31:1.0 199:1.0 947:1.0 1207:1.0 1527:1.0 1862:1.0 1863:1.0 1864:1.0 1865:1.0 1866:1.0 
0.0 2769.197276789534 78:1.0 112:1.0 302:1.0 433:1.0 817:1.0 1867:1.0 1868:1.0 1869:1.0 1870:1.0 
32768.0 7248.419971505894 433:1.0 
1859.6800697641713 1412.49318389582 31:1.0 271:1.0 932:1.0 1122:1.0 1877:1.0 1878:1.0 
4042.4513111207516 68.21460983063733 31:1.0 77:1.0 197:1.0 421:1.0 843:1.0 1146:1.0 1879:1.0 1880:1.0 
0.0 1304.1033875653254 168:1.0 302:1.0 1068:1.0 1103:1.0 1352:1.0 1886:1.0 
917.7329681423274 681.778535224597 31:1.0 102:1.0 246:1.0 427:1.0 493:1.0 1887:1.0 1888:1.0 1889:1.0 1890:1.0 1891:1.0 
575.5944722914114 1203.833945874248 75:1.0 270:1.0 895:1.0 1894:1.0 1895:1.0 1896:1.0 1897:1.0 
779.8107906154955 0.0 30:1.0 31:1.0 89:1.0 185:1.0 186:1.0 231:1.0 232:1.0 398:1.0 1262:1.0 1898:1.0 
5298.471863948346 7620.029390094138 465:1.0 1312:1.0 
2403.103226865385 2542.39346352652 29:1.0 69:1.0 75:1.0 78:1.0 86:1.0 96:1.0 124:1.0 154:1.0 234:1.0 861:1.0 1878:1.0 
3484.5459876377113 203.6492083419547 10:1.0 11:1.0 152:1.0 375:1.0 422:1.0 423:1.0 426:1.0 427:1.0 1611:1.0 
0.0 2670.638849512048 742:1.0 924:1.0 1285:1.0 1913:1.0 1914:1.0 
4452.465216053761 6276.962641951071 10:1.0 54:1.0 105:1.0 209:1.0 346:1.0 1686:1.0 
2111.5916535398064 3297.6121053350666 174:1.0 742:1.0 1919:1.0 1920:1.0 
2508.395187780457 902.4720866114295 40:1.0 75:1.0 79:1.0 88:1.0 89:1.0 156:1.0 192:1.0 536:1.0 833:1.0 914:1.0 1329:1.0 1689:1.0 1924:1.0 1925:1.0 1926:1.0 1927:1.0 1928:1.0 1929:1.0 
1596.234839272076 622.2738880043808 30:1.0 32:1.0 189:1.0 231:1.0 1355:1.0 1555:1.0 1772:1.0 1932:1.0 1933:1.0 
4573.614776588578 4014.6247398245127 75:1.0 88:1.0 89:1.0 98:1.0 422:1.0 1299:1.0 1934:1.0 
8963.998992416382 0.0 38:1.0 199:1.0 423:1.0 626:1.0 664:1.0 
5455.002311151486 1035.7138474535916 349:1.0 897:1.0 1951:1.0 1952:1.0 1953:1.0 
1097.4461993332136 3580.259858454101 1607:1.0 1756:1.0 1955:1.0 1956:1.0 
-4930.229187322608 938.1779483663624 5:1.0 30:1.0 31:1.0 32:1.0 33:1.0 34:1.0 
-2718.883720429241 0.0 38:1.0 56:1.0 57:1.0 58:1.0 
-0.0 1627.627017623028 73:1.0 74:1.0 75:1.0 76:1.0 77:1.0 78:1.0 79:1.0 80:1.0 81:1.0 82:1.0 
-1563.0291139576232 421.7304280496084 83:1.0 84:1.0 85:1.0 86:1.0 87:1.0 88:1.0 89:1.0 90:1.0 91:1.0 92:1.0 93:1.0 
-1791.593788468946 379.56919135906986 38:1.0 84:1.0 94:1.0 95:1.0 
-16186.685588304792 2191.7991225396327 96:1.0 100:1.0 101:1.0 102:1.0 
-1658.3787682789707 2796.653229583806 8:1.0 57:1.0 75:1.0 111:1.0 112:1.0 113:1.0 114:1.0 115:1.0 116:1.0 
-0.0 2597.4437830297684 4:1.0 80:1.0 121:1.0 
-1667.6364880668066 13413.742050279508 8:1.0 40:1.0 122:1.0 123:1.0 
-1908.4279591486384 54.53447016857348 145:1.0 199:1.0 200:1.0 201:1.0 202:1.0 
-9310.776984012367 8644.290782846523 40:1.0 152:1.0 221:1.0 222:1.0 223:1.0 
-1735.8050670340833 0.0 101:1.0 102:1.0 224:1.0 225:1.0 226:1.0 227:1.0 228:1.0 
-2754.0702347473543 0.0 4:1.0 30:1.0 45:1.0 46:1.0 47:1.0 77:1.0 78:1.0 138:1.0 231:1.0 232:1.0 233:1.0 234:1.0 
-7419.886085607581 5506.780485145084 30:1.0 77:1.0 235:1.0 236:1.0 
-4143.334030700248 2031.2755791283143 40:1.0 135:1.0 237:1.0 238:1.0 239:1.0 240:1.0 241:1.0 
-1550.3160717208234 2190.102507984759 31:1.0 40:1.0 78:1.0 87:1.0 101:1.0 153:1.0 178:1.0 254:1.0 255:1.0 256:1.0 257:1.0 258:1.0 
-0.0 2099.9001470928183 178:1.0 271:1.0 272:1.0 
-3265.8202967956586 316.29649284666436 31:1.0 75:1.0 81:1.0 257:1.0 270:1.0 276:1.0 277:1.0 278:1.0 279:1.0 280:1.0 281:1.0 
-2140.282422965441 0.0 10:1.0 77:1.0 290:1.0 344:1.0 345:1.0 346:1.0 347:1.0 348:1.0 349:1.0 
-6046.352012851682 1106.8508184972252 1:1.0 147:1.0 186:1.0 289:1.0 290:1.0 372:1.0 373:1.0 374:1.0 375:1.0 376:1.0 
-494.4121910746245 0.0 40:1.0 84:1.0 159:1.0 272:1.0 383:1.0 384:1.0 385:1.0 386:1.0 387:1.0 
-2039.8659476203668 7616.7725715515535 57:1.0 105:1.0 313:1.0 
-8934.022993113744 1713.5757638367659 28:1.0 29:1.0 170:1.0 171:1.0 233:1.0 296:1.0 402:1.0 
-2030.5728614117354 1231.8479478663476 40:1.0 178:1.0 230:1.0 306:1.0 403:1.0 404:1.0 405:1.0 406:1.0 407:1.0 
-0.0 397.06418017415155 40:1.0 100:1.0 122:1.0 248:1.0 363:1.0 
-4096.262187825551 0.0 28:1.0 56:1.0 75:1.0 152:1.0 432:1.0 433:1.0 434:1.0 435:1.0 436:1.0 437:1.0 438:1.0 439:1.0 
-3220.387306802174 2590.221953524939 40:1.0 221:1.0 440:1.0 441:1.0 
-4332.742655681145 3021.5546266236984 38:1.0 199:1.0 449:1.0 
-3940.4695200549304 1207.7370304300791 40:1.0 45:1.0 78:1.0 86:1.0 109:1.0 117:1.0 196:1.0 289:1.0 406:1.0 433:1.0 462:1.0 463:1.0 464:1.0 465:1.0 466:1.0 467:1.0 
-32768.0 10455.733041007587 35:1.0 38:1.0 
-0.0 3130.8061357969577 277:1.0 283:1.0 497:1.0 498:1.0 499:1.0 500:1.0 
-150.51034934721207 3115.501268673757 9:1.0 88:1.0 393:1.0 501:1.0 
-0.0 2.0596252272943616 54:1.0 108:1.0 506:1.0 
-0.0 770.6140729877402 108:1.0 325:1.0 507:1.0 
-132.375765649585 0.0 296:1.0 317:1.0 328:1.0 352:1.0 383:1.0 384:1.0 535:1.0 536:1.0 537:1.0 538:1.0 539:1.0 540:1.0 
-18670.16329644832 0.0 388:1.0 551:1.0 552:1.0 
-1906.420412466918 650.4325962649176 53:1.0 57:1.0 147:1.0 156:1.0 222:1.0 559:1.0 560:1.0 561:1.0 562:1.0 563:1.0 564:1.0 565:1.0 566:1.0 567:1.0 
-5140.779952700995 1495.4774624380598 92:1.0 147:1.0 204:1.0 568:1.0 569:1.0 570:1.0 
-1473.8608596945035 1700.8932298561458 84:1.0 86:1.0 117:1.0 165:1.0 632:1.0 633:1.0 634:1.0 635:1.0 636:1.0 637:1.0 638:1.0 
-0.0 44.75142233259752 38:1.0 84:1.0 274:1.0 639:1.0 
-2930.6526946324084 0.0 10:1.0 38:1.0 108:1.0 170:1.0 171:1.0 434:1.0 452:1.0 663:1.0 
-4490.531510444881 720.0099419977764 11:1.0 27:1.0 28:1.0 117:1.0 168:1.0 172:1.0 206:1.0 270:1.0 274:1.0 688:1.0 689:1.0 690:1.0 
-8373.88174685991 2471.4046843117076 38:1.0 40:1.0 206:1.0 282:1.0 583:1.0 
-3790.2258988166054 1458.0390465160117 29:1.0 46:1.0 86:1.0 89:1.0 172:1.0 414:1.0 698:1.0 699:1.0 700:1.0 701:1.0 702:1.0 
-10098.86630788833 9685.635708735954 707:1.0 708:1.0 709:1.0 
-659.564045612425 1745.075965309163 45:1.0 56:1.0 79:1.0 302:1.0 714:1.0 715:1.0 716:1.0 
-6888.725079590605 0.0 38:1.0 84:1.0 159:1.0 271:1.0 313:1.0 730:1.0 
-3070.6797626924695 1104.4004235920252 4:1.0 11:1.0 31:1.0 45:1.0 47:1.0 276:1.0 495:1.0 759:1.0 760:1.0 761:1.0 762:1.0 
-4645.682980153102 0.0 38:1.0 349:1.0 763:1.0 
-19664.335404696158 6910.772943234962 24:1.0 352:1.0 433:1.0 774:1.0 
-3286.7543127983167 4383.118977133827 201:1.0 799:1.0 800:1.0 801:1.0 
-0.0 172.1945619970829 5:1.0 6:1.0 8:1.0 9:1.0 802:1.0 803:1.0 804:1.0 805:1.0 
-6820.26108376578 3291.535063585829 186:1.0 288:1.0 809:1.0 810:1.0 811:1.0 812:1.0 
-5000.117734318794 4415.409825808465 38:1.0 169:1.0 842:1.0 844:1.0 845:1.0 
-6197.440111972946 2399.792063731153 28:1.0 36:1.0 38:1.0 86:1.0 169:1.0 842:1.0 847:1.0 848:1.0 849:1.0 
-13905.521328333985 6262.601120745781 42:1.0 660:1.0 783:1.0 850:1.0 
-0.0 419.28290808037883 40:1.0 121:1.0 171:1.0 206:1.0 207:1.0 425:1.0 666:1.0 721:1.0 869:1.0 870:1.0 871:1.0 872:1.0 
-2499.241666687552 0.0 31:1.0 388:1.0 879:1.0 
-4075.760080223783 7748.926312771541 105:1.0 349:1.0 881:1.0 
-1207.9574458055429 2106.696873317966 40:1.0 81:1.0 84:1.0 145:1.0 165:1.0 639:1.0 885:1.0 886:1.0 887:1.0 
-22912.501086385524 15522.166415051674 97:1.0 108:1.0 
-3979.092025589952 3277.095700214723 189:1.0 257:1.0 296:1.0 422:1.0 426:1.0 476:1.0 
-0.0 1229.4591058654485 296:1.0 359:1.0 826:1.0 901:1.0 902:1.0 
-1623.7874979249111 115.86276803533653 325:1.0 349:1.0 904:1.0 905:1.0 906:1.0 907:1.0 
-5271.396427120242 3003.7197903154884 233:1.0 294:1.0 914:1.0 915:1.0 916:1.0 917:1.0 918:1.0 
-2700.913359586278 5148.4638508773505 75:1.0 201:1.0 283:1.0 328:1.0 936:1.0 
-3474.418119880234 6274.615469563131 44:1.0 275:1.0 941:1.0 942:1.0 943:1.0 944:1.0 945:1.0 
-0.0 1574.2304968926223 350:1.0 388:1.0 948:1.0 949:1.0 
-1190.3175546481407 3382.086146842141 40:1.0 78:1.0 106:1.0 107:1.0 178:1.0 222:1.0 306:1.0 363:1.0 383:1.0 384:1.0 584:1.0 950:1.0 951:1.0 952:1.0 953:1.0 954:1.0 
-10359.053289925196 6872.015373146541 40:1.0 122:1.0 969:1.0 970:1.0 
-8270.390775288613 4054.3914189576053 31:1.0 40:1.0 78:1.0 112:1.0 122:1.0 168:1.0 280:1.0 316:1.0 809:1.0 972:1.0 
-0.0 211.41671207891244 40:1.0 168:1.0 210:1.0 296:1.0 500:1.0 842:1.0 999:1.0 1002:1.0 1003:1.0 1004:1.0 1005:1.0 1006:1.0 1007:1.0 1008:1.0 
-2190.290143489438 267.97304840374477 11:1.0 40:1.0 81:1.0 186:1.0 196:1.0 296:1.0 699:1.0 701:1.0 724:1.0 1026:1.0 
-14481.606525799376 15439.44781026695 40:1.0 454:1.0 
-5778.879933085248 0.0 40:1.0 188:1.0 351:1.0 454:1.0 
-0.0 5152.324668432094 40:1.0 178:1.0 306:1.0 
-7536.742591107606 4087.190888734196 40:1.0 54:1.0 831:1.0 1066:1.0 1067:1.0 
-2859.248466082024 980.680689577321 10:1.0 76:1.0 96:1.0 123:1.0 156:1.0 283:1.0 783:1.0 1076:1.0 1077:1.0 
-7431.1967900629925 5126.633896462113 96:1.0 1078:1.0 1079:1.0 1080:1.0 
-2001.3218963015358 3512.698594380806 40:1.0 45:1.0 47:1.0 96:1.0 125:1.0 359:1.0 800:1.0 1088:1.0 1089:1.0 
-7333.87884922605 1181.713613011046 52:1.0 75:1.0 96:1.0 527:1.0 988:1.0 1090:1.0 
-508.8387619595487 1050.180340087129 3:1.0 40:1.0 77:1.0 78:1.0 81:1.0 90:1.0 168:1.0 289:1.0 290:1.0 296:1.0 441:1.0 724:1.0 852:1.0 1046:1.0 1095:1.0 1096:1.0 
-1855.0018534006392 0.0 77:1.0 289:1.0 290:1.0 296:1.0 383:1.0 384:1.0 
-886.0611731865415 734.2600613962476 4:1.0 5:1.0 77:1.0 90:1.0 207:1.0 283:1.0 289:1.0 290:1.0 843:1.0 
-5853.642820568896 135.4485912211322 57:1.0 168:1.0 196:1.0 245:1.0 434:1.0 525:1.0 1113:1.0 1114:1.0 1115:1.0 1116:1.0 
-9880.048263043704 0.0 79:1.0 81:1.0 272:1.0 
-0.0 6965.229134192593 147:1.0 277:1.0 
-7974.21497983527 3551.0633666116387 226:1.0 227:1.0 429:1.0 430:1.0 1141:1.0 
-10915.729019704626 3208.4566289590684 349:1.0 1142:1.0 
-14254.129955450511 8871.687785015183 1145:1.0 1146:1.0 
-2332.0374523509627 0.0 5:1.0 8:1.0 40:1.0 77:1.0 122:1.0 189:1.0 258:1.0 
-13687.805087633345 14602.656998767317 88:1.0 1148:1.0 
-28300.890373992548 5752.110830872785 80:1.0 144:1.0 
-2382.711311045812 0.0 38:1.0 306:1.0 797:1.0 1157:1.0 1158:1.0 
-1442.8837104641898 712.725359487526 207:1.0 283:1.0 393:1.0 427:1.0 493:1.0 1159:1.0 1160:1.0 1161:1.0 1162:1.0 1163:1.0 1164:1.0 
-5990.999157855873 3203.361678695862 79:1.0 325:1.0 393:1.0 
-2636.47997035032 3364.9975633892163 196:1.0 233:1.0 262:1.0 296:1.0 608:1.0 1113:1.0 
-2738.6950490613153 1666.1789687500445 233:1.0 277:1.0 1203:1.0 1204:1.0 1205:1.0 
-5045.518543394355 7321.675712534495 96:1.0 100:1.0 233:1.0 234:1.0 248:1.0 
-9689.406174396228 2490.751343900349 199:1.0 233:1.0 461:1.0 626:1.0 1207:1.0 1208:1.0 1209:1.0 
-3453.7783954275587 374.4062589956561 31:1.0 124:1.0 253:1.0 277:1.0 
-985.5899001402033 0.0 5:1.0 8:1.0 38:1.0 131:1.0 189:1.0 422:1.0 1223:1.0 1224:1.0 
-818.2248358477887 1789.7116073998563 179:1.0 716:1.0 1225:1.0 1226:1.0 1227:1.0 1228:1.0 
-25820.151826796617 17111.082136056393 75:1.0 310:1.0 
-10297.3566538649 0.0 54:1.0 527:1.0 988:1.0 1090:1.0 
-2164.2417329815266 4868.507750941323 31:1.0 204:1.0 336:1.0 1069:1.0 1090:1.0 
-635.4667460998222 2521.393028260929 40:1.0 208:1.0 345:1.0 1046:1.0 1090:1.0 1244:1.0 1245:1.0 
-2671.9254887282054 10.143411651942301 72:1.0 1256:1.0 1257:1.0 
-32768.0 17725.495498066062 72:1.0 
-527.5880545402712 0.0 1:1.0 207:1.0 277:1.0 927:1.0 1259:1.0 
-628.3957153754925 0.0 45:1.0 69:1.0 125:1.0 168:1.0 809:1.0 1275:1.0 1276:1.0 
-481.87532886949225 0.0 10:1.0 31:1.0 97:1.0 277:1.0 1293:1.0 1294:1.0 1295:1.0 1296:1.0 
-6566.733970246767 0.0 10:1.0 11:1.0 38:1.0 349:1.0 422:1.0 1305:1.0 
-6772.606568081012 3793.6297545111875 10:1.0 147:1.0 1226:1.0 1306:1.0 
-1610.293295210102 1604.88849032295 69:1.0 70:1.0 1111:1.0 1307:1.0 1308:1.0 1309:1.0 
-334.1363279902233 1156.306018541349 9:1.0 272:1.0 295:1.0 919:1.0 1310:1.0 
-0.0 1591.9302897661871 178:1.0 206:1.0 278:1.0 527:1.0 560:1.0 901:1.0 1288:1.0 1333:1.0 
-1741.1133543287801 3.3258571746721004 40:1.0 75:1.0 79:1.0 81:1.0 152:1.0 318:1.0 488:1.0 1069:1.0 1347:1.0 1348:1.0 1349:1.0 1350:1.0 1351:1.0 
-7261.680151680029 592.4506145476789 30:1.0 31:1.0 32:1.0 449:1.0 
-0.0 524.6519111399294 32:1.0 206:1.0 207:1.0 417:1.0 418:1.0 721:1.0 862:1.0 1364:1.0 1365:1.0 1366:1.0 1367:1.0 
-1948.438122556964 7212.714296416997 4:1.0 207:1.0 1370:1.0 
-197.15095331205524 308.8174394443036 38:1.0 207:1.0 1381:1.0 1382:1.0 1383:1.0 
-0.0 6939.8527978763 105:1.0 207:1.0 272:1.0 
-6877.493826033283 8200.778335464563 207:1.0 1166:1.0 
-2600.9860646670422 0.0 31:1.0 72:1.0 1403:1.0 
-7115.024456067616 3205.7872062964097 178:1.0 363:1.0 716:1.0 
-4750.77757767057 1057.5117286436255 178:1.0 306:1.0 554:1.0 555:1.0 
-8891.885205106602 5142.444275778512 46:1.0 1411:1.0 
-6630.833607319236 3287.6303191825327 38:1.0 349:1.0 398:1.0 399:1.0 448:1.0 
-1003.8046207846428 1984.207059509722 79:1.0 85:1.0 237:1.0 496:1.0 1412:1.0 
-12549.444295923087 0.0 38:1.0 233:1.0 277:1.0 
-11650.598437863047 10876.866281920235 467:1.0 646:1.0 
-2042.0948872624335 2375.5081526412064 39:1.0 296:1.0 473:1.0 1444:1.0 
-483.39359245369957 3009.393199267337 7:1.0 77:1.0 1103:1.0 1451:1.0 1452:1.0 1453:1.0 
-7029.955613239134 2913.922485933434 156:1.0 290:1.0 441:1.0 518:1.0 
-5570.216908099396 3825.8680863327218 8:1.0 9:1.0 11:1.0 1456:1.0 
-0.0 10339.565325306816 79:1.0 206:1.0 
-1747.8420042996295 0.0 38:1.0 306:1.0 562:1.0 1461:1.0 1462:1.0 
-331.81166641459396 2694.7701948799886 78:1.0 112:1.0 152:1.0 328:1.0 356:1.0 583:1.0 809:1.0 1027:1.0 1472:1.0 1473:1.0 
-17577.851254391935 22272.23041556264 105:1.0 1388:1.0 
-2124.118459072348 0.0 38:1.0 75:1.0 234:1.0 451:1.0 521:1.0 755:1.0 809:1.0 1483:1.0 
-11991.987445919272 7988.1012818814515 7:1.0 1484:1.0 
-0.0 375.99694356983287 8:1.0 54:1.0 105:1.0 874:1.0 1226:1.0 1461:1.0 1485:1.0 
-13434.978590208271 630.5705586277498 31:1.0 69:1.0 70:1.0 1043:1.0 
-0.0 1283.1967572401122 105:1.0 388:1.0 544:1.0 1489:1.0 1494:1.0 1495:1.0 
-0.0 22849.79014922259 54:1.0 108:1.0 
-1697.445814392101 1107.591084251538 10:1.0 38:1.0 84:1.0 89:1.0 146:1.0 165:1.0 222:1.0 1503:1.0 1504:1.0 
-3091.316588068427 2979.5740325737215 201:1.0 202:1.0 573:1.0 919:1.0 1507:1.0 
-14597.639816949764 10919.354498769937 40:1.0 88:1.0 125:1.0 306:1.0 
-5965.69609163658 746.2168351160308 10:1.0 97:1.0 121:1.0 661:1.0 1226:1.0 1516:1.0 
-5712.232433031766 7237.646368419744 131:1.0 207:1.0 752:1.0 1523:1.0 
-14657.254780205127 3446.6011853010064 69:1.0 70:1.0 174:1.0 
-5110.589821917778 1786.0322101782986 388:1.0 840:1.0 
-0.0 1044.5587539472167 10:1.0 27:1.0 86:1.0 296:1.0 393:1.0 500:1.0 560:1.0 1534:1.0 1535:1.0 1536:1.0 1537:1.0 1538:1.0 
-2462.287211716655 174.94138601133025 56:1.0 281:1.0 349:1.0 1072:1.0 1572:1.0 1573:1.0 1574:1.0 
-0.0 1417.8366508765578 10:1.0 108:1.0 202:1.0 1294:1.0 1575:1.0 
-9681.887334094108 0.0 84:1.0 90:1.0 347:1.0 422:1.0 423:1.0 426:1.0 427:1.0 1584:1.0 
-0.0 182.30988329473755 77:1.0 96:1.0 178:1.0 258:1.0 842:1.0 1590:1.0 1591:1.0 
-0.0 289.7759076040236 46:1.0 47:1.0 54:1.0 146:1.0 442:1.0 1335:1.0 1615:1.0 
-0.0 2946.0367355699814 45:1.0 46:1.0 174:1.0 369:1.0 752:1.0 946:1.0 
-0.0 1425.0024785654439 38:1.0 238:1.0 296:1.0 583:1.0 
-955.0141806864646 0.0 38:1.0 76:1.0 201:1.0 583:1.0 
-0.0 2425.885158502649 108:1.0 1637:1.0 1638:1.0 
-1869.7856700601367 4750.09410582123 79:1.0 96:1.0 123:1.0 1653:1.0 
-0.0 184.34452047337862 277:1.0 1653:1.0 1655:1.0 
-3045.3726850744956 0.0 38:1.0 201:1.0 1656:1.0 
-124.65003410062035 2735.3709714852325 38:1.0 86:1.0 206:1.0 257:1.0 377:1.0 568:1.0 1659:1.0 1660:1.0 
-351.701379820757 197.10099714728517 75:1.0 156:1.0 351:1.0 454:1.0 1681:1.0 1682:1.0 
-4562.890392985946 940.2875402560707 8:1.0 40:1.0 97:1.0 196:1.0 210:1.0 542:1.0 583:1.0 1706:1.0 1707:1.0 1708:1.0 
-7715.709150642528 925.9524225602876 206:1.0 304:1.0 401:1.0 901:1.0 
-0.0 1579.6933661445792 274:1.0 310:1.0 375:1.0 1749:1.0 1750:1.0 
-0.0 5.774717204530358 47:1.0 296:1.0 422:1.0 842:1.0 1751:1.0 
-461.89921867047764 1491.4365926137089 40:1.0 75:1.0 88:1.0 89:1.0 99:1.0 105:1.0 117:1.0 178:1.0 263:1.0 437:1.0 874:1.0 1367:1.0 1586:1.0 1768:1.0 1769:1.0 1770:1.0 
-2924.7905762470346 6266.068684092319 5:1.0 40:1.0 75:1.0 306:1.0 665:1.0 1780:1.0 
-0.0 1062.9131901339956 40:1.0 84:1.0 88:1.0 94:1.0 329:1.0 375:1.0 527:1.0 747:1.0 1288:1.0 1335:1.0 1781:1.0 1782:1.0 1783:1.0 1784:1.0 1785:1.0 1786:1.0 
-0.0 4147.076732727012 96:1.0 105:1.0 809:1.0 1773:1.0 
-8679.3341983571 8187.492064604244 284:1.0 1793:1.0 1794:1.0 
-8826.010858655085 4844.071252880463 79:1.0 143:1.0 581:1.0 1801:1.0 
-2058.657033207214 1361.2272775761437 80:1.0 288:1.0 295:1.0 521:1.0 1741:1.0 
-640.6537610922036 0.0 1:1.0 31:1.0 57:1.0 84:1.0 178:1.0 186:1.0 1099:1.0 1413:1.0 1807:1.0 1808:1.0 1809:1.0 1810:1.0 1811:1.0 1812:1.0 
-4626.620751548397 4412.761736037723 57:1.0 156:1.0 375:1.0 867:1.0 1763:1.0 1824:1.0 
-162.654022053008 0.0 38:1.0 147:1.0 186:1.0 201:1.0 202:1.0 222:1.0 267:1.0 351:1.0 581:1.0 978:1.0 1068:1.0 1095:1.0 1149:1.0 1825:1.0 1826:1.0 1827:1.0 1828:1.0 1829:1.0 
-8829.66362137919 5333.608546567667 40:1.0 98:1.0 178:1.0 352:1.0 1839:1.0 
-9175.940688101426 6325.402444058722 147:1.0 1845:1.0 1846:1.0 
-11081.590915746658 4893.114590623256 427:1.0 500:1.0 1384:1.0 1850:1.0 
-410.1713529691097 0.0 30:1.0 31:1.0 32:1.0 72:1.0 125:1.0 231:1.0 
-0.0 103.52152339368021 77:1.0 178:1.0 206:1.0 427:1.0 493:1.0 1196:1.0 
-0.0 1981.8148095954564 7:1.0 178:1.0 1690:1.0 1885:1.0 
-2270.2983934065705 0.0 57:1.0 79:1.0 496:1.0 
-7727.089275552956 0.0 57:1.0 328:1.0 473:1.0 1911:1.0 
-3434.7729758249993 1279.937418784798 10:1.0 31:1.0 449:1.0 690:1.0 1204:1.0 
-0.0 1642.1762606992595 80:1.0 119:1.0 147:1.0 
-0.0 85.13936151062659 28:1.0 296:1.0 362:1.0 842:1.0 1572:1.0 1862:1.0 1921:1.0 1922:1.0 
-0.0 2820.858556558224 38:1.0 84:1.0 165:1.0 639:1.0 800:1.0 
-0.0 1757.7792526010403 40:1.0 79:1.0 288:1.0 496:1.0 583:1.0 1078:1.0 1555:1.0 1931:1.0 
-373.15071069618483 2418.9063224121674 45:1.0 47:1.0 79:1.0 92:1.0 112:1.0 125:1.0 1940:1.0 1941:1.0 1942:1.0 1943:1.0 1944:1.0 
-18163.145545350464 10455.733041007192 38:1.0 1945:1.0 
-2289.4694117886656 2562.3115341262696 8:1.0 40:1.0 213:1.0 249:1.0 272:1.0 386:1.0 1946:1.0 1947:1.0 
-1048.7885986841545 2759.056251849451 46:1.0 47:1.0 149:1.0 230:1.0 245:1.0 289:1.0 442:1.0 661:1.0 752:1.0 
-13860.126107205191 6873.360383553608 186:1.0 225:1.0 1404:1.0 1453:1.0 
-1484.73054838329 0.0 31:1.0 40:1.0 46:1.0 377:1.0 488:1.0 843:1.0 1653:1.0 1971:1.0 
-0.0 14135.95823887185 79:1.0 86:1.0 388:1.0 
-4451.922866795277 -9445.126081473163 97:1.0 106:1.0 107:1.0 108:1.0 109:1.0 110:1.0 
-383.7954988961743 -0.0 131:1.0 132:1.0 133:1.0 134:1.0 135:1.0 136:1.0 137:1.0 138:1.0 139:1.0 140:1.0 141:1.0 
-0.0 -1056.8933078232346 79:1.0 86:1.0 145:1.0 146:1.0 147:1.0 148:1.0 149:1.0 150:1.0 151:1.0 152:1.0 
-1596.4857633410297 -0.0 105:1.0 145:1.0 164:1.0 165:1.0 166:1.0 167:1.0 168:1.0 
-0.0 -2346.746903556422 54:1.0 79:1.0 148:1.0 207:1.0 208:1.0 209:1.0 210:1.0 211:1.0 212:1.0 213:1.0 214:1.0 215:1.0 
-793.0185725988151 -2160.755396495659 8:1.0 25:1.0 88:1.0 132:1.0 216:1.0 217:1.0 218:1.0 219:1.0 220:1.0 
-4067.0566520834304 -1217.7889775034168 77:1.0 78:1.0 96:1.0 149:1.0 242:1.0 243:1.0 244:1.0 245:1.0 246:1.0 247:1.0 
-2832.0609506560677 -949.9601600956613 40:1.0 75:1.0 153:1.0 259:1.0 260:1.0 261:1.0 262:1.0 263:1.0 264:1.0 265:1.0 266:1.0 267:1.0 268:1.0 269:1.0 270:1.0 
-1310.516602602626 -2629.071812435644 25:1.0 40:1.0 125:1.0 156:1.0 282:1.0 283:1.0 284:1.0 285:1.0 286:1.0 287:1.0 288:1.0 
-17564.903956973074 -10496.906139594956 105:1.0 322:1.0 
-5775.21506595669 -5745.033479213767 54:1.0 275:1.0 350:1.0 
-0.0 -445.80721627957 40:1.0 183:1.0 364:1.0 365:1.0 366:1.0 367:1.0 368:1.0 369:1.0 370:1.0 371:1.0 
-5931.366135093946 -15864.932808568054 40:1.0 105:1.0 123:1.0 379:1.0 
-22753.29069491993 -13020.170068841395 447:1.0 
-3705.4781033359 -5363.408964957152 178:1.0 377:1.0 489:1.0 490:1.0 
-2963.089464067762 -4714.643381855218 40:1.0 221:1.0 222:1.0 491:1.0 492:1.0 493:1.0 
-1126.4627507939163 -6574.320424761812 105:1.0 108:1.0 112:1.0 523:1.0 524:1.0 
-5772.439746165865 -4168.704168817043 54:1.0 275:1.0 541:1.0 
-10498.366383354234 -7160.352838110109 38:1.0 273:1.0 585:1.0 586:1.0 
-2462.9959533335846 -548.7500891207417 627:1.0 628:1.0 629:1.0 630:1.0 631:1.0 
-14040.978976281709 -8358.525416765771 78:1.0 653:1.0 
-0.0 -941.9701455640605 57:1.0 78:1.0 86:1.0 148:1.0 654:1.0 655:1.0 656:1.0 
-2739.8923660819664 -4711.170387343232 78:1.0 108:1.0 112:1.0 233:1.0 257:1.0 375:1.0 407:1.0 
-369.9609433670088 -128.19550111319788 78:1.0 273:1.0 604:1.0 657:1.0 658:1.0 
-9182.51525828594 -3930.0305860643725 45:1.0 75:1.0 315:1.0 659:1.0 660:1.0 661:1.0 
-1965.4037368598797 -2547.2641735355287 96:1.0 186:1.0 283:1.0 292:1.0 293:1.0 558:1.0 664:1.0 665:1.0 666:1.0 
-3126.5378116332276 -1133.9012308026915 130:1.0 271:1.0 676:1.0 677:1.0 
-9494.515391799949 -7038.578518862772 678:1.0 679:1.0 
-2796.3613772004014 -931.2025351713986 40:1.0 86:1.0 92:1.0 125:1.0 680:1.0 
-0.0 -2010.3100436493812 178:1.0 447:1.0 682:1.0 683:1.0 
-2675.644490756698 -1127.53587750084 54:1.0 87:1.0 90:1.0 152:1.0 265:1.0 275:1.0 581:1.0 691:1.0 692:1.0 693:1.0 694:1.0 695:1.0 696:1.0 697:1.0 
-5896.900605044051 -2924.6463671573615 4:1.0 106:1.0 131:1.0 204:1.0 257:1.0 703:1.0 
-5197.260359226729 -11305.668057177472 77:1.0 207:1.0 707:1.0 710:1.0 711:1.0 
-15819.320957348828 -9358.009522822671 86:1.0 721:1.0 
-1855.5083286187783 -0.0 75:1.0 78:1.0 731:1.0 732:1.0 733:1.0 734:1.0 735:1.0 736:1.0 
-1254.262077320436 -0.0 40:1.0 81:1.0 171:1.0 257:1.0 263:1.0 368:1.0 723:1.0 737:1.0 738:1.0 739:1.0 740:1.0 741:1.0 742:1.0 743:1.0 744:1.0 745:1.0 
-5706.233266774787 -4019.741438614765 747:1.0 748:1.0 749:1.0 750:1.0 
-740.6127913934583 -2680.50959649683 7:1.0 368:1.0 751:1.0 752:1.0 753:1.0 754:1.0 755:1.0 756:1.0 757:1.0 758:1.0 
-17571.957701242834 -16805.809803805776 88:1.0 773:1.0 
-17766.57588973879 -8412.696534348934 86:1.0 820:1.0 
-2077.759755162585 -655.7200153258045 130:1.0 821:1.0 822:1.0 
-8078.170544741723 -3980.158552645067 86:1.0 823:1.0 
-1812.9460582711788 -438.70293453185064 28:1.0 86:1.0 196:1.0 256:1.0 257:1.0 346:1.0 742:1.0 823:1.0 828:1.0 829:1.0 830:1.0 831:1.0 832:1.0 833:1.0 834:1.0 835:1.0 
-15575.330202984549 -7405.808694108969 169:1.0 302:1.0 846:1.0 
-1733.8309611350526 -0.0 96:1.0 105:1.0 186:1.0 233:1.0 422:1.0 854:1.0 855:1.0 856:1.0 
-0.0 -1734.4562953756233 28:1.0 86:1.0 724:1.0 823:1.0 859:1.0 
-3512.32775277613 -5469.128699040657 75:1.0 79:1.0 88:1.0 131:1.0 213:1.0 248:1.0 398:1.0 860:1.0 861:1.0 
-2804.120573864623 -710.3721933797399 222:1.0 318:1.0 628:1.0 629:1.0 811:1.0 862:1.0 863:1.0 
-2721.2649843507884 -2344.5530915205127 136:1.0 873:1.0 874:1.0 875:1.0 876:1.0 877:1.0 878:1.0 
-3561.3277415852585 -1152.4338159065724 40:1.0 680:1.0 879:1.0 880:1.0 
-5706.012061944081 -4787.277911737988 129:1.0 503:1.0 919:1.0 920:1.0 
-11296.788136280473 -11467.456523383427 38:1.0 946:1.0 947:1.0 
-2583.7297413140172 -5612.4825350532 40:1.0 147:1.0 207:1.0 315:1.0 405:1.0 955:1.0 956:1.0 957:1.0 
-1636.2491022042896 -3278.3025162387826 40:1.0 75:1.0 122:1.0 262:1.0 627:1.0 628:1.0 629:1.0 964:1.0 
-0.0 -20.857287908759677 40:1.0 75:1.0 122:1.0 628:1.0 629:1.0 965:1.0 966:1.0 967:1.0 968:1.0 
-4318.969975779615 -1190.6408186242536 10:1.0 40:1.0 105:1.0 148:1.0 183:1.0 306:1.0 692:1.0 989:1.0 990:1.0 991:1.0 992:1.0 
-17053.07504419846 -17130.76677811783 40:1.0 993:1.0 
-4351.025799355337 -4271.7233826212905 40:1.0 348:1.0 782:1.0 995:1.0 996:1.0 
-0.0 -883.8918079823309 11:1.0 40:1.0 47:1.0 125:1.0 130:1.0 424:1.0 999:1.0 1000:1.0 1001:1.0 
-4373.73110659321 -9589.250989028305 38:1.0 40:1.0 680:1.0 1010:1.0 
-1956.7755954638458 -1085.667265132793 40:1.0 75:1.0 81:1.0 368:1.0 543:1.0 544:1.0 927:1.0 1022:1.0 1023:1.0 1024:1.0 1025:1.0 
-0.0 -1376.1501121947033 40:1.0 148:1.0 1045:1.0 1046:1.0 1047:1.0 
-2693.9358461861884 -1975.469534893897 40:1.0 119:1.0 680:1.0 1056:1.0 
-754.5571278504094 -0.0 38:1.0 40:1.0 43:1.0 78:1.0 105:1.0 148:1.0 288:1.0 424:1.0 584:1.0 831:1.0 1069:1.0 1070:1.0 
-19672.38456116118 -18989.260645736274 96:1.0 855:1.0 
-28.13421443193374 -0.0 112:1.0 130:1.0 145:1.0 289:1.0 315:1.0 348:1.0 956:1.0 1097:1.0 1098:1.0 
-11387.826726408222 -7514.527250147056 1011:1.0 1105:1.0 
-3637.2960745419614 -2023.8733464795548 4:1.0 490:1.0 495:1.0 884:1.0 1112:1.0 
-6682.912681672323 -0.0 43:1.0 148:1.0 178:1.0 222:1.0 233:1.0 257:1.0 985:1.0 1138:1.0 
-18020.933233623222 -8789.092463854207 233:1.0 283:1.0 1140:1.0 
-5253.674127008403 -5691.834990105657 4:1.0 852:1.0 1143:1.0 1144:1.0 
-668.457785389472 -0.0 156:1.0 168:1.0 213:1.0 233:1.0 249:1.0 655:1.0 822:1.0 823:1.0 940:1.0 1149:1.0 1150:1.0 1151:1.0 
-5700.419803832708 -4567.610273487677 132:1.0 202:1.0 1152:1.0 
-2770.029369321846 -257.9287772821939 130:1.0 552:1.0 575:1.0 1153:1.0 1154:1.0 1155:1.0 
-4817.716345943478 -1322.8042166956166 130:1.0 1156:1.0 
-6024.041268142742 -3121.6743207440327 1170:1.0 1171:1.0 
-22752.550398614356 -0.0 858:1.0 
-5301.841781314467 -1393.362834869833 124:1.0 204:1.0 490:1.0 1215:1.0 1216:1.0 
-4462.444641978415 -2652.695609583172 98:1.0 593:1.0 1217:1.0 1218:1.0 1219:1.0 1220:1.0 
-1124.4639006043083 -2917.1065235003357 97:1.0 147:1.0 148:1.0 151:1.0 306:1.0 362:1.0 865:1.0 1046:1.0 1236:1.0 1237:1.0 1238:1.0 1239:1.0 
-7590.819091527901 -5007.136157971971 722:1.0 1241:1.0 
-7592.239211289292 -5009.556793541218 722:1.0 1242:1.0 
-910.9284200893767 -2824.109916516437 78:1.0 179:1.0 296:1.0 522:1.0 733:1.0 734:1.0 800:1.0 812:1.0 840:1.0 1258:1.0 
-988.3600916769122 -5391.826400626733 178:1.0 186:1.0 665:1.0 812:1.0 1260:1.0 1261:1.0 
-618.037978699864 -0.0 125:1.0 165:1.0 167:1.0 210:1.0 338:1.0 448:1.0 865:1.0 894:1.0 1271:1.0 1272:1.0 1273:1.0 1274:1.0 
-0.0 -15120.321799574418 75:1.0 79:1.0 105:1.0 858:1.0 
-5007.48064335373 -1289.9401003577902 168:1.0 1279:1.0 1280:1.0 1281:1.0 1282:1.0 1283:1.0 1284:1.0 1285:1.0 
-22670.144545524614 -15033.802826446943 104:1.0 
-2043.1895169716145 -4242.678886784001 38:1.0 40:1.0 75:1.0 288:1.0 386:1.0 945:1.0 1279:1.0 1315:1.0 1316:1.0 1317:1.0 1318:1.0 
-12.13165320873128 -0.0 112:1.0 148:1.0 405:1.0 558:1.0 794:1.0 1320:1.0 
-5386.290719343622 -2649.111923700873 125:1.0 209:1.0 283:1.0 665:1.0 
-1257.8959472969084 -4039.123763216639 88:1.0 156:1.0 165:1.0 167:1.0 196:1.0 289:1.0 399:1.0 639:1.0 801:1.0 1324:1.0 1325:1.0 1326:1.0 
-4794.588512386552 -1826.1694972927496 742:1.0 946:1.0 1342:1.0 
-614.5437523626117 -0.0 130:1.0 131:1.0 156:1.0 186:1.0 348:1.0 1343:1.0 1344:1.0 1345:1.0 1346:1.0 
-8582.696027417836 -7030.915734637374 10:1.0 24:1.0 500:1.0 1368:1.0 1369:1.0 
-2831.971713812784 -1300.8919466872771 167:1.0 906:1.0 1385:1.0 1386:1.0 1387:1.0 
-0.0 -2197.8252109393798 178:1.0 490:1.0 1215:1.0 1409:1.0 1410:1.0 
-1658.607701751641 -844.4695283999953 54:1.0 105:1.0 148:1.0 1063:1.0 1203:1.0 1442:1.0 1443:1.0 
-3603.052731206067 -0.0 38:1.0 275:1.0 692:1.0 724:1.0 874:1.0 1099:1.0 
-0.0 -781.7077029822545 79:1.0 132:1.0 530:1.0 1486:1.0 1487:1.0 
-883.0874861383296 -508.916459879424 81:1.0 105:1.0 133:1.0 136:1.0 641:1.0 991:1.0 1489:1.0 1490:1.0 1491:1.0 1492:1.0 1493:1.0 
-358.90616590257105 -5028.0004994371275 54:1.0 108:1.0 112:1.0 950:1.0 1509:1.0 1510:1.0 1511:1.0 
-26.678343517996264 -1452.142691373023 74:1.0 78:1.0 105:1.0 178:1.0 245:1.0 532:1.0 1310:1.0 1517:1.0 1518:1.0 1519:1.0 
-3967.3484352610753 -3714.424608936344 178:1.0 270:1.0 442:1.0 771:1.0 794:1.0 844:1.0 1521:1.0 1522:1.0 
-6234.266752409876 -3418.2628725980103 284:1.0 699:1.0 851:1.0 1527:1.0 1528:1.0 1529:1.0 
-8574.396025365617 -3758.7263512410555 233:1.0 368:1.0 1531:1.0 
-371.2451724498195 -670.0677460912839 11:1.0 130:1.0 1532:1.0 1533:1.0 
-3752.997823253574 -656.6416701096755 130:1.0 1106:1.0 1539:1.0 
-782.1732276454757 -989.6329409928286 40:1.0 94:1.0 165:1.0 167:1.0 405:1.0 639:1.0 800:1.0 831:1.0 932:1.0 1005:1.0 1540:1.0 1541:1.0 1542:1.0 
-4028.1461987491743 -2826.388454565708 131:1.0 132:1.0 752:1.0 1169:1.0 1551:1.0 
-3863.2870998440817 -2054.2423492961075 133:1.0 532:1.0 1037:1.0 1570:1.0 1571:1.0 
-5155.8419407929505 -2240.170806146789 1312:1.0 1576:1.0 1577:1.0 1578:1.0 1579:1.0 
-22753.515104360282 -15032.093523958803 1583:1.0 
-5478.4481519620895 -6624.671726575542 8:1.0 116:1.0 168:1.0 1594:1.0 1595:1.0 1596:1.0 
-1894.5915614078247 -1490.6600478399262 583:1.0 823:1.0 1195:1.0 1597:1.0 
-2780.312572592152 -1992.8062846245023 5:1.0 32:1.0 112:1.0 752:1.0 1258:1.0 1362:1.0 1598:1.0 1599:1.0 1600:1.0 
-21073.77775843018 -1225.0131226525798 11:1.0 75:1.0 112:1.0 233:1.0 1117:1.0 1206:1.0 1586:1.0 1601:1.0 
-396.4402004516863 -3101.5122503794246 5:1.0 11:1.0 130:1.0 732:1.0 
-14882.66619863489 -853.8422565979176 43:1.0 151:1.0 352:1.0 526:1.0 1629:1.0 
-3062.2689198899084 -3823.2396248999667 79:1.0 125:1.0 359:1.0 422:1.0 931:1.0 1577:1.0 1634:1.0 1635:1.0 1636:1.0 
-6187.970761061451 -865.1462800784692 38:1.0 43:1.0 386:1.0 530:1.0 1639:1.0 1640:1.0 
-527.1983800020965 -2943.949494361499 79:1.0 147:1.0 148:1.0 278:1.0 526:1.0 1641:1.0 
-470.69054009225465 -0.0 40:1.0 103:1.0 165:1.0 167:1.0 202:1.0 222:1.0 300:1.0 318:1.0 342:1.0 394:1.0 414:1.0 932:1.0 978:1.0 1645:1.0 1646:1.0 1647:1.0 1648:1.0 
-0.0 -104.22409452316109 165:1.0 167:1.0 531:1.0 532:1.0 639:1.0 1649:1.0 1650:1.0 1651:1.0 
-2835.349255946857 -2093.473383942004 165:1.0 167:1.0 793:1.0 1652:1.0 
-1824.145906562048 -2377.542226512618 38:1.0 86:1.0 368:1.0 1657:1.0 1658:1.0 
-1405.8008306432603 -1357.9341544510478 27:1.0 40:1.0 117:1.0 149:1.0 169:1.0 274:1.0 306:1.0 385:1.0 773:1.0 950:1.0 999:1.0 1680:1.0 
-8577.510582674095 -9470.443875443605 222:1.0 1453:1.0 1683:1.0 
-1951.2099708308344 -0.0 222:1.0 257:1.0 721:1.0 1684:1.0 1685:1.0 1686:1.0 1687:1.0 
-8665.02302913603 -2197.251080862991 31:1.0 43:1.0 249:1.0 1695:1.0 1696:1.0 1697:1.0 
-5972.311072921645 -3816.5595649017832 47:1.0 659:1.0 1703:1.0 1704:1.0 
-0.0 -487.69803671135173 40:1.0 89:1.0 122:1.0 627:1.0 628:1.0 752:1.0 811:1.0 946:1.0 1705:1.0 
-2221.1465808025873 -2687.0238982752053 78:1.0 81:1.0 114:1.0 133:1.0 152:1.0 1713:1.0 1714:1.0 1715:1.0 1716:1.0 
-9427.14487447291 -5005.807895606609 1727:1.0 1728:1.0 1729:1.0 
-6168.131756042296 -2593.8167102681855 40:1.0 263:1.0 296:1.0 1139:1.0 1261:1.0 1732:1.0 
-1113.0802833493833 -1405.565508094931 145:1.0 165:1.0 167:1.0 172:1.0 801:1.0 1733:1.0 1734:1.0 
-5314.393170813701 -768.3717489352932 159:1.0 257:1.0 284:1.0 823:1.0 1299:1.0 1747:1.0 
-10304.954659460283 -8379.945562037494 31:1.0 336:1.0 965:1.0 1705:1.0 
-10405.63727241338 -4428.04206860734 448:1.0 1509:1.0 1752:1.0 
-16475.108746053404 -19037.145055086865 40:1.0 122:1.0 1767:1.0 
-1618.0534655090983 -0.0 40:1.0 75:1.0 86:1.0 89:1.0 90:1.0 315:1.0 530:1.0 724:1.0 755:1.0 1312:1.0 1771:1.0 1772:1.0 1773:1.0 1774:1.0 1775:1.0 1776:1.0 
-1225.9589729360312 -1152.7281093018385 40:1.0 680:1.0 1778:1.0 1779:1.0 
-2975.8549981744227 -2683.429025367572 25:1.0 96:1.0 100:1.0 112:1.0 248:1.0 1788:1.0 1789:1.0 1790:1.0 
-0.0 -88.79721960178863 490:1.0 742:1.0 1601:1.0 1795:1.0 1796:1.0 1797:1.0 
-7462.235118571359 -4422.5644718944895 98:1.0 1815:1.0 1816:1.0 1817:1.0 
-2246.0247160949716 -0.0 149:1.0 710:1.0 852:1.0 1021:1.0 1046:1.0 1322:1.0 1597:1.0 1823:1.0 
-0.0 -5028.561575885929 40:1.0 47:1.0 125:1.0 130:1.0 375:1.0 800:1.0 1089:1.0 
-11396.332414177095 -7674.611974196954 206:1.0 560:1.0 1139:1.0 1842:1.0 
-83.80425677491958 -0.0 90:1.0 97:1.0 104:1.0 105:1.0 112:1.0 318:1.0 375:1.0 1854:1.0 1855:1.0 
-3475.4273228012817 -1100.5544716433365 43:1.0 79:1.0 86:1.0 155:1.0 1103:1.0 1455:1.0 1856:1.0 1857:1.0 1858:1.0 1859:1.0 
-1532.8252200217473 -824.5144808316389 75:1.0 111:1.0 257:1.0 364:1.0 530:1.0 1733:1.0 1860:1.0 1861:1.0 
-1738.4680924497036 -595.5850068050095 28:1.0 266:1.0 270:1.0 368:1.0 497:1.0 1871:1.0 1872:1.0 1873:1.0 1874:1.0 1875:1.0 
-0.0 -545.6419988704924 7:1.0 78:1.0 530:1.0 734:1.0 788:1.0 931:1.0 1892:1.0 1893:1.0 
-1132.114178100713 -1384.4357415299817 38:1.0 86:1.0 233:1.0 530:1.0 1615:1.0 1899:1.0 1900:1.0 1901:1.0 1902:1.0 
-3788.466616811111 -5246.894374793793 79:1.0 249:1.0 1903:1.0 1904:1.0 1905:1.0 
-3209.263540467565 -684.0615229514337 209:1.0 273:1.0 1347:1.0 1912:1.0 
-1440.1080796261397 -4350.637154104888 105:1.0 108:1.0 147:1.0 492:1.0 660:1.0 1915:1.0 1916:1.0 1917:1.0 1918:1.0 
-10346.42384901535 -7535.790043992144 1171:1.0 1763:1.0 
-382.20121813410634 -1243.8237492006535 581:1.0 732:1.0 1171:1.0 1935:1.0 
-4511.063742641917 -992.3211631248367 3:1.0 87:1.0 89:1.0 144:1.0 257:1.0 434:1.0 530:1.0 651:1.0 699:1.0 932:1.0 981:1.0 1798:1.0 1936:1.0 1937:1.0 1938:1.0 1939:1.0 
-4113.044374157203 -10927.802507683715 275:1.0 306:1.0 1954:1.0 
-5792.09445642475 -3497.686985166717 40:1.0 54:1.0 138:1.0 159:1.0 171:1.0 207:1.0 369:1.0 375:1.0 692:1.0 1756:1.0 1961:1.0 1962:1.0 
-22508.587042426225 -11411.687685773511 583:1.0 1963:1.0 
-2219.5004701797498 -3.7292969355189807 25:1.0 38:1.0 54:1.0 78:1.0 105:1.0 145:1.0 148:1.0 152:1.0 189:1.0 442:1.0 583:1.0 704:1.0 
-0.0 -3334.3128640884333 43:1.0 45:1.0 79:1.0 352:1.0 526:1.0 530:1.0 1080:1.0 1964:1.0 1965:1.0 1966:1.0 
-3780.8956003946555 -950.2470185435585 38:1.0 43:1.0 75:1.0 328:1.0 526:1.0 678:1.0 1955:1.0 1967:1.0 1968:1.0 
-4768.229406555354 -5222.105874416431 24:1.0 149:1.0 467:1.0 1969:1.0 1970:1.0 
-1623.2514849067866 -4843.147623506392 8:1.0 9:1.0 178:1.0 222:1.0 1139:1.0 1288:1.0 1972:1.0 1973:1.0 
-945.6440927900194 -0.0 86:1.0 530:1.0 1257:1.0 1974:1.0 
