svm_type c_svc
kernel_type rbf
gamma 0.0078125
nr_class 2
total_sv 276
rho -0.9210964137210191
label 0 1
probA -5.194858642576994
probB -0.06313222922938108
nr_sv 135 141
SV
7.976405821354565 1:1.0 2:1.0 3:1.0 4:1.0 5:1.0 6:1.0 7:1.0 8:1.0 9:1.0 
2.263206625130457 10:1.0 11:1.0 12:1.0 13:1.0 14:1.0 15:1.0 16:1.0 17:1.0 18:1.0 
2.2581729430833217 24:1.0 25:1.0 26:1.0 27:1.0 28:1.0 29:1.0 30:1.0 31:1.0 32:1.0 
11.239478688661306 33:1.0 34:1.0 35:1.0 36:1.0 37:1.0 38:1.0 
3.039177767290861 63:1.0 64:1.0 65:1.0 66:1.0 67:1.0 68:1.0 69:1.0 70:1.0 71:1.0 72:1.0 
6.50430500842492 34:1.0 73:1.0 74:1.0 75:1.0 76:1.0 77:1.0 78:1.0 79:1.0 80:1.0 81:1.0 82:1.0 83:1.0 
13.667507185620526 14:1.0 84:1.0 85:1.0 86:1.0 87:1.0 
4.449507942007813 88:1.0 89:1.0 90:1.0 91:1.0 92:1.0 93:1.0 
3.6365852603977062 34:1.0 96:1.0 103:1.0 104:1.0 105:1.0 106:1.0 
1.3591020117435435 18:1.0 119:1.0 120:1.0 121:1.0 122:1.0 123:1.0 124:1.0 125:1.0 
2.5598235340064495 18:1.0 121:1.0 122:1.0 123:1.0 126:1.0 127:1.0 128:1.0 129:1.0 130:1.0 131:1.0 132:1.0 
6.394883191450792 81:1.0 99:1.0 133:1.0 134:1.0 135:1.0 136:1.0 137:1.0 138:1.0 
4.600190588138202 14:1.0 139:1.0 140:1.0 141:1.0 142:1.0 143:1.0 144:1.0 
4.924507725638393 14:1.0 141:1.0 142:1.0 145:1.0 146:1.0 147:1.0 148:1.0 149:1.0 
0.033766779060296535 9:1.0 49:1.0 121:1.0 122:1.0 123:1.0 150:1.0 151:1.0 152:1.0 153:1.0 
1.7835881615958333 66:1.0 154:1.0 155:1.0 156:1.0 157:1.0 158:1.0 159:1.0 160:1.0 161:1.0 162:1.0 163:1.0 164:1.0 165:1.0 166:1.0 167:1.0 168:1.0 169:1.0 170:1.0 
10.285488976993777 113:1.0 171:1.0 172:1.0 173:1.0 174:1.0 
9.469364465335428 18:1.0 154:1.0 175:1.0 176:1.0 177:1.0 178:1.0 179:1.0 180:1.0 181:1.0 182:1.0 183:1.0 184:1.0 185:1.0 186:1.0 187:1.0 
2.741317429865148 34:1.0 150:1.0 197:1.0 198:1.0 199:1.0 200:1.0 201:1.0 202:1.0 203:1.0 204:1.0 205:1.0 206:1.0 
2.4211799157772624 28:1.0 122:1.0 200:1.0 228:1.0 229:1.0 230:1.0 231:1.0 
1.516659488228293 14:1.0 19:1.0 86:1.0 232:1.0 233:1.0 234:1.0 235:1.0 236:1.0 237:1.0 238:1.0 239:1.0 240:1.0 241:1.0 242:1.0 
3.568282031996656 14:1.0 27:1.0 45:1.0 243:1.0 244:1.0 245:1.0 246:1.0 247:1.0 248:1.0 249:1.0 
8.337152886756131 124:1.0 143:1.0 203:1.0 250:1.0 251:1.0 252:1.0 253:1.0 254:1.0 255:1.0 256:1.0 257:1.0 
3.254031326021062 18:1.0 34:1.0 124:1.0 258:1.0 259:1.0 260:1.0 261:1.0 262:1.0 263:1.0 264:1.0 265:1.0 266:1.0 267:1.0 
1.1089390840998536 106:1.0 177:1.0 180:1.0 199:1.0 254:1.0 268:1.0 269:1.0 270:1.0 271:1.0 272:1.0 273:1.0 274:1.0 275:1.0 276:1.0 277:1.0 278:1.0 
4.160594416953075 9:1.0 14:1.0 18:1.0 279:1.0 280:1.0 281:1.0 282:1.0 283:1.0 284:1.0 285:1.0 286:1.0 287:1.0 
5.632151627712693 177:1.0 181:1.0 288:1.0 289:1.0 290:1.0 291:1.0 292:1.0 293:1.0 294:1.0 295:1.0 296:1.0 297:1.0 298:1.0 
3.783694824639514 14:1.0 212:1.0 299:1.0 300:1.0 301:1.0 302:1.0 303:1.0 
1.0655083928527913 14:1.0 18:1.0 45:1.0 46:1.0 48:1.0 212:1.0 304:1.0 305:1.0 306:1.0 307:1.0 308:1.0 309:1.0 310:1.0 311:1.0 312:1.0 313:1.0 314:1.0 
3.5897861434196705 122:1.0 180:1.0 254:1.0 354:1.0 355:1.0 356:1.0 357:1.0 358:1.0 359:1.0 360:1.0 361:1.0 362:1.0 363:1.0 
10.092810793934326 30:1.0 56:1.0 98:1.0 156:1.0 312:1.0 370:1.0 371:1.0 372:1.0 373:1.0 374:1.0 375:1.0 376:1.0 377:1.0 
1.5285889379340851 34:1.0 52:1.0 98:1.0 171:1.0 378:1.0 379:1.0 380:1.0 381:1.0 382:1.0 383:1.0 384:1.0 385:1.0 386:1.0 387:1.0 388:1.0 389:1.0 
3.1161754679184557 98:1.0 121:1.0 122:1.0 123:1.0 154:1.0 258:1.0 390:1.0 391:1.0 392:1.0 393:1.0 394:1.0 
3.193245683014142 14:1.0 18:1.0 47:1.0 49:1.0 240:1.0 395:1.0 396:1.0 397:1.0 398:1.0 399:1.0 
6.604301077522564 62:1.0 411:1.0 412:1.0 413:1.0 414:1.0 415:1.0 416:1.0 417:1.0 418:1.0 
1.2932951434626285 12:1.0 18:1.0 66:1.0 101:1.0 419:1.0 420:1.0 421:1.0 422:1.0 423:1.0 424:1.0 425:1.0 426:1.0 427:1.0 428:1.0 429:1.0 
6.125434179773451 12:1.0 66:1.0 125:1.0 422:1.0 423:1.0 430:1.0 
7.816662699463367 30:1.0 31:1.0 32:1.0 438:1.0 439:1.0 440:1.0 441:1.0 442:1.0 443:1.0 
6.838339231921135 25:1.0 34:1.0 444:1.0 445:1.0 446:1.0 
3.777736061337473 66:1.0 250:1.0 484:1.0 485:1.0 486:1.0 487:1.0 488:1.0 489:1.0 490:1.0 491:1.0 492:1.0 493:1.0 494:1.0 495:1.0 496:1.0 497:1.0 498:1.0 
10.63832065346944 105:1.0 207:1.0 258:1.0 524:1.0 525:1.0 526:1.0 
9.442422096352104 9:1.0 37:1.0 122:1.0 538:1.0 539:1.0 540:1.0 541:1.0 542:1.0 543:1.0 
7.011738733224997 9:1.0 93:1.0 188:1.0 342:1.0 544:1.0 580:1.0 581:1.0 582:1.0 583:1.0 
2.3845663438159503 9:1.0 18:1.0 73:1.0 318:1.0 500:1.0 543:1.0 603:1.0 604:1.0 605:1.0 606:1.0 607:1.0 608:1.0 609:1.0 610:1.0 611:1.0 
4.47684683878282 18:1.0 93:1.0 581:1.0 622:1.0 623:1.0 624:1.0 
3.410870118801044 38:1.0 93:1.0 250:1.0 504:1.0 625:1.0 626:1.0 627:1.0 628:1.0 
7.9979526611790766 9:1.0 93:1.0 474:1.0 493:1.0 664:1.0 665:1.0 666:1.0 667:1.0 
11.403191512420017 30:1.0 180:1.0 364:1.0 642:1.0 675:1.0 676:1.0 677:1.0 678:1.0 679:1.0 680:1.0 
4.177707553139379 36:1.0 73:1.0 177:1.0 460:1.0 697:1.0 698:1.0 699:1.0 700:1.0 701:1.0 702:1.0 703:1.0 704:1.0 705:1.0 706:1.0 
4.826844810207896 14:1.0 325:1.0 707:1.0 708:1.0 709:1.0 710:1.0 
1.1871053339863997 90:1.0 93:1.0 197:1.0 250:1.0 388:1.0 504:1.0 718:1.0 719:1.0 720:1.0 721:1.0 722:1.0 723:1.0 724:1.0 725:1.0 
1.3609798187516458 14:1.0 18:1.0 76:1.0 86:1.0 105:1.0 270:1.0 591:1.0 702:1.0 754:1.0 755:1.0 756:1.0 757:1.0 758:1.0 759:1.0 
2.9670844551975017 97:1.0 150:1.0 228:1.0 278:1.0 349:1.0 352:1.0 800:1.0 801:1.0 802:1.0 803:1.0 804:1.0 805:1.0 806:1.0 807:1.0 808:1.0 809:1.0 
4.237727659137995 122:1.0 270:1.0 401:1.0 500:1.0 600:1.0 607:1.0 761:1.0 781:1.0 815:1.0 816:1.0 817:1.0 818:1.0 819:1.0 820:1.0 821:1.0 822:1.0 
5.507806091832385 14:1.0 19:1.0 145:1.0 841:1.0 842:1.0 843:1.0 844:1.0 845:1.0 846:1.0 847:1.0 
8.123709413935693 14:1.0 746:1.0 874:1.0 875:1.0 876:1.0 877:1.0 878:1.0 879:1.0 880:1.0 881:1.0 
3.8074853451994404 58:1.0 61:1.0 177:1.0 239:1.0 312:1.0 710:1.0 886:1.0 887:1.0 888:1.0 889:1.0 
8.095826206361869 805:1.0 813:1.0 923:1.0 924:1.0 925:1.0 926:1.0 
2.8924244461008697 122:1.0 439:1.0 927:1.0 928:1.0 929:1.0 930:1.0 931:1.0 932:1.0 933:1.0 
2.57801130441089 34:1.0 961:1.0 962:1.0 963:1.0 964:1.0 965:1.0 966:1.0 967:1.0 968:1.0 969:1.0 970:1.0 
2.2640446071459532 34:1.0 414:1.0 491:1.0 977:1.0 978:1.0 979:1.0 980:1.0 981:1.0 
0.044342117987964225 14:1.0 41:1.0 45:1.0 47:1.0 85:1.0 239:1.0 1004:1.0 1005:1.0 1006:1.0 1007:1.0 1008:1.0 1009:1.0 1010:1.0 1011:1.0 1012:1.0 1013:1.0 
9.549794716313265 14:1.0 63:1.0 530:1.0 1014:1.0 1015:1.0 
1.4842542177419786 34:1.0 133:1.0 233:1.0 390:1.0 492:1.0 1016:1.0 1017:1.0 1018:1.0 1019:1.0 1020:1.0 1021:1.0 1022:1.0 1023:1.0 1024:1.0 
8.986778391487862 122:1.0 1035:1.0 1036:1.0 1037:1.0 1038:1.0 
2.275717390040214 28:1.0 34:1.0 37:1.0 427:1.0 1060:1.0 1061:1.0 1062:1.0 1063:1.0 1064:1.0 1065:1.0 1066:1.0 1067:1.0 
4.359919228412307 177:1.0 199:1.0 312:1.0 525:1.0 786:1.0 1024:1.0 1078:1.0 1079:1.0 1080:1.0 1081:1.0 1082:1.0 
2.3389396628758026 14:1.0 191:1.0 257:1.0 284:1.0 296:1.0 302:1.0 500:1.0 624:1.0 1083:1.0 1084:1.0 1085:1.0 
11.011233628410437 14:1.0 426:1.0 596:1.0 1107:1.0 1108:1.0 
3.637557727020862 34:1.0 325:1.0 343:1.0 1113:1.0 
5.573703747496013 14:1.0 19:1.0 707:1.0 1121:1.0 1122:1.0 1123:1.0 1124:1.0 1125:1.0 1126:1.0 
6.113292634828397 233:1.0 671:1.0 929:1.0 1127:1.0 1128:1.0 1129:1.0 1130:1.0 1131:1.0 1132:1.0 
2.928915352862281 177:1.0 185:1.0 201:1.0 480:1.0 518:1.0 1136:1.0 1137:1.0 1138:1.0 1139:1.0 1140:1.0 1141:1.0 1142:1.0 1143:1.0 
0.45253447490334986 14:1.0 18:1.0 28:1.0 154:1.0 545:1.0 885:1.0 986:1.0 1090:1.0 1155:1.0 1156:1.0 1157:1.0 1158:1.0 1159:1.0 1160:1.0 1161:1.0 
7.429883874447724 28:1.0 102:1.0 233:1.0 323:1.0 884:1.0 979:1.0 1114:1.0 1115:1.0 1116:1.0 1117:1.0 1118:1.0 1119:1.0 1120:1.0 
32.0 34:1.0 199:1.0 212:1.0 
6.429053423548972 61:1.0 177:1.0 183:1.0 257:1.0 720:1.0 1163:1.0 1164:1.0 
1.1102276498111237 9:1.0 122:1.0 212:1.0 384:1.0 591:1.0 678:1.0 767:1.0 779:1.0 812:1.0 1169:1.0 1170:1.0 1171:1.0 1172:1.0 
3.7525461665755477 176:1.0 177:1.0 180:1.0 254:1.0 616:1.0 629:1.0 632:1.0 764:1.0 1182:1.0 1183:1.0 1184:1.0 1185:1.0 1186:1.0 
5.761340241197015 122:1.0 843:1.0 1219:1.0 1220:1.0 1221:1.0 1222:1.0 
6.707977589991989 9:1.0 81:1.0 177:1.0 1236:1.0 1237:1.0 1238:1.0 1239:1.0 
3.8133520983729845 183:1.0 370:1.0 371:1.0 452:1.0 805:1.0 1015:1.0 1250:1.0 1251:1.0 1252:1.0 1253:1.0 1254:1.0 
1.8177538851683779 14:1.0 47:1.0 212:1.0 343:1.0 1004:1.0 1265:1.0 1266:1.0 
5.695768970216955 9:1.0 93:1.0 292:1.0 1267:1.0 1268:1.0 1269:1.0 1270:1.0 1271:1.0 1272:1.0 
1.869040183933636 62:1.0 325:1.0 607:1.0 704:1.0 951:1.0 1273:1.0 1274:1.0 1275:1.0 
9.721750326921157 14:1.0 49:1.0 284:1.0 520:1.0 1277:1.0 
1.3544301228688072 177:1.0 199:1.0 259:1.0 778:1.0 810:1.0 1081:1.0 1279:1.0 1280:1.0 1281:1.0 1282:1.0 1283:1.0 1284:1.0 1285:1.0 1286:1.0 1287:1.0 1288:1.0 1289:1.0 1290:1.0 
6.047098544688373 101:1.0 177:1.0 520:1.0 1297:1.0 1298:1.0 1299:1.0 1300:1.0 1301:1.0 
2.264172968950513 14:1.0 18:1.0 52:1.0 500:1.0 1004:1.0 1302:1.0 1303:1.0 1304:1.0 1305:1.0 1306:1.0 1307:1.0 1308:1.0 1309:1.0 1310:1.0 1311:1.0 1312:1.0 
1.1032963279984083 18:1.0 28:1.0 177:1.0 414:1.0 416:1.0 706:1.0 812:1.0 1245:1.0 1313:1.0 1314:1.0 1315:1.0 1316:1.0 1317:1.0 1318:1.0 1319:1.0 1320:1.0 1321:1.0 1322:1.0 1323:1.0 
9.857606865506513 9:1.0 14:1.0 36:1.0 1325:1.0 1326:1.0 1327:1.0 1328:1.0 
6.84752097294257 30:1.0 427:1.0 704:1.0 860:1.0 955:1.0 1129:1.0 1130:1.0 1334:1.0 1335:1.0 1336:1.0 1337:1.0 1338:1.0 1339:1.0 1340:1.0 
4.514040997498412 12:1.0 177:1.0 418:1.0 809:1.0 813:1.0 951:1.0 1348:1.0 
4.741083039300928 93:1.0 278:1.0 503:1.0 702:1.0 1357:1.0 1358:1.0 1359:1.0 1360:1.0 1361:1.0 
14.235533002759722 102:1.0 312:1.0 503:1.0 870:1.0 1362:1.0 1363:1.0 1364:1.0 1365:1.0 1366:1.0 1367:1.0 
6.350371845008265 177:1.0 330:1.0 1061:1.0 1255:1.0 1262:1.0 1381:1.0 1382:1.0 1383:1.0 1384:1.0 1385:1.0 
5.756283795250657 18:1.0 133:1.0 177:1.0 330:1.0 860:1.0 989:1.0 1280:1.0 1393:1.0 1394:1.0 1395:1.0 1396:1.0 1397:1.0 1398:1.0 1399:1.0 
12.14077793850328 102:1.0 254:1.0 359:1.0 457:1.0 561:1.0 901:1.0 1406:1.0 1407:1.0 1408:1.0 1409:1.0 1410:1.0 1411:1.0 1412:1.0 1413:1.0 
3.4795861319532246 14:1.0 18:1.0 431:1.0 505:1.0 543:1.0 835:1.0 1175:1.0 1228:1.0 1414:1.0 1415:1.0 1416:1.0 1417:1.0 1418:1.0 
5.299014339728776 18:1.0 90:1.0 175:1.0 177:1.0 330:1.0 399:1.0 779:1.0 1419:1.0 1420:1.0 1421:1.0 1422:1.0 1423:1.0 
15.45008062561022 4:1.0 545:1.0 617:1.0 1336:1.0 
3.985636502251644 9:1.0 18:1.0 177:1.0 1403:1.0 1424:1.0 1425:1.0 1426:1.0 1427:1.0 1428:1.0 1429:1.0 1430:1.0 
4.195384422142036 9:1.0 56:1.0 177:1.0 207:1.0 270:1.0 312:1.0 355:1.0 431:1.0 624:1.0 1437:1.0 1438:1.0 1439:1.0 1440:1.0 1441:1.0 1442:1.0 
3.8783121705439614 177:1.0 254:1.0 493:1.0 1443:1.0 1444:1.0 1445:1.0 1446:1.0 
10.533856640533823 18:1.0 19:1.0 66:1.0 76:1.0 101:1.0 494:1.0 1464:1.0 
8.65333251145992 121:1.0 177:1.0 353:1.0 1475:1.0 1476:1.0 1477:1.0 
3.5424207326714856 14:1.0 27:1.0 52:1.0 101:1.0 1025:1.0 1161:1.0 1426:1.0 1478:1.0 1479:1.0 1480:1.0 1481:1.0 1482:1.0 
8.873108071494595 356:1.0 785:1.0 1280:1.0 1491:1.0 1492:1.0 1493:1.0 
5.7871478487783135 52:1.0 186:1.0 986:1.0 1455:1.0 1494:1.0 1495:1.0 1496:1.0 1497:1.0 
10.630957071022767 14:1.0 16:1.0 1498:1.0 1499:1.0 1500:1.0 
6.518606391571703 28:1.0 102:1.0 525:1.0 641:1.0 728:1.0 1137:1.0 1501:1.0 1502:1.0 1503:1.0 1504:1.0 1505:1.0 1506:1.0 1507:1.0 1508:1.0 
2.9381033746657566 38:1.0 122:1.0 215:1.0 520:1.0 541:1.0 545:1.0 560:1.0 1219:1.0 1524:1.0 1525:1.0 
1.4281633824476045 63:1.0 177:1.0 186:1.0 197:1.0 336:1.0 493:1.0 1262:1.0 1526:1.0 1527:1.0 1528:1.0 1529:1.0 1530:1.0 1531:1.0 1532:1.0 
7.03532297678803 9:1.0 14:1.0 19:1.0 27:1.0 234:1.0 236:1.0 285:1.0 359:1.0 544:1.0 860:1.0 1125:1.0 1533:1.0 
6.990286532370553 90:1.0 93:1.0 1045:1.0 1549:1.0 1550:1.0 
2.3552488085942223 62:1.0 339:1.0 409:1.0 445:1.0 545:1.0 696:1.0 767:1.0 1551:1.0 1552:1.0 1553:1.0 1554:1.0 1555:1.0 1556:1.0 1557:1.0 1558:1.0 1559:1.0 
8.988487757478905 99:1.0 183:1.0 486:1.0 1569:1.0 1570:1.0 1571:1.0 1572:1.0 1573:1.0 
6.704350547427524 14:1.0 45:1.0 46:1.0 607:1.0 834:1.0 1586:1.0 
9.919829824971035 6:1.0 18:1.0 19:1.0 102:1.0 318:1.0 325:1.0 342:1.0 499:1.0 545:1.0 1592:1.0 1593:1.0 1594:1.0 1595:1.0 1596:1.0 1597:1.0 
2.7008448578691016 9:1.0 12:1.0 14:1.0 556:1.0 569:1.0 666:1.0 735:1.0 1182:1.0 1598:1.0 1599:1.0 1600:1.0 1601:1.0 1602:1.0 1603:1.0 1604:1.0 
6.699902936844422 14:1.0 98:1.0 180:1.0 233:1.0 281:1.0 543:1.0 569:1.0 1068:1.0 1351:1.0 1456:1.0 1605:1.0 
6.788393511567893 30:1.0 720:1.0 804:1.0 1052:1.0 1622:1.0 1623:1.0 1624:1.0 1625:1.0 1626:1.0 1627:1.0 1628:1.0 1629:1.0 
6.963137550865715 18:1.0 38:1.0 99:1.0 497:1.0 1630:1.0 1631:1.0 1632:1.0 1633:1.0 
4.164198805709579 9:1.0 34:1.0 667:1.0 1646:1.0 1647:1.0 1648:1.0 1649:1.0 1650:1.0 1651:1.0 
6.830111730768867 4:1.0 10:1.0 18:1.0 188:1.0 242:1.0 359:1.0 416:1.0 1465:1.0 1683:1.0 1684:1.0 1685:1.0 1686:1.0 1687:1.0 
4.077348092639156 34:1.0 219:1.0 545:1.0 702:1.0 955:1.0 1688:1.0 1689:1.0 1690:1.0 1691:1.0 1692:1.0 
10.251088720340567 122:1.0 735:1.0 1702:1.0 1703:1.0 1704:1.0 1705:1.0 
11.971063563230924 122:1.0 1706:1.0 1707:1.0 1708:1.0 
1.9483161062742955 18:1.0 121:1.0 122:1.0 123:1.0 500:1.0 901:1.0 1718:1.0 1719:1.0 1720:1.0 
3.6349571397779186 14:1.0 45:1.0 47:1.0 245:1.0 1059:1.0 1721:1.0 1722:1.0 1723:1.0 1724:1.0 1725:1.0 
4.078919567614311 51:1.0 62:1.0 227:1.0 264:1.0 404:1.0 505:1.0 726:1.0 1384:1.0 1730:1.0 1731:1.0 1732:1.0 1733:1.0 1734:1.0 1735:1.0 1736:1.0 1737:1.0 1738:1.0 
3.8745967140931334 14:1.0 404:1.0 557:1.0 1127:1.0 1598:1.0 1599:1.0 1600:1.0 1747:1.0 1748:1.0 1749:1.0 1750:1.0 1751:1.0 1752:1.0 
0.9901028041170262 14:1.0 18:1.0 27:1.0 124:1.0 234:1.0 236:1.0 238:1.0 240:1.0 250:1.0 491:1.0 702:1.0 790:1.0 874:1.0 1761:1.0 1762:1.0 
5.145823640733043 34:1.0 778:1.0 1089:1.0 1763:1.0 1764:1.0 1765:1.0 
6.000127020379962 122:1.0 199:1.0 274:1.0 324:1.0 505:1.0 1034:1.0 1235:1.0 1276:1.0 1776:1.0 1777:1.0 
-4.183703380615348 9:1.0 178:1.0 179:1.0 181:1.0 188:1.0 189:1.0 190:1.0 191:1.0 192:1.0 193:1.0 194:1.0 195:1.0 196:1.0 
-8.180805213668089 14:1.0 75:1.0 199:1.0 207:1.0 208:1.0 209:1.0 210:1.0 211:1.0 212:1.0 213:1.0 214:1.0 215:1.0 216:1.0 
-3.5659686653796485 37:1.0 177:1.0 217:1.0 218:1.0 219:1.0 220:1.0 221:1.0 222:1.0 223:1.0 224:1.0 225:1.0 226:1.0 227:1.0 
-10.717906346204224 124:1.0 131:1.0 315:1.0 316:1.0 317:1.0 318:1.0 319:1.0 320:1.0 
-5.061950612700845 93:1.0 102:1.0 331:1.0 332:1.0 333:1.0 334:1.0 335:1.0 336:1.0 337:1.0 338:1.0 
-18.122401951721788 350:1.0 351:1.0 352:1.0 353:1.0 
-1.1405825336956652 102:1.0 242:1.0 312:1.0 364:1.0 365:1.0 366:1.0 367:1.0 368:1.0 369:1.0 
-0.39429239255209475 18:1.0 102:1.0 177:1.0 220:1.0 431:1.0 432:1.0 433:1.0 434:1.0 435:1.0 436:1.0 437:1.0 
-2.181247855308555 9:1.0 19:1.0 30:1.0 36:1.0 102:1.0 178:1.0 455:1.0 456:1.0 457:1.0 458:1.0 459:1.0 460:1.0 461:1.0 
-1.7003141298179194 9:1.0 14:1.0 21:1.0 99:1.0 401:1.0 462:1.0 
-2.2123431910628995 122:1.0 463:1.0 464:1.0 465:1.0 466:1.0 467:1.0 468:1.0 469:1.0 470:1.0 471:1.0 
-2.973908730317681 21:1.0 99:1.0 431:1.0 472:1.0 473:1.0 474:1.0 
-1.4593845516706778 14:1.0 21:1.0 73:1.0 74:1.0 207:1.0 318:1.0 475:1.0 476:1.0 477:1.0 478:1.0 479:1.0 480:1.0 481:1.0 482:1.0 483:1.0 
-2.5525584756818707 14:1.0 21:1.0 207:1.0 325:1.0 400:1.0 407:1.0 480:1.0 499:1.0 500:1.0 501:1.0 502:1.0 503:1.0 504:1.0 505:1.0 
-2.6852668203737835 9:1.0 14:1.0 21:1.0 101:1.0 185:1.0 501:1.0 506:1.0 507:1.0 
-1.1899349916941857 14:1.0 102:1.0 180:1.0 188:1.0 199:1.0 312:1.0 339:1.0 401:1.0 508:1.0 509:1.0 510:1.0 511:1.0 512:1.0 513:1.0 514:1.0 515:1.0 516:1.0 
-0.1643252977586008 30:1.0 49:1.0 86:1.0 101:1.0 188:1.0 211:1.0 330:1.0 453:1.0 517:1.0 518:1.0 519:1.0 520:1.0 521:1.0 522:1.0 523:1.0 
-1.1914462699907236 30:1.0 99:1.0 102:1.0 499:1.0 527:1.0 528:1.0 529:1.0 530:1.0 
-1.882715800735252 14:1.0 102:1.0 210:1.0 531:1.0 532:1.0 
-2.433583741274315 102:1.0 173:1.0 181:1.0 359:1.0 544:1.0 545:1.0 546:1.0 547:1.0 548:1.0 549:1.0 550:1.0 551:1.0 552:1.0 553:1.0 
-3.6941295624431985 4:1.0 477:1.0 491:1.0 505:1.0 556:1.0 557:1.0 558:1.0 559:1.0 560:1.0 
-6.306133777931864 4:1.0 427:1.0 558:1.0 561:1.0 562:1.0 563:1.0 564:1.0 565:1.0 566:1.0 567:1.0 
-2.0141489136304767 14:1.0 175:1.0 181:1.0 210:1.0 407:1.0 493:1.0 568:1.0 569:1.0 570:1.0 571:1.0 572:1.0 573:1.0 574:1.0 575:1.0 
-4.480338750714383 14:1.0 102:1.0 374:1.0 588:1.0 589:1.0 590:1.0 591:1.0 592:1.0 593:1.0 594:1.0 
-6.4214193305758185 18:1.0 19:1.0 34:1.0 78:1.0 354:1.0 520:1.0 600:1.0 629:1.0 630:1.0 631:1.0 632:1.0 633:1.0 634:1.0 635:1.0 
-3.187409172594867 102:1.0 108:1.0 416:1.0 492:1.0 636:1.0 637:1.0 638:1.0 639:1.0 640:1.0 641:1.0 642:1.0 
-4.406870612318128 93:1.0 99:1.0 102:1.0 177:1.0 337:1.0 552:1.0 684:1.0 685:1.0 686:1.0 687:1.0 688:1.0 689:1.0 
-8.245961534921106 87:1.0 212:1.0 350:1.0 560:1.0 690:1.0 691:1.0 692:1.0 693:1.0 694:1.0 695:1.0 696:1.0 
-0.7033689657631255 14:1.0 21:1.0 320:1.0 534:1.0 738:1.0 739:1.0 
-2.7590684239218883 14:1.0 21:1.0 86:1.0 116:1.0 117:1.0 557:1.0 740:1.0 741:1.0 742:1.0 743:1.0 
-10.778170795558516 36:1.0 257:1.0 558:1.0 744:1.0 745:1.0 746:1.0 747:1.0 748:1.0 
-31.155219338667944 9:1.0 34:1.0 37:1.0 78:1.0 749:1.0 
-0.20154667919025193 86:1.0 97:1.0 102:1.0 220:1.0 331:1.0 774:1.0 775:1.0 776:1.0 777:1.0 778:1.0 779:1.0 780:1.0 
-13.16737462358247 4:1.0 18:1.0 258:1.0 312:1.0 420:1.0 544:1.0 699:1.0 781:1.0 782:1.0 783:1.0 784:1.0 
-3.2144763864063823 4:1.0 9:1.0 18:1.0 557:1.0 558:1.0 561:1.0 587:1.0 607:1.0 745:1.0 762:1.0 770:1.0 785:1.0 786:1.0 787:1.0 788:1.0 789:1.0 790:1.0 791:1.0 
-3.3743733617064655 93:1.0 102:1.0 322:1.0 415:1.0 552:1.0 589:1.0 610:1.0 795:1.0 796:1.0 797:1.0 798:1.0 799:1.0 
-6.010223695893746 14:1.0 21:1.0 258:1.0 431:1.0 520:1.0 810:1.0 811:1.0 812:1.0 813:1.0 814:1.0 
-1.1897358282339683 14:1.0 102:1.0 257:1.0 356:1.0 401:1.0 427:1.0 544:1.0 561:1.0 823:1.0 824:1.0 825:1.0 826:1.0 
-1.6240371010966643 14:1.0 30:1.0 75:1.0 76:1.0 102:1.0 103:1.0 191:1.0 312:1.0 390:1.0 498:1.0 501:1.0 704:1.0 827:1.0 828:1.0 829:1.0 830:1.0 
-3.8506607205314607 14:1.0 18:1.0 96:1.0 102:1.0 552:1.0 704:1.0 712:1.0 836:1.0 837:1.0 838:1.0 839:1.0 840:1.0 
-4.384046459417656 14:1.0 180:1.0 407:1.0 502:1.0 561:1.0 671:1.0 848:1.0 849:1.0 
-2.528348643201151 199:1.0 250:1.0 400:1.0 517:1.0 560:1.0 850:1.0 851:1.0 852:1.0 853:1.0 854:1.0 855:1.0 
-0.7972479481085535 14:1.0 21:1.0 320:1.0 534:1.0 856:1.0 857:1.0 858:1.0 
-7.183793377076404 177:1.0 220:1.0 620:1.0 859:1.0 860:1.0 861:1.0 862:1.0 863:1.0 864:1.0 865:1.0 
-3.1972911547794016 37:1.0 66:1.0 100:1.0 215:1.0 557:1.0 560:1.0 735:1.0 813:1.0 831:1.0 906:1.0 907:1.0 908:1.0 909:1.0 910:1.0 911:1.0 912:1.0 
-0.9508056415227131 30:1.0 66:1.0 94:1.0 468:1.0 556:1.0 602:1.0 860:1.0 908:1.0 919:1.0 920:1.0 
-15.467451543781442 18:1.0 517:1.0 702:1.0 735:1.0 774:1.0 
-7.373667941745111 4:1.0 9:1.0 19:1.0 81:1.0 181:1.0 453:1.0 860:1.0 934:1.0 935:1.0 
-2.8372481281832957 9:1.0 14:1.0 19:1.0 21:1.0 254:1.0 450:1.0 860:1.0 
-2.3905176266261443 194:1.0 195:1.0 316:1.0 490:1.0 702:1.0 781:1.0 937:1.0 938:1.0 939:1.0 940:1.0 941:1.0 942:1.0 
-2.5999547389865207 9:1.0 14:1.0 21:1.0 30:1.0 36:1.0 188:1.0 414:1.0 606:1.0 761:1.0 839:1.0 943:1.0 944:1.0 945:1.0 946:1.0 947:1.0 
-0.6144188354359275 9:1.0 30:1.0 34:1.0 78:1.0 154:1.0 598:1.0 659:1.0 702:1.0 952:1.0 953:1.0 954:1.0 955:1.0 956:1.0 957:1.0 958:1.0 959:1.0 960:1.0 
-1.0538268657425727 18:1.0 122:1.0 270:1.0 467:1.0 470:1.0 556:1.0 561:1.0 971:1.0 972:1.0 973:1.0 974:1.0 
-0.44574238087134127 9:1.0 37:1.0 122:1.0 178:1.0 180:1.0 470:1.0 492:1.0 664:1.0 975:1.0 976:1.0 987:1.0 988:1.0 
-13.67298127648671 34:1.0 242:1.0 989:1.0 990:1.0 991:1.0 992:1.0 993:1.0 994:1.0 995:1.0 996:1.0 
-4.629890880628974 97:1.0 102:1.0 203:1.0 997:1.0 998:1.0 999:1.0 1000:1.0 1001:1.0 1002:1.0 1003:1.0 
-1.8702351823559964 9:1.0 14:1.0 21:1.0 99:1.0 210:1.0 254:1.0 270:1.0 401:1.0 404:1.0 462:1.0 911:1.0 1030:1.0 1031:1.0 1032:1.0 1033:1.0 1034:1.0 
-18.031812636257698 14:1.0 21:1.0 484:1.0 
-3.632255808168116 30:1.0 378:1.0 804:1.0 914:1.0 973:1.0 1039:1.0 1040:1.0 1041:1.0 1042:1.0 1043:1.0 1044:1.0 1045:1.0 1046:1.0 1047:1.0 1048:1.0 
-12.002638001302218 30:1.0 477:1.0 680:1.0 1049:1.0 1050:1.0 1051:1.0 1052:1.0 
-7.453410439591429 468:1.0 505:1.0 867:1.0 1053:1.0 1054:1.0 1055:1.0 1056:1.0 1057:1.0 1058:1.0 1059:1.0 
-1.3199857097053982 9:1.0 52:1.0 102:1.0 266:1.0 312:1.0 400:1.0 490:1.0 509:1.0 615:1.0 1087:1.0 1088:1.0 1089:1.0 1090:1.0 1091:1.0 1092:1.0 1093:1.0 1094:1.0 
-0.46594471213157723 14:1.0 21:1.0 227:1.0 790:1.0 1098:1.0 1099:1.0 1100:1.0 1101:1.0 1102:1.0 1103:1.0 1104:1.0 1105:1.0 
-0.4844778724621873 9:1.0 102:1.0 177:1.0 220:1.0 276:1.0 585:1.0 692:1.0 704:1.0 1133:1.0 1134:1.0 1135:1.0 
-19.584902803941205 177:1.0 199:1.0 208:1.0 220:1.0 1149:1.0 1150:1.0 
-1.0071959785943163 14:1.0 86:1.0 102:1.0 220:1.0 401:1.0 905:1.0 1162:1.0 
-2.6793885658162298 99:1.0 102:1.0 407:1.0 508:1.0 1165:1.0 
-1.2772357359263853 9:1.0 19:1.0 23:1.0 102:1.0 629:1.0 951:1.0 955:1.0 1130:1.0 1187:1.0 1188:1.0 1189:1.0 
-1.6290849847488957 9:1.0 34:1.0 78:1.0 181:1.0 545:1.0 598:1.0 694:1.0 753:1.0 901:1.0 1109:1.0 1198:1.0 1199:1.0 1200:1.0 1201:1.0 1202:1.0 1203:1.0 1204:1.0 
-7.197345391972682 34:1.0 78:1.0 222:1.0 259:1.0 561:1.0 884:1.0 957:1.0 1205:1.0 1206:1.0 
-5.773013503656967 19:1.0 180:1.0 328:1.0 590:1.0 1206:1.0 1207:1.0 1208:1.0 1209:1.0 
-0.9521328782616583 93:1.0 102:1.0 219:1.0 350:1.0 1210:1.0 
-5.967050679869705 12:1.0 14:1.0 21:1.0 38:1.0 99:1.0 408:1.0 409:1.0 523:1.0 1132:1.0 1179:1.0 1233:1.0 1234:1.0 1235:1.0 
-0.6089777316355138 12:1.0 14:1.0 18:1.0 21:1.0 116:1.0 147:1.0 181:1.0 227:1.0 543:1.0 596:1.0 860:1.0 1246:1.0 1247:1.0 1248:1.0 1249:1.0 
-11.067916744628201 18:1.0 30:1.0 370:1.0 371:1.0 1075:1.0 1255:1.0 1256:1.0 1257:1.0 1258:1.0 1259:1.0 1260:1.0 
-2.3892622746554295 99:1.0 181:1.0 183:1.0 194:1.0 368:1.0 407:1.0 911:1.0 955:1.0 1261:1.0 1262:1.0 1263:1.0 1264:1.0 
-8.978540831909754 30:1.0 66:1.0 453:1.0 681:1.0 860:1.0 885:1.0 908:1.0 1130:1.0 1329:1.0 
-2.246643322869831 14:1.0 21:1.0 214:1.0 1330:1.0 1331:1.0 1332:1.0 1333:1.0 
-1.1605541898932834 14:1.0 102:1.0 116:1.0 136:1.0 231:1.0 557:1.0 792:1.0 885:1.0 1292:1.0 1341:1.0 1342:1.0 1343:1.0 1344:1.0 1345:1.0 1346:1.0 1347:1.0 
-2.666329646509475 37:1.0 183:1.0 289:1.0 359:1.0 378:1.0 447:1.0 517:1.0 767:1.0 955:1.0 1043:1.0 1046:1.0 1349:1.0 1350:1.0 1351:1.0 
-8.321747665215494 304:1.0 492:1.0 598:1.0 901:1.0 1352:1.0 1353:1.0 1354:1.0 1355:1.0 1356:1.0 
-10.691045580152966 1368:1.0 1369:1.0 1370:1.0 1371:1.0 1372:1.0 1373:1.0 1374:1.0 1375:1.0 
-3.5977000059505713 93:1.0 102:1.0 330:1.0 354:1.0 359:1.0 449:1.0 1072:1.0 1376:1.0 1377:1.0 1378:1.0 1379:1.0 1380:1.0 
-12.47775202789706 93:1.0 102:1.0 210:1.0 1400:1.0 
-1.4328707235552556 99:1.0 102:1.0 145:1.0 330:1.0 561:1.0 806:1.0 897:1.0 955:1.0 1020:1.0 1403:1.0 1404:1.0 1405:1.0 
-5.400659155103618 102:1.0 114:1.0 197:1.0 257:1.0 431:1.0 
-3.874795906956186 14:1.0 21:1.0 199:1.0 480:1.0 819:1.0 1431:1.0 1432:1.0 1433:1.0 
-2.800775730710178 14:1.0 22:1.0 37:1.0 453:1.0 568:1.0 570:1.0 1263:1.0 1434:1.0 1435:1.0 1436:1.0 
-6.565549745313936 18:1.0 34:1.0 78:1.0 124:1.0 232:1.0 255:1.0 492:1.0 762:1.0 1447:1.0 1448:1.0 1449:1.0 1450:1.0 1451:1.0 
-6.99169906613447 268:1.0 502:1.0 517:1.0 1047:1.0 
-5.991149351960779 101:1.0 292:1.0 517:1.0 718:1.0 919:1.0 954:1.0 1457:1.0 1458:1.0 1459:1.0 
-1.1288648627043683 14:1.0 21:1.0 133:1.0 178:1.0 257:1.0 378:1.0 562:1.0 904:1.0 1112:1.0 1351:1.0 1460:1.0 1461:1.0 1462:1.0 
-1.7814665723637704 14:1.0 18:1.0 21:1.0 22:1.0 94:1.0 199:1.0 280:1.0 320:1.0 457:1.0 500:1.0 534:1.0 704:1.0 1463:1.0 
-4.047808714662295 14:1.0 52:1.0 102:1.0 281:1.0 282:1.0 523:1.0 552:1.0 1351:1.0 1465:1.0 1466:1.0 1467:1.0 1468:1.0 
-17.466118899802932 98:1.0 122:1.0 470:1.0 917:1.0 973:1.0 1469:1.0 
-5.110028466035619 18:1.0 156:1.0 188:1.0 194:1.0 195:1.0 327:1.0 328:1.0 444:1.0 1024:1.0 1470:1.0 1471:1.0 1472:1.0 1473:1.0 1474:1.0 
-4.986700772301478 38:1.0 493:1.0 517:1.0 726:1.0 1455:1.0 1483:1.0 1484:1.0 1485:1.0 1486:1.0 1487:1.0 1488:1.0 1489:1.0 1490:1.0 
-0.1997046303697312 296:1.0 354:1.0 492:1.0 517:1.0 792:1.0 885:1.0 1478:1.0 1509:1.0 1510:1.0 1511:1.0 1512:1.0 1513:1.0 
-5.556734511668293 9:1.0 14:1.0 102:1.0 180:1.0 254:1.0 276:1.0 493:1.0 561:1.0 1514:1.0 1515:1.0 
-16.869059228999397 122:1.0 326:1.0 468:1.0 975:1.0 976:1.0 1520:1.0 
-1.533980108575734 9:1.0 19:1.0 25:1.0 102:1.0 178:1.0 256:1.0 552:1.0 1188:1.0 1487:1.0 1521:1.0 1522:1.0 1523:1.0 
-7.545469716349166 14:1.0 22:1.0 154:1.0 199:1.0 227:1.0 416:1.0 509:1.0 792:1.0 1434:1.0 1534:1.0 1535:1.0 
-0.7442044453992154 14:1.0 102:1.0 125:1.0 312:1.0 401:1.0 904:1.0 1202:1.0 1447:1.0 1536:1.0 1537:1.0 1538:1.0 1539:1.0 1540:1.0 1541:1.0 
-13.919970994168033 14:1.0 330:1.0 499:1.0 671:1.0 1261:1.0 1456:1.0 1538:1.0 1544:1.0 
-2.169178631538283 14:1.0 102:1.0 131:1.0 249:1.0 281:1.0 480:1.0 492:1.0 1545:1.0 1546:1.0 1547:1.0 1548:1.0 
-4.545252367972352 122:1.0 227:1.0 470:1.0 539:1.0 892:1.0 951:1.0 973:1.0 1560:1.0 1561:1.0 1562:1.0 1563:1.0 1564:1.0 
-3.431503678966656 18:1.0 101:1.0 509:1.0 517:1.0 525:1.0 852:1.0 952:1.0 953:1.0 1057:1.0 1234:1.0 1380:1.0 1574:1.0 
-19.688927094146543 30:1.0 321:1.0 746:1.0 1575:1.0 
-2.1237651939362356 9:1.0 102:1.0 150:1.0 199:1.0 270:1.0 312:1.0 616:1.0 729:1.0 750:1.0 872:1.0 986:1.0 1576:1.0 1577:1.0 1578:1.0 1579:1.0 
-4.203216460982271 102:1.0 180:1.0 181:1.0 233:1.0 254:1.0 557:1.0 672:1.0 825:1.0 1581:1.0 1582:1.0 
-2.888552583161505 9:1.0 14:1.0 21:1.0 99:1.0 486:1.0 493:1.0 714:1.0 715:1.0 892:1.0 1349:1.0 1587:1.0 1588:1.0 
-5.2518743520795 18:1.0 318:1.0 350:1.0 463:1.0 680:1.0 753:1.0 905:1.0 1589:1.0 1590:1.0 1591:1.0 
-7.017818785591731 367:1.0 436:1.0 1291:1.0 1606:1.0 1607:1.0 1608:1.0 1609:1.0 1610:1.0 1611:1.0 1612:1.0 1613:1.0 1614:1.0 
-8.871408830196316 19:1.0 175:1.0 197:1.0 354:1.0 369:1.0 545:1.0 828:1.0 1025:1.0 1615:1.0 1616:1.0 1617:1.0 
-7.425618396033009 395:1.0 517:1.0 750:1.0 1195:1.0 
-7.822417225305277 8:1.0 327:1.0 328:1.0 598:1.0 901:1.0 1208:1.0 1241:1.0 
-3.6345235177905284 319:1.0 350:1.0 457:1.0 601:1.0 1256:1.0 1634:1.0 1635:1.0 1636:1.0 1637:1.0 1638:1.0 
-3.4258260767000177 75:1.0 232:1.0 319:1.0 350:1.0 390:1.0 1348:1.0 1639:1.0 1640:1.0 1641:1.0 1642:1.0 1643:1.0 
-13.195981645883053 18:1.0 177:1.0 181:1.0 248:1.0 629:1.0 860:1.0 1644:1.0 1645:1.0 
-0.7396601915252071 28:1.0 102:1.0 215:1.0 374:1.0 749:1.0 792:1.0 843:1.0 1256:1.0 1652:1.0 1653:1.0 1654:1.0 1655:1.0 
-1.255372424595394 9:1.0 34:1.0 56:1.0 78:1.0 102:1.0 1455:1.0 1507:1.0 1644:1.0 1656:1.0 1657:1.0 1658:1.0 1659:1.0 1660:1.0 1661:1.0 
-4.799006973750018 9:1.0 118:1.0 207:1.0 328:1.0 329:1.0 355:1.0 500:1.0 536:1.0 539:1.0 560:1.0 1666:1.0 1667:1.0 1668:1.0 1669:1.0 1670:1.0 
-2.5972288005571924 14:1.0 21:1.0 250:1.0 359:1.0 491:1.0 671:1.0 762:1.0 940:1.0 1676:1.0 1677:1.0 
-9.941557115173813 14:1.0 19:1.0 22:1.0 312:1.0 702:1.0 726:1.0 750:1.0 1678:1.0 
-6.624884405222179 282:1.0 328:1.0 849:1.0 1462:1.0 1693:1.0 1694:1.0 1695:1.0 1696:1.0 1697:1.0 
-2.5972488383422623 14:1.0 21:1.0 767:1.0 1146:1.0 1434:1.0 
-4.21723007564758 193:1.0 194:1.0 195:1.0 436:1.0 501:1.0 1470:1.0 1698:1.0 1699:1.0 1700:1.0 1701:1.0 
-15.604129712496743 122:1.0 180:1.0 312:1.0 467:1.0 1709:1.0 1710:1.0 1711:1.0 1712:1.0 
-9.93832464836367 177:1.0 416:1.0 1519:1.0 1713:1.0 1714:1.0 1715:1.0 1716:1.0 
-3.73778525527253 9:1.0 101:1.0 102:1.0 185:1.0 460:1.0 1515:1.0 1668:1.0 1717:1.0 
-4.288780604170783 122:1.0 330:1.0 466:1.0 467:1.0 470:1.0 561:1.0 1252:1.0 1452:1.0 
-1.0548874241286994 14:1.0 21:1.0 116:1.0 154:1.0 178:1.0 183:1.0 354:1.0 355:1.0 615:1.0 872:1.0 1351:1.0 1754:1.0 
-2.120549594068309 9:1.0 14:1.0 21:1.0 145:1.0 904:1.0 940:1.0 1456:1.0 1631:1.0 1766:1.0 1767:1.0 1768:1.0 1769:1.0 1770:1.0 
-6.768673141850617 181:1.0 227:1.0 250:1.0 330:1.0 359:1.0 417:1.0 545:1.0 556:1.0 614:1.0 667:1.0 1323:1.0 1590:1.0 1771:1.0 1772:1.0 1773:1.0 1774:1.0 1775:1.0 
-0.7079621937387631 122:1.0 468:1.0 470:1.0 975:1.0 976:1.0 1252:1.0 1452:1.0 1778:1.0 
-22.443786485881375 175:1.0 177:1.0 183:1.0 251:1.0 1519:1.0 1716:1.0 
-2.592797046084412 199:1.0 490:1.0 517:1.0 518:1.0 562:1.0 607:1.0 688:1.0 694:1.0 894:1.0 1092:1.0 1147:1.0 1639:1.0 1779:1.0 
-0.9934208373363096 37:1.0 211:1.0 257:1.0 517:1.0 543:1.0 575:1.0 610:1.0 649:1.0 1047:1.0 1483:1.0 1780:1.0 1781:1.0 
-0.8311921496371006 14:1.0 102:1.0 401:1.0 561:1.0 1539:1.0 1782:1.0 
-1.3358645775264357 14:1.0 86:1.0 102:1.0 180:1.0 207:1.0 211:1.0 378:1.0 629:1.0 1782:1.0 1783:1.0 1784:1.0 1785:1.0 1786:1.0 
-8.912737257797831 14:1.0 98:1.0 101:1.0 102:1.0 342:1.0 356:1.0 403:1.0 848:1.0 1787:1.0 
