svm_type c_svc
kernel_type rbf
gamma 0.03125
nr_class 2
total_sv 300
rho -0.2324097774244411
label 0 1
probA -5.907014478115232
probB -0.060573119542429193
nr_sv 140 160
SV
2.398475632682381 1:1.0 2:1.0 3:1.0 4:1.0 5:1.0 6:1.0 7:1.0 8:1.0 9:1.0 
0.8267574507780704 10:1.0 11:1.0 12:1.0 13:1.0 14:1.0 15:1.0 16:1.0 17:1.0 18:1.0 
1.0078416269734045 24:1.0 25:1.0 26:1.0 27:1.0 28:1.0 29:1.0 30:1.0 31:1.0 32:1.0 
3.062005868495691 33:1.0 34:1.0 35:1.0 36:1.0 37:1.0 38:1.0 
0.15620494750740285 12:1.0 14:1.0 18:1.0 39:1.0 40:1.0 41:1.0 42:1.0 43:1.0 44:1.0 45:1.0 46:1.0 47:1.0 48:1.0 
0.2275847272979646 49:1.0 50:1.0 51:1.0 52:1.0 53:1.0 54:1.0 55:1.0 56:1.0 57:1.0 58:1.0 59:1.0 60:1.0 61:1.0 62:1.0 
1.1284596760538819 63:1.0 64:1.0 65:1.0 66:1.0 67:1.0 68:1.0 69:1.0 70:1.0 71:1.0 72:1.0 
1.939642276036458 34:1.0 73:1.0 74:1.0 75:1.0 76:1.0 77:1.0 78:1.0 79:1.0 80:1.0 81:1.0 82:1.0 83:1.0 
3.534231586732116 14:1.0 84:1.0 85:1.0 86:1.0 87:1.0 
1.3313811223093386 88:1.0 89:1.0 90:1.0 91:1.0 92:1.0 93:1.0 
1.143077758666968 34:1.0 96:1.0 103:1.0 104:1.0 105:1.0 106:1.0 
0.4558056824080239 18:1.0 119:1.0 120:1.0 121:1.0 122:1.0 123:1.0 124:1.0 125:1.0 
0.8437133926086262 18:1.0 121:1.0 122:1.0 123:1.0 126:1.0 127:1.0 128:1.0 129:1.0 130:1.0 131:1.0 132:1.0 
1.989182649292215 81:1.0 99:1.0 133:1.0 134:1.0 135:1.0 136:1.0 137:1.0 138:1.0 
1.425389009762107 14:1.0 139:1.0 140:1.0 141:1.0 142:1.0 143:1.0 144:1.0 
1.5681996567003318 14:1.0 141:1.0 142:1.0 145:1.0 146:1.0 147:1.0 148:1.0 149:1.0 
0.2798495335318176 9:1.0 49:1.0 121:1.0 122:1.0 123:1.0 150:1.0 151:1.0 152:1.0 153:1.0 
0.9065588565916162 66:1.0 154:1.0 155:1.0 156:1.0 157:1.0 158:1.0 159:1.0 160:1.0 161:1.0 162:1.0 163:1.0 164:1.0 165:1.0 166:1.0 167:1.0 168:1.0 169:1.0 170:1.0 
2.8748477927451175 113:1.0 171:1.0 172:1.0 173:1.0 174:1.0 
2.592821735092917 18:1.0 154:1.0 175:1.0 176:1.0 177:1.0 178:1.0 179:1.0 180:1.0 181:1.0 182:1.0 183:1.0 184:1.0 185:1.0 186:1.0 187:1.0 
1.0091390620493395 34:1.0 150:1.0 197:1.0 198:1.0 199:1.0 200:1.0 201:1.0 202:1.0 203:1.0 204:1.0 205:1.0 206:1.0 
0.7833298107363422 28:1.0 122:1.0 200:1.0 228:1.0 229:1.0 230:1.0 231:1.0 
0.7027242556340368 14:1.0 19:1.0 86:1.0 232:1.0 233:1.0 234:1.0 235:1.0 236:1.0 237:1.0 238:1.0 239:1.0 240:1.0 241:1.0 242:1.0 
1.1311776632956914 14:1.0 27:1.0 45:1.0 243:1.0 244:1.0 245:1.0 246:1.0 247:1.0 248:1.0 249:1.0 
2.2446782592798744 124:1.0 143:1.0 203:1.0 250:1.0 251:1.0 252:1.0 253:1.0 254:1.0 255:1.0 256:1.0 257:1.0 
1.1597257890391568 18:1.0 34:1.0 124:1.0 258:1.0 259:1.0 260:1.0 261:1.0 262:1.0 263:1.0 264:1.0 265:1.0 266:1.0 267:1.0 
0.8058168854952175 106:1.0 177:1.0 180:1.0 199:1.0 254:1.0 268:1.0 269:1.0 270:1.0 271:1.0 272:1.0 273:1.0 274:1.0 275:1.0 276:1.0 277:1.0 278:1.0 
1.3721077200879879 9:1.0 14:1.0 18:1.0 279:1.0 280:1.0 281:1.0 282:1.0 283:1.0 284:1.0 285:1.0 286:1.0 287:1.0 
1.8392456632549519 177:1.0 181:1.0 288:1.0 289:1.0 290:1.0 291:1.0 292:1.0 293:1.0 294:1.0 295:1.0 296:1.0 297:1.0 298:1.0 
1.246128057033601 14:1.0 212:1.0 299:1.0 300:1.0 301:1.0 302:1.0 303:1.0 
0.6899790987237072 14:1.0 18:1.0 45:1.0 46:1.0 48:1.0 212:1.0 304:1.0 305:1.0 306:1.0 307:1.0 308:1.0 309:1.0 310:1.0 311:1.0 312:1.0 313:1.0 314:1.0 
1.362245133459178 122:1.0 180:1.0 254:1.0 354:1.0 355:1.0 356:1.0 357:1.0 358:1.0 359:1.0 360:1.0 361:1.0 362:1.0 363:1.0 
2.800013139718858 30:1.0 56:1.0 98:1.0 156:1.0 312:1.0 379:1.0 380:1.0 381:1.0 382:1.0 383:1.0 384:1.0 385:1.0 386:1.0 
0.7493529864262891 34:1.0 52:1.0 98:1.0 171:1.0 387:1.0 388:1.0 389:1.0 390:1.0 391:1.0 392:1.0 393:1.0 394:1.0 395:1.0 396:1.0 397:1.0 398:1.0 
1.0285058351321992 98:1.0 121:1.0 122:1.0 123:1.0 154:1.0 258:1.0 399:1.0 400:1.0 401:1.0 402:1.0 403:1.0 
0.968557572092384 14:1.0 18:1.0 47:1.0 49:1.0 240:1.0 404:1.0 405:1.0 406:1.0 407:1.0 408:1.0 
1.8612608494844676 62:1.0 420:1.0 421:1.0 422:1.0 423:1.0 424:1.0 425:1.0 426:1.0 427:1.0 
0.6585933693356059 12:1.0 18:1.0 66:1.0 101:1.0 428:1.0 429:1.0 430:1.0 431:1.0 432:1.0 433:1.0 434:1.0 435:1.0 436:1.0 437:1.0 438:1.0 
1.7106851985819305 12:1.0 66:1.0 125:1.0 431:1.0 432:1.0 439:1.0 
2.303531123360918 30:1.0 31:1.0 32:1.0 447:1.0 448:1.0 449:1.0 450:1.0 451:1.0 452:1.0 
1.8433071380623092 25:1.0 34:1.0 453:1.0 454:1.0 455:1.0 
1.3665444352622256 66:1.0 250:1.0 492:1.0 493:1.0 494:1.0 495:1.0 496:1.0 497:1.0 498:1.0 499:1.0 500:1.0 501:1.0 502:1.0 503:1.0 504:1.0 505:1.0 506:1.0 
2.8672475293574458 105:1.0 207:1.0 258:1.0 532:1.0 533:1.0 534:1.0 
2.68090712382201 9:1.0 37:1.0 122:1.0 546:1.0 547:1.0 548:1.0 549:1.0 550:1.0 551:1.0 
2.0746382246283424 9:1.0 93:1.0 188:1.0 342:1.0 552:1.0 588:1.0 589:1.0 590:1.0 591:1.0 
1.1322127841528669 9:1.0 18:1.0 73:1.0 318:1.0 508:1.0 551:1.0 610:1.0 611:1.0 612:1.0 613:1.0 614:1.0 615:1.0 616:1.0 617:1.0 618:1.0 
0.40247409065209144 9:1.0 79:1.0 93:1.0 185:1.0 254:1.0 508:1.0 512:1.0 623:1.0 624:1.0 625:1.0 626:1.0 627:1.0 628:1.0 
1.2640123325948784 18:1.0 93:1.0 589:1.0 629:1.0 630:1.0 631:1.0 
1.0403859503971735 38:1.0 93:1.0 250:1.0 512:1.0 632:1.0 633:1.0 634:1.0 635:1.0 
2.1632112031098987 9:1.0 93:1.0 482:1.0 501:1.0 671:1.0 672:1.0 673:1.0 674:1.0 
3.2879962118444648 30:1.0 180:1.0 364:1.0 649:1.0 682:1.0 683:1.0 684:1.0 685:1.0 686:1.0 687:1.0 
1.3654983518934654 36:1.0 73:1.0 177:1.0 469:1.0 704:1.0 705:1.0 706:1.0 707:1.0 708:1.0 709:1.0 710:1.0 711:1.0 712:1.0 713:1.0 
1.4623085890585215 14:1.0 325:1.0 714:1.0 715:1.0 716:1.0 717:1.0 
0.6209481992083498 90:1.0 93:1.0 197:1.0 250:1.0 397:1.0 512:1.0 725:1.0 726:1.0 727:1.0 728:1.0 729:1.0 730:1.0 731:1.0 732:1.0 
0.7564647855709402 14:1.0 18:1.0 76:1.0 86:1.0 105:1.0 270:1.0 598:1.0 709:1.0 761:1.0 762:1.0 763:1.0 764:1.0 765:1.0 766:1.0 
1.1269708941959284 97:1.0 150:1.0 228:1.0 278:1.0 349:1.0 352:1.0 807:1.0 808:1.0 809:1.0 810:1.0 811:1.0 812:1.0 813:1.0 814:1.0 815:1.0 816:1.0 
1.4010727628590431 122:1.0 270:1.0 410:1.0 508:1.0 607:1.0 614:1.0 768:1.0 788:1.0 822:1.0 823:1.0 824:1.0 825:1.0 826:1.0 827:1.0 828:1.0 829:1.0 
1.7744016851819233 14:1.0 19:1.0 145:1.0 848:1.0 849:1.0 850:1.0 851:1.0 852:1.0 853:1.0 854:1.0 
2.2867501834720465 14:1.0 753:1.0 881:1.0 882:1.0 883:1.0 884:1.0 885:1.0 886:1.0 887:1.0 888:1.0 
1.1962901852400523 58:1.0 61:1.0 177:1.0 239:1.0 312:1.0 717:1.0 893:1.0 894:1.0 895:1.0 896:1.0 
2.328232604670884 812:1.0 820:1.0 930:1.0 931:1.0 932:1.0 933:1.0 
1.0447407869251375 122:1.0 448:1.0 934:1.0 935:1.0 936:1.0 937:1.0 938:1.0 939:1.0 940:1.0 
1.0053068551822921 34:1.0 968:1.0 969:1.0 970:1.0 971:1.0 972:1.0 973:1.0 974:1.0 975:1.0 976:1.0 977:1.0 
0.9325449878767028 34:1.0 423:1.0 499:1.0 984:1.0 985:1.0 986:1.0 987:1.0 988:1.0 
0.32491942979731725 14:1.0 41:1.0 45:1.0 47:1.0 85:1.0 239:1.0 1011:1.0 1012:1.0 1013:1.0 1014:1.0 1015:1.0 1016:1.0 1017:1.0 1018:1.0 1019:1.0 1020:1.0 
2.4855445066470456 14:1.0 63:1.0 538:1.0 1021:1.0 1022:1.0 
0.8657472456365407 34:1.0 133:1.0 233:1.0 399:1.0 500:1.0 1023:1.0 1024:1.0 1025:1.0 1026:1.0 1027:1.0 1028:1.0 1029:1.0 1030:1.0 1031:1.0 
2.4188088527801526 122:1.0 1042:1.0 1043:1.0 1044:1.0 1045:1.0 
0.9838050535819812 28:1.0 34:1.0 37:1.0 436:1.0 1067:1.0 1068:1.0 1069:1.0 1070:1.0 1071:1.0 1072:1.0 1073:1.0 1074:1.0 
1.4793454106254214 177:1.0 199:1.0 312:1.0 533:1.0 793:1.0 1031:1.0 1085:1.0 1086:1.0 1087:1.0 1088:1.0 1089:1.0 
1.0219695361463577 14:1.0 191:1.0 257:1.0 284:1.0 296:1.0 302:1.0 508:1.0 631:1.0 1090:1.0 1091:1.0 1092:1.0 
3.0796620113263824 14:1.0 435:1.0 603:1.0 1114:1.0 1115:1.0 
1.1079956639022939 34:1.0 325:1.0 343:1.0 1120:1.0 
1.7468341658479931 14:1.0 19:1.0 714:1.0 1128:1.0 1129:1.0 1130:1.0 1131:1.0 1132:1.0 1133:1.0 
1.8073745015350897 233:1.0 678:1.0 936:1.0 1134:1.0 1135:1.0 1136:1.0 1137:1.0 1138:1.0 1139:1.0 
1.162544593932563 177:1.0 185:1.0 201:1.0 488:1.0 526:1.0 1143:1.0 1144:1.0 1145:1.0 1146:1.0 1147:1.0 1148:1.0 1149:1.0 1150:1.0 
0.5603862757856668 14:1.0 18:1.0 28:1.0 154:1.0 374:1.0 553:1.0 892:1.0 993:1.0 1097:1.0 1162:1.0 1163:1.0 1164:1.0 1165:1.0 1166:1.0 1167:1.0 
2.3214661422882488 28:1.0 102:1.0 233:1.0 323:1.0 891:1.0 986:1.0 1121:1.0 1122:1.0 1123:1.0 1124:1.0 1125:1.0 1126:1.0 1127:1.0 
6.812935636777311 34:1.0 199:1.0 212:1.0 
1.9231417852418924 61:1.0 177:1.0 183:1.0 257:1.0 727:1.0 1169:1.0 1170:1.0 
0.6900106937544378 9:1.0 122:1.0 212:1.0 393:1.0 598:1.0 685:1.0 774:1.0 786:1.0 819:1.0 1175:1.0 1176:1.0 1177:1.0 1178:1.0 
1.3273792823029307 176:1.0 177:1.0 180:1.0 254:1.0 623:1.0 636:1.0 639:1.0 771:1.0 1188:1.0 1189:1.0 1190:1.0 1191:1.0 1192:1.0 
1.6732386109108974 122:1.0 850:1.0 1225:1.0 1226:1.0 1227:1.0 1228:1.0 
1.9252835662861125 9:1.0 81:1.0 177:1.0 1242:1.0 1243:1.0 1244:1.0 1245:1.0 
1.3860490448491602 183:1.0 379:1.0 380:1.0 461:1.0 812:1.0 1022:1.0 1256:1.0 1257:1.0 1258:1.0 1259:1.0 1260:1.0 
0.6434009011062362 14:1.0 47:1.0 212:1.0 343:1.0 1011:1.0 1270:1.0 1271:1.0 
1.6928761466755688 9:1.0 93:1.0 292:1.0 1272:1.0 1273:1.0 1274:1.0 1275:1.0 1276:1.0 1277:1.0 
0.9559490381215228 62:1.0 325:1.0 614:1.0 711:1.0 958:1.0 1278:1.0 1279:1.0 1280:1.0 
2.552147759446252 14:1.0 49:1.0 284:1.0 528:1.0 1282:1.0 
0.7872067801014823 177:1.0 199:1.0 259:1.0 785:1.0 817:1.0 1088:1.0 1284:1.0 1285:1.0 1286:1.0 1287:1.0 1288:1.0 1289:1.0 1290:1.0 1291:1.0 1292:1.0 1293:1.0 1294:1.0 1295:1.0 
1.885212438867767 101:1.0 177:1.0 528:1.0 1302:1.0 1303:1.0 1304:1.0 1305:1.0 1306:1.0 
0.8373422869171502 14:1.0 18:1.0 52:1.0 508:1.0 1011:1.0 1307:1.0 1308:1.0 1309:1.0 1310:1.0 1311:1.0 1312:1.0 1313:1.0 1314:1.0 1315:1.0 1316:1.0 1317:1.0 
0.6524967616852438 18:1.0 28:1.0 177:1.0 423:1.0 425:1.0 713:1.0 819:1.0 1251:1.0 1318:1.0 1319:1.0 1320:1.0 1321:1.0 1322:1.0 1323:1.0 1324:1.0 1325:1.0 1326:1.0 1327:1.0 1328:1.0 
2.7177131785736606 9:1.0 14:1.0 36:1.0 1330:1.0 1331:1.0 1332:1.0 1333:1.0 
2.2209228535572922 30:1.0 436:1.0 711:1.0 867:1.0 962:1.0 1136:1.0 1137:1.0 1339:1.0 1340:1.0 1341:1.0 1342:1.0 1343:1.0 1344:1.0 1345:1.0 
1.3868130589236933 12:1.0 177:1.0 427:1.0 816:1.0 820:1.0 958:1.0 1353:1.0 
1.4535503137123165 93:1.0 278:1.0 511:1.0 709:1.0 1362:1.0 1363:1.0 1364:1.0 1365:1.0 1366:1.0 
4.156932418549116 102:1.0 312:1.0 511:1.0 877:1.0 1367:1.0 1368:1.0 1369:1.0 1370:1.0 1371:1.0 1372:1.0 
1.8610443221022586 177:1.0 330:1.0 1068:1.0 1261:1.0 1268:1.0 1386:1.0 1387:1.0 1388:1.0 1389:1.0 1390:1.0 
1.7478887038261783 18:1.0 133:1.0 177:1.0 330:1.0 867:1.0 996:1.0 1285:1.0 1398:1.0 1399:1.0 1400:1.0 1401:1.0 1402:1.0 1403:1.0 1404:1.0 
3.547661420520563 102:1.0 254:1.0 359:1.0 466:1.0 569:1.0 908:1.0 1411:1.0 1412:1.0 1413:1.0 1414:1.0 1415:1.0 1416:1.0 1417:1.0 1418:1.0 
1.2763952468581612 14:1.0 18:1.0 440:1.0 513:1.0 551:1.0 842:1.0 1181:1.0 1234:1.0 1419:1.0 1420:1.0 1421:1.0 1422:1.0 1423:1.0 
1.6057241952185966 18:1.0 90:1.0 175:1.0 177:1.0 330:1.0 408:1.0 786:1.0 1424:1.0 1425:1.0 1426:1.0 1427:1.0 1428:1.0 
3.904971009323638 4:1.0 553:1.0 624:1.0 1341:1.0 
1.291704915564327 9:1.0 18:1.0 177:1.0 1408:1.0 1429:1.0 1430:1.0 1431:1.0 1432:1.0 1433:1.0 1434:1.0 1435:1.0 
1.4756219649177313 9:1.0 56:1.0 177:1.0 207:1.0 270:1.0 312:1.0 355:1.0 440:1.0 631:1.0 1442:1.0 1443:1.0 1444:1.0 1445:1.0 1446:1.0 1447:1.0 
1.2394248486613029 177:1.0 254:1.0 501:1.0 1448:1.0 1449:1.0 1450:1.0 1451:1.0 
2.79947880204067 18:1.0 19:1.0 66:1.0 76:1.0 101:1.0 502:1.0 1469:1.0 
2.3226781727328896 121:1.0 177:1.0 353:1.0 1480:1.0 1481:1.0 1482:1.0 
1.1819202896666632 14:1.0 27:1.0 52:1.0 101:1.0 374:1.0 1032:1.0 1431:1.0 1483:1.0 1484:1.0 1485:1.0 1486:1.0 1487:1.0 
2.4975131839503386 356:1.0 792:1.0 1285:1.0 1496:1.0 1497:1.0 1498:1.0 
1.7997214016324399 52:1.0 186:1.0 993:1.0 1460:1.0 1499:1.0 1500:1.0 1501:1.0 1502:1.0 
2.818996728751204 14:1.0 16:1.0 1503:1.0 1504:1.0 1505:1.0 
2.165998824101805 28:1.0 102:1.0 533:1.0 648:1.0 735:1.0 1144:1.0 1506:1.0 1507:1.0 1508:1.0 1509:1.0 1510:1.0 1511:1.0 1512:1.0 1513:1.0 
1.1548234146051028 38:1.0 122:1.0 215:1.0 528:1.0 549:1.0 553:1.0 568:1.0 1225:1.0 1529:1.0 1530:1.0 
0.7570144238562296 63:1.0 177:1.0 186:1.0 197:1.0 336:1.0 501:1.0 1268:1.0 1531:1.0 1532:1.0 1533:1.0 1534:1.0 1535:1.0 1536:1.0 1537:1.0 
1.9486552356781932 9:1.0 14:1.0 19:1.0 27:1.0 234:1.0 236:1.0 285:1.0 359:1.0 552:1.0 867:1.0 1132:1.0 1538:1.0 
1.9071310410010869 90:1.0 93:1.0 1052:1.0 1554:1.0 1555:1.0 
0.9810466271146168 62:1.0 339:1.0 418:1.0 454:1.0 553:1.0 703:1.0 774:1.0 1556:1.0 1557:1.0 1558:1.0 1559:1.0 1560:1.0 1561:1.0 1562:1.0 1563:1.0 1564:1.0 
2.6140373369784973 99:1.0 183:1.0 494:1.0 1574:1.0 1575:1.0 1576:1.0 1577:1.0 1578:1.0 
1.6749314958791406 14:1.0 45:1.0 46:1.0 614:1.0 841:1.0 1591:1.0 
2.820153910545872 6:1.0 18:1.0 19:1.0 102:1.0 318:1.0 325:1.0 342:1.0 507:1.0 553:1.0 1597:1.0 1598:1.0 1599:1.0 1600:1.0 1601:1.0 1602:1.0 
1.0871544105438802 9:1.0 12:1.0 14:1.0 564:1.0 577:1.0 673:1.0 742:1.0 1188:1.0 1603:1.0 1604:1.0 1605:1.0 1606:1.0 1607:1.0 1608:1.0 1609:1.0 
2.0733568946135867 14:1.0 98:1.0 180:1.0 233:1.0 281:1.0 551:1.0 577:1.0 1075:1.0 1356:1.0 1461:1.0 1610:1.0 
2.108394790940046 30:1.0 727:1.0 811:1.0 1059:1.0 1627:1.0 1628:1.0 1629:1.0 1630:1.0 1631:1.0 1632:1.0 1633:1.0 1634:1.0 
2.0288261785684414 18:1.0 38:1.0 99:1.0 505:1.0 1635:1.0 1636:1.0 1637:1.0 1638:1.0 
1.389700032474181 9:1.0 34:1.0 674:1.0 1651:1.0 1652:1.0 1653:1.0 1654:1.0 1655:1.0 1656:1.0 
2.0690253063890314 4:1.0 10:1.0 18:1.0 188:1.0 242:1.0 359:1.0 425:1.0 1470:1.0 1688:1.0 1689:1.0 1690:1.0 1691:1.0 1692:1.0 
1.409557713346868 34:1.0 219:1.0 553:1.0 709:1.0 962:1.0 1693:1.0 1694:1.0 1695:1.0 1696:1.0 1697:1.0 
2.75294175786868 122:1.0 742:1.0 1707:1.0 1708:1.0 1709:1.0 1710:1.0 
3.0885220518531216 122:1.0 1711:1.0 1712:1.0 1713:1.0 
0.719258888787231 18:1.0 121:1.0 122:1.0 123:1.0 508:1.0 908:1.0 1723:1.0 1724:1.0 1725:1.0 
1.1265914098697007 14:1.0 45:1.0 47:1.0 245:1.0 1066:1.0 1726:1.0 1727:1.0 1728:1.0 1729:1.0 1730:1.0 
1.4585810049023873 51:1.0 62:1.0 227:1.0 264:1.0 413:1.0 513:1.0 733:1.0 1389:1.0 1735:1.0 1736:1.0 1737:1.0 1738:1.0 1739:1.0 1740:1.0 1741:1.0 1742:1.0 1743:1.0 
0.26817469710252606 9:1.0 14:1.0 49:1.0 52:1.0 199:1.0 236:1.0 237:1.0 239:1.0 631:1.0 1011:1.0 1307:1.0 
1.3521195611107626 14:1.0 413:1.0 565:1.0 1134:1.0 1603:1.0 1604:1.0 1605:1.0 1752:1.0 1753:1.0 1754:1.0 1755:1.0 1756:1.0 1757:1.0 
0.3872318332984481 14:1.0 39:1.0 41:1.0 76:1.0 199:1.0 212:1.0 231:1.0 598:1.0 851:1.0 1427:1.0 1760:1.0 1761:1.0 1762:1.0 1763:1.0 1764:1.0 1765:1.0 
0.60947081103644 14:1.0 18:1.0 27:1.0 124:1.0 234:1.0 236:1.0 238:1.0 240:1.0 250:1.0 499:1.0 709:1.0 797:1.0 881:1.0 1766:1.0 1767:1.0 
1.5960124384449268 34:1.0 785:1.0 1096:1.0 1768:1.0 1769:1.0 1770:1.0 
1.8335475246921027 122:1.0 199:1.0 274:1.0 324:1.0 513:1.0 1041:1.0 1241:1.0 1281:1.0 1781:1.0 1782:1.0 
-1.1706897149913615 9:1.0 178:1.0 179:1.0 181:1.0 188:1.0 189:1.0 190:1.0 191:1.0 192:1.0 193:1.0 194:1.0 195:1.0 196:1.0 
-2.314207867627062 14:1.0 75:1.0 199:1.0 207:1.0 208:1.0 209:1.0 210:1.0 211:1.0 212:1.0 213:1.0 214:1.0 215:1.0 216:1.0 
-1.3301523894337093 37:1.0 177:1.0 217:1.0 218:1.0 219:1.0 220:1.0 221:1.0 222:1.0 223:1.0 224:1.0 225:1.0 226:1.0 227:1.0 
-2.9803860726375633 124:1.0 131:1.0 315:1.0 316:1.0 317:1.0 318:1.0 319:1.0 320:1.0 
-0.1333759285210494 30:1.0 194:1.0 321:1.0 322:1.0 323:1.0 324:1.0 325:1.0 326:1.0 327:1.0 328:1.0 329:1.0 330:1.0 
-1.4805693608454409 93:1.0 102:1.0 331:1.0 332:1.0 333:1.0 334:1.0 335:1.0 336:1.0 337:1.0 338:1.0 
-4.830940229787979 350:1.0 351:1.0 352:1.0 353:1.0 
-0.5383699006898182 102:1.0 242:1.0 312:1.0 364:1.0 365:1.0 366:1.0 367:1.0 368:1.0 369:1.0 
-0.22417705312941372 59:1.0 99:1.0 102:1.0 188:1.0 409:1.0 410:1.0 411:1.0 412:1.0 413:1.0 414:1.0 415:1.0 416:1.0 417:1.0 418:1.0 419:1.0 
-0.4830557382166336 18:1.0 102:1.0 177:1.0 220:1.0 440:1.0 441:1.0 442:1.0 443:1.0 444:1.0 445:1.0 446:1.0 
-0.6020450806058446 9:1.0 19:1.0 30:1.0 36:1.0 102:1.0 178:1.0 464:1.0 465:1.0 466:1.0 467:1.0 468:1.0 469:1.0 470:1.0 
-0.9348600911339278 122:1.0 375:1.0 472:1.0 473:1.0 474:1.0 475:1.0 476:1.0 477:1.0 478:1.0 479:1.0 
-0.98752540822996 21:1.0 99:1.0 440:1.0 480:1.0 481:1.0 482:1.0 
-0.7223401571143893 14:1.0 21:1.0 73:1.0 74:1.0 207:1.0 318:1.0 483:1.0 484:1.0 485:1.0 486:1.0 487:1.0 488:1.0 489:1.0 490:1.0 491:1.0 
-0.8675939392574152 14:1.0 21:1.0 207:1.0 325:1.0 409:1.0 416:1.0 488:1.0 507:1.0 508:1.0 509:1.0 510:1.0 511:1.0 512:1.0 513:1.0 
-0.9008122314831893 9:1.0 14:1.0 21:1.0 101:1.0 185:1.0 509:1.0 514:1.0 515:1.0 
-0.6141512786870835 14:1.0 102:1.0 180:1.0 188:1.0 199:1.0 312:1.0 339:1.0 410:1.0 516:1.0 517:1.0 518:1.0 519:1.0 520:1.0 521:1.0 522:1.0 523:1.0 524:1.0 
-0.5030422676111592 30:1.0 49:1.0 86:1.0 101:1.0 188:1.0 211:1.0 330:1.0 462:1.0 525:1.0 526:1.0 527:1.0 528:1.0 529:1.0 530:1.0 531:1.0 
-0.37164135977689317 30:1.0 99:1.0 102:1.0 507:1.0 535:1.0 536:1.0 537:1.0 538:1.0 
-0.47199863890837085 14:1.0 102:1.0 210:1.0 539:1.0 540:1.0 
-0.872005490080255 102:1.0 173:1.0 181:1.0 359:1.0 552:1.0 553:1.0 554:1.0 555:1.0 556:1.0 557:1.0 558:1.0 559:1.0 560:1.0 561:1.0 
-1.3771149910932117 4:1.0 485:1.0 499:1.0 513:1.0 564:1.0 565:1.0 566:1.0 567:1.0 568:1.0 
-1.9485883593802422 4:1.0 436:1.0 566:1.0 569:1.0 570:1.0 571:1.0 572:1.0 573:1.0 574:1.0 575:1.0 
-1.0122611417686789 14:1.0 175:1.0 181:1.0 210:1.0 416:1.0 501:1.0 576:1.0 577:1.0 578:1.0 579:1.0 580:1.0 581:1.0 582:1.0 583:1.0 
-0.07622451144609255 14:1.0 21:1.0 330:1.0 377:1.0 488:1.0 592:1.0 593:1.0 594:1.0 
-1.3078944874834013 14:1.0 102:1.0 383:1.0 595:1.0 596:1.0 597:1.0 598:1.0 599:1.0 600:1.0 601:1.0 
-0.31628004587182934 9:1.0 34:1.0 78:1.0 178:1.0 181:1.0 220:1.0 274:1.0 276:1.0 419:1.0 602:1.0 603:1.0 604:1.0 605:1.0 606:1.0 607:1.0 608:1.0 609:1.0 
-1.975272745727304 18:1.0 19:1.0 34:1.0 78:1.0 354:1.0 528:1.0 607:1.0 636:1.0 637:1.0 638:1.0 639:1.0 640:1.0 641:1.0 642:1.0 
-1.0291701460101783 102:1.0 108:1.0 425:1.0 500:1.0 643:1.0 644:1.0 645:1.0 646:1.0 647:1.0 648:1.0 649:1.0 
-0.2720338645013689 9:1.0 99:1.0 102:1.0 227:1.0 410:1.0 471:1.0 545:1.0 650:1.0 651:1.0 652:1.0 653:1.0 654:1.0 655:1.0 
-0.17865474385075433 14:1.0 21:1.0 180:1.0 485:1.0 489:1.0 500:1.0 528:1.0 656:1.0 657:1.0 658:1.0 659:1.0 660:1.0 661:1.0 
-1.3916857807217256 93:1.0 99:1.0 102:1.0 177:1.0 337:1.0 560:1.0 691:1.0 692:1.0 693:1.0 694:1.0 695:1.0 696:1.0 
-2.3669558209534123 87:1.0 212:1.0 350:1.0 568:1.0 697:1.0 698:1.0 699:1.0 700:1.0 701:1.0 702:1.0 703:1.0 
-0.2500717080454879 14:1.0 30:1.0 102:1.0 330:1.0 410:1.0 733:1.0 734:1.0 735:1.0 736:1.0 737:1.0 738:1.0 739:1.0 740:1.0 741:1.0 742:1.0 743:1.0 744:1.0 
-0.261684396460175 14:1.0 21:1.0 320:1.0 542:1.0 745:1.0 746:1.0 
-0.9098053825791635 14:1.0 21:1.0 86:1.0 116:1.0 117:1.0 565:1.0 747:1.0 748:1.0 749:1.0 750:1.0 
-3.038911141925814 36:1.0 257:1.0 566:1.0 751:1.0 752:1.0 753:1.0 754:1.0 755:1.0 
-7.586600310658925 9:1.0 34:1.0 37:1.0 78:1.0 756:1.0 
-0.36688859950587543 86:1.0 97:1.0 102:1.0 220:1.0 331:1.0 781:1.0 782:1.0 783:1.0 784:1.0 785:1.0 786:1.0 787:1.0 
-3.569850365251341 4:1.0 18:1.0 258:1.0 312:1.0 429:1.0 552:1.0 706:1.0 788:1.0 789:1.0 790:1.0 791:1.0 
-1.289485043747499 4:1.0 9:1.0 18:1.0 565:1.0 566:1.0 569:1.0 594:1.0 614:1.0 752:1.0 769:1.0 777:1.0 792:1.0 793:1.0 794:1.0 795:1.0 796:1.0 797:1.0 798:1.0 
-1.047427504221563 93:1.0 102:1.0 322:1.0 424:1.0 560:1.0 596:1.0 617:1.0 802:1.0 803:1.0 804:1.0 805:1.0 806:1.0 
-1.8730251843366117 14:1.0 21:1.0 258:1.0 440:1.0 528:1.0 817:1.0 818:1.0 819:1.0 820:1.0 821:1.0 
-0.6402449051353163 14:1.0 102:1.0 257:1.0 356:1.0 410:1.0 436:1.0 552:1.0 569:1.0 830:1.0 831:1.0 832:1.0 833:1.0 
-0.7346235488722637 14:1.0 30:1.0 75:1.0 76:1.0 102:1.0 103:1.0 191:1.0 312:1.0 399:1.0 506:1.0 509:1.0 711:1.0 834:1.0 835:1.0 836:1.0 837:1.0 
-1.2472533205290037 14:1.0 18:1.0 96:1.0 102:1.0 560:1.0 711:1.0 719:1.0 843:1.0 844:1.0 845:1.0 846:1.0 847:1.0 
-1.535938813353284 14:1.0 180:1.0 416:1.0 510:1.0 569:1.0 678:1.0 855:1.0 856:1.0 
-0.9988572721050629 199:1.0 250:1.0 409:1.0 525:1.0 568:1.0 857:1.0 858:1.0 859:1.0 860:1.0 861:1.0 862:1.0 
-0.3961551121682678 14:1.0 21:1.0 320:1.0 542:1.0 863:1.0 864:1.0 865:1.0 
-2.2189059005818073 177:1.0 220:1.0 627:1.0 866:1.0 867:1.0 868:1.0 869:1.0 870:1.0 871:1.0 872:1.0 
-0.25185553952366874 102:1.0 133:1.0 181:1.0 485:1.0 498:1.0 528:1.0 597:1.0 608:1.0 873:1.0 874:1.0 875:1.0 876:1.0 877:1.0 878:1.0 879:1.0 880:1.0 
-0.4097127783384526 14:1.0 18:1.0 21:1.0 145:1.0 227:1.0 564:1.0 897:1.0 898:1.0 899:1.0 900:1.0 901:1.0 902:1.0 903:1.0 904:1.0 
-1.2915706963728095 37:1.0 66:1.0 100:1.0 215:1.0 565:1.0 568:1.0 742:1.0 820:1.0 838:1.0 913:1.0 914:1.0 915:1.0 916:1.0 917:1.0 918:1.0 919:1.0 
-0.06174441987142225 336:1.0 412:1.0 517:1.0 525:1.0 701:1.0 797:1.0 920:1.0 921:1.0 922:1.0 923:1.0 924:1.0 925:1.0 
-0.5897803049736621 30:1.0 66:1.0 94:1.0 477:1.0 564:1.0 609:1.0 867:1.0 915:1.0 926:1.0 927:1.0 
-4.005115126506336 18:1.0 525:1.0 709:1.0 742:1.0 781:1.0 
-2.014575595056095 4:1.0 9:1.0 19:1.0 81:1.0 181:1.0 462:1.0 867:1.0 941:1.0 942:1.0 
-0.33241682684978857 197:1.0 331:1.0 354:1.0 462:1.0 525:1.0 603:1.0 631:1.0 892:1.0 908:1.0 943:1.0 
-0.9038771911886133 9:1.0 14:1.0 19:1.0 21:1.0 254:1.0 459:1.0 867:1.0 
-1.104000658641395 194:1.0 195:1.0 316:1.0 498:1.0 709:1.0 788:1.0 944:1.0 945:1.0 946:1.0 947:1.0 948:1.0 949:1.0 
-1.0064071320949604 9:1.0 14:1.0 21:1.0 30:1.0 36:1.0 188:1.0 423:1.0 613:1.0 768:1.0 846:1.0 950:1.0 951:1.0 952:1.0 953:1.0 954:1.0 
-0.6722994959879268 9:1.0 30:1.0 34:1.0 78:1.0 154:1.0 605:1.0 666:1.0 709:1.0 959:1.0 960:1.0 961:1.0 962:1.0 963:1.0 964:1.0 965:1.0 966:1.0 967:1.0 
-0.755596238074735 18:1.0 122:1.0 270:1.0 476:1.0 478:1.0 564:1.0 569:1.0 978:1.0 979:1.0 980:1.0 981:1.0 
-0.5362020785384195 9:1.0 37:1.0 122:1.0 178:1.0 180:1.0 478:1.0 500:1.0 671:1.0 982:1.0 983:1.0 994:1.0 995:1.0 
-3.8640973276720643 34:1.0 242:1.0 996:1.0 997:1.0 998:1.0 999:1.0 1000:1.0 1001:1.0 1002:1.0 1003:1.0 
-1.361716703604575 97:1.0 102:1.0 203:1.0 1004:1.0 1005:1.0 1006:1.0 1007:1.0 1008:1.0 1009:1.0 1010:1.0 
-0.04124578230831075 9:1.0 14:1.0 21:1.0 99:1.0 417:1.0 418:1.0 517:1.0 1032:1.0 1033:1.0 1034:1.0 1035:1.0 1036:1.0 
-0.9064863663814648 9:1.0 14:1.0 21:1.0 99:1.0 210:1.0 254:1.0 270:1.0 410:1.0 413:1.0 471:1.0 918:1.0 1037:1.0 1038:1.0 1039:1.0 1040:1.0 1041:1.0 
-3.7211801423883695 14:1.0 21:1.0 492:1.0 
-1.332997233522146 30:1.0 387:1.0 811:1.0 921:1.0 980:1.0 1046:1.0 1047:1.0 1048:1.0 1049:1.0 1050:1.0 1051:1.0 1052:1.0 1053:1.0 1054:1.0 1055:1.0 
-3.2244126520442986 30:1.0 485:1.0 687:1.0 1056:1.0 1057:1.0 1058:1.0 1059:1.0 
-2.24129296612619 477:1.0 513:1.0 874:1.0 1060:1.0 1061:1.0 1062:1.0 1063:1.0 1064:1.0 1065:1.0 1066:1.0 
-0.7284665649697635 9:1.0 52:1.0 102:1.0 266:1.0 312:1.0 409:1.0 498:1.0 517:1.0 622:1.0 1094:1.0 1095:1.0 1096:1.0 1097:1.0 1098:1.0 1099:1.0 1100:1.0 1101:1.0 
-0.48620366221094086 14:1.0 21:1.0 227:1.0 797:1.0 1105:1.0 1106:1.0 1107:1.0 1108:1.0 1109:1.0 1110:1.0 1111:1.0 1112:1.0 
-0.3665746058230341 191:1.0 350:1.0 351:1.0 477:1.0 617:1.0 774:1.0 1116:1.0 1117:1.0 1118:1.0 1119:1.0 
-0.4621782349485785 9:1.0 102:1.0 177:1.0 220:1.0 276:1.0 377:1.0 699:1.0 711:1.0 1140:1.0 1141:1.0 1142:1.0 
-5.199372264414932 177:1.0 199:1.0 208:1.0 220:1.0 1156:1.0 1157:1.0 
-0.006275336175679617 14:1.0 86:1.0 102:1.0 220:1.0 410:1.0 912:1.0 1168:1.0 
-0.30730715251568363 99:1.0 102:1.0 416:1.0 516:1.0 1171:1.0 
-0.41980852868890167 93:1.0 102:1.0 190:1.0 399:1.0 492:1.0 560:1.0 596:1.0 1172:1.0 1173:1.0 1174:1.0 
-0.6128546152704486 9:1.0 19:1.0 23:1.0 102:1.0 636:1.0 958:1.0 962:1.0 1137:1.0 1193:1.0 1194:1.0 1195:1.0 
-0.24345704997166873 14:1.0 102:1.0 210:1.0 227:1.0 254:1.0 409:1.0 416:1.0 551:1.0 754:1.0 1196:1.0 1197:1.0 1198:1.0 1199:1.0 1200:1.0 1201:1.0 
-0.11709721635941457 180:1.0 181:1.0 211:1.0 328:1.0 330:1.0 508:1.0 636:1.0 1202:1.0 1203:1.0 
-0.8243198074680039 9:1.0 34:1.0 78:1.0 181:1.0 553:1.0 605:1.0 701:1.0 760:1.0 908:1.0 1116:1.0 1204:1.0 1205:1.0 1206:1.0 1207:1.0 1208:1.0 1209:1.0 1210:1.0 
-2.1942911556778326 34:1.0 78:1.0 222:1.0 259:1.0 569:1.0 891:1.0 964:1.0 1211:1.0 1212:1.0 
-1.8220930837984712 19:1.0 180:1.0 328:1.0 597:1.0 1212:1.0 1213:1.0 1214:1.0 1215:1.0 
-0.16524375819514497 93:1.0 102:1.0 219:1.0 350:1.0 1216:1.0 
-0.2341348740372387 93:1.0 102:1.0 177:1.0 194:1.0 220:1.0 605:1.0 679:1.0 908:1.0 1217:1.0 1218:1.0 1219:1.0 1220:1.0 1221:1.0 1222:1.0 1223:1.0 1224:1.0 
-1.7861841589116534 12:1.0 14:1.0 21:1.0 38:1.0 99:1.0 417:1.0 418:1.0 531:1.0 1139:1.0 1185:1.0 1239:1.0 1240:1.0 1241:1.0 
-0.5392394867678364 12:1.0 14:1.0 18:1.0 21:1.0 116:1.0 147:1.0 181:1.0 227:1.0 551:1.0 603:1.0 867:1.0 1252:1.0 1253:1.0 1254:1.0 1255:1.0 
-3.0813580708182453 18:1.0 30:1.0 379:1.0 380:1.0 1082:1.0 1261:1.0 1262:1.0 1263:1.0 1264:1.0 1265:1.0 1266:1.0 
-0.9641423041171462 99:1.0 181:1.0 183:1.0 194:1.0 368:1.0 373:1.0 416:1.0 918:1.0 962:1.0 1267:1.0 1268:1.0 1269:1.0 
-2.329414326858428 30:1.0 66:1.0 462:1.0 688:1.0 867:1.0 892:1.0 915:1.0 1137:1.0 1334:1.0 
-0.867737432437566 14:1.0 21:1.0 214:1.0 1335:1.0 1336:1.0 1337:1.0 1338:1.0 
-0.6382950736671928 14:1.0 102:1.0 116:1.0 136:1.0 231:1.0 565:1.0 799:1.0 892:1.0 1297:1.0 1346:1.0 1347:1.0 1348:1.0 1349:1.0 1350:1.0 1351:1.0 1352:1.0 
-0.9404723830269173 37:1.0 183:1.0 289:1.0 359:1.0 387:1.0 456:1.0 525:1.0 774:1.0 962:1.0 1050:1.0 1053:1.0 1354:1.0 1355:1.0 1356:1.0 
-2.35852310143022 304:1.0 500:1.0 605:1.0 908:1.0 1357:1.0 1358:1.0 1359:1.0 1360:1.0 1361:1.0 
-3.146410231318029 1373:1.0 1374:1.0 1375:1.0 1376:1.0 1377:1.0 1378:1.0 1379:1.0 1380:1.0 
-1.1287229832180479 93:1.0 102:1.0 330:1.0 354:1.0 359:1.0 458:1.0 1079:1.0 1381:1.0 1382:1.0 1383:1.0 1384:1.0 1385:1.0 
-2.8019310548770515 93:1.0 102:1.0 210:1.0 1405:1.0 
-0.5305750969420191 99:1.0 102:1.0 145:1.0 330:1.0 569:1.0 813:1.0 904:1.0 962:1.0 1027:1.0 1408:1.0 1409:1.0 1410:1.0 
-1.2257679864181878 102:1.0 114:1.0 197:1.0 257:1.0 440:1.0 
-1.1237642451858612 14:1.0 21:1.0 199:1.0 488:1.0 826:1.0 1436:1.0 1437:1.0 1438:1.0 
-1.202615479278477 14:1.0 22:1.0 37:1.0 373:1.0 462:1.0 576:1.0 578:1.0 1439:1.0 1440:1.0 1441:1.0 
-2.0623423906317786 18:1.0 34:1.0 78:1.0 124:1.0 232:1.0 255:1.0 500:1.0 769:1.0 1452:1.0 1453:1.0 1454:1.0 1455:1.0 1456:1.0 
-1.9151935140451632 268:1.0 510:1.0 525:1.0 1054:1.0 
-1.7887405210419964 101:1.0 292:1.0 525:1.0 725:1.0 926:1.0 961:1.0 1462:1.0 1463:1.0 1464:1.0 
-0.5270860901137586 14:1.0 21:1.0 133:1.0 178:1.0 257:1.0 387:1.0 570:1.0 911:1.0 1119:1.0 1356:1.0 1465:1.0 1466:1.0 1467:1.0 
-0.8061261536096275 14:1.0 18:1.0 21:1.0 22:1.0 94:1.0 199:1.0 280:1.0 320:1.0 466:1.0 508:1.0 542:1.0 711:1.0 1468:1.0 
-1.2647778602523625 14:1.0 52:1.0 102:1.0 281:1.0 282:1.0 531:1.0 560:1.0 1356:1.0 1470:1.0 1471:1.0 1472:1.0 1473:1.0 
-4.650499541222095 98:1.0 122:1.0 478:1.0 924:1.0 980:1.0 1474:1.0 
-1.643079644544959 18:1.0 156:1.0 188:1.0 194:1.0 195:1.0 327:1.0 328:1.0 453:1.0 1031:1.0 1475:1.0 1476:1.0 1477:1.0 1478:1.0 1479:1.0 
-1.6256855631611669 38:1.0 501:1.0 525:1.0 733:1.0 1460:1.0 1488:1.0 1489:1.0 1490:1.0 1491:1.0 1492:1.0 1493:1.0 1494:1.0 1495:1.0 
-0.4693987679427338 296:1.0 354:1.0 500:1.0 525:1.0 799:1.0 892:1.0 1483:1.0 1514:1.0 1515:1.0 1516:1.0 1517:1.0 1518:1.0 
-1.3175498634159644 9:1.0 14:1.0 102:1.0 180:1.0 254:1.0 276:1.0 501:1.0 569:1.0 1519:1.0 1520:1.0 
-4.3891241700888015 122:1.0 326:1.0 477:1.0 982:1.0 983:1.0 1525:1.0 
-0.49928637305720347 9:1.0 19:1.0 25:1.0 102:1.0 178:1.0 256:1.0 560:1.0 1194:1.0 1492:1.0 1526:1.0 1527:1.0 1528:1.0 
-1.9572524776341034 14:1.0 22:1.0 154:1.0 199:1.0 227:1.0 425:1.0 517:1.0 799:1.0 1439:1.0 1539:1.0 1540:1.0 
-0.529461553167469 14:1.0 102:1.0 125:1.0 312:1.0 410:1.0 911:1.0 1208:1.0 1452:1.0 1541:1.0 1542:1.0 1543:1.0 1544:1.0 1545:1.0 1546:1.0 
-0.26113791299561917 14:1.0 21:1.0 215:1.0 232:1.0 289:1.0 508:1.0 731:1.0 733:1.0 799:1.0 1541:1.0 1547:1.0 1548:1.0 
-3.7281739988161307 14:1.0 330:1.0 507:1.0 678:1.0 1267:1.0 1461:1.0 1543:1.0 1549:1.0 
-0.8336991631600054 14:1.0 102:1.0 131:1.0 249:1.0 281:1.0 488:1.0 500:1.0 1550:1.0 1551:1.0 1552:1.0 1553:1.0 
-1.4906556498298602 122:1.0 227:1.0 478:1.0 547:1.0 899:1.0 958:1.0 980:1.0 1565:1.0 1566:1.0 1567:1.0 1568:1.0 1569:1.0 
-1.242285777774507 18:1.0 101:1.0 517:1.0 525:1.0 533:1.0 859:1.0 959:1.0 960:1.0 1064:1.0 1240:1.0 1385:1.0 1579:1.0 
-5.174333911573753 30:1.0 321:1.0 753:1.0 1580:1.0 
-0.9184899915129358 9:1.0 102:1.0 150:1.0 199:1.0 270:1.0 312:1.0 623:1.0 736:1.0 757:1.0 879:1.0 993:1.0 1581:1.0 1582:1.0 1583:1.0 1584:1.0 
-1.112673142466333 102:1.0 180:1.0 181:1.0 233:1.0 254:1.0 565:1.0 679:1.0 832:1.0 1586:1.0 1587:1.0 
-0.15796759936700835 37:1.0 102:1.0 221:1.0 296:1.0 789:1.0 892:1.0 993:1.0 1588:1.0 1589:1.0 1590:1.0 
-1.0756577676056787 9:1.0 14:1.0 21:1.0 99:1.0 494:1.0 501:1.0 721:1.0 722:1.0 899:1.0 1354:1.0 1592:1.0 1593:1.0 
-1.8402980158096673 18:1.0 318:1.0 350:1.0 472:1.0 687:1.0 760:1.0 912:1.0 1594:1.0 1595:1.0 1596:1.0 
-2.1932436958401182 367:1.0 445:1.0 1296:1.0 1611:1.0 1612:1.0 1613:1.0 1614:1.0 1615:1.0 1616:1.0 1617:1.0 1618:1.0 1619:1.0 
-2.613441143786333 19:1.0 175:1.0 197:1.0 354:1.0 369:1.0 553:1.0 835:1.0 1032:1.0 1620:1.0 1621:1.0 1622:1.0 
-2.010487958611123 404:1.0 525:1.0 757:1.0 1201:1.0 
-2.150454749394727 8:1.0 327:1.0 328:1.0 605:1.0 908:1.0 1214:1.0 1247:1.0 
-1.286021986451933 319:1.0 350:1.0 466:1.0 608:1.0 1262:1.0 1639:1.0 1640:1.0 1641:1.0 1642:1.0 1643:1.0 
-1.3172513501544558 75:1.0 232:1.0 319:1.0 350:1.0 399:1.0 1353:1.0 1644:1.0 1645:1.0 1646:1.0 1647:1.0 1648:1.0 
-3.6591571473586804 18:1.0 177:1.0 181:1.0 248:1.0 636:1.0 867:1.0 1649:1.0 1650:1.0 
-0.6466694408807789 28:1.0 102:1.0 215:1.0 383:1.0 756:1.0 799:1.0 850:1.0 1262:1.0 1657:1.0 1658:1.0 1659:1.0 1660:1.0 
-0.6651260150717004 9:1.0 34:1.0 56:1.0 78:1.0 102:1.0 1460:1.0 1512:1.0 1649:1.0 1661:1.0 1662:1.0 1663:1.0 1664:1.0 1665:1.0 1666:1.0 
-0.10838328516968633 14:1.0 101:1.0 102:1.0 173:1.0 175:1.0 216:1.0 331:1.0 568:1.0 1667:1.0 1668:1.0 1669:1.0 1670:1.0 
-1.6960624480098483 9:1.0 118:1.0 207:1.0 328:1.0 329:1.0 355:1.0 508:1.0 544:1.0 547:1.0 568:1.0 1671:1.0 1672:1.0 1673:1.0 1674:1.0 1675:1.0 
-0.9547558066148285 14:1.0 21:1.0 250:1.0 359:1.0 499:1.0 678:1.0 769:1.0 947:1.0 1681:1.0 1682:1.0 
-2.8783249872132237 14:1.0 19:1.0 22:1.0 312:1.0 709:1.0 733:1.0 757:1.0 1683:1.0 
-2.0945635006710144 282:1.0 328:1.0 856:1.0 1467:1.0 1698:1.0 1699:1.0 1700:1.0 1701:1.0 1702:1.0 
-0.7944741348110792 14:1.0 21:1.0 774:1.0 1153:1.0 1439:1.0 
-1.4497870771124475 193:1.0 194:1.0 195:1.0 445:1.0 509:1.0 1475:1.0 1703:1.0 1704:1.0 1705:1.0 1706:1.0 
-4.156228325421681 122:1.0 180:1.0 312:1.0 476:1.0 1714:1.0 1715:1.0 1716:1.0 1717:1.0 
-3.1287049480607108 177:1.0 425:1.0 1524:1.0 1718:1.0 1719:1.0 1720:1.0 1721:1.0 
-1.0578447146679033 9:1.0 101:1.0 102:1.0 185:1.0 469:1.0 1520:1.0 1673:1.0 1722:1.0 
-1.211307292044324 122:1.0 330:1.0 475:1.0 476:1.0 478:1.0 569:1.0 1258:1.0 1457:1.0 
-0.07046788671110586 6:1.0 9:1.0 14:1.0 21:1.0 116:1.0 258:1.0 477:1.0 733:1.0 1475:1.0 1744:1.0 1745:1.0 1746:1.0 1747:1.0 1748:1.0 1749:1.0 
-0.4970015820586317 14:1.0 21:1.0 116:1.0 154:1.0 178:1.0 183:1.0 354:1.0 355:1.0 622:1.0 879:1.0 1356:1.0 1759:1.0 
-0.8683459200849064 9:1.0 14:1.0 21:1.0 145:1.0 911:1.0 947:1.0 1461:1.0 1636:1.0 1771:1.0 1772:1.0 1773:1.0 1774:1.0 1775:1.0 
-1.9018363581679356 181:1.0 227:1.0 250:1.0 330:1.0 359:1.0 426:1.0 553:1.0 564:1.0 621:1.0 674:1.0 1328:1.0 1595:1.0 1776:1.0 1777:1.0 1778:1.0 1779:1.0 1780:1.0 
-0.4587258590278369 122:1.0 477:1.0 478:1.0 982:1.0 983:1.0 1258:1.0 1457:1.0 1783:1.0 
-5.747187970894576 175:1.0 177:1.0 183:1.0 251:1.0 1524:1.0 1721:1.0 
-0.9694436829446095 199:1.0 498:1.0 525:1.0 526:1.0 570:1.0 614:1.0 695:1.0 701:1.0 901:1.0 1099:1.0 1154:1.0 1644:1.0 1784:1.0 
-0.596276184023336 37:1.0 211:1.0 257:1.0 525:1.0 551:1.0 583:1.0 617:1.0 656:1.0 1054:1.0 1488:1.0 1785:1.0 1786:1.0 
-0.6274605561867167 14:1.0 86:1.0 102:1.0 180:1.0 207:1.0 211:1.0 387:1.0 636:1.0 1787:1.0 1788:1.0 1789:1.0 1790:1.0 1791:1.0 
-2.218073766064715 14:1.0 98:1.0 101:1.0 102:1.0 342:1.0 356:1.0 412:1.0 855:1.0 1792:1.0 
